,x,confonder,y
0,1.4782992405588313,0.418520843955362,4.230737395782837
1,2.0789333750990036,1.3751411972120982,0.528904082854103
2,2.7423171300220863,0.6775311785084723,3.782208347758443
3,-0.9007181374459401,-0.6357945907657276,0.8241040696436375
4,1.8193746972545903,1.6423952935136228,-0.2759292184841615
5,0.18458132536265515,1.5692912333730216,-0.7827092649019693
6,2.634386796439636,3.766614583458491,3.5757552606207295
7,0.8876943448500081,-0.42892920954187763,-1.5463485902929799
8,1.8321952417188507,-0.3851870917693704,2.913191277082683
9,0.5137956705217545,0.4596354122801554,2.175236874101027
10,-0.6205887256956388,-1.3535521515333329,-0.45859333165018074
11,0.22686182304984442,-0.7225362082033403,0.9368633119892246
12,-0.1618954619069656,-1.2360010728664081,1.9654958046252118
13,1.8198517129536678,1.5954063793492108,3.621886797934547
14,0.950463506517653,-0.06891186484255298,1.4187471523718955
15,0.7589876538413984,-0.6441478106407686,-0.6383226293711619
16,1.3578146132591438,0.5326329514418983,0.4381583524223116
17,2.1758155105010832,1.066859246939559,0.7434033643568716
18,-1.8177262521793334,-0.4668142722466777,-1.1361319222333655
19,0.67201965404312,1.2263979320118086,1.1669693890743151
20,2.896939986865535,1.4198908457700867,1.7260304133788757
21,-1.0976022290470557,-0.3793016802069695,-0.6146865148004732
22,-0.5355107308116116,-0.9964128786235311,-1.1207073213193501
23,1.9085733371187326,-0.7597040641592139,-0.2235344200161813
24,3.4298406486598907,0.2530733749075042,3.784802979096775
25,-0.09488743792705728,-0.36292778258020525,0.48719359878441904
26,0.21337245695636042,2.0560917525641154,4.461711696779524
27,0.5566324520309536,-0.3854694634657307,-1.1427330230707855
28,0.7236497484614255,1.0944133191001288,6.5821870740318715
29,1.0418561624737293,0.043084917349427446,-1.728265046473215
30,1.8626057979960073,1.881777566520105,4.552648985524747
31,-0.26245914386572156,-0.7873929495668414,-1.6488828718091408
32,2.348225798375905,0.1216079980514047,3.269976599628813
33,-0.2398258751576201,0.18889733647987383,1.5059355290814675
34,0.07110714469855717,0.7943992013917981,0.9289773836808009
35,0.2852382869996612,0.35477580628496175,3.598210855057299
36,0.19812837890889257,0.9631711399906226,-1.3740900154779396
37,2.972946301281129,2.29278647900785,0.5037536293758889
38,2.1281000683326607,-0.24943700150398718,2.5557623015053896
39,2.190074905410981,1.4526889279629145,6.541782600299587
40,2.611241788803611,0.9386421961323215,6.423928450674422
41,-0.3242608287306064,-0.83514502986977,-0.3682706721046731
42,0.8974589516560522,0.8444273751672414,-0.42397542128604515
43,0.9989630982763844,0.09216529709259301,0.07245062298719152
44,-0.7775003912543238,-0.22198064526513345,4.221311913358115
45,0.4058390387763913,0.6476858625338249,-1.2426069649252645
46,-0.9673934488967113,-1.3758060386664817,-0.7094435647962303
47,0.11554456167069793,-2.40089874269691,-0.777466594877068
48,-0.5561162939944007,0.6844732567207962,2.4445134304788874
49,1.54309175947132,0.7145550741506944,3.8479411794198057
50,-0.10888950496332739,0.3033476574095655,3.536830292636942
51,-2.463417561169268,1.4921223185741308,-0.7284193527547143
52,2.0728252011320816,1.4581097449974354,1.9063421248225463
53,2.8370477037571433,1.8877993011832963,-1.7024034273648883
54,-0.844963134331995,-0.9381758610265989,-1.284080224594237
55,-0.6223835191818223,0.4975949852028592,0.32908389774523344
56,-1.4523638164497785,-0.6053439018103918,1.6932509253101735
57,0.7891065957270503,0.4352112079622061,0.125555081005434
58,0.26766956982837364,0.9434242539794325,3.6105787817099886
59,-0.25111316715387233,-0.6753116922363159,-1.3529711414934043
60,0.22939841484496773,-0.27971154702279316,4.461949216184918
61,-1.7624451724572574,-1.1391449077447775,2.6210621670364294
62,0.2830650163131886,0.03596007660484811,3.184321130728083
63,1.5682736060294615,1.800549271116191,0.2690948081293829
64,1.4469686217169102,-0.2633983132142865,5.039186960342477
65,1.129919307005676,-0.5378014242502026,-0.02040643502987982
66,0.8749857643440917,0.5937930207625757,4.191408919281688
67,-0.6690895252697332,0.20678436853333548,-1.966883852921597
68,1.2222406100228551,-1.1231998860528163,1.9163358990972268
69,0.4590826177081073,1.306194203398109,2.4510413765576557
70,0.7389626893908284,0.6461637191169879,-1.135258908510922
71,0.7350119077923892,0.5717010984543529,1.239491294867884
72,1.367850067605324,1.7504328610905409,1.5002413480799053
73,-0.36263084350593855,-2.1765414126826435,2.131384287222507
74,1.6280030956468068,1.59940187609909,0.38016045862671
75,0.49488526933597127,-0.3608636441559261,0.6060719709061814
76,0.594418856847194,0.5466895404545723,3.0991274232165273
77,0.42793847097720406,-0.8048115260979734,0.2115919149567995
78,0.6215072958768127,-0.9984423350067666,2.590727263055224
79,0.5403500913644217,-1.0126984885449557,1.1963289292690593
80,0.6367574856083046,-1.0657167818629414,2.28310497334793
81,1.7676757826393605,0.6068682090370386,2.8895596764167015
82,0.4026492143402469,-0.09790612098582767,1.5789145277039747
83,-0.08140011604007358,-0.2526609470718031,2.9580264505509093
84,-0.7496115742017908,-0.45831126858971144,1.8682971905458357
85,1.1035235734305986,1.203951770862102,3.8886411022768264
86,1.1778401968541026,0.09046603330418909,1.9863531721020058
87,2.0520270137653416,-0.5060028889007945,-1.466606036180254
88,2.2020263325692637,0.6716909182159373,3.43311763139917
89,2.4569867661826095,1.588722471723438,-1.11350972872625
90,0.2218544200730678,-0.7494745840388308,-2.186265503080876
91,1.3099837270054009,-0.9299307222628411,3.714817986564212
92,-0.18387371029187993,0.3417398763033168,1.8478790840225274
93,-1.8596681877151928,0.20351567837717705,0.5315431855552885
94,-1.153468304059626,-1.3152806441980958,3.5097019809714984
95,0.18151737393558798,-1.254949866766839,-1.6278573742861937
96,2.2138038720198576,-0.1786331053225725,-3.1869198201207602
97,-0.8575952901950048,-0.3816910630111763,-5.8413426060261555
98,0.7653399140050263,1.2732254547254143,-1.4198307727824675
99,-0.7269482097245481,-0.40891464388224985,-1.77595203625413
100,1.1431141751090306,1.5446193405616708,1.8768050233242255
101,-1.0015439294751376,-0.9543733270666015,-2.5912656562049228
102,1.896244090761006,0.03476192536881451,3.2295160008529216
103,-0.5892776778139597,-0.7122900569607408,0.2760224244187105
104,0.2325320180520267,-0.07525355777797776,1.6726560833668644
105,0.7539850418255527,0.9873719229580618,1.6405891609560737
106,1.261717227128992,2.0062244577226656,3.960285497856302
107,0.7279903005092658,-0.24491886610307306,2.388480779271711
108,-0.49714959292892635,-1.962752194991709,-1.339897230197737
109,0.9957654430006997,-0.8958978858123168,2.0051804707068426
110,1.184609656221804,-0.3145769657990969,-1.317711511267388
111,-0.23181462367524075,2.116282042221326,-0.2684233358922583
112,-0.8770289161777951,-0.154844514524037,-3.7529305229013747
113,0.13674650329307442,-0.8698267570871392,-0.6626393765061048
114,-0.7367046440534442,-0.7925581027286802,3.9116303575317777
115,3.142170623804365,1.3790721886824877,3.7018217691551643
116,1.2191017040193821,0.4126642693652365,2.763000471905745
117,-2.151704986319006,-1.8357682757984934,-0.5869927838188985
118,1.8280556337185403,1.0866721047073116,3.128055552259955
119,0.9210116040216665,-0.7849712158610067,0.6298842450824194
120,3.3008268456325207,0.511289939414489,1.0532842955139383
121,0.7897643287986142,1.1847951337881621,3.4907928575084064
122,2.2052602531148136,0.9864538228509573,5.19194832491988
123,-0.017129423522319887,-0.5092429427027364,-0.8541427210535091
124,1.7520312784816219,1.7965200246424926,0.9884192838877723
125,0.77789323916112,-1.384256663641501,1.2243281654206524
126,0.8825721044465834,1.8612247705492089,6.994904086276666
127,-0.24733197760319903,-0.2646302781816043,-0.3680812004179803
128,0.47148132472787574,0.34150533271300176,1.640630054580579
129,1.530541879572158,0.7369462939032749,3.053514846799343
130,0.07383836188171067,1.3004899170896567,3.365612325716361
131,0.5032067988923657,-1.246477903904758,-1.7762619301973446
132,2.222116838677741,-1.248965744138596,3.435470797204415
133,1.8554433209411605,1.0697561618417932,2.741739926361561
134,-0.840584372238282,-1.9363682340448685,3.3492789684321878
135,2.4989657945508146,0.9005950646844527,-1.2459565544562423
136,1.068234991954274,0.4248317396893533,-1.3165469794981348
137,-0.5440264213571091,-1.014761685424085,3.1549406592915323
138,1.5356409315639938,1.7236132288277566,5.594178856281465
139,-0.7481737808512563,-0.7312851575663488,2.9892414071072135
140,0.4481363660448234,-0.6970161460570864,-1.199267325867935
141,1.725504827765979,0.5366799314209924,0.9814394243769309
142,0.6304863279132005,1.0753608681331004,5.585161370923792
143,1.5542110088400256,-0.40927518318854295,0.24509363567628473
144,-1.0780432879140642,-0.8375639863413965,0.5557428092063279
145,0.2666961568559442,-1.0099076543077448,-1.2174167541649963
146,0.44696461740240256,0.38360199199403877,1.6989423081221362
147,1.2354673861771641,1.0049216880593725,6.107453886251451
148,1.1723386428027016,0.16506005271743854,0.18066977764720438
149,-0.9385304497209279,-0.7096642211680547,4.06053882160546
150,-0.4605611143327806,1.3211092626115473,1.473132926897322
151,-0.11008317325543643,-0.9662242733718149,4.219219168185292
152,-0.4312814959667081,-1.4365477523731465,0.42488248127280914
153,0.2557493780274096,-0.8996740940934589,-0.1249890498566556
154,-0.9344149365389103,0.45041470668733824,2.029942928557938
155,1.831266080553712,0.4134071616591062,4.119605928269546
156,1.3521224918546415,0.17074426863322079,4.165299749968334
157,0.2680129750220815,0.11255951718265093,3.602841217161033
158,2.0376279106044652,1.1807825067442455,2.287418289357981
159,2.0524021570485127,0.21804777530656044,3.141108921978496
160,2.3335361421267375,-1.3394714560861323,7.150000139375482
161,-0.8771807427234715,-0.7811701257886065,-1.6616392273219465
162,-0.43387768733029264,0.25120307111617796,4.54392479698122
163,0.1477984375010526,1.1355792306398529,0.17541112434544814
164,1.9749932400612449,0.5620869207022942,2.615182638110138
165,0.17535764175361523,0.8502779023446067,1.4331502671997893
166,0.13926213777669116,-0.710947854793282,-0.07190515348489024
167,0.6618016442071154,-0.048719482249657886,-2.267560138748739
168,-0.852551638623488,-1.346962361487984,4.519503018976043
169,3.3710604561867785,1.5900987624220981,4.667217505329034
170,0.2468725912882725,-0.7488428503335259,2.3163185069651147
171,0.5350072847399913,-1.133657029212104,-3.48002989050873
172,2.1759896845671416,-0.2987064423050108,1.0103986344398455
173,-1.7373981684940627,-1.255393716737986,-4.040543498544565
174,1.5476686178617918,-0.7266035589143378,-3.59921875635142
175,-0.18782753028813293,-0.31804277170013345,2.1082497237320363
176,2.5939825655705793,-0.06735829265436556,3.2874272229189616
177,1.6662806126925092,0.2811919151963673,1.1843142596879703
178,2.591513459154931,1.2608044289779956,1.5546313476384166
179,0.9390003800803259,0.537600795977051,0.07766273078090835
180,1.6372588767962715,0.34197791565369384,4.039657878468085
181,-0.06641117969283805,0.5086725043438164,-0.30798576364528474
182,0.11655916853586301,-0.3658822396167673,3.0335714542589907
183,0.25800982422719676,-0.8937323363547915,0.23011604326671686
184,3.5388288510352943,1.5470776752347388,3.3381334169618584
185,-0.7917173860798234,-0.9565131585698641,-3.3310635065108265
186,2.6924101720983495,-1.0895718649229007,5.042207917425019
187,-1.1332536705598006,-1.190647393871341,-0.29041225701104273
188,-2.5077124934855664,-1.9292483344678517,-3.903557388588858
189,2.0868263664668625,-0.37474130298954533,0.3304601837139103
190,0.06753798797989452,1.81481320078503,-0.25191698711488275
191,1.3045080978095793,-0.3280652483182134,2.076947223518102
192,0.4245626246964048,0.7375159789890358,0.48124460081969156
193,-1.1025907179367769,-2.560083966020752,-4.780476534900842
194,0.1786207064334261,0.09275707556865623,-0.1944972843093552
195,1.3087222663275717,1.4377316993378273,4.051759990459448
196,-1.0022788409300252,-1.1449842697992791,0.5251391746169161
197,0.41943286348038755,-1.2153676564131655,-3.7976625224762914
198,-1.3929364642623843,-0.6585125260789944,-2.250917678396364
199,0.25068772233806136,0.018651833270356893,3.8991920707352166
200,-0.16151318147669502,-0.9528313154275513,2.4893632491215505
201,1.5569605639922242,0.5789140788252708,2.6020604578435242
202,0.4902746719430765,1.391148232457645,3.185533163238592
203,-2.105120863228844,-2.229957332301733,-4.029538892004654
204,-0.012217255558831297,-0.17705117736202416,2.625774296642491
205,0.933216981431489,0.1982826109855731,0.735127834124558
206,1.8118661707978128,1.3072500040662614,2.888071498501854
207,3.5010076720275807,2.8134010699338625,4.588228543907491
208,1.4106142338460264,0.4712240974385786,4.474395807985491
209,-0.10469957499999905,-0.16766919215658932,3.575653792698456
210,0.6059729138516803,-0.47237026399881715,1.3267035767176787
211,-0.754425464501195,0.45031928030276125,0.36398404150338304
212,0.10381272598918788,-0.738835952864616,4.813084916587039
213,1.2823978952523192,-0.26159485673406774,2.1454911784826862
214,-1.3347093220103696,-1.107102487752222,-1.1507617772887782
215,0.7161813527404342,-0.5846920509726302,5.041111998325633
216,0.45326515588522814,-0.6613127916877074,6.4090866229313
217,2.0993478471101903,-0.1738316498736581,1.7556803378916195
218,-2.1452743048485314,-1.9213104297215196,-2.5589283991729204
219,-1.3927853734833338,-0.1288213303295115,1.5039811358449102
220,-0.0706453778872081,-0.3976213059262434,3.432534807267214
221,-1.2281106815352185,-1.1123991527241732,-2.042938856426039
222,-1.038876397482721,-0.5503867713878492,-2.718263658814507
223,2.1616083057678797,2.0738195179386683,-1.5017110263340947
224,0.013931004717843254,-2.0535144194460173,-4.102357275657674
225,-0.32603674591399523,1.609121060897086,1.5940770792471168
226,-0.7882383476608481,-1.2728907743305524,1.228416742665999
227,3.127464384736639,0.5590734367537351,3.70042476035907
228,1.7366152995368096,0.18666987262952595,1.5481129347017708
229,-1.10845318520833,-0.5639176541437642,-0.31198501779948895
230,0.8519935561418638,0.21216801317608291,0.23745262447733215
231,0.7493419457131976,-0.09199471156253926,0.5153563304997011
232,0.3029745180085782,0.7859753281927849,3.143407278788133
233,-0.4324910220251159,-0.45046458201387524,3.7229962904648883
234,0.8824446959227574,-0.6689448003770404,1.9225303715687372
235,-0.09923258696823076,-1.314271655206794,-0.24130806744222844
236,1.9080901186839179,-0.5855544184807371,0.8669069051909857
237,0.16501637569468708,0.04381408606684203,1.096801499744351
238,1.5397982881560721,-1.2919157018265592,1.2632516274556205
239,0.440123440281702,-0.08589371277794285,5.913920129073189
240,0.1870038610393356,-0.3088058318032803,0.09046010376496094
241,-0.8293006729802218,-0.7765219296271206,-0.9848215108940397
242,-0.06758149149274109,-1.2579877876302485,-0.9638264359573776
243,1.7251715545896356,0.35859856126248874,2.7081103101598893
244,1.3771811975612094,0.4301209790487682,3.5996007602890714
245,-0.5945980467131424,-0.1360800064196451,3.6598995420314457
246,1.0454315468763866,-1.29813027912195,2.3800912296391146
247,3.1937540241627236,-0.21795966879145307,6.706052066143066
248,2.043116178941412,0.9047406415962238,5.794208720738803
249,-0.0840467129652488,0.3807879897411024,1.9072730037640466
250,-1.1238797891856473,0.8311620774866079,2.8007828217674784
251,1.6931790124195678,-1.6860064739769214,2.264578025531562
252,-1.7865926779077563,-0.18293171872314856,0.9537146170508833
253,-0.26589720280860774,1.0591830981657016,-1.3167569412247384
254,2.9108732195167364,0.42205405652189415,1.8060473388397855
255,2.1078070774866755,0.18691767118318006,4.184132240984496
256,2.0395190885601258,0.7175794960255217,1.7956153847678604
257,0.1335876280507226,-0.6586266260035514,-2.2816297060509205
258,-1.013251471821143,0.10214200091495895,0.19704597685125702
259,0.5660835773308482,2.099409519632059,0.899873856335629
260,-0.059999047768842045,-1.5642448697852902,-0.16566055776810623
261,1.0298073627543907,1.804245784634599,-0.08948930265241861
262,0.17606928342777667,0.13395863069124334,1.0639104746694987
263,1.4776392837406958,1.23039604366116,3.024446572006319
264,1.4772303506116866,-1.2285859942566866,7.290223662007984
265,1.0661858457528308,-0.05165830351559347,0.39298699135962933
266,-0.032710230688378236,-1.157612057566707,-0.3311170872904133
267,1.0811412917857182,0.6965642111039236,2.4382118915565765
268,0.7567662107175303,0.19658194021019748,5.649084946414135
269,-1.3109697077775495,-0.3593509888346758,-1.5826617149143618
270,0.5801881730952854,-0.05288975651178933,4.717608164651633
271,0.32503236958141524,-2.385834580855706,-3.3736875910459156
272,-0.3322609336693385,1.9598093615140604,2.0922963027420467
273,-1.4605585297464037,-2.5269850830828977,0.20961136228679667
274,0.7601635432266164,0.9599297530886115,3.0256797530591557
275,1.1895090364179732,-0.12722450690909679,4.671236611405381
276,-0.7711253023785278,-0.7827876262960722,1.4778280993297335
277,-1.0716176279043372,-1.4894871216812477,-1.5659594161606802
278,-0.45931803564816104,-0.829293487338116,4.463586968757305
279,-1.3418575997040139,-0.712012682429239,-1.3248542051099004
280,1.7447099002413013,0.0558958676354588,5.388833745135513
281,1.0984710565672942,-0.001835689423122201,3.797854282956998
282,0.0041474741041114815,-0.03201089158409698,-2.986465811280659
283,1.1687154736815633,-0.6983901308140791,4.504121364259255
284,0.7793264804599245,1.4509356857678966,2.5930519257514684
285,0.19613063541854447,-0.8643287725456398,3.6830540059312975
286,-1.4913053295943166,-0.5636212977633015,0.7542179170416179
287,0.47982834940367347,0.35797445281819806,0.4075553727924839
288,1.547077597375878,-1.0537037678554546,0.28934529337664205
289,0.5683716367502234,-1.9197716553641055,-2.1973693120220474
290,0.5582800353951333,-0.41294080488149315,0.0477466796456989
291,-0.10508295946593421,-2.14682379356686,0.9947143198950699
292,-0.2038836628245635,-0.5430266430043312,0.42082692055316834
293,3.1780634513338746,-0.6302668558222225,-1.2284398368765426
294,0.22342089172795176,-0.6881404142188161,-1.176624733178266
295,0.921198335065318,0.525681331124935,2.0827043054319745
296,-0.5014043716628329,0.11208425958764538,0.45682308366318747
297,0.8094243682829894,0.618758536043538,3.657270086431348
298,-0.9534060948214869,-0.44075213179199313,-2.3566487419745794
299,1.0407004598680538,-0.190297003141045,-5.085493943664016
300,0.8153048151643243,-0.43972806470372183,-0.4523447614485092
301,0.9698597796272942,-0.03849516694558928,-1.690751663273816
302,0.2633133746288331,-1.1773905438363563,0.21234905432555506
303,2.5595134131311386,2.8694540292943,3.688544272927198
304,0.5563837892149627,-1.4784999083994568,3.788827936955875
305,2.213442154408971,-0.5474036851770782,5.218238278802906
306,0.8556848826382132,-1.000170006937112,5.02253616137286
307,-0.1458650040045516,-2.4033624783048295,1.2807661624978175
308,1.7780229857166263,1.3619838549146763,2.1134530282805892
309,0.8312988044899763,-0.6562725001797268,1.1515851270143844
310,0.12055990295967683,-0.11345339003317668,-3.2919803739886824
311,1.4828541926313847,0.42808001211635827,3.4885416245368486
312,-1.1526539766875596,-0.0909563534065326,-0.13528389309012523
313,0.4111139755581574,-1.0880321987127035,-2.7052322208523902
314,-0.07842680114473904,-0.5332719489478254,1.804045737482776
315,-0.1575574973520929,-0.459206841717489,-1.2852857542689635
316,1.6050730683147632,0.44264293947713435,0.4941983841498747
317,1.467247040225308,0.5245575862189129,1.6241074347731637
318,-0.8398019350014803,-1.792796422772706,0.8059055633481098
319,0.5176420270462546,0.05461591503876528,0.04393791904292174
320,1.7155633768865188,0.9566734723393481,4.8496497024497245
321,0.6698399184474053,0.640102456720043,2.683618233750098
322,0.10936751941478295,-0.9137001857179544,-1.908698192806641
323,-0.29127235861832346,0.12203454954820675,2.141317515572062
324,-1.8018838579782477,-2.1758673978383274,-3.1957988728224542
325,0.25993869227815725,-0.7511538212033301,0.6115915937934444
326,-0.09080026332030117,-0.330497800105632,1.1389613080735739
327,0.012737567323885035,-0.4644598104321728,2.3158196107679654
328,-0.2592212063549697,-1.328801467640327,-1.3414693706047456
329,-0.009913418306036148,-0.5749321924352293,2.5022954958619166
330,1.1967082069080264,-0.4320692169640733,0.5006687626098797
331,0.5433727034858788,1.252754725787018,2.2017580318721275
332,1.3517897751410672,0.9248353106517856,-2.4143292566000074
333,1.54698597418184,0.16835797847397752,0.7743286114311715
334,0.18597899494134518,0.203709115412557,1.2436141946972192
335,0.9742993206280477,0.048104566976826496,0.5340803196035346
336,0.30066657561757704,-0.10339251929246925,3.44359218574155
337,1.2120213326497709,1.5300028280253866,4.074289059871421
338,1.716081449440408,-0.7837478286451693,2.9837715949673975
339,1.2494340300029232,-1.1909204109981661,1.1780586259331554
340,0.68641310303392,1.421890278787357,-0.7809331882022572
341,1.7068269838513588,2.0551135927265127,1.6968547629333386
342,0.9606011934637485,2.79400389767268,5.04971630764196
343,1.558691434048089,0.7034091118317469,3.6536625806717105
344,1.2231765416092628,-0.9046163526897248,-0.8977747573980774
345,-0.4409895104227096,-1.022156313843231,-0.1844683443090259
346,1.1423427296671191,1.4856194263493117,4.6272740890045085
347,2.652542549021492,0.5833013116308833,-0.4962947445232746
348,1.6245416784489588,1.5438907928823762,2.0849662706710608
349,0.41542291688216887,-1.0082758559672425,-0.44176060635556236
350,-1.371223118197946,-1.1508788932897343,1.3551925387759751
351,-2.0175577173759427,-1.0691455251645474,-3.316567431692919
352,1.0114071952882207,0.9907954720578733,5.009148784542995
353,0.04780951332545513,0.8923685455141717,4.211726570330636
354,-0.21961277992994488,-0.31378152324605507,0.04432553011295237
355,-0.27537995512720365,-0.7745990233313056,0.12293406682689534
356,0.7717900708831404,0.5945866088574528,4.280855903110652
357,0.5561339702033674,-1.3403010851713342,2.51889489058833
358,2.3798105597962396,0.21757767430544195,5.34946337719039
359,1.399471807043156,-0.004241888089746797,-0.17910683070472366
360,3.0288610730338466,0.752011685862367,1.0906284786815144
361,-0.007700365773806839,1.0966303524590886,-1.8332369166494416
362,-0.31678674434313886,-1.0685832440329777,0.4163544925118893
363,1.266989686951331,0.4095335987157921,0.4323445030842834
364,1.2018060926568523,0.009629935557747799,2.453236973734837
365,1.1323850382480725,1.0343702442318523,-1.0199554807682945
366,1.209699364797001,0.0034802207485718855,1.22722200087451
367,-2.0200147257133714,-2.4345222242471,-1.3302142333658464
368,-1.671914562788429,0.4451623748347465,-2.9811520833888157
369,-0.28057362704352484,0.5785657475758529,1.1283203257097625
370,-0.8033690367391259,-1.3332752860155341,-1.070551358298531
371,1.861566801461418,0.2261524205083896,3.090148384286787
372,0.1684729100135296,1.461899720043338,2.8453221659952166
373,0.5267944370525164,0.20597246297543395,3.0196800419540724
374,3.8866753788585573,1.8536330077170002,5.374027648752247
375,1.0221173777073465,-0.6532466463642355,1.5980328565965456
376,1.9645463060525954,2.6913403666083915,6.624004784627755
377,-0.9455215806854806,-0.8748409251825078,1.1986798290551732
378,1.5179736160788404,-0.7313397639524694,-1.6548054570358546
379,0.6186391383695972,-0.2582180672576627,2.5067888893454082
380,0.3832874664101781,-0.06275960405316612,4.30968290516856
381,0.36014966055769265,0.3655988297186914,1.4117370040780395
382,0.8395795218734307,-1.5227669709090812,3.133369388563688
383,0.6136835759790967,-0.17921866538766223,2.0239804217187283
384,1.7051221748616825,1.650302427132584,3.82400522948209
385,-0.5320887849734949,-1.2022140437075013,-1.0934716940936795
386,-0.8205252573362699,0.005086258781497299,-1.1349524112319955
387,-0.72448498208468,-0.4844274833849127,3.663325693284902
388,0.8892272585187797,-0.3739580972089519,-1.9291778293055315
389,0.5232775182815181,-0.6326456869988776,2.0045008918173655
390,-0.6130072448855282,1.033752676675677,0.7041589389774756
391,-0.4640034113630099,-0.686513913983768,-0.3460861739572193
392,1.479110458701557,-0.416536690067702,1.1093889896898523
393,0.3964358949468364,0.842641700089471,0.014596052405158044
394,-0.38795684723360535,0.18312736917229158,-0.8615986320868181
395,0.032440597180573794,0.881961377763114,-0.12799704282976543
396,1.1816509840475415,-0.480596365390014,3.3612736662502365
397,-2.0141781379374453,-2.945791213950071,1.3412381380956448
398,0.0715460423444656,0.357576331019448,2.2307595362305124
399,0.21285027869925932,0.5597280198182346,2.9727720177205583
400,1.1859656267495295,0.3824419849864855,0.7590749992572203
401,0.06962885785013045,-0.2653942432454332,-0.38013743580902215
402,0.2758799778392128,-0.3288287716416433,1.958905769375683
403,0.7514569898059239,0.7967170910689125,-0.4577963375247387
404,-1.1564384427177368,-1.366338191197208,1.2699816092556628
405,0.40924776169405497,1.3015463278397539,2.1624708019951435
406,0.1207052313047387,-0.7858005756865393,3.541764028571773
407,1.4121245468333983,-0.5140779821827172,4.235851491409046
408,0.732736805602343,0.5675576316785178,1.1915705544071373
409,0.6790030508702385,-0.5407727654944696,-0.36841327626524434
410,-0.9360513916288514,-0.09399097492332872,2.6196392778712294
411,-0.1893860990535674,0.8722795362988326,3.702036344009147
412,0.7798083018462418,0.875681996745169,1.7070024432300794
413,1.1056685850543162,-0.11094216071684145,2.7244724650121963
414,-0.0891188004574428,-0.30218395787705216,1.040226211102084
415,0.7916718477371621,0.43953121823691554,2.6235903426312994
416,1.0869119360745465,-1.7134648685929152,3.6213173974926076
417,0.7823463276310196,0.8852636031994611,0.7940297076553295
418,1.1775369890430594,1.2538698601794602,0.09027132748029709
419,0.09784933309390159,-0.9446127320605902,0.9021018273539734
420,0.8653273191769526,-0.7283997399674701,-5.050799500297702
421,-0.898073218012275,-1.917297361556741,-2.7495077502669756
422,1.0956654488388815,0.0417570361079966,2.7785774265837917
423,0.9533642989037837,-0.3709117827062262,1.9572791582920788
424,1.7891594646545959,0.22746878723656197,4.4065014621118355
425,-1.273936233482393,-1.0238950616633544,-1.9194561893998208
426,0.44765148152422685,-0.39975970604952604,-0.5290795189194003
427,0.872282296605288,-0.5456720256679406,2.704422845431602
428,1.6319426992083295,0.08120143037807617,4.972000572521175
429,-1.3758005673163094,-2.0768704775580726,-0.4353424489865052
430,-0.5109752479119161,-0.981633343700478,-0.672877726914482
431,0.4107832425652832,0.9685689664339364,1.3839914092631591
432,-0.28552483279999724,-0.021900934018571686,1.9433631786731285
433,1.7014555055928384,1.139046596513631,2.542271641561997
434,-0.38350122654081353,0.3877712784708599,-1.4068144470767554
435,1.8553480351223297,0.46337413768551783,0.5599816041447382
436,2.09384083202721,-0.011856691245370504,-0.693517626725705
437,1.0747280363696616,0.18907543158397966,-1.0886375876587069
438,3.0681240344099443,1.7078449466458843,-1.4500993995786042
439,-0.3050921157928025,-0.27484110103248477,-1.4829124450660218
440,1.501972004310015,-0.03580303375524092,-2.6070039406405883
441,-0.40435678687784016,0.5508111424428304,1.4514160466713044
442,1.7978164751657566,1.097592885010535,1.0342946740132017
443,1.2168695707032484,0.3051315635932107,2.8769258427329367
444,0.27387878419912304,-0.8313130035665754,-2.7680634632610794
445,-1.853290599719751,-0.7197622921507061,-0.8636115653658143
446,0.31705674327646016,1.6919978512647496,4.336799252052561
447,2.0783868586536878,-0.2038858231474621,1.1637530564155971
448,2.3319435278121037,-1.804531905550074,0.5873074535345111
449,2.4897139380080615,-0.04074375836783276,3.3422242446252612
450,0.04373752557492777,-0.10614213225647938,3.46017795434118
451,-0.605820369846378,0.25459409806580335,4.624446894079138
452,0.3207395803072436,-0.8142239481986586,-0.1349656661816887
453,-0.4145405422875827,-0.7692368843384235,1.1524795140291375
454,0.9120717603238435,0.4106949677420478,5.553715085540565
455,0.6505047766944385,-0.7000549751054086,1.2267964129682043
456,-0.3853312713808692,-0.7136319644810751,-1.9132740001513882
457,-0.4339221338208803,0.7972429922389622,-1.9154094759410807
458,1.4485125787128998,1.0912360284327065,2.29545813069171
459,0.4423001174106146,-1.5592697722895823,6.325627857771478
460,1.6554697311523112,0.21653015017180907,4.610049180876907
461,1.293569513116618,-2.5298340060198545,1.11932603875003
462,0.7452015137427357,-2.1558557819382327,-0.8101592725630979
463,-0.6416835542257098,-0.00905604477906555,0.4275538664521903
464,1.848172201325572,-1.6609528562747555,-2.4318180948021215
465,3.5839359786808256,0.38642633175446284,0.8832821664459338
466,2.3082361681154415,0.8671854965986476,2.2708101255849806
467,-0.08299054619531654,-1.8965930071414343,-2.673670319813553
468,1.8573860612607338,0.40566103606711906,-0.03255686352460363
469,-0.6725938886961778,-0.018960735989825037,-0.817263892927554
470,0.8144451262795335,0.3619825993978619,0.18520032545643517
471,-0.7559861195258776,-2.209263467124589,-3.616780238534216
472,-0.3964439259574116,0.39941143781764826,1.228762988782436
473,-1.9603211063740826,-2.5346203501301545,-0.487184699404249
474,1.8673498561067974,-0.03859467919325677,6.762926733886289
475,-0.9354554302459723,-0.447748473798217,-2.9750405870915664
476,1.4631936809254573,-1.1666079781318373,1.810501561743513
477,0.23302712553602667,0.4778736429179185,3.1327071595264293
478,0.6837289231347979,-1.5562670528180984,-0.6170739667942957
479,0.25717349324317906,-0.5419575767205062,1.5035257472893049
480,-1.112330497647457,0.30306786721899137,3.4292572267434744
481,0.22071080144723515,-0.34830093744227936,7.342602101744124
482,0.07032356396393083,-0.77510826047055,5.001163587994819
483,0.9861067495901795,-0.5439562434182978,3.785275868674676
484,-0.5153276520523467,-1.284738412122904,-1.449139839786129
485,-0.7106313270185254,-1.0245830110875305,0.7270546046476959
486,-0.7377432257297015,-0.1597000870344278,-1.7034189623478033
487,1.1700428934237836,0.24406390416410711,0.26548631836859304
488,0.03340208998112226,0.8683047432343589,1.15618409445382
489,2.43751013108636,1.3121600711380674,2.638078784093868
490,-0.8297688589742431,0.24432444234309306,0.23979898316455914
491,-0.4154359120763302,-0.7419320094496228,-1.3902200294381197
492,0.3373291931018851,-1.1228621486181782,5.303557055258138
493,-0.04022928622191846,1.5102232062590761,3.8950093349924813
494,-2.426193078817082,-1.618651030714866,-3.7212559415740953
495,0.05541033185787721,-1.0603792807225252,0.924957763016008
496,1.7524743529897715,1.3603588982278747,-0.09169715901705944
497,-1.5431899386746832,0.40636046107350854,-1.268736132799228
498,1.0993562472781107,0.3263989361754676,1.0880181554217625
499,0.5543062658439073,-0.49037252288263466,3.2594690690752177
500,-1.5406664817621865,-2.451331101623519,0.1735610709684816
501,0.6391750475799811,-0.5040411080685742,1.088233272923028
502,1.1149221996486636,-0.0031895309380415076,1.4894397080083537
503,1.3400361928576996,1.8160375642789401,1.6502437378637862
504,2.483522765114335,1.9930119968829432,-0.02545807428612834
505,2.4398811690832933,1.0523582787749108,2.547819982893607
506,0.9142897216790074,-0.8847306970533374,1.2955603701606468
507,-0.3408108631865716,-1.6979023785944447,-2.856935277062585
508,-0.029170790625688392,-1.1711765462826795,0.5123667928966987
509,-0.970555530005693,-2.1025548525782103,3.9903251671843307
510,0.3956773393056849,-0.2858866475951715,1.0844598213241987
511,3.197857629917668,1.6246832135760603,7.111699085334914
512,-0.29756239636919246,-1.456793728018384,-2.158199468633762
513,-0.17873836077570543,-0.6407785256522404,1.7590057747230163
514,-1.5255719869400668,0.3354219673270575,5.437920941950949
515,1.6463138133704573,-0.03913060806928242,0.4958772677951995
516,1.303088160439178,0.3518587139138822,5.112988340946355
517,2.4517865493878754,-0.4378292699850615,1.9566243711912337
518,1.0101081087282855,1.5828946350939253,2.333355378231569
519,-0.5939425803261005,-1.328597514791781,-2.046915343687483
520,0.6285712293283218,0.11410204265276126,0.5000914428842345
521,-0.6019309341440641,-0.9319733412458138,0.32724462825054124
522,2.211272524179074,0.21227906854392029,4.615636951512232
523,0.9703291592897451,-0.7474575385492137,-3.288013301347928
524,0.03303198412333841,1.3634953150614342,4.08885521215044
525,0.9261661478712462,1.4093105241646782,3.2922066037540283
526,1.6335791387776732,-0.014115378831257006,2.786811621710995
527,-0.7739613334202593,-1.9531516297250462,-1.0860672268043032
528,3.055315168354913,2.0708412927608397,2.8714792765912933
529,-1.9263033016185012,0.42342046922648796,-0.7486672068054463
530,0.9633068320932197,0.15381999756354825,0.2642168358131457
531,0.8253387709162154,0.8194490840099842,1.269264458915551
532,-0.3134895910339015,-0.2997683002885769,-0.370450898677284
533,-1.2922418772705773,1.2685120555831892,2.5312732323461864
534,0.30526975014212393,-0.3410517089469063,3.014520498723914
535,1.1872926350053186,0.09554394341612861,7.530745599644584
536,1.2556702373300617,2.346599140439405,0.38964111516850153
537,0.5483117890527378,-0.22433486701356511,2.3046789655493845
538,-1.1967494485064796,-0.7661339032261124,-0.6200441755267458
539,1.956646572325062,0.18026696225102876,2.592043781547215
540,1.0119736088075633,-1.0474897495452546,-0.5400345032754079
541,-1.7585459691066185,-1.143179911171289,2.3044769878140796
542,-0.4896767708171124,-0.9758183136046122,0.4527240797732013
543,1.3824508956448724,1.3725441708048605,1.7523457753591138
544,1.679495692867233,0.7293749236184369,5.548777678607902
545,1.1674906313226863,0.5676561208331012,-1.2115722032791112
546,0.18436808522010084,0.5431790695771734,8.015216332615124
547,-1.544274101295756,-2.4274378755821946,-2.3708708151415467
548,2.375167877266782,0.29922070016888924,-1.944704395101466
549,-0.47413612115180487,-0.75241326652334,-0.9585981173427308
550,0.9463319406144746,-0.5797258971661429,-0.6161659743770936
551,-0.5081004303525669,-0.30564625737084383,1.0920170313870639
552,0.8254284158277229,0.5266880719270839,0.559934875805546
553,1.1203910537726882,-0.9838702855210453,1.1040654258387894
554,-1.144209699653338,0.19352648251876597,1.7787012207280868
555,-1.6719992684468559,-0.45310877445176095,-0.013368502352617974
556,1.5317739591380355,-0.7676682378518409,1.7203686264135987
557,0.0201713073545986,1.5543860207453282,0.7959979006658657
558,1.1927337121389527,-1.138648498261597,-1.6598266824779029
559,0.4238365938535786,0.8170596298223227,2.1549366314815805
560,-0.058212513575911284,0.6898858260943105,0.6805985182434886
561,2.6936247012666157,0.5012495959454433,3.246949126677693
562,-0.594754675884033,-2.2144135242250695,-1.1011543044589798
563,0.6750890972081542,-0.865855477192269,2.2833503086450517
564,0.8911764657464074,0.024883606112519892,-0.022023488737625163
565,-0.2294462907688204,1.4279579565341685,0.8106061844412124
566,0.27269801577588604,-0.10608891503412711,-2.1702550527151847
567,-0.17079813054695595,-1.176480186218317,1.1709145472241578
568,1.8062156377813383,1.136706815818892,1.2180950244162418
569,1.8249477064737696,0.11706793375742447,0.17055256798516183
570,0.8170430514255155,-0.6829452027742984,-1.7350235313594804
571,2.617420259263525,1.3654994483981966,5.009886305242861
572,3.96298982466221,3.389554842794785,3.192552824122448
573,2.6782023766307215,0.507014945806997,2.4485165008078527
574,0.8218356328783641,0.6199611907127596,3.8800592843096604
575,0.3663985879112326,-1.1248132812761158,-0.4643183516977233
576,-0.6609783350723577,-0.013262172890637558,2.3927056940876392
577,1.616520659298423,0.48059106007756136,-1.8208298927680415
578,1.8601474236771827,1.3225952296532064,2.000923631263581
579,2.1460148235218597,1.2609389889904832,2.8947320831563785
580,0.4231710678585683,0.4861240379569688,6.145952313099685
581,1.193299386214484,1.1070028357131034,2.838134686407378
582,-0.11717169431254065,-1.6939006879337812,0.9335216286495545
583,1.3815217651754672,1.510455485316437,0.8590862874392582
584,0.5889806568993564,-0.21337318743212205,4.721533168709145
585,0.6738329747339523,0.35290057930070307,-2.351947463874334
586,0.6547413258936456,0.17322031367505095,1.1975978448654394
587,2.1295234303127257,1.028884873823494,5.124998440042458
588,1.1761027038859904,0.81237405932067,2.0629870934609906
589,0.3972666461033973,-0.9681545328876742,-0.9653322145846928
590,0.7807063509955041,-0.725660066598058,3.3938152699173094
591,-0.36463604029464447,0.5358642730421641,-1.3614419600450538
592,-0.7060244806603442,-0.9040410230849123,1.0937873744095448
593,0.26912357688733235,0.21793025394531138,-4.104261177250354
594,1.5651756518752062,1.5815514992883695,0.6712009284904088
595,-1.1062288563499567,-0.6316062021289549,1.3707577363936365
596,-2.0247288371789183,-0.751842295321694,-2.4810052660849937
597,1.3449591758205166,0.3306087858362965,3.8528320961003737
598,2.091429741335469,-0.27043171768876556,0.3694763384271882
599,1.635394370821734,0.5162559308954736,-0.08725543174437334
600,0.7042356522343395,0.43631023270597735,2.5732268646213665
601,-1.03132282844635,-1.4077401334088153,-0.9269290342858669
602,-1.0576774514909326,0.626093803274312,0.6601784113643141
603,0.6761590005714385,0.5190492487405652,8.479812261421397
604,0.5140626532250857,-0.36796691238410906,0.47636830013890163
605,1.9561415527480541,-0.06983410987136332,2.5416472333153113
606,-1.5180620171198096,-1.6204024515793656,0.20615068683080984
607,0.17304396787834342,0.6306482661723328,0.7885701069269342
608,1.5339714599961785,1.5332523990288187,2.44327156171291
609,1.1860555623891618,2.009539692040111,1.7939942386445105
610,0.058164062119486215,0.18514387563102197,-0.10615148828091936
611,0.32977806248332253,0.03745727458142135,1.151935108470998
612,-0.7530214457433322,-0.3414833402094807,-0.5756532267242448
613,-0.13892392304896584,-0.8537081984760451,4.491879726273862
614,-0.6341704084770107,0.0018689618571928403,-0.2769017048430935
615,0.33105747273185193,-0.35233082270240357,3.656742083753729
616,-0.34400263487179705,-0.5840640467015821,4.925544408526825
617,2.5750775256897303,1.9430980073252881,0.20213376061771182
618,0.4215570807930918,0.36053642503986255,-0.512649357478427
619,0.7205840600148081,-0.6707461788205605,4.661827307573451
620,1.6879815125759132,-0.1771935822818031,1.203293785988403
621,0.9269803446060262,0.28865119988667887,3.1979061703358793
622,-0.037931143955974404,-1.1980239065443223,-4.685973781397367
623,2.426533553165529,-1.1099397662766666,1.2603305117459838
624,-0.28084894182569553,-1.6617979104577703,-5.587436659700512
625,1.1904604517416169,0.46903490239611917,4.207778003275845
626,-0.033910325998730756,-0.5790650475421145,1.6649031509385654
627,0.5669682271316373,-0.0851120913210466,4.124095031484154
628,-0.6477382098172504,-0.8835852707371289,-1.7088573424729807
629,1.0242368665860673,-1.4710531217817233,1.4328103861160253
630,2.011407741164818,0.7839280151730181,0.48176077876933376
631,1.078264648795284,-0.9305626696324294,1.1957731582461963
632,2.721356762494681,0.9098754752333996,2.924219513991083
633,-0.8863936160519794,0.7034629655039631,-2.8655938870342825
634,-0.06114952503251253,-0.47459080149572663,0.1964474208392284
635,0.894232444879054,-1.425819037695879,0.23176722634764158
636,-1.2944257898807217,-1.562653220383956,-3.7382140985409436
637,0.08549265708713949,0.1909946676968328,5.967652424158746
638,0.08347243415513542,-0.891324462288349,1.3906824443265096
639,0.33731174363063576,1.0489847707726567,-5.130565299300771
640,0.7196502513415426,-0.8923728654739548,-2.518036031846317
641,0.3256682910979515,-2.0818923660136943,-0.6818306214637562
642,-0.8249325597750307,-1.1439257781879508,-0.7574602659812022
643,-0.4355457959383288,-0.16331643757429826,1.510041091287739
644,-0.12359471394032423,-0.3971489411769017,-1.1822742711963725
645,0.40711883618345085,0.5113609343663458,-0.17686564319722686
646,1.2841104587273986,1.6005494994051204,-0.09897344447688994
647,0.4789408940590631,0.4603195324555794,-1.1362496988803936
648,0.9007018677311703,-0.4826471380202903,4.5198215266028035
649,0.6381805975460247,-0.9529413014188592,-2.679788893126452
650,0.3891857397480537,-0.3930499410053025,4.688119687534227
651,-0.27258119987456875,0.07762482687820726,-1.286846679992353
652,-1.4660308097384864,-1.50013525225632,-1.4681238416961222
653,-1.4184239297602417,-1.6232515899797182,-2.1631477199234177
654,-0.46939744792452864,-0.07551563878236303,2.5844666102377367
655,-0.3076412155003785,-0.1331215388818831,-1.6009945193921267
656,0.7233016152548988,0.2252143444390138,3.3625313815074
657,1.9902905482808295,-0.4035800615028626,3.6846158507539246
658,-0.4692731960497377,-0.07891271920238487,-2.259217251033658
659,-0.5014304269670469,-1.2810024889159404,-1.8512585722697144
660,-0.22594411280530546,-0.8692086381154659,-1.858766744362276
661,0.49106190144064366,-0.2697472439193114,-1.591606313788121
662,0.48827404368933747,-1.4630432642059905,-0.6573574265472477
663,-0.06533113443614286,-1.7125640556761892,2.313244411493828
664,2.2148576366712573,0.9158999944291484,2.4805308683518925
665,0.2577031039942388,-0.17752479424594406,0.8041024363560192
666,1.074484324727746,1.795569969487316,2.4954642946343775
667,0.8020171567739036,1.6161471368493974,0.8855333881264966
668,2.823603133397366,-0.09071112703710936,5.667786304334294
669,0.8364049815602271,1.7376263660017317,1.5725787654533094
670,-1.7768945009356074,-0.031112942671714612,0.14097316320105313
671,1.3716826134786415,0.9654853599245021,5.105049816591823
672,-0.225532952336569,0.2816795781269991,3.676168014317264
673,1.3525675068890208,0.8659306951256686,1.1627100988498351
674,0.4039560915719163,-0.6117149433788284,-1.3584217768379325
675,-0.0748394907685409,-1.9921210156290363,3.2685225032210097
676,0.004320361737445044,-0.40148893095799043,-1.1874569678341405
677,-0.9851947298581459,0.06847267695170135,2.7639639524924555
678,-0.09955883625316064,-0.43195957599244544,6.322583537450271
679,0.6228699830037097,0.4686346180529735,3.3715615684054727
680,0.5677037628114744,-1.423346463692506,-6.181164240566627
681,-0.2648009050870366,-0.24294499558870067,3.145339810863937
682,0.2847862545080464,0.06275291906342821,-3.777592380710058
683,-0.4487149218055938,0.07597767244471101,-0.9080071981179396
684,1.16941184048368,-0.48249829693507673,0.7499292116346534
685,1.6810863683244925,0.10514755605259248,-1.1294728696240706
686,0.7298573831607994,-0.7818733472192192,1.8791618368002518
687,-1.3867354101874523,-2.082589152167328,-3.8801858744096673
688,0.7830885875937071,0.824386487791408,3.6930350724699723
689,0.7966711049537348,1.4890214028714583,1.1975470020823915
690,-0.2949650088763563,-0.2693805833664932,-1.8648083582297392
691,0.21847865606543937,0.31829553581243936,2.940704522305998
692,-1.5448432735431925,0.4027751256323389,0.05500474005629759
693,1.5168313553623236,0.6660524287995884,-0.37714641067732413
694,0.5460415821729437,0.07115920470623996,-1.0256984860826637
695,1.1395024087186236,-1.4386309508852746,-1.180444900355879
696,0.13040881429517143,-0.045581044534150884,2.367375486662948
697,1.5344811296758214,2.1000386355495997,6.620528050658391
698,1.1155954986224488,0.4163631917576334,-0.24166143208263713
699,0.2671404136890873,0.3104744198731792,-3.9665349579915077
700,2.1193894369174067,0.7912505434001625,4.72875695375588
701,0.619152422877131,1.0325789807444827,3.472329872408791
702,-0.48907974564984896,-1.7936955624223694,-3.4751412636341983
703,0.7770693627508702,1.6658481463259294,-1.9913595498226553
704,-0.42185080127806523,-1.0621234963336972,-2.4432757870431527
705,1.389980400874725,-0.2085639256630643,2.7260045629873355
706,0.32928259311323826,0.1597360458078748,1.5114220601719293
707,0.5724244694570814,-1.0742501260604234,0.5665023431459487
708,1.4074613663934943,-0.21825473281821878,3.6855276996875004
709,1.11133738875265,0.5899868752632434,-0.2661303172834839
710,0.562935048757109,-1.095746097148307,3.6729488209441707
711,-1.847451194791729,-0.4224511927065624,2.2807007409531472
712,-1.3563762325460433,-0.5467527195982156,-1.5524106416267172
713,2.2939248654122664,-0.7484543471928305,1.3283576581885692
714,1.3272756588628174,-0.20448878331363252,2.816160573087613
715,-1.5120698716071368,-0.3728787791170639,-2.6472982734199397
716,0.510425975000366,-1.1528657567898637,0.6205785029381592
717,-0.10707398152093384,-0.12973910950109024,5.748678392284164
718,1.4824271689399429,-0.020183053737435768,5.103420481446959
719,0.7865845662658264,0.05553834187596495,0.7171201079423957
720,3.8665642366422754,-0.18406061934707693,3.6166757328910606
721,0.19293085371273447,-0.5778616845026214,3.737558776108016
722,1.97476199780407,1.0383697336941617,1.9056775619870243
723,-0.847659780690591,-0.17202416511755833,-3.1270229818822632
724,-0.8399903453822117,-0.7897842482788567,1.0541219969927909
725,-0.32969351954349746,-1.2608681351013353,0.38264925686242646
726,1.2506528112682127,-0.9146665465981065,2.3566290260713507
727,1.3197289271658237,1.1420223670832754,1.6140945694904638
728,1.4734958415727437,0.5134960033409747,0.553535760008141
729,1.3855891574341617,0.5958787337963908,1.6755983857408654
730,1.1262982489789461,-0.20955311227993512,1.8342531318017843
731,0.7549572220721954,-1.8808081110498427,-0.013230744949464593
732,0.29526979526789576,1.1462080972164104,2.8716734026619157
733,0.766824659793957,-0.2782178421131503,1.0881776478725023
734,2.8731013514770813,-0.6546064466893284,2.8074489545295824
735,-2.055127736336976,-0.8820592955989457,-3.1250626645862107
736,0.4024560248900096,-0.24200626793334554,2.83306924390869
737,1.141398447083504,1.3664808784777922,2.546044585488038
738,0.14446586525693866,0.041805546230461024,5.7592996540829535
739,-0.6877312487023095,-1.1805246091132644,-2.4766117398165393
740,1.2060852113224096,0.5827988122704897,1.3976807445413328
741,-1.3520432995536016,-1.4745464940389148,-2.8885701885328428
742,-0.2367017008418636,0.15349739980566876,2.2458614183169825
743,-0.1983371198328391,-1.095601846118206,0.9217372822773036
744,-0.4133648098857453,0.6060905855299488,-0.31958336344380567
745,0.962916333034819,0.4157022569880935,-1.589263129499709
746,0.03795426648099104,-0.13860995308687465,-0.6330639929507199
747,0.13336040809582966,0.21255338631696388,1.138546660177016
748,0.8024349755281993,0.22397819111978953,0.5135136877764499
749,2.102138488767939,0.04917309553078799,0.11606519954273975
750,1.6690608303813939,-0.08470992643766868,1.1712046814220975
751,1.7706667747987803,-0.11970429775933894,-3.66460514626529
752,1.0816564383432987,2.053602959998208,4.039309926587133
753,1.5812998281261517,0.40299271044267115,3.2267761717589565
754,1.5825901112617953,1.8703535721851405,-0.35201370485402217
755,1.1907501994094412,-0.22086447712866214,1.5773557668098497
756,-0.8490227517265457,-0.6877174031410715,-2.868010446496606
757,-0.3819258066835136,-1.8219575350270372,-0.4075312680251086
758,-0.32828696975082017,-2.1613807810519488,0.11348810560007694
759,0.3295217743724128,-0.12074579173278009,0.4027622727354301
760,0.9055376938361697,1.451316087667074,5.719640996689429
761,0.534754235620618,-0.23576356656998934,4.476666684256568
762,0.08234650877962124,0.20920459029402982,-1.7495783741598059
763,-0.055173239910918714,-2.0578262702787145,-0.14628299292765912
764,0.2781006364470136,0.14755348877113297,1.1467607276902314
765,1.291795418441707,-2.1429564402391823,0.07478989345497322
766,1.181186598572815,-0.5698431291843266,2.541481426661377
767,1.3894263386931305,0.7026652661879327,5.185121919819418
768,1.3348438742351285,0.8456624614252363,5.965623453692759
769,-0.49948119250874257,0.48242887815031216,-0.047884390364784424
770,-1.0596397751549613,-1.008488040718559,0.27747238966005877
771,-0.9403652408299947,-2.2052888968988285,-1.2178588687187117
772,0.3688604926314174,-0.10184869783062983,4.316923701751092
773,0.3023208836229904,-0.1700144685276112,-4.981849482677851
774,1.1735258030284559,-1.5972337464166513,0.16053716899606485
775,1.5343762463869488,-0.5565535874625954,1.2100097201129074
776,0.552486197606112,-0.1579090870258091,0.19055458542759696
777,0.6363748553690547,-0.4219729522222591,2.0475236572246645
778,0.3048551949214322,0.1193027410219541,0.23270145327234704
779,0.7828912327958429,-1.4723287774177105,-0.2890720314119647
780,0.8469312952088373,1.0802329889184439,3.233601432248152
781,0.7558740736596972,-1.549464598918307,1.4821937882580576
782,1.5043128966815198,0.0735906493146748,-0.4214280170671316
783,-0.34931177852400586,-0.6427869699990632,4.516846297937513
784,-0.1621097779664405,-0.7495444623851406,-0.30862384455268965
785,-0.7136216223877241,-1.154875443247045,-0.6206510021015008
786,0.44057300847213166,1.2431885145131891,2.731807186911968
787,1.9084092651160618,1.943137699846992,1.199987455325018
788,-0.47187390574011767,-2.2016361477049093,-2.022625437476224
789,-0.25177653388576626,0.5725801713466447,-1.1300785190723333
790,-1.7461738222286693,-0.6362041848788267,3.5234553389665413
791,-0.4216660245394938,-0.49018099754195077,0.3700803170376409
792,1.5122429987869723,0.38088864995289107,1.3438434580784058
793,2.5607100875796336,0.8692926953536577,1.9892318340432755
794,0.42409809450703295,-0.6780588174145087,1.2871557682949928
795,1.9027455143586092,0.3713063360627879,3.4285848213760417
796,0.2961459435168182,-0.040560720922843546,1.1798736692722054
797,-1.5299427412833482,0.003894325485970619,-3.73076357750349
798,0.6175442683091205,0.1379156893531924,0.4704227420372793
799,1.2172441185200842,0.8951762243700826,-1.2687999590847472
800,0.8026071550917788,1.1715554866117128,0.7946669527869651
801,-0.6889459223959615,0.3615673839103084,1.0076866742317445
802,0.37945270578305246,-0.2097479881446712,-0.6617979434811936
803,-0.38443397277702135,-1.782688717352702,-2.8231578925683234
804,-1.062628431875829,0.16736769118196343,-1.6687617489089746
805,0.06173228084514937,0.4591620107995979,3.7088290081219815
806,1.5676497639800393,0.1741525746094336,3.521004076897148
807,0.9863586396357215,-1.4732802347761396,0.9008360448826638
808,-0.6877647851046615,-0.6661109111064503,0.6945184984658215
809,2.6665204654991905,1.1024825643436094,3.1717060178052354
810,1.5913087351931514,-0.5631785984706066,-1.5355369473845422
811,0.6630374362350745,1.356867160163107,1.907647737668547
812,-0.869238036330736,-1.1207759060418323,3.133675895330658
813,-0.2437910253903956,-1.1945406004888246,-4.18940909074371
814,1.1613433212132354,0.9254348361846578,4.250696120596726
815,-0.3614369495932088,0.0035165603290571034,2.498922457773298
816,2.607575024618468,1.4181407222800697,3.774552070257346
817,0.9788152964398853,1.2932779670408043,1.773814895364179
818,-0.07904182229665135,1.3780326036988846,0.7839938165185745
819,0.6388708580143302,0.8905363009092709,0.7433785949781134
820,-0.7058689566929714,-0.4317626653000436,4.6297443246917735
821,-1.0172539031118937,-0.03049974637411303,-4.038164545057959
822,0.7399907942692842,0.4667867692954735,0.984669257325272
823,-0.1774305588977521,-0.10418338223215569,0.3852837280444322
824,1.9266802962207579,-0.5150648778342075,-0.550596099759634
825,5.318138995952129,2.0514124634010904,3.5264257984443725
826,1.1404910670873931,-0.018523281921956583,3.603426169764594
827,3.3014106427066423,2.7049176275452234,1.0688710066873217
828,1.030661028408204,0.37785710157061536,1.3812637607843186
829,-0.8285695431040841,-1.8256226586868045,-1.4392332015696923
830,1.445031362803117,0.07872197622424446,3.3381680586820743
831,-1.1324241720737223,0.09726856569832346,1.2620565688209113
832,3.2446820070048945,0.3816812951574732,1.2064584460273142
833,0.25583676666352206,0.6462800153262918,-2.2191365789437176
834,-1.2301086897829479,1.2151901677601633,5.029331723718565
835,-0.18976887684947968,-0.2852188317925136,2.800945011611462
836,0.08347849395639917,-0.0847650103398642,0.14494962625561847
837,2.4321292645573376,0.31211485070440437,-0.058978847019583336
838,0.26101667709087195,-0.3587841386449279,1.3570454664096216
839,1.1093253990075216,1.1943797085980343,0.9553519445908658
840,0.32526227653526696,0.6763190361295656,2.5755624759416533
841,1.1858651710434358,-0.2746642789030911,-1.2054151814408076
842,1.8542298469620908,1.2022721167649593,0.23676126010424126
843,2.604086683170658,2.7911040429224796,1.10528414891231
844,0.6171823953200126,0.4500727796662754,4.280919338680415
845,0.49143492005211975,-0.391876869088126,2.9727702178681676
846,1.1340158304172496,0.05723135267206175,3.9783202711151455
847,1.3185127405780994,-0.546647746267586,-0.8896950853650469
848,-0.6505007322041609,-0.6853845840396289,-0.410459669337084
849,1.3768752429959417,-0.8830950036557971,1.073516157840414
850,-1.0823598703285628,0.5115573042991881,1.4090489086518938
851,-0.17806945945583222,-0.9792424870385573,-2.398683136293156
852,0.43612844926398764,-0.6107448659388482,3.0782520237395246
853,2.422312917515349,0.5843140514956886,3.8393930734746475
854,-0.03361246370469506,1.732115260365457,0.39697521727983176
855,1.5253700611867664,0.354494026065831,0.8566673241611968
856,-0.1204023606552107,1.0620262714481516,5.759832924259126
857,1.0338416512240538,1.1944077161500575,-2.5398348315647827
858,-1.1410288657657717,-1.2631062582606987,-1.6861631649068562
859,0.19363381267842733,-1.2927660692969063,-0.863631486821085
860,-0.7488459559817465,-1.9861995593185162,1.5165445244524611
861,2.687214610340756,2.232643878428772,3.8984195776694253
862,-0.2026711841885095,-1.308507978717965,-2.7797821020333933
863,0.3106982460941113,0.2860146341532072,-1.0779801003961906
864,-0.07299218760276989,-1.293013155165247,-2.978936574260334
865,1.0422238056372726,0.7217938572725183,4.68663406714034
866,1.7866269183104908,-1.0979209905450076,-3.6882476197665217
867,2.229719676351827,-0.03317439527433614,2.355602461611568
868,-0.6390501104552595,-0.9690739884246927,0.559991125548305
869,0.7607656896044823,-0.9328506593998247,5.899482924606977
870,1.707058802283006,1.1361359381914744,0.03111318576466382
871,0.48762810070996104,-0.6115673826287806,-0.6381946541037145
872,1.8570117171300025,0.7031930957525708,-0.5410483293592177
873,-0.7268961835086247,-1.2738582098163527,1.5571311010364364
874,0.06910406561511806,1.239931398656759,0.35624176136771357
875,0.7694915155712196,0.9916216209017847,-0.7798238389367649
876,0.7462504981085321,0.09862114654710857,0.16733674945375965
877,1.0767545614143417,-0.9972980012901741,-0.06976599678673356
878,0.9681878448934441,-0.1924307262533749,-0.9908476324728573
879,-1.606412085080235,-1.128867588936549,0.7177041034938807
880,0.47047860223611904,1.8930790763914722,-0.8506178498379704
881,-0.37975975610305374,-0.8318707725948433,1.8153744012984836
882,0.02229980524300007,-0.711761176793856,0.8238154557267068
883,-0.43561341407341203,1.6570792777122192,1.348678446646469
884,0.11438901252782732,-1.0942256230606833,1.980179615121903
885,1.3789924041971862,0.9471837396308636,3.2032909924215485
886,1.231205477371197,-0.4619208323404341,3.833300095805516
887,2.1247969288133746,1.2403421983646359,0.6728188656354221
888,2.8808867603354713,1.0566460164735505,1.6921428109762044
889,0.1322279395270246,0.42990853174380633,2.767494039652097
890,-0.0033433175127082215,0.6913229572366126,4.696613340162343
891,-0.24706347604876205,-0.10593985567180864,1.2115982707747253
892,1.104208868898735,2.2579033600153,1.5988468464092753
893,1.6809316315363227,0.661751608327446,7.691421464639425
894,1.6138188744764446,1.370694572631786,1.448995742441305
895,-0.11860022972924442,-0.9314068099314531,1.7438419643612368
896,0.5598969857673803,0.645556304353005,2.674065676965627
897,-2.281081703927267,-0.5622087394682498,0.9593289955590654
898,2.7642931566340163,1.940887912446081,4.489985718853889
899,3.7746761290056683,0.7691350063675773,-2.3876486303566393
900,-0.9164618193998713,1.1863210873368346,3.1483400217431092
901,-0.22588113284327638,1.5522474538474482,-0.4240736866134993
902,0.4507788580856663,0.5952247372478264,3.342485346960147
903,0.9137519052923768,1.3945767378757465,1.4293456165758254
904,-1.628675926551463,-0.42682678815747005,2.251686981241976
905,-1.405063408873548,-0.25378828924032626,-1.7437581362865555
906,0.9705133374290588,0.8857866998027049,1.0950547478308343
907,0.45795796633875896,1.208807487940438,-5.3420283480253685
908,0.9130881773405867,-1.5577247573368036,1.0606298424055303
909,1.401932593578358,0.30531721261561495,2.7635635438809976
910,-0.3383740004910619,-2.06488658938851,-1.5010991397464364
911,0.46798807320531954,-0.8379074620062019,6.5788974288227315
912,0.9763152338974589,0.37214959222705274,-0.21319856520276415
913,2.5638476040940916,0.9475093431089097,0.41509982165382664
914,0.898343893416643,0.4125378633645068,0.7953752165843573
915,1.7895122061234094,-0.432021223450198,2.4484718802540426
916,-0.9825616707783003,-1.8541638742755502,-1.2701602893202286
917,0.4770858403044625,0.17889634094288298,0.37707747514930456
918,1.2691121201821574,0.15087240965486037,-1.805844393266653
919,2.2268494189440036,0.9095664030791345,0.08273357877836185
920,1.3611382203258993,2.5155258444508406,2.763564490464039
921,1.0028467808862658,-0.25329585911332797,-0.05107478858344017
922,-0.3315198577604171,-0.554689045029887,-0.03892256595728705
923,0.15353912228915628,0.28556805595814394,0.5212059945208758
924,-1.121180926782091,-0.647532820065601,1.3288166948211853
925,0.6967171148289512,0.9285572429212029,1.027478987763132
926,2.147659926787351,0.3885541323911653,0.9502321974923382
927,0.16056379762662232,-0.7498052179410286,-0.44980829949268275
928,-0.37821716276607314,-0.607657029014666,-1.7611365575207611
929,1.3120844673872525,-0.7158999716192371,1.7160926051492869
930,0.22199448926584464,0.3746302286833114,1.9373377744616902
931,1.021277051901483,0.32990121603454653,3.499915050768772
932,-0.5232443583539269,0.3080504838448699,6.119095301256991
933,0.43558884433872386,0.6860561070841616,-1.1593188440424598
934,-0.008370347210105544,-1.3833370778658753,0.17455766747800738
935,0.309051894876627,-0.071942249558247,-1.9015326167596074
936,0.2542412581948875,-1.39216469592166,2.6095645536432217
937,-0.5073530712961547,1.0613893200200692,3.868513789978347
938,2.6570891898281297,0.24050000713472056,3.841577758316472
939,2.2131736291489243,1.91309133220979,4.662503626635511
940,-2.787058766617182,-1.2360076817315928,-1.440535153968719
941,-0.576153401084756,-1.4366045801386054,1.6788340730544073
942,1.1159558624306958,-0.25961174622265026,-2.1644047741823247
943,-0.593560233600608,-1.0935935321058998,-1.2918873445997618
944,1.656324127615835,-0.8207433576114831,1.630737322435031
945,2.654036965207659,2.1600544777309914,1.1058315549421902
946,0.5433620449795132,0.2289257193959585,0.4296505518509057
947,-0.9850660254454326,-2.0305649769973964,-0.989939966473182
948,1.7731511598653058,1.4013698784942412,0.8271352918230435
949,0.535712668288032,2.3617922036547823,7.621353476416617
950,0.36565349907278655,0.05231450980472517,1.0799082991896145
951,1.4389271246897595,0.0545943502564276,2.1211653128721397
952,-0.8427326685039369,-0.6141614377166672,-1.0339527664801462
953,-0.6751357055644112,-0.20396153972811773,1.6775071475369452
954,0.6819920537673493,-1.0348704343847652,1.7934150124431605
955,-0.2649867157998935,0.9243368094113152,2.410805664287244
956,1.1655559367198418,-0.07858293679987831,-1.2699426150180584
957,2.3059484601058817,1.660606633467708,5.035344682192347
958,2.6452162713777474,1.2066313799964823,3.5504617242220977
959,-0.13498073952339112,-0.011771901987199263,-1.4720385914518022
960,0.3198315826885252,-0.6206382990137607,-1.5285252828956524
961,1.3684200975500662,-0.9906607519214307,1.2021470832689594
962,1.1015387566301937,0.1633946962388815,5.802332054354782
963,1.913678146915591,0.7989324549689268,1.8042666982237852
964,-0.8956617184614643,-1.1108406747964532,2.7253271552363714
965,1.5893576306494226,0.6524996036498821,4.07938705406836
966,0.592990349116731,-0.7371004896500517,-1.329139197546692
967,0.7943480168918515,-1.152869056406188,2.11284167536615
968,-0.1101068712195899,-0.3823071279396484,-4.333753266266639
969,1.7085043243544944,1.1309063686672158,6.09096006758341
970,1.2392837040287874,0.5536335655778233,5.134596350331231
971,0.9033731035095655,-0.23568825658436626,-1.631746193156608
972,1.1391968494490436,-0.38669824855448137,-1.2324028108457248
973,1.4387441297460217,-0.6899647407586162,3.9393335338743847
974,0.7450982703801505,-2.178116764324677,2.4991357646468635
975,0.6102318808019802,-0.7001514811851678,2.7651170602374036
976,1.3287269441186913,-1.2644439644242347,4.697838742378746
977,1.648729772662354,1.1271287118131241,0.9766395150506395
978,1.5562474152218322,-0.3756663230107916,1.4489332949190954
979,1.4267653588565725,1.6592228674870926,3.1959131025254877
980,-1.7873223761606216,-0.7032411059911287,-1.7237356905782284
981,0.17596694997009263,-0.5244038572825995,3.641111319326294
982,-0.05304204744271826,-0.744348505101717,2.035371235249705
983,2.461689064409594,0.2714888098793162,4.064804295778513
984,2.071718932812525,-0.6717199165483277,3.327690057017495
985,1.7029850780419618,2.60419738487466,1.5178226666609238
986,0.7820361058301997,-0.8008658887563572,3.69958456195243
987,2.046564221591774,-0.04447450595172884,-0.9127356297963054
988,0.4382373418831993,1.027798532019369,1.6469223065929128
989,0.31820809258691674,0.23387106737696609,3.2898145134941896
990,1.4941939255792,0.6098149768961633,0.6076152163344493
991,-0.0020140760813722736,1.11461701596631,1.3066063684988642
992,1.025477505229629,1.1965908548815989,1.8557537221391105
993,-0.2319701906374857,-2.2271662235412335,1.9944731716112352
994,0.8170058899705737,-0.6601038142253679,-0.39137437487097504
995,0.4849413238883863,-0.042120736444146004,2.9712481816949157
996,1.5371165911872662,0.6558842358186171,4.49398636475783
997,-0.36050955045688127,0.5983212366823898,-0.9528224887233987
998,-0.33225010431915847,0.29121355750392086,-0.008877714272348625
999,-0.7363018752265362,-1.6229504962960177,-2.8120040277195884
