,x,treatment,y
0,-0.2151238901765827,0.0,0.07163400589418178
1,0.035881852700053354,1.0,1.7019606153547195
2,-0.8963045749443317,1.0,-1.9980875465969443
3,-0.42805819253946,0.0,0.4558044805646323
4,1.5469163205321637,1.0,5.775129674660566
5,-1.7870586998821982,0.0,-4.369759432387092
6,-2.0398317650606335,0.0,-4.667856248726117
7,-0.3991784550297164,1.0,4.3708522390349565
8,0.40861193374431976,0.0,3.6841963139997813
9,-1.5360318822363068,1.0,-3.0714344513315117
10,-0.594788085432357,0.0,2.2193998582116823
11,0.5416089683085221,1.0,3.632943074419054
12,0.7477175521112556,1.0,3.282824500658554
13,-1.7565758209933264,1.0,0.5484541147040947
14,-0.029245293768207135,0.0,-0.8885703843308184
15,-1.3203708712277165,0.0,-3.709336833105637
16,-0.9686552127675755,0.0,-3.2160499145148185
17,-0.42136971744572593,0.0,-0.3560782523753131
18,0.5480927162422118,1.0,2.2566756083900485
19,1.1911499110556834,1.0,3.702164126186243
20,-1.6605944225382367,1.0,-4.972551808498456
21,0.044929145230012964,1.0,2.0850820128722485
22,0.9465312268093842,0.0,2.2296902836785923
23,-0.1931915197201271,1.0,-0.33745234025935844
24,-0.9256586305631548,0.0,-1.5185459676943782
25,0.058085888160585186,0.0,2.0944219239587962
26,0.7301558461332797,1.0,0.6776254819654981
27,-0.09409437583957748,1.0,0.7457765692082743
28,-0.16653521176259883,0.0,-0.5817596678813702
29,-1.4181379879405522,0.0,-5.529635226914168
30,0.563200866904932,1.0,1.365151488050219
31,1.6522633466968808,0.0,4.823578438512255
32,0.7993711911520044,0.0,2.1918141530221655
33,-0.2164842425475441,1.0,-0.510232914339447
34,-0.8568033955092894,0.0,-0.2114814096610224
35,-1.52742206028099,0.0,-4.700846020300876
36,0.41419543890598265,1.0,2.0779791695451193
37,-0.839401078876405,1.0,-0.24468084836350434
38,-0.12567280236617037,0.0,1.5466625596996404
39,-0.19790142929505733,1.0,-0.2614953655713219
40,-0.858838545593838,1.0,-0.995344198414768
41,-0.13745946022081662,1.0,2.4592962768877458
42,-0.9950456980131654,0.0,-3.458447227715752
43,-0.6394783910662447,0.0,0.17937266651166217
44,1.1107160962946512,1.0,1.0804518589556897
45,0.059790593027785124,1.0,1.7056928938690916
46,1.1182252934584895,1.0,4.896723481979818
47,0.6472257935336619,1.0,1.7798188636191006
48,0.3134157805172129,1.0,2.809683643185953
49,0.24417671409849254,1.0,1.4956322272718967
50,0.252845170925818,0.0,1.6465466202333767
51,0.5659074168616147,1.0,5.352755460105788
52,0.3867111589577614,0.0,1.4222043488921434
53,-1.1439673942272601,1.0,2.80165044464514
54,0.8610315160461707,1.0,4.7308820994225025
55,0.9924378503790107,1.0,3.930472881408983
56,0.10481216947385409,0.0,1.4240003684321407
57,-0.5636566564340814,0.0,-1.6114677631300915
58,0.1091143388522895,1.0,2.901518599772589
59,-0.42887919751441966,1.0,1.965775499899436
60,1.1659799438776601,0.0,2.8151928688621677
61,1.7793732421682704,1.0,5.320537639104369
62,1.0916607244613503,1.0,7.040389070382581
63,1.0739642615318836,1.0,4.172191865438833
64,-0.44329989084861854,0.0,1.3875517384467881
65,-0.48767636512614054,0.0,1.9941400756926537
66,1.4842433059216524,0.0,3.708102494832706
67,-1.1455563722441549,0.0,-5.764107184769427
68,-2.5214278977103044,0.0,-6.003968925076259
69,0.10026648836032248,1.0,0.49439089224398813
70,0.13091446366637688,1.0,-0.9786642934410779
71,0.43350310078003146,0.0,3.7241482030840896
72,0.12171915138250777,0.0,1.0000630711786624
73,-0.19598230169613476,1.0,1.5573331362792402
74,-0.31882281409395563,0.0,-1.361747382224909
75,-0.19128759257777508,1.0,3.652682310415067
76,-0.45939544559261064,1.0,-1.929597706895406
77,-0.1654196723381505,1.0,1.081413130701473
78,2.002448288378092,0.0,4.7307954745499305
79,0.5187829401193861,0.0,2.2544815587327784
80,0.2271211598928909,1.0,2.7012392082306675
81,-1.1204116881649142,0.0,-2.516965589082947
82,0.4587035159278328,0.0,0.44866454023266755
83,-0.9596397656883774,1.0,-1.4852039221303435
84,0.2719076657129639,1.0,2.7691471468754876
85,0.42622809639350717,1.0,3.605548527205923
86,0.2887034526938061,1.0,3.285163055982
87,2.483647702799116,0.0,8.568530162496932
88,0.21320745598815752,1.0,1.7800555270732223
89,0.2847923090703637,1.0,1.730190042669583
90,0.6445453080657758,1.0,0.8601615390419358
91,0.13811241856429518,1.0,0.6980703033956799
92,-0.19726593769213607,1.0,1.2773998788647831
93,1.1935587625875008,1.0,4.21279889158623
94,0.27158466422228655,1.0,2.2483207752177448
95,0.9130487602978002,1.0,3.5543772809891845
96,0.9412525075910977,0.0,5.246912297375763
97,-0.6547276973015427,0.0,-2.6824761747507404
98,-1.7761035543571808,0.0,-3.804180229229044
99,0.4412776478771301,1.0,3.560163854473591
100,-1.4020724853883437,0.0,-0.9909913657754206
101,-0.2575359695629339,0.0,1.2655590309368654
102,0.4335828047304042,0.0,2.090183205450571
103,1.281664838129265,1.0,6.20333278679104
104,0.7310131720143596,0.0,3.7488258828728007
105,-0.7695341700306636,1.0,-0.44748457850098533
106,-0.18660937635409472,0.0,-0.12389116544179399
107,0.18979258482360886,1.0,2.638311017292479
108,0.2532237182299089,1.0,1.141831444528215
109,-0.045085634557424856,0.0,-1.2447838168124554
110,2.2849766255269355,1.0,6.691715799539724
111,-0.17717597181449501,0.0,-0.711585627436711
112,0.3835341855470214,1.0,2.6439565081752616
113,0.7238317747643398,0.0,2.7512528287199434
114,1.0063076693557442,1.0,2.6167576660960057
115,-1.1381569700964878,1.0,-3.317211749481699
116,-0.9939053932312673,1.0,0.7970772242765312
117,0.4682673982582603,0.0,1.3734886194531493
118,-1.3206190227248549,0.0,-1.6413170151556744
119,1.2437337585498096,0.0,3.594839135378219
120,-0.05149346493962679,1.0,2.535062138505287
121,-0.02702539973282851,1.0,2.900658495609123
122,0.159684851226453,1.0,1.209741424417331
123,0.9964196058536121,0.0,1.8027603709808098
124,-1.449240451706331,1.0,-4.715254671807515
125,0.7013776673948565,0.0,4.882515247666376
126,-0.547935647342828,1.0,0.7755263990909594
127,-0.5085275945486557,0.0,0.7165738544360459
128,0.5002444404871937,1.0,4.4656104056589
129,0.8013113749029388,1.0,3.185936937919569
130,0.6539742652387922,0.0,3.5521773500127654
131,-0.36598995582989025,1.0,-2.0580422642538663
132,-0.6325300620947408,0.0,-3.2028092199659017
133,-0.9725105087423189,0.0,-1.9183590591016344
134,-0.7220229168498611,1.0,-2.709327580104033
135,-0.11863716604842185,1.0,-0.8428882127044689
136,-1.1528357132279152,0.0,-2.6654208753136057
137,0.839241984594851,0.0,4.000569650693879
138,1.6271105990376826,1.0,3.1396995635904013
139,0.49804167239535185,0.0,1.7203903662606552
140,-0.8205822474318515,0.0,0.5454142981020117
141,0.24417857921461736,1.0,1.2413370343477546
142,-0.9872318850856542,0.0,-2.3775390469670694
143,-0.7589642419613688,0.0,0.18817279780645102
144,-0.5141856790508318,1.0,-1.1170700761263035
145,-2.0655149979007863,1.0,-1.7454832016824375
146,-0.08680504016814065,1.0,1.6341457575512095
147,0.12819634064603977,0.0,1.0193026484115724
148,-0.05189410650382748,0.0,-0.04996780589950711
149,-0.9609800445109064,0.0,-1.0408785660841078
150,-0.20474222288414679,0.0,-0.9981567840637449
151,-0.4603880137690233,1.0,0.940829220745838
152,0.7696157263764206,1.0,4.36752086884789
153,-0.42883843560411694,0.0,-2.7392229281906486
154,-0.22634070152502594,0.0,-0.7213688126462987
155,-1.3816835848903686,1.0,-0.5753279612771576
156,0.8283925486958309,0.0,1.4433479899213975
157,2.3305405130276022,0.0,6.654982339298664
158,0.3772878493904686,0.0,0.5670216131038266
159,-0.463169141593951,0.0,-1.4728641357480994
160,0.552499283531767,0.0,1.62231851478618
161,0.4329569640866471,0.0,2.3467848061232335
162,0.3327535307208529,1.0,0.37734722955676814
163,1.192823367608806,1.0,4.7356730320412765
164,-0.6942990833393305,0.0,-2.088236541201186
165,-0.2084204115416114,1.0,2.2354385544896247
166,0.03196079103505747,1.0,2.1293403162771933
167,-0.00935892762254121,1.0,3.126443818999066
168,1.228222329765201,0.0,-1.1315676851340795
169,-0.5665615720110323,0.0,-1.8830162472110377
170,0.030107497649519317,1.0,-0.9671495347606363
171,0.2960666169592162,0.0,3.207791145921971
172,-0.5495503273715954,1.0,2.2488040688075617
173,-0.3231651416215123,0.0,0.02183854223286108
174,-2.1233032661621514,0.0,-5.430822001753229
175,0.009049076599180193,1.0,1.3537157563562472
176,-1.0091397873726677,0.0,-2.7162338612988273
177,1.4566360487226127,0.0,4.281464439547116
178,0.02521004506916716,0.0,0.6267562680824773
179,-0.7138471701637756,0.0,-5.360384602499299
180,0.24312674928359285,0.0,-1.002250917344826
181,0.0680353462556369,0.0,1.2919075903511603
182,0.1600928902006746,0.0,1.194679456157277
183,-0.39560338640812465,0.0,-0.751915859468418
184,1.3353556690155506,1.0,4.635796014306246
185,-1.1318442203824117,1.0,-1.3726839790834942
186,-0.06376094049589039,0.0,2.2632769101297927
187,-0.286255407685937,0.0,-1.1921679363649873
188,-0.10955289380914444,0.0,1.538748275262944
189,-0.4863165823661718,0.0,-3.5758071772901165
190,-0.727161085827078,1.0,-0.0021388012002545587
191,-0.19380168969721018,0.0,0.858014224182374
192,-0.678342561537564,0.0,2.213717276477235
193,-0.43725374730147004,1.0,0.1797805167925729
194,0.1490872345990421,1.0,1.344462510536503
195,-1.0123161317414031,0.0,-2.1288035598723196
196,-0.9722340092190708,1.0,-3.5627397132609273
197,0.03138578140823655,0.0,1.4409087930319031
198,1.1956823838662414,0.0,3.5500369536126994
199,-0.965856947236963,0.0,-5.881268082630135
200,-0.5963426683269049,0.0,0.02203076240722901
201,0.4406875846679927,0.0,4.154390693649262
202,-1.2606761102654258,1.0,-2.89794529066508
203,-1.4163039064582876,0.0,-0.9517537348221203
204,0.04605143212614113,1.0,1.9017651287577253
205,-1.3088688952923189,0.0,-3.711628091899966
206,1.8788821241853566,1.0,4.735140929362996
207,-1.2204254248173654,1.0,-1.9535073444632036
208,-0.917091190075224,0.0,-2.818195192858713
209,1.4262303831848322,1.0,2.294687613817005
210,0.3273516286543729,1.0,3.875028871785221
211,0.07699812288205814,0.0,-1.64045154943426
212,-0.5108722117739621,0.0,-3.3788960737226317
213,-1.6647985095414453,0.0,-1.4970365422679297
214,0.8103155357466559,1.0,3.231654727059549
215,0.5494480191070648,0.0,3.3799982764528878
216,-0.878482587540349,1.0,-0.9236745049754269
217,-0.15989769909592094,0.0,1.6957021360756663
218,0.5957753148475058,0.0,3.9451163683680086
219,0.34995901484665165,1.0,4.818068257013055
220,0.20917715630645292,1.0,1.569618804451066
221,0.5271662643700457,1.0,0.09608706170772652
222,1.860232214501837,0.0,3.3965252685773706
223,-1.1902935916032638,0.0,-1.4060464397324486
224,0.47170037490460925,0.0,0.2355637531940274
225,-1.020749313022088,1.0,-1.114493745668779
226,-0.8612669227566688,1.0,-1.9157782405446055
227,1.484173406618477,0.0,5.429095477643755
228,1.4278667781585541,1.0,8.528152105204494
229,-0.2641640727450206,1.0,2.464623425424135
230,-1.142664227187771,0.0,-2.3906438086385
231,0.4271695534812641,0.0,2.7968402833485975
232,-1.5561653557613302,1.0,-2.3201801149604417
233,0.43587903850064624,0.0,0.7396726327639936
234,-0.8271909284120208,1.0,-0.86442394026106
235,-0.20363435314075592,0.0,-0.44188137362563285
236,-0.5742791681187362,0.0,-1.8114591222201475
237,-1.5960699693485654,0.0,-4.316014992972241
238,0.5571197877846031,0.0,1.4075248380754422
239,0.616494441088347,0.0,3.870474897362933
240,0.8350574121858876,1.0,2.3621248946464104
241,0.9519499366406122,1.0,1.4001980039289401
242,1.2442312205936048,0.0,4.692439651440511
243,-0.5877124348241604,0.0,-2.67064049515694
244,-1.622274825640738,0.0,-4.432634693740456
245,1.611230084558843,0.0,4.5830007974481495
246,-0.2599542224687574,1.0,-0.09364099340568757
247,-0.35211939931799846,1.0,-1.2861087085605658
248,-0.3006649332024206,1.0,0.5333284335029396
249,-0.33262980358700117,1.0,-3.161961266697949
250,2.2286853603443064,1.0,8.427955500447524
251,1.3279783775055547,0.0,3.704384668934064
252,-1.0217725154316737,0.0,-1.9812595157858819
253,0.85350695088917,0.0,1.9816408005662947
254,0.9342427659988839,0.0,1.8129521560535455
255,-0.7264158862577388,1.0,-5.184762628044746
256,0.5664058175791439,0.0,-0.11753920292774264
257,1.600971535081318,0.0,2.693518813082265
258,0.3672297903852621,1.0,-0.007870780286949763
259,1.7683321086568016,0.0,8.09155538151029
260,1.0955643612776496,1.0,5.74376979894512
261,-0.10029619669399172,1.0,-0.34944986688162427
262,0.49697457388318295,0.0,2.4460445250163976
263,-0.10676769188134758,1.0,-0.07764371887055796
264,0.28764236191165055,1.0,1.6892907555664018
265,-0.07950606949311921,0.0,0.27819926248837235
266,0.4109744812273154,1.0,2.82828891992508
267,2.274151660400966,1.0,7.096494138921429
268,0.0547795323609065,1.0,0.4506549829809654
269,-0.7319644143553105,1.0,0.26106781061729034
270,-1.4236556082620997,0.0,-2.7800256756749437
271,-1.1711732603395704,0.0,-0.5660673418526503
272,-1.1241195996575013,1.0,0.3312274075192041
273,-0.6906187132905653,0.0,-1.2307588739786137
274,-0.40514613778732295,1.0,0.6302080914304665
275,-0.6220874616457763,0.0,-3.5060749682339702
276,-1.4720266758710217,0.0,-4.707950543209943
277,0.6251535571687062,1.0,1.4848146921655492
278,0.8618158849849435,1.0,3.4742560725839873
279,-0.022550016465451173,1.0,-1.1143306336451138
280,-0.6238615963302405,0.0,-2.6894225800512523
281,1.7572199046427532,1.0,5.8830100872268405
282,-0.5492212084087993,0.0,-1.5567320702373646
283,0.4439241557945147,1.0,2.4061082603737605
284,1.0516396028926958,0.0,2.277846262256495
285,0.2714103144324008,1.0,0.6995224796609982
286,-0.6823321156494806,0.0,-2.5654181665090343
287,0.7021167744637565,1.0,3.8749640221837973
288,1.0859808531882895,1.0,5.644213922059256
289,-0.9152047469572254,0.0,-2.4380012432772133
290,-0.6167283107501619,1.0,-2.073472208991408
291,-0.08300243975626971,1.0,1.6364261674583898
292,-0.5489889814427407,1.0,-1.067309136202208
293,-1.555501508813888,0.0,-1.9523914996337788
294,-0.08604545174100373,0.0,-1.4239479260739667
295,-0.49068323051433016,0.0,-0.5170546684436342
296,1.2871746138782305,1.0,3.3060591301788316
297,-0.36055320961027043,1.0,-0.1293457459946158
298,0.1772538523240613,1.0,4.286104077836097
299,0.6402316772723121,1.0,3.0760106141523487
300,0.3423084323383684,0.0,-0.25849907623462093
301,1.6417001356543446,1.0,5.936947184332429
302,0.19018188946096956,0.0,0.16791657509593433
303,1.1638655750784992,1.0,5.415278034315748
304,-0.6276693702306197,1.0,0.18882432628893936
305,-0.035439915526051066,0.0,0.10810681000482696
306,-1.6931689204148086,0.0,-3.207622758433589
307,-0.1909599965104803,1.0,-1.9219718782188508
308,0.0005104064973014711,0.0,1.939371742454413
309,0.11141127288354824,1.0,1.7279292249258074
310,0.613841118065228,1.0,2.8241799816133843
311,0.40299765773596363,1.0,3.6666561467636902
312,0.21053549847895908,1.0,0.9053710770714993
313,-2.060624743551188,0.0,-5.447139312411402
314,1.1454294453989542,0.0,2.511630777790676
315,0.4608765448744058,0.0,-0.4976653106315998
316,0.10413331628560903,1.0,2.0968185304972113
317,-0.12090681757993432,0.0,0.12022814767892936
318,0.9747447476165831,0.0,2.9482905060956193
319,1.3053349341638203,0.0,4.443939038850024
320,0.1971470926000798,0.0,-0.10480669738025727
321,2.916178626252655,1.0,9.985382496445887
322,-0.7769498428945445,0.0,-0.20199023582753028
323,0.7153284067416629,0.0,1.6710762578324267
324,3.064481709693601,0.0,8.609159816055353
325,0.85716471813112,0.0,4.057632834819943
326,0.1269550281024801,1.0,-1.55699336568699
327,0.5947062970030168,0.0,1.1498847474860077
328,1.1343562927821513,0.0,2.8268806051509467
329,2.2931472917321845,0.0,6.221994733041388
330,-1.007680023309801,1.0,-0.35012193932549485
331,0.09524901126815823,0.0,1.958001202208794
332,-0.28511069469436123,0.0,0.5425817009178266
333,0.5681792906456967,0.0,3.33402425643155
334,1.6695184205784568,0.0,1.7810614080350335
335,-0.3236421944852483,0.0,-0.7867351709744236
336,0.13035823264386218,1.0,3.161047174513358
337,-0.9716058603808586,1.0,-2.9237484473247117
338,0.5240907463963435,1.0,2.2588123274157126
339,0.4562061680236789,1.0,2.917027541785103
340,0.619662368433463,0.0,1.5352018935208025
341,0.16329132913461133,1.0,-0.9097438186584362
342,1.0740864580374345,1.0,4.348026148388741
343,0.6590765368184356,0.0,4.006849039789655
344,-0.11146068621525612,0.0,-1.060077597516214
345,-1.0188878389844973,1.0,-1.518349756868765
346,-1.8337384972545412,1.0,-4.326563937832931
347,2.276204169646847,1.0,7.294758418110944
348,-1.5210915843914803,0.0,-3.433165327729508
349,-0.7063363446122445,0.0,-0.6340818502002213
350,0.37523397343106607,0.0,0.5000905787055452
351,-1.2983585009359087,1.0,-3.5324584891064967
352,1.5535174747254972,1.0,3.7104957930442675
353,-0.07119835101046065,1.0,-2.142637008773881
354,-0.5450317462543736,1.0,-1.2517310527327763
355,0.6404374932047097,0.0,2.3085082017251644
356,-1.1328074509998995,1.0,-1.5279863876744086
357,0.9528387251484679,1.0,4.3932514014822
358,1.9240978775158437,0.0,7.685248976322149
359,-0.4735693391142811,1.0,1.6008255861755418
360,-1.056448433621149,0.0,-1.5718496890244573
361,0.3155428937334631,0.0,1.8723381733115132
362,1.115442270966357,1.0,5.96027772379594
363,-0.7099394031781509,1.0,-1.0192257241269682
364,-0.20611574829118504,1.0,-0.2755432602511766
365,-1.0795779226493156,0.0,-1.5467287146697495
366,-0.5261316552699494,1.0,-1.4393811945982116
367,0.9107090855847796,0.0,1.1613670480688032
368,-0.970148004771667,1.0,-2.923226178933175
369,-0.05046556142464508,1.0,0.79064696592238
370,2.5028723484581055,0.0,10.587570402926211
371,-0.27412331911149074,0.0,-1.3088228449194146
372,-0.28528359972861533,1.0,1.3568874701762563
373,-0.36731911563962516,0.0,-1.8576884125514723
374,-0.5464716446573633,0.0,-0.18065464167676543
375,0.09397210203709581,1.0,0.09633157421270278
376,-0.6687103293364177,1.0,-1.9797785553288407
377,-0.06963025540284869,1.0,1.1231105731952058
378,0.7986514402469764,1.0,2.4946246486701575
379,-0.10945554890389944,1.0,0.049995751593577525
380,-2.3689544045072934,0.0,-3.641170244141197
381,1.0723232226952444,0.0,1.603767951659976
382,0.42478790540942235,1.0,3.2678596166614815
383,-0.0035159840062298857,0.0,2.160694453006706
384,-0.2633080115927717,0.0,0.03035674842962699
385,0.2985087207694635,0.0,1.7432978227553682
386,-1.0241177393108365,1.0,0.3223236654050784
387,-0.5995916081202043,1.0,0.03469185934847563
388,-0.18272274681936698,0.0,-0.8103764461863435
389,-0.45524835139014225,1.0,-2.074565268337392
390,0.7340658162958559,0.0,2.708320798158288
391,-0.507433677852069,1.0,-1.1145687506466626
392,-0.5539472136572533,1.0,-0.526848817455221
393,0.5359360434172042,0.0,0.7332533167651587
394,-1.5046283028415173,0.0,-2.867775573997556
395,2.460326971103808,0.0,5.905985112070843
396,-0.577841582174126,1.0,0.789362544321655
397,0.831179896935251,0.0,1.6038368165002554
398,0.307579763976609,1.0,2.03045989473511
399,-0.6397885128550483,1.0,0.48047630194867796
400,-1.6666321803080364,0.0,-4.787311456791035
401,0.06243053530425613,1.0,0.7275650762832935
402,0.5756481669011044,0.0,1.4816559382363954
403,-0.9178086991876616,0.0,-0.200666157305201
404,0.7911358097460832,0.0,1.494445823167904
405,-0.3029091149272156,0.0,-0.6238041820788499
406,0.6817732891622845,1.0,2.923692623290533
407,-1.24631272411522,1.0,-3.0828676728358193
408,0.2733594452290982,1.0,2.8640933375345474
409,0.9395672826756601,0.0,4.095703763490482
410,0.6603706620708029,0.0,2.648327748447382
411,0.8167412769353339,0.0,2.5721374651981423
412,-0.9426159855738124,0.0,-0.41918323720261386
413,0.7103412936011168,1.0,6.494330350544274
414,-1.1533697039302326,0.0,-2.8624115255093927
415,-0.3770936677630352,1.0,-2.3806957687072146
416,-0.8038926533985036,0.0,0.8986330358161682
417,-0.8718187581975345,1.0,-1.6842108938229203
418,-0.2884087879584386,1.0,0.2972282817559402
419,0.4270809577174638,0.0,3.6604831221776664
420,-0.714905200311663,0.0,-5.313313313014361
421,-0.2823912003519596,1.0,0.6633205040057522
422,0.34610061780273166,0.0,-0.5649986928694486
423,0.3987411392612257,0.0,4.041711793064024
424,-0.9580735705169371,0.0,-1.2259071594725717
425,-0.2639335713005048,0.0,-1.5581911656495064
426,2.155058138561674,1.0,5.2401041779446675
427,-0.5667778690028664,1.0,-1.5906321005068653
428,-1.0287696332023157,0.0,-0.7169626005302439
429,-1.1418475364157787,1.0,0.49143775964604686
430,0.7316422313394049,1.0,5.686313148359963
431,-1.2831727243767777,0.0,-5.550884274904749
432,-1.437419632299034,0.0,-4.530919137956676
433,-0.1411866178925874,0.0,-0.9822927516833925
434,-1.2625312649433862,1.0,-1.1633347511004284
435,-1.1844026720816245,1.0,0.49532005050680095
436,0.25443810325712707,0.0,1.0978863573152298
437,0.4945194185044126,1.0,1.268544987144149
438,-0.5158272095326171,1.0,-0.5738126615280583
439,-0.4900422011748285,1.0,-0.1801070128693244
440,-1.3923890428176995,1.0,-0.27773564415229135
441,-1.5286318728622097,0.0,-5.5370485151867275
442,-0.7770689848405268,1.0,-0.047423908476038404
443,0.26767584816927653,1.0,4.030788395119282
444,-1.1179860940244708,1.0,-0.2952084648967723
445,0.14577479318450426,1.0,0.5238558758279415
446,-0.19341658882890336,1.0,1.8033135433966976
447,0.9205512757273228,0.0,2.451870402939388
448,1.5594667261021484,0.0,2.736216085778109
449,1.3280474027476732,0.0,2.8590199824248677
450,0.6747717605786461,1.0,1.8879894033607245
451,-0.05570956143652461,1.0,-1.0283542408636792
452,-0.5564035890464571,0.0,-0.12565068967791082
453,-0.14502110094973358,1.0,0.4537444646878226
454,-0.06555765492539345,0.0,0.02566163650121689
455,-0.6597833451072647,1.0,1.5064771673440047
456,-2.0598869496900107,1.0,-5.978075575013869
457,-0.75680776761761,0.0,-1.3881821361561146
458,0.24566268224732235,0.0,-0.555542419997158
459,-0.11915613879069856,0.0,-1.8916012877811383
460,0.5449179437718522,1.0,0.0006816715462762968
461,-0.04953550519797264,1.0,0.9537799415184021
462,-0.5176575194882053,1.0,-0.5385349256358858
463,0.10043999735680958,1.0,1.7434716147650824
464,1.2246195159113262,1.0,4.413250620631126
465,-0.2607125862380741,0.0,-0.5543075630738371
466,1.3293400391815262,1.0,4.7771336349872024
467,-2.1293893975282594,1.0,-4.2761087849871116
468,-0.6306395161501196,0.0,0.2239699157391778
469,0.02078070467934338,1.0,1.1465259340103167
470,0.5827953075107964,0.0,2.5748231008644478
471,-0.5487658782029443,1.0,-0.9549212148644423
472,0.10437785709997092,0.0,1.2052747966115938
473,0.1645564443756513,0.0,2.1132115916457357
474,0.12882390343395236,1.0,2.7046519537041256
475,-0.3944796467200595,0.0,-1.392111881729749
476,-0.9646328868449802,0.0,-0.8512001981933597
477,0.5308527007919954,0.0,1.9547011913925783
478,-0.004904848029664802,0.0,-0.7685362642509892
479,-0.8153613291066545,0.0,-2.6880074211823186
480,0.05258678703831692,0.0,1.529331909292491
481,-0.0685328835130633,1.0,-0.5114615920556134
482,-0.5987654449149252,0.0,-1.7503241817442756
483,-0.7390301371328428,0.0,-2.2821526725864896
484,-2.3535431068288677,1.0,-5.601421930232251
485,-1.2587395395151038,1.0,-2.8975281025152686
486,1.083520463800425,0.0,-0.7933751817428623
487,-2.2621038885782303,1.0,-3.4779186425078903
488,-2.2731450030986164,0.0,-6.37922342732754
489,-1.6949279730493656,1.0,-3.0403807139808077
490,0.12966458974103356,1.0,0.8813425320742645
491,0.5482847334845553,0.0,2.7463407260591346
492,-0.7187727360099985,0.0,-1.4895265131489959
493,1.1321879734452824,0.0,2.90048644397229
494,1.391798107955997,1.0,6.793013196260071
495,1.5280238794813552,0.0,2.6535167969240336
496,1.31826487503984,1.0,2.4406343352047633
497,-0.5621789372951312,0.0,0.3260641966390945
498,0.04079009675866929,1.0,4.51798153499852
499,-1.5206628325547888,1.0,-1.8855636092737629
500,1.0606834220709491,0.0,2.231047423285188
501,-0.3404193495220192,0.0,-2.913175557852187
502,0.76720589750603,1.0,2.785594023803894
503,0.6396249273681857,0.0,4.653886868325523
504,0.22417552652814948,1.0,0.4453136556062392
505,-1.2890203196189465,1.0,-0.48652642244574884
506,0.5648085883965193,0.0,2.285053662530758
507,1.6360735881889943,1.0,6.712800852359156
508,1.074623570443591,0.0,2.2278984499614634
509,-3.256000651970296,0.0,-5.592717499297439
510,-0.3852521086444578,1.0,0.887706352220156
511,-0.15698318672831435,1.0,0.8676959459379818
512,2.6031632373692593,0.0,6.537077143028785
513,0.6452964078520352,1.0,0.2865459985343106
514,0.21866094261876082,0.0,3.5924591924441125
515,-0.08256793743493021,0.0,0.04217045206274789
516,-0.02898985296518476,1.0,5.25081030413239
517,-0.09000521393614956,1.0,1.1909969703618764
518,-2.0534539026566643,1.0,-3.040368632377623
519,-0.9058867282749168,0.0,2.10005570467791
520,-0.5286063775880657,1.0,-0.8053443138112801
521,-0.9364779261965295,1.0,-1.6221353429882708
522,1.1588176327941409,0.0,4.524393099955379
523,0.7168702898874267,0.0,1.0739205175918776
524,0.31287107745996856,0.0,-0.3220353252918788
525,-1.062959344921527,1.0,0.2419085038414321
526,0.058348206340614175,0.0,0.901914274718352
527,-0.17920144497948864,0.0,0.2009935733170891
528,-0.1303219000870665,0.0,0.3216205105233101
529,0.8129128222076015,0.0,4.077174009321216
530,1.1954312436177879,0.0,4.072034798385227
531,0.3801687222801622,1.0,-0.16104531989302973
532,-0.7347121040143438,1.0,-0.4077509001575109
533,-0.8104705226238221,0.0,-3.4823000687278434
534,0.04168068937671538,0.0,2.045732147377664
535,0.1297141349601051,1.0,2.889295692102342
536,0.4970776475721738,1.0,1.5825595606468883
537,0.8750219830200744,0.0,6.045923834906889
538,-0.9258363591153058,0.0,-1.2562803687761
539,0.5666688891027627,0.0,1.8069312863078095
540,-1.3497007721390097,0.0,-3.483115614743949
541,-1.941114673244685,0.0,-3.8195104707048135
542,-0.25746250878126814,1.0,0.8539776602343728
543,-0.2490791495893751,1.0,0.13198096795055086
544,2.312747887866223,0.0,5.8608225900300885
545,-0.8046328061140355,0.0,-2.259423763014001
546,0.590695777847387,0.0,-0.4277248130208926
547,1.3916958619153994,1.0,5.561772637311721
548,-0.5787105330423598,0.0,-3.45358410227887
549,-0.05742559500858992,1.0,-1.4348121181489761
550,0.03017532712920041,0.0,2.8674617658176302
551,0.16601579217880888,1.0,1.1465087856791922
552,-1.176942110778464,0.0,-0.6334620596134242
553,0.4839859500463646,0.0,-0.47223693074368733
554,-0.5976456208952211,0.0,0.25223734953485
555,-0.7990618231859975,1.0,-2.566816320700364
556,-1.5204365217989315,0.0,-2.7719748742110726
557,-0.1787154661282635,1.0,-0.5148422105116202
558,0.3608829679624701,1.0,3.1116657483787415
559,0.5805857870015088,0.0,5.192542040111185
560,1.3826847012103711,1.0,5.961077070740561
561,0.691718551119153,0.0,3.0138222450901995
562,1.3044483008869077,0.0,3.6690940199727744
563,0.84083637324046,0.0,2.642202145636882
564,-1.1312876043632052,0.0,-4.957977491450766
565,-1.5775017659280195,1.0,-4.752318530200315
566,-0.6160798341803074,0.0,1.341757578877849
567,0.5491751465945655,0.0,2.28228597368242
568,1.7809639335750644,0.0,3.86765293502941
569,-1.0739126991646184,1.0,-0.6604377776801111
570,-0.4737804063856581,0.0,-1.7028156126701912
571,1.0477147610267896,1.0,2.0220024807919756
572,-1.0810104461459993,1.0,-1.5741011630733084
573,-0.3669948476103597,1.0,2.8139907259107853
574,-1.3343646192677345,1.0,-1.407965488584546
575,0.6219574592926713,0.0,3.48483277389516
576,-1.6492927121003234,0.0,-3.959295701588353
577,0.6617505404629942,0.0,0.8685495165780828
578,-0.13488684360862763,1.0,-0.20609017665870932
579,0.25645753246516606,0.0,1.1637482917213204
580,-0.49311694334341005,0.0,-2.06738465998033
581,-1.2372459049996893,0.0,-4.447086601007135
582,0.04634816629733103,0.0,3.087820501518442
583,0.6945920152763209,0.0,3.8033759357088086
584,1.0432772264953596,0.0,3.1989738548132407
585,2.741011296985879,1.0,9.261737618471674
586,-0.20173432518960144,1.0,3.4372685067389765
587,2.054098902471759,1.0,7.792296777764183
588,-0.0244299675864399,1.0,1.1847249437447618
589,1.189882942207279,0.0,2.9642051904693356
590,-0.31166951306940915,1.0,0.7714414167950636
591,0.4535769152103189,0.0,0.21311614000326212
592,-0.08255450803223209,0.0,-1.364991425494356
593,-0.8315187103212798,1.0,-1.7568613047705282
594,-0.7693399143318158,1.0,-2.6595109552598197
595,-0.8988774145375621,1.0,-2.0839155290009046
596,0.13499909031363524,1.0,1.1997645138756625
597,0.00015192222523849731,0.0,-0.2565771689006344
598,-1.6525602568015276,1.0,-4.010652855951162
599,0.022727205739134768,1.0,-1.1176461959962367
600,-0.44469603550199427,1.0,-2.2318638219134073
601,0.21401144291480104,1.0,1.6502237636610695
602,0.3485817025685385,0.0,2.6430876836500405
603,1.2072117408738305,0.0,1.7862445044098751
604,-0.34512697455025704,0.0,0.2502471195159994
605,-0.27056098637580145,0.0,1.6368836071066453
606,0.09559152899839424,1.0,2.1096302046437785
607,-1.5536280106525449,0.0,-1.4235717027502044
608,-1.199514215727731,1.0,-2.4631835688006802
609,0.1326153500007782,0.0,-0.6307348732429048
610,-0.7780649974085718,0.0,-0.9100886502997665
611,-0.7817118961710089,1.0,-1.6413723584773932
612,1.4626325489063483,0.0,4.924529089340542
613,-0.4870132505499902,0.0,-2.2453777940852606
614,1.1212052822603562,1.0,3.003616973145288
615,-0.034646011511933784,0.0,0.9623247855890497
616,-0.632202983356964,1.0,-0.01873502303240393
617,0.32156359111733734,0.0,-0.2611226968815926
618,-0.8242242589066349,0.0,-2.9762698994846706
619,0.03749163813867375,1.0,0.06103392816783226
620,-0.7646610609268502,0.0,-0.819675622442533
621,-1.1330629510177475,1.0,0.3085660579369174
622,-0.2874501883673935,1.0,-1.8791187430433625
623,-0.02576053780527655,1.0,1.5226644862520649
624,1.0148946509870453,1.0,3.4827071072237583
625,-1.5290403732054196,1.0,-2.653562983176256
626,1.6224204807022204,1.0,5.074687191855764
627,-0.8873618787238684,1.0,-4.813512367012824
628,-1.5211368398296834,0.0,-3.083722912645328
629,2.285351540107497,1.0,6.16231487817552
630,0.8678407653485011,1.0,2.4929154662628363
631,0.2240719970572599,1.0,0.9131439639243445
632,-0.3213440095169785,0.0,-1.924375672513694
633,-0.9050878179182512,1.0,-0.41310174449620396
634,0.44340528257571177,1.0,2.352328967978656
635,0.6413089881733155,1.0,4.219265298098502
636,-0.7131011241488877,0.0,-4.4978589790357875
637,-1.4089213209081846,1.0,-3.2383955460192912
638,-0.07293220388621717,1.0,2.0355943834430197
639,0.4986541840413497,1.0,2.064056238568901
640,1.0988483772992936,1.0,2.248772896308518
641,0.0409165656003227,1.0,0.36588193541396014
642,1.417304239164795,0.0,5.297608716307927
643,0.7197642254929013,1.0,4.846000644164521
644,0.6451036358498801,0.0,1.3222720339157166
645,1.8028160579885313,0.0,6.890247286859914
646,-0.7431945173455442,1.0,0.3146207995704581
647,1.0877704013876388,0.0,3.9112172088274946
648,-1.9763341821227394,0.0,-6.4094310217075545
649,-0.5458226215378456,0.0,1.772623619408201
650,-1.2240652517700066,0.0,-3.09179601816707
651,1.9650518661323595,0.0,4.386422245518632
652,1.105140746781987,0.0,4.140336469540154
653,0.09299407924787395,1.0,-0.5349639840318849
654,-1.4923629803501337,1.0,-1.2259642569341729
655,0.2417673296563444,1.0,0.706788657354304
656,-0.5981178474064415,1.0,-1.549783144477769
657,-0.727961484220469,1.0,-1.9885386995589371
658,1.3629265852299153,1.0,1.7068296351980723
659,0.7131828559019708,0.0,3.189206525867422
660,0.9913686196528823,1.0,4.795782838174209
661,1.1041780957789018,1.0,3.564550690383885
662,0.11069509822877154,0.0,1.0954177455199683
663,-0.5309538547563414,1.0,-2.1526122118211557
664,0.44246691931415283,0.0,1.6108489732440072
665,0.9093723117046897,0.0,4.573979037432304
666,0.4397946550264115,1.0,0.06462889542502781
667,-0.02404409459683821,0.0,1.27877690810045
668,-0.7420495328898681,1.0,-4.213741834571022
669,-0.12770186346948004,0.0,0.09880288481494504
670,0.7234727188486917,0.0,3.533281695189802
671,2.176119617636337,0.0,7.671713893400481
672,-0.05455878050116319,0.0,-0.8883181451165176
673,0.9989658480366955,1.0,2.2015364047629387
674,1.6769793334083096,0.0,3.084312764771462
675,0.761168502095424,1.0,5.043921721587831
676,0.1529625683706652,1.0,-0.3838479317851551
677,0.43056508640343183,0.0,3.182365665302702
678,0.9594940665114152,1.0,4.235344272482959
679,-0.06825441530017692,0.0,1.4332533540418861
680,-1.0296656293644353,1.0,-2.8712268663304927
681,0.6088393460038749,0.0,2.315553769566408
682,-0.45148648977165495,1.0,0.7476178997979355
683,1.0172367544782281,0.0,2.388098485522395
684,-0.09714759603528035,0.0,-0.8195954139817301
685,-0.35300701078248886,0.0,-1.6263392618225159
686,-1.0518165156486607,0.0,-2.0370393445145165
687,0.6888180757642259,0.0,0.9273388290946607
688,0.17350950766310086,0.0,0.43700742900250045
689,0.12857957381924787,1.0,-0.3989057302016181
690,-0.3694882630699774,1.0,0.8964772425308042
691,0.13658997727333,1.0,0.5180945509813679
692,0.8202768570125238,1.0,3.535403516532846
693,-1.354102251064348,0.0,-0.287126170131039
694,-2.1978794971985676,0.0,-4.351261797558667
695,-0.2568293022064962,1.0,1.6530565120858398
696,1.1986923488504984,0.0,4.551340252125078
697,1.7656533894862865,1.0,5.084206640884223
698,0.13329497278244404,1.0,0.5382842390337289
699,-0.10417258557827638,0.0,0.540351198518457
700,0.08966424160071314,1.0,0.9832238106880473
701,-0.6076325803378012,0.0,-2.153038827850947
702,0.012470236802485475,1.0,1.8140788615412036
703,-0.5308947415984395,1.0,0.48104490805890987
704,-0.9479115171572486,1.0,0.04280495990664379
705,-0.034274169576687816,1.0,1.720059199116926
706,-0.5343673755363981,0.0,-1.2082683935704792
707,1.4991636714300742,0.0,5.3655503267736275
708,1.0118894826775906,1.0,3.425417574731247
709,-1.2277222467513424,0.0,-0.7501262398777258
710,-1.8765565503273185,1.0,-2.883813003060049
711,-0.4661223613985908,1.0,0.20715134248769407
712,-0.5908809545558669,0.0,-1.1025014109314444
713,1.787910253136282,0.0,5.258632567675018
714,-1.309316093933894,0.0,-3.256826556802208
715,1.3522291414441727,0.0,5.456914827515189
716,-0.7520573676269491,1.0,-0.06318469437427887
717,0.8636486393579987,1.0,3.3019107107101426
718,0.46150334433580575,1.0,2.195071849412967
719,-1.9150381462255026,0.0,-1.1460367575907993
720,-0.3615796779134963,0.0,-1.3738684156837215
721,1.0118171737234594,1.0,3.9664546464955213
722,0.15765868756322185,0.0,-1.6411661124978467
723,-0.9880556923750377,0.0,-1.3344166151197863
724,1.9408279447265884,1.0,5.104381642889829
725,-0.23803681558691991,1.0,-1.2259200078236596
726,-1.544419814320996,1.0,-2.796098071744536
727,0.9889713355919681,0.0,4.666838063057782
728,-1.2062434664446509,0.0,-4.9169662640306235
729,-0.7039843062619673,1.0,-1.3836145743040416
730,-0.3956925891752939,0.0,1.8156599149405281
731,0.5816637639690593,1.0,2.0376678094848106
732,1.5270221823643249,1.0,8.220613046229811
733,-0.7450986951628408,0.0,-0.5931534709080915
734,-0.23711721933740718,1.0,3.1643232697157675
735,-1.2264415216383486,0.0,-2.2962307365743766
736,-0.42267089718218737,1.0,0.35266528520497986
737,-0.03141726372733613,1.0,0.44400068038060103
738,-0.8160635344985644,0.0,0.8287399712885448
739,0.40228645087612047,1.0,1.1760555540966346
740,-1.1683967130156223,1.0,0.552917393298781
741,-0.43719062346386284,0.0,-0.16039120253132788
742,0.4457741042091223,0.0,4.178475690174578
743,-0.005716907468838707,0.0,0.49698849447308
744,0.24442606207380188,1.0,2.432663811695726
745,0.1873259251264003,1.0,2.297238677692351
746,-0.07824924146309686,1.0,-0.022300353267802664
747,-0.645176214646963,1.0,0.24985171657697186
748,-0.5834123154547576,0.0,-1.9952177807422933
749,-0.8695931757272899,1.0,-0.6874285574337111
750,1.3864280273639389,0.0,1.6479656277535577
751,-1.6396126566363758,0.0,-3.4628678943760085
752,-0.1138973273677834,0.0,-0.9580736754153877
753,-0.44274833001267255,1.0,-2.256479254066364
754,-0.04932758847651428,1.0,-1.9533472945580592
755,0.5619029485747525,1.0,2.5953801364442404
756,-1.1490958781769343,1.0,-3.0336652238298707
757,-0.03198118866616096,0.0,-0.6936256115118451
758,-0.8986464805063878,0.0,-0.46039518969192106
759,1.322611273208036,1.0,3.4615589515457743
760,-0.3145860769703426,0.0,-1.3208939408482454
761,0.37134850147288123,0.0,0.28017641516409314
762,-2.163968428212487,0.0,-3.311230155533245
763,-1.025676136832085,1.0,0.6702728845578609
764,-0.6008101746873837,0.0,-2.7817455529680384
765,-0.38730161046952744,0.0,0.6393082086360377
766,0.9385110979274418,1.0,2.3853683218246675
767,-0.8825186076830611,1.0,-0.34408756222223835
768,-0.2958618968703076,1.0,1.701575574402343
769,0.04823263692108349,1.0,0.5393312758330202
770,-2.799856021857318,1.0,-8.200260792222998
771,1.1229715758249157,1.0,3.3959839103753398
772,-0.127008121694335,1.0,-1.0434738369218044
773,-0.6362100528737884,0.0,-0.06820540597484048
774,1.830588247764849,0.0,3.0118710953061285
775,2.2031829963924863,1.0,5.6867338544047366
776,1.045318562463194,0.0,5.141562107954691
777,-0.05707663388766897,0.0,0.6992891301288737
778,-0.7887828970591728,1.0,1.2427144335718745
779,-0.32186310698552,1.0,0.9117391560919217
780,0.36703578403266846,0.0,-0.7099354067407604
781,-1.559521287284539,1.0,-2.265555592006032
782,1.1163924702780048,0.0,4.31259519355526
783,-0.6453371411450888,0.0,-4.087780650309482
784,-0.3229795615771753,0.0,1.8898494346218997
785,-0.47517262189336423,1.0,0.17084997931452983
786,1.724089174901823,0.0,4.867321224163528
787,-0.38237623485308203,1.0,2.0852064762583185
788,-0.10151786164820469,1.0,-0.6623125239691785
789,0.4017462535854317,1.0,2.9943002980181035
790,0.5441041457348171,1.0,4.611257907923502
791,0.5852683733680316,0.0,2.097591689147573
792,1.466443219518339,1.0,5.133667889966
793,0.5848741977823008,1.0,3.396583489102915
794,0.8841196204780255,1.0,2.7627982850066637
795,-0.6673732385096686,0.0,-3.203701416445596
796,0.7573994002029537,1.0,1.6277276206659728
797,0.8665569052488774,1.0,1.5796619888485774
798,-0.5249585129115768,1.0,0.6412453203578137
799,-1.3974680799883206,0.0,-2.5677754363478007
800,0.8755170864585441,1.0,3.695233608255538
801,-0.8960663145437817,1.0,-0.04405433475790632
802,1.5405832131336579,0.0,2.1834127522187314
803,0.16831414498262454,1.0,0.1423641604872108
804,0.5627693748762358,0.0,4.815715409709886
805,-1.024068242560805,1.0,-0.029631962479100937
806,1.2728201487648834,0.0,4.673699069050084
807,1.0848509781811033,0.0,1.9868453447068872
808,0.09177698689682275,1.0,0.286108412369247
809,0.47315501112515573,1.0,4.469019225937075
810,-0.6119291543340565,1.0,0.17900031729401306
811,1.5429885851591296,1.0,5.094783077765261
812,0.491983255630785,1.0,0.587888694957262
813,-0.44722385791830704,0.0,-1.8340065564105994
814,-0.24224379003789348,1.0,1.3051017837570844
815,-1.4441484747084599,1.0,-2.13827664210702
816,-0.36645852383563676,1.0,0.701312126527742
817,0.7909303935723576,1.0,4.63490171718035
818,-1.7212674369250949,1.0,-6.208681700739403
819,-0.07707342360695858,1.0,0.9681640096787273
820,0.9036062487786543,0.0,4.513278838891468
821,1.7972496728828726,1.0,6.580370720506317
822,0.7606816444303438,1.0,2.032180294469611
823,-0.17689116328252436,1.0,2.796264606887557
824,-0.5624393094228685,0.0,0.9744560517028665
825,-0.6821990925577758,1.0,-1.148833632078558
826,0.05838009841782562,1.0,2.4115761348116087
827,0.7004180006671722,0.0,2.434906868009276
828,0.5961480140904116,0.0,3.270212539072105
829,-0.9553829501107821,1.0,-1.9247109473228565
830,0.001953003560283791,0.0,1.0114382862511282
831,1.1136855246269013,1.0,6.679564949074397
832,-0.4336454688075014,1.0,-1.5359124140940126
833,-0.07640586280185899,1.0,-2.921881799509552
834,0.7367095840176884,1.0,-0.46512721312990024
835,-0.4146796749873837,1.0,-1.8717889329757635
836,0.779731476996479,1.0,2.6298378579352097
837,-0.5440046079302129,1.0,-0.8969426497468679
838,0.38641839926206695,1.0,3.8694479044225263
839,0.957193971777274,1.0,3.1487259926605544
840,-0.5648862086941796,1.0,0.10895281336873353
841,0.2832316368594366,1.0,2.278941239062878
842,-0.4259348991701006,1.0,-2.784595523156298
843,0.9244528822815445,0.0,2.8586087654904766
844,-0.5595790342332282,0.0,-1.0503090713696193
845,1.1999085636852043,0.0,1.3683224165826562
846,0.10925252673013686,0.0,-0.9355572136962264
847,-0.5372489475149188,0.0,-0.452255517272951
848,-0.9775858776725749,0.0,-2.550461813852899
849,-1.257105863121274,1.0,-4.236543855052747
850,-2.040109035961837,1.0,-2.8343275889493222
851,-0.44140662926898677,1.0,-1.6938731281335375
852,-0.8019458237311794,0.0,-2.5831218532431883
853,0.9940657775492712,0.0,3.1148120748384955
854,0.7202336378415708,1.0,4.168150617037721
855,1.7792668061222328,0.0,6.7760975463540785
856,-0.11528648382705235,1.0,1.3771901608439683
857,-1.3922434517934705,1.0,-2.4048076164000385
858,-0.27468116846553675,0.0,-2.37590459215181
859,-1.4327544409708564,0.0,-2.1374334298822957
860,0.2780966052605248,1.0,2.15062928095288
861,-0.6071363945952519,1.0,-0.2785006840958342
862,0.23510270022840965,0.0,0.4154822315913889
863,-0.6766848161760673,0.0,-1.173541621407776
864,1.2633051293277946,1.0,7.467549029877839
865,-0.3587471014876099,0.0,0.24870443849563562
866,0.22507798149188657,0.0,-0.3054063029243934
867,-0.6286323104047824,0.0,-2.167534269226591
868,-1.7984416457096881,1.0,-1.4407790369888898
869,-2.0936491477145482,0.0,-4.501471919002042
870,0.3752391376471599,0.0,1.0351833480045933
871,0.959227865151324,1.0,2.2062452717695584
872,0.8497327465650779,1.0,1.4929687890299266
873,-0.45477064921704313,0.0,-1.1536167676643359
874,2.3598873189229597,1.0,8.485982883771982
875,-0.49754040219798884,0.0,-2.7524414881263057
876,1.077784281917699,1.0,2.904433627324898
877,-0.5500514413376584,0.0,-2.0940825350022774
878,1.0189976233470517,0.0,3.8737108332566113
879,-1.3517132293701761,0.0,-5.185369866449756
880,-0.47001079353440683,1.0,-2.0385204155637573
881,-1.7289363204664283,1.0,-4.696323854602024
882,0.4047990316287025,1.0,2.226103634508884
883,0.3965403165363052,1.0,3.9323411085993687
884,0.19070841686400145,0.0,2.1267637432645103
885,-0.627380701856351,0.0,-1.3477748404754313
886,-0.3885545766006895,0.0,-3.258105037411731
887,0.5745206830476908,0.0,-1.2001943794974617
888,0.3834978073373038,0.0,2.937139165302838
889,-0.19035305633842176,1.0,0.04083032821488275
890,0.4943331256808121,1.0,4.683044145704563
891,-1.6167673573775099,0.0,-0.9400396544777014
892,0.5726802353484947,1.0,1.581715583581227
893,0.6649641278113633,1.0,0.5260801601021214
894,0.9395538129690487,1.0,0.5521146575805322
895,-1.747296039196228,1.0,-4.098176833169891
896,0.2209385423250479,0.0,1.7579859360220342
897,-0.4357665559525153,0.0,0.5300143681435299
898,-0.5694986324604665,1.0,-0.09909529069464629
899,0.4097696845015445,1.0,1.0474869712315091
900,0.08899717090132034,1.0,3.27171907531872
901,-1.291679863976658,1.0,-2.976599213985654
902,-1.2916021438469756,0.0,-1.43123900913378
903,1.040865702771331,0.0,3.209604900468574
904,-1.089336037113886,1.0,-0.8999994757003689
905,0.8739358365368938,0.0,4.115510862395038
906,0.3096529168241348,0.0,0.6066436937675947
907,-0.16357497731872891,1.0,0.3330667518269377
908,0.23558904046520115,1.0,2.4125805083620078
909,1.5691571365881125,0.0,5.156328829551405
910,-0.6659029009430627,1.0,-2.4234327577104913
911,-1.5944799988457978,0.0,-4.740962906260937
912,-1.7074481419849639,1.0,-1.621604960323976
913,-0.8459704911029559,0.0,0.2728505088567553
914,-0.151822885743828,1.0,0.947344363810549
915,-2.4074206106797336,1.0,-4.1987456785662145
916,-0.9427532367883283,1.0,-2.005360767788621
917,-1.5233439714487969,0.0,-2.289207551951702
918,0.5349826783678665,0.0,0.21428859119768906
919,0.697341754944254,1.0,0.9208769538111755
920,-0.3278631912429169,1.0,0.29568726617830754
921,0.01473141738544599,0.0,0.6807083549823095
922,-1.728598493515162,1.0,-2.218250986052373
923,0.09810933482830016,0.0,3.069416289931041
924,-0.7432150758844832,1.0,-2.8317217270297856
925,-1.4431244325697126,0.0,-4.48761783582909
926,-1.544985969415013,1.0,-0.8293447449524618
927,-0.33145112227748935,0.0,-0.08792115099258725
928,-0.34922206303371267,1.0,1.5557981498731652
929,-0.2707029934196051,0.0,-1.4064497476569517
930,2.129339437836549,0.0,6.405860220904321
931,-1.7100734750492292,0.0,-3.061754515517623
932,0.4865231391487173,0.0,0.5670819768882062
933,0.4214370835967314,0.0,3.4671983343937596
934,-0.6245416856436251,0.0,0.7242033188854742
935,-1.9078107504341661,1.0,-2.6974149063676536
936,-0.582055005948921,1.0,1.7263943321943067
937,0.04363590581348372,1.0,-0.3506136997282805
938,-0.869614707885635,0.0,1.1869708110280228
939,0.20057527399117073,0.0,0.0028286570084239404
940,0.49477826216157395,1.0,4.0569048492723985
941,-2.4888747586136106,0.0,-6.773118192221304
942,-0.8560029512275679,0.0,0.48927912482684677
943,0.4131800499648404,1.0,1.3417777666663184
944,-0.4773967120571497,1.0,-0.18579993601525116
945,-1.038814207429867,0.0,0.6342344670015476
946,0.19321128839869317,0.0,1.464841639933747
947,-0.042296196792369345,0.0,2.617282874151616
948,-0.23996560889573162,1.0,-0.49232940640376943
949,1.370536668163364,1.0,4.745266011578727
950,0.03570320031754619,1.0,0.28037020151635744
951,-0.25848640040798115,1.0,1.1147679554536958
952,-1.3460694978554306,0.0,-2.859809331650805
953,-0.5730634887148857,1.0,-1.7746060201709382
954,-0.9987792526819516,0.0,-2.9664717659951743
955,2.5391275560039097,0.0,7.116642801631765
956,0.4382574728515205,1.0,3.9157958916823294
957,0.06508971754473643,1.0,2.1441908114238135
958,-0.2109268121256367,0.0,-2.0277322808892517
959,0.17789846674704,0.0,-0.3505582504320048
960,1.468219050681063,1.0,3.8814855724323736
961,1.021584319722875,0.0,2.6459973412857685
962,-0.09836366559002628,1.0,-1.098127606814892
963,-2.1970164093333846,0.0,-2.2609003453851404
964,0.040006988014445,0.0,0.2401659512101717
965,-0.47023475346811233,0.0,-1.2095731126620413
966,0.880759742493615,1.0,4.162833279726645
967,-0.004338603915248378,1.0,-0.35835144012012876
968,-1.4068217127940623,0.0,-2.724228439664322
969,0.7226639672404124,1.0,1.0223943183505055
970,-1.1246518555041076,0.0,-3.764725524629317
971,-1.58923732794468,0.0,-1.7247659474259067
972,1.4139976082364398,1.0,6.359686422631851
973,1.1723217356155233,0.0,4.98114710082738
974,1.462975058512402,0.0,3.440765611046993
975,-0.5841306138564556,1.0,-0.9056206457525426
976,-0.5121269701112428,0.0,0.3180390640238796
977,0.025400602205904045,1.0,1.182979075731361
978,0.43407168321134565,0.0,2.9844235323110135
979,-1.0016192230350942,0.0,-2.3617338485257564
980,1.0301687142743101,0.0,0.8303444749771566
981,0.056292421412388126,1.0,3.4547378209447532
982,0.9969501924240362,0.0,3.305587929292636
983,0.4902342959869324,0.0,-0.32895669065930877
984,-1.38588971694924,0.0,-4.006371790580733
985,-0.4604641579593193,1.0,0.2880211913767635
986,-1.139781350520691,0.0,-4.583923615472683
987,-1.3481043129272328,1.0,-1.4441796534888602
988,-0.8204210151267796,0.0,-2.0427587522085098
989,-0.486333183210025,1.0,-1.2218280840438762
990,0.5832240276180176,0.0,3.2130518084559294
991,0.23118222516366344,0.0,1.153412099911871
992,0.12846180588267148,1.0,2.338430039580137
993,0.4357398313586139,1.0,3.2632420403013827
994,1.4880340634545581,1.0,6.498098550217573
995,0.3743341220035562,1.0,5.023852955134188
996,0.2015897230775491,0.0,4.625208031634599
997,-0.334880309333191,0.0,-0.7106590626538708
998,0.516392747345683,1.0,3.6598965392899103
999,-1.0599236573345638,1.0,-2.117548108229563
