,x,confonder,y
0,1.5051875523192293,-0.35509839512742836,-4.749566531414257
1,0.4715526776431029,-0.1678800395581975,3.6022950834706333
2,1.1356078446809112,0.16300789411734173,-1.4836240479437484
3,-1.9922275317158364,-1.5969085282458317,-11.37809299267043
4,1.0944280532201778,-0.32209256705030836,-1.4891895226544616
5,0.23748134918356834,0.6566382522862201,-1.8779314041249515
6,-1.3702967082385622,-1.1562709008269743,-3.0852953303562476
7,1.793785527582221,-0.2338079010560361,5.709725952976557
8,0.3840894530090325,-0.5111584977354544,-0.233252290803714
9,0.10246161097001011,-1.2631870716769968,-6.5587340065687005
10,0.5742337862505884,-0.05376211983016372,-4.302615665470052
11,-0.27025623023127787,0.03337712359619424,-7.044304018188518
12,1.8106462004559774,-0.03945010655403702,8.8538960455143
13,-1.0377404797762786,-1.5158227524864902,-2.3031859054567496
14,1.517947710472906,-0.1403463873329557,1.5143483544033987
15,-1.2004636241273579,0.7961159149496628,-2.204859724240828
16,2.778456401321446,-0.9917902935727547,7.036920291202694
17,1.2168685639585912,0.3111852602358553,2.6659634469006073
18,1.4933312728224626,-0.7932616634579258,-8.086652520020825
19,-0.7473776765174295,-1.3217738917133612,-2.7582470634952916
20,0.32288482675411434,0.36952569794131,7.398803502857889
21,1.1688278839618897,-0.0886284862470959,0.5980375540794302
22,1.6219457926533711,0.6245922597543672,-3.1604626890370335
23,0.06997980683512545,-0.33469612465921056,2.6667279457524242
24,0.8168801812503704,-1.4263071704404566,2.796447947583787
25,1.1271415407623535,0.045991744836402386,-3.0894244928070482
26,-1.438990548800081,-1.3021112807061845,-1.211803069393251
27,0.6212042277222127,0.3617187442189028,-6.552776045842543
28,0.7953458500495991,1.0217918829914905,13.414731594806963
29,-0.385578945939693,2.2571033982149666,4.534145432425941
30,2.5106137353432683,1.0912940644840632,1.0521289492917343
31,0.3478332692524022,-1.0078935094171029,3.456615908970106
32,0.7044912868775495,0.867503811484829,6.336918478188129
33,1.8987075730050158,1.426368433048988,5.758868742906921
34,1.0974806024234018,0.4833776033492294,1.7734138912816975
35,0.3824370664065382,-0.6193744230655917,10.779671977620616
36,0.8813959819914978,0.3022062944023531,5.858084142369979
37,0.5639520928826139,-0.42099514012510136,2.2697876146647644
38,-0.3381931141898411,-0.5451926995808145,2.58763096250011
39,-0.026089364610338617,0.7233323206619068,3.48410972046807
40,1.8607885312055767,0.16850645831963876,4.464754437604988
41,0.37240906008841074,-0.12290763452893004,0.3865500772383701
42,1.832398170692096,0.12843700297710314,-1.681269404261311
43,1.8132907097480802,0.3484748027770069,-1.7315519733205438
44,0.6619076778581898,1.0561705109699266,3.8997356112761272
45,2.0485429055213014,1.4811546333020218,7.824603155700362
46,-0.789731765642379,-0.7992240382128936,-5.383574689446201
47,0.1588882961114786,0.6962639645570506,-1.7751481412823171
48,1.9445298995298814,0.8664239320579713,0.12197703819267636
49,0.26145583041042686,1.315546915020265,6.58910878981226
50,-1.0647832448053645,-1.2318394387209721,-7.669733135128036
51,0.15460465450551825,-0.8199998914213383,8.03822779961845
52,0.925106957958021,0.06228053375223743,-0.769760788769768
53,0.5083593252378354,0.30324807826584854,5.823828000925687
54,0.7825288915160382,-0.38371544404026686,2.131042433415597
55,-0.9694287486002502,-1.5564872030838266,6.095186966112687
56,0.6057895625528299,-0.35866946047939546,-6.075498185477585
57,-0.18516077891418714,1.4410576094258176,0.4871735004855793
58,-0.2827225004680987,-0.6209530115169757,-9.581339327229987
59,0.8039317884220903,0.9636049070871229,8.713963090533973
60,0.5759937107945698,-0.3819075183466623,-4.398217983809229
61,-0.5212883387406468,-0.25729367392344493,1.6808854639128223
62,1.845125257175952,0.14894318262622003,4.623894748647178
63,-0.8790925831612761,-0.32226641716374893,-7.941911319892535
64,-0.6710830302721066,-0.09148347507777045,2.478430530723092
65,4.147485167462694,1.9152521569921965,-2.403842135699935
66,0.6464293692352763,-0.9721727139426489,-3.2709859455900383
67,-0.4005507213258457,0.44078540421160767,0.9456757919949703
68,1.2358608218849223,1.078562779456585,2.1290421129751236
69,0.29753433383849825,0.621637617581433,-3.293620739683972
70,0.4843808628832835,-1.9810732917497653,-0.5750842862172202
71,0.6718326959884228,-0.046649983322203645,5.586371070891352
72,1.1212787350104114,0.8740844837546179,-6.45964638572468
73,-0.3363393365063996,1.2829840718634988,-2.109614313588125
74,0.38946851156721524,0.22794957082044986,-1.0155967137479824
75,2.1858567022106747,1.0861944266567152,-3.0915787414957725
76,1.2048693061389861,-0.5147451387697184,5.5168900108297905
77,3.1875300133769278,1.2614724521325658,-0.9367631086371855
78,2.0917461958701304,-0.526268094193039,-6.130183125159737
79,-0.35175593057824117,-0.4987879401353275,-1.106131752606632
80,0.8632190363053311,-0.6488097842058121,-12.159968631477728
81,0.9639065191153551,-0.2306342763074031,-4.760170165228358
82,1.4951710297472003,0.6786110864542728,11.729572078051012
83,-0.5772271286014046,-0.8237372303580985,-3.901195389501026
84,-0.8517433370588091,-1.1686566543384553,8.56667120914083
85,-0.8813112872585904,0.6062325117756581,-6.070652749721237
86,-0.35568610675209844,1.5692685576761074,-1.3201694651140827
87,-0.1033074698463321,0.38403690289910347,3.3420723779435155
88,0.666028355948428,1.2394328794777791,1.1517852454044997
89,1.594663155553666,1.232631169627896,0.19872666517768378
90,1.764106419831439,0.0833225630116412,3.5616225037763822
91,0.33470065198876153,1.0939218864546514,-1.477491368111494
92,0.10565380709950284,-0.306027354252826,8.784296521722467
93,-0.07573727967057742,-0.7454474016477105,-6.204694383532367
94,1.9966196414889976,0.3988140824627147,11.38399601902277
95,1.9489256434552216,0.5098482411303943,0.27408546046860827
96,1.3486371635925658,0.03677640809244313,4.9639742751788525
97,-0.15923621442374092,0.27821162479154277,7.406768461937451
98,-0.18066507899273399,-0.5418789824829192,3.8446500734999054
99,1.9304957368880071,-1.8349255500568742,6.505600420755316
100,0.9234844561267017,-0.3744253589842362,3.0024062752299816
101,-0.14679190562710598,0.21405926157358296,-4.988796607402804
102,0.8051769015937433,0.5756866888501735,4.083770135637973
103,1.3050796037462011,-0.6722681682074465,2.486246088053483
104,-0.03106955751933149,-1.0624392557303755,8.468385565268312
105,-0.21793819361353195,-1.0369787947620186,-6.381702254784722
106,0.27921026659272596,0.896958755537293,12.342966425220204
107,1.2928040707093453,0.15672594665007294,-1.7334702340721946
108,0.45155072229156923,-0.784265711193912,4.396260119482011
109,-1.1544699860226262,-0.654170854409425,-1.9323123627755525
110,1.1273801141252102,0.03727920814816143,-0.4643840694870225
111,0.31726191895821143,1.3287022400932902,6.6044248617117125
112,-0.46169896569474167,-0.18939055459822968,11.743631466186265
113,-0.17252943101724394,0.38320919883515925,-3.255539099905625
114,0.255055412615215,-1.4447742993403963,-5.9571048945497065
115,1.4134585178591192,-0.2605749092625045,-5.612895027511285
116,1.8844258876260311,0.06584127661669517,4.746064963067563
117,1.7026437479032381,1.190467352703925,1.9167115314560679
118,1.35538204933862,2.552878970301842,5.293495277920377
119,1.6853411944597607,1.6659435840617347,-0.1913518854133769
120,0.5301431634784499,-0.3322209137443168,1.6218100316336823
121,-0.08893681274285092,1.5701281805854046,0.5681402942469064
122,1.3466713370505152,0.5217256350175005,-13.0247613026114
123,-1.2089141975702258,-2.217253429274077,-6.462226801702751
124,3.3710403409472747,3.3765580306278746,-2.4301617050477313
125,-0.03805321689129082,0.31678614613759104,-2.1514174781186455
126,0.2175997699885761,0.7660428590906094,-0.7878534511860016
127,-0.3476832224047485,-1.0791058381308378,-2.350924833480774
128,2.351555383862279,1.2996290710510892,-0.09348495839810722
129,-1.2084853388702441,-0.2470937765355289,1.7667070746987603
130,-0.2538142025603787,-1.8813136079580939,2.3820507944919402
131,1.213895557900988,-1.6602336487242473,-5.394502993233513
132,-0.04184538464506676,-0.7335111978748563,-2.0797564203309054
133,1.3139520446685602,-0.6183247076966413,8.439910959586687
134,-1.7370251545261866,-0.5092418462719651,-1.2180022591587654
135,2.116022189334163,-0.21040388572127988,5.249894013184658
136,0.8518665085809,-0.26954797940410624,9.024624100546005
137,0.7746165479965613,0.5088776073228038,6.445522503493736
138,-0.10346574076168191,-0.6335476805014374,10.384873118581064
139,1.396219808525787,-0.03575269589384012,-0.21337448151163596
140,-0.3484317088067115,0.22685553639376624,3.282119247968558
141,-1.1670322031757512,-1.0945119613762666,2.6533727404238974
142,0.40669968129463874,1.4473081635736098,9.273384206786258
143,0.18938405914242606,-0.7797751630806795,7.879198553500111
144,0.3383832314095664,1.3873778303097315,-7.549566980058584
145,1.0737325735418848,0.43272738321189635,7.736516942177855
146,1.0528939703168443,-0.16165878097685238,7.266281345591243
147,0.8212463638296016,-0.8816610818462804,-12.212353702460224
148,-0.08864890011072557,1.5907584503399286,6.070708704352536
149,0.9852655501283014,-1.9881076846156294,5.391198084100741
150,-0.570073757356219,-0.7970902042341252,8.410762209937783
151,-0.06727567644692756,-0.17387969740746997,-2.312988830374456
152,-0.24067349591855725,1.7275588119289695,-4.592799238732831
153,-0.4051830603823783,0.14365591182373874,7.442128487508963
154,-0.011005344300287268,-0.06607183307280022,7.524427132769734
155,1.5780070524499956,1.0209983794822715,7.255628784189376
156,1.248875758255508,-0.1710769238683195,-5.64749492776699
157,0.8382585140567589,-0.29153145280087506,3.9891392241856396
158,-0.8905115483227685,-0.29949289806251694,6.0945042780957746
159,-0.9724218584218917,-0.3906332609568197,-0.6774272686490932
160,0.40798046720200076,-0.3407141515349421,-2.0136185717665165
161,1.9348360323734535,0.6004224742094193,4.306470711678806
162,-1.0728281280085645,-2.7546093221458126,-3.759607161931859
163,0.15705876692986198,-0.9063240871282122,1.6232202421120774
164,-0.1638033274413555,0.9948397749935133,4.373107524072222
165,1.1184692842010024,0.056802676980335524,-1.4351586084836723
166,-0.17323287787810243,-1.0931938620410298,16.767031542694347
167,2.0069599162541367,1.0120543605839984,-6.987884386715494
168,0.03896046631624708,-0.5160625172498546,-3.4132241647129877
169,-0.14376824300264537,-1.7610666812481939,-3.8952748590282926
170,-0.9803696677179102,-1.2466150483910754,-6.833657480785157
171,-0.8313907388293327,-0.13877219453014247,-0.8065870100903643
172,1.7343622572236006,-0.9048357653307161,4.661617423321011
173,0.5585875754132699,-0.507209666110995,4.6594937302590065
174,1.449202485214835,0.5474142198746583,10.801451960474306
175,0.7536475697212657,2.0054565201649,2.789892927019943
176,-0.74297415213389,-0.929481359891551,4.330756216303528
177,0.04851052772465325,-2.537495235060778,-8.098587435742104
178,-0.5641317936919241,-0.8405734221184035,-2.5159459262252386
179,2.058732404754406,0.7071404430745932,3.1944887576435144
180,-0.6637822784978172,-2.1728569595345792,6.7959898758068285
181,-0.13881184828771784,-1.7357538359826834,-3.192563386045629
182,0.2563593227224934,-0.4649063443286787,5.583742973032917
183,0.5239612368596782,-0.14065758291648464,2.814019893116653
184,-0.1778921813142002,-0.37413885113287776,-0.9675360589420694
185,0.8742078152849792,-1.2092704790357298,-7.813377837036953
186,-0.23449462536791432,1.3760419988682957,-5.9397670512179666
187,-0.11513358794824491,0.6978130303261832,-4.177949140304925
188,-0.10939766461500305,-0.3215028069707354,-0.5938193286438296
189,-0.0064379788592558995,0.6818492822174145,0.8663706439220712
190,1.2054496319206622,-0.7225582274587443,4.656715019826857
191,-0.7141696561445123,0.1784328989246929,3.177253468022897
192,-0.23049200457503213,-1.8755579306663175,-5.857657905250724
193,2.955441710468457,1.2579884905220153,3.9784047202094803
194,0.5952335786915419,0.37985381341737545,-3.8218395852738154
195,1.1728533906259004,-1.22063378893473,-1.5154916102605378
196,2.033607986166268,1.1517284435246988,-0.7116309163802041
197,-2.8005847379872355,-2.2240945010697373,2.5231470120576045
198,1.9932898884013879,1.5159028445579341,5.352054501430965
199,1.532041801627075,1.2718164529913356,0.028624406580882944
200,1.4471334913013914,0.8027509428546243,2.830584791059784
201,1.77024025630494,0.5388285161885761,11.055234089276713
202,1.6128550631808365,-0.6716248164055342,7.90695707284119
203,-0.34549214093130876,-0.9334485204158249,-1.36711422602921
204,2.1774412248139448,2.0316546846162273,2.7369477633302015
205,1.0460933822589933,0.28195320071340935,-6.521953438947806
206,-1.5824066971454473,-0.7726150149149069,11.353484529935969
207,0.32503593360709504,-2.1878704810629044,-0.8626149408083068
208,0.5496993808564876,1.6555050697606601,2.1013432832032555
209,1.4641759665178595,-0.36148238491205714,-1.0907477803876855
210,2.766730060587987,1.2472565542198288,9.200024089479847
211,0.10263706175444498,1.2569270274663125,0.9034904855641215
212,0.7620960854648865,-0.28185194554223186,1.2352970199620756
213,1.4571185039398846,1.6798059677224326,2.6894989407314296
214,2.0365937410466333,-0.7631112269450239,7.751890070717851
215,-0.12519493573853435,-0.03414931821129747,11.45639323010075
216,1.6975217549209969,-0.03889621213479295,-1.5647122984741733
217,-0.014347533303355309,-0.27405370158715187,0.08202496745587207
218,2.6683056546993735,-0.03579393764953548,6.921094102544533
219,0.9685688757472799,-0.9023064032496123,-5.364658284233618
220,3.498754602111287,0.9477630142158001,-0.42424741576639224
221,1.1361839871240267,-1.0071019898811144,-4.416729673827953
222,2.6903104352847396,0.20547962491527375,4.610022685888795
223,0.5776282223004973,-0.11463157797452712,1.3571866450823904
224,0.3999712403622061,-1.7867285161918667,4.690347793536985
225,0.853332473681023,0.7626860203008622,3.1278811575382504
226,1.286478109397242,1.0972932878772417,5.532248864859067
227,0.09614402527109966,0.3998668555591089,2.5964574895435746
228,1.1495682080555503,-0.5699250186827244,-0.8622410551068613
229,0.15002447664378413,-0.3305613500369695,-2.832540449694605
230,2.9930569861167755,-0.21619162308214523,4.624321050178369
231,0.5000334799090151,0.24915117988622512,14.581116284732376
232,0.3682741697264874,-0.059997293405852546,-4.52972003317028
233,0.633711971876414,1.287677354868503,5.811535883303694
234,1.7581036066018605,1.2320908743774475,17.655555940926792
235,0.6988023136049967,-1.0078349634912116,7.973781858342543
236,1.8843738043717084,0.27898628321297064,5.808500285162399
237,-0.8995592439335485,0.11527099937810414,3.9333051827586507
238,0.397885549348698,-0.13205079799861205,-2.7438596764414593
239,0.412015310070727,0.026098364611213967,-6.358525673866614
240,2.323340766701529,1.7693449791062077,-7.105695020969419
241,-0.46001965258623395,-2.8664308343817986,-0.252323224023423
242,0.6575590269216541,0.4717039589605742,2.0866928798853484
243,0.24210048370310744,-1.759612224930283,-0.27461763433783454
244,-0.8990122054128665,0.2683915148394392,-1.5248993531236834
245,0.16093527502552563,0.23656873124414388,7.498165272719863
246,2.143365343461583,0.3580543027871823,2.5632562219285346
247,1.2619310394225136,-2.0860258133571086,-3.601731075316642
248,0.7058836948059923,-1.2650121862088675,9.472432681510389
249,-0.3342909263280775,-0.3319881638901566,4.662407958013508
250,2.8011034990425987,1.3968550728572202,-0.19128467614631495
251,-1.4885760755745086,0.17267466811441884,-1.73978794432331
252,1.1870520742944288,-0.25998934457739226,6.097546690447743
253,2.3706407642244107,1.3973970357238406,4.691796815992818
254,1.8365292693150481,1.0681063441302565,7.168641178866653
255,-1.6043457088341033,-0.8976256452415632,1.0390527364098068
256,-0.2705872603673476,1.2783465006309502,-4.208359585230114
257,1.1282647096366154,1.57091799648302,2.4485630796199835
258,0.8023079262419768,-0.7307519990689361,4.438789597470985
259,0.08416711222378437,0.21093363991631614,-2.301710744179288
260,0.005578987091710446,-0.9938590158151376,3.5972397279564383
261,2.370986977235235,1.400501026774412,0.16472662969312157
262,0.5086374884138357,-0.3199222764672105,9.831903915879224
263,-0.6867553465715637,-1.3720822922183518,-5.174198794042373
264,-0.0743236162358703,-1.5644624280120558,9.105265401068594
265,0.7317397445549828,2.1998881068680807,4.04292691879657
266,-0.9773239212101399,-0.48880441836766453,-7.745605520882463
267,0.7745933408881827,0.6113014764876689,-5.250230068989046
268,1.7111405269784004,0.3767461125010438,6.859740114010281
269,3.689626984257237,1.362398619675849,-1.1593063877619096
270,-0.33122448977749336,-0.4154797071974955,-0.7231817165974466
271,-0.23766547935259463,-0.8389976775239256,-1.8977493986668441
272,-1.8013112954884236,1.281852839147079,7.49369323352703
273,2.1305390622909237,1.437326926644538,3.4203421503683886
274,-0.8261432105203951,0.8168465218657939,0.05999774377740852
275,3.3317932703032866,0.6718498092045233,9.815289501371097
276,0.21306552132078804,-0.08990235192303989,0.5247949283202478
277,1.5925511630436682,-0.05177461889119705,6.669959133167506
278,-1.7458417453989736,-0.059694482422940245,2.9933963346453725
279,-0.03700026567189401,-1.101384744210484,2.795490407145723
280,0.5610459425352172,-0.48708375233859386,3.0776190196077815
281,2.1922634153705487,2.0301357270047604,11.773130356728876
282,-0.46169197549688185,-0.8034111985163382,-3.045548367201964
283,0.30711894825809344,0.2484787772692609,-8.395018103873955
284,1.7023480600380845,1.5998357565437173,3.8055363468255488
285,0.6333711322084408,0.8508279771447839,2.169175417143235
286,0.5336054073485708,0.04860972689750915,-3.603742546011158
287,-0.1585043711778915,0.027183003582099498,5.221617779761291
288,0.1869500409678464,0.26041809230187785,0.37574524957789324
289,-0.14444909142161877,0.13119896132224046,3.330751589229383
290,1.9530635470086453,1.911746204685203,0.40468520566124766
291,2.731828679363956,0.5057996647314631,-0.9865497269988222
292,1.29764023564072,0.9777335743628992,-3.927330512150978
293,-0.1261502074646661,1.0692547678541913,-5.036822673493093
294,0.163478727934523,0.464965173291191,7.066758379973604
295,2.340633387968984,2.5781812606804966,-0.6457074350694771
296,-1.9775093729732367,-0.6676608390956511,1.162226635478046
297,-0.5466245944330437,-0.5395102320160459,7.708037260392819
298,2.234536091092563,2.314196188118013,11.320602529357847
299,1.3645218461260311,-0.45102302174552905,4.013682316310053
300,1.2198863629818524,0.02436917277871055,-5.839497244423207
301,0.5817995054665261,-1.1103924529600333,0.9322280838580816
302,1.3314457234009847,1.6404997417723215,13.229296931478615
303,1.6230822706273913,0.4183297513426243,4.529943327696485
304,1.5848076893105913,0.1901792295851218,3.58921216542627
305,-0.8243860736088415,-0.5472674961415942,0.3832472375964442
306,1.1221591798758406,1.1451413386042812,-5.327987284930963
307,0.6592795888241246,-1.341337194004786,-3.562481199567275
308,-0.6324221567960906,0.5671729080082178,-4.744131555659178
309,-0.08521027948023147,-0.5131474529457449,1.2777638284094504
310,-0.09280256594861103,0.14409791553675488,-6.295674378791266
311,0.755578631066274,1.7850441797323071,-0.3172632491424845
312,2.383716791154953,-0.29861374031894755,-1.0846678599447925
313,2.4704486783303827,1.5699935284627349,5.970103032552011
314,0.41783991902442263,-0.5885448807070334,4.214067828133084
315,0.8586242059454912,1.9735109252086855,7.615104871997482
316,1.1212206950826713,0.4532322056639706,-4.669624076042197
317,0.10477554432339256,-0.5266470372923121,12.997482302133228
318,2.1354404582797257,1.310720119362843,-1.0081976702422493
319,1.098821828446227,1.4403547659069553,10.071502226996298
320,2.0660767137598484,1.1540720660456263,3.831650170725844
321,-0.04251583298353248,-1.4148808491714975,2.076262239963663
322,1.050486607991114,0.11611206757570523,7.506776238727088
323,1.3587628453528662,0.7404996388330062,-4.688263270051648
324,0.6330798940421513,0.18820030160899537,5.3872304027225555
325,1.0992317729667622,0.7826695491469552,-2.326337688920861
326,0.8142986563974465,0.8373061096717549,-4.989723175387185
327,1.1943383057545915,-0.15383590528057062,-10.680342793993754
328,0.7989643785165043,1.0809269731641156,13.526728732678007
329,-0.4378019306174231,-2.0390067158845318,7.325744684192176
330,-0.3404160140796493,-0.6140620916819348,-1.8031660015026274
331,0.49452944285760203,0.8686024631046578,-4.638489380988833
332,0.7601076808682489,0.5098971245877129,5.970441725775347
333,-0.37227890977044875,-0.24086027870153195,-5.057205703675446
334,-1.107722431131351,-0.8267448348751925,-12.279570150755633
335,-1.1141567554477887,0.1631027125079302,-0.2272028464784155
336,0.6968384151371436,0.5142920947228986,3.305897025532162
337,2.387098334415205,-0.7887846809106303,-4.566358972349499
338,2.03652131458274,-0.250319380695531,-2.4128719518857475
339,2.0955173824135374,0.188392421583772,3.969613929277504
340,-0.3217306415875645,-0.4281180126788063,9.26188784202238
341,1.6277850614077258,-0.19957549982101216,7.536314339908735
342,-0.5602441010645143,0.060183889413928236,4.701333297761751
343,0.07066324488128162,-0.0329549064784027,-2.254528264052836
344,1.2319896288832795,-1.249727861304748,-1.1862597263584806
345,0.64257631924569,-0.2860970954558993,-0.16201628793529432
346,0.93683207154445,0.259625389258422,-1.0460889002006732
347,-0.4983291205362091,-1.0345794865211808,-13.00753458102775
348,1.2267008889509192,0.46571869510045616,7.68192203596908
349,2.5881480675799073,1.7767249068070898,0.6590644504350014
350,0.8535595689899628,-1.2094856012041897,7.653420312178719
351,0.8897259250079265,0.5885677562668804,-5.618495209562181
352,-0.44750362162122687,-0.006043100523235214,3.3071355943551786
353,-1.2018449659620942,-0.7608680536866126,3.0898056802337597
354,1.2444496315872584,0.9227753568062085,3.893706696085937
355,-1.2900635005480416,-1.1384166211970557,3.706038196195411
356,0.18787902798874034,0.010133897072823634,-1.451808492510132
357,2.6846832990098197,1.326232625308945,5.093726313063843
358,0.708634316121222,0.5009784762962524,2.0725815260581344
359,0.20767347651042978,1.1020145816814066,-3.9329147147120067
360,-1.9236691671945987,-1.0582236009015706,-2.560888439170204
361,0.06522519890067277,-0.455621014804073,-5.274427289573515
362,-0.6859549636650928,-0.02646690200227468,-1.0193781157094255
363,1.186114721137229,-0.6275650621283002,7.207712358358966
364,1.682819589615388,-1.07325963595856,6.263287394839573
365,1.896932661155255,0.2798998933148355,-1.5995697107931246
366,-0.2925435873215554,0.9950511035467623,4.10278016323151
367,0.4774123711053146,-0.7091164609120886,8.645058130674526
368,-0.3785238180725957,0.35527750902883803,-4.282928226287686
369,0.42548199338317916,1.0833502832118145,2.6759318540888746
370,0.23012052072682998,-1.0964005636303573,-2.263250164438263
371,-1.2163708954056924,0.4539563656068114,2.0299084987914027
372,3.120747791321528,0.7165455703745807,6.805250218711965
373,-0.6638153282648616,-0.23838287650086845,-1.5800732320446116
374,1.2603116773203602,0.11295216829395256,-4.873767908801962
375,0.7551559771328349,1.1928609664864684,-5.7227790416488356
376,1.7431649304838435,1.0543381915113252,2.867940178236443
377,-0.3137081011257463,0.9367152017739744,-1.01478637478362
378,0.18956561191665394,-1.4955263770244798,0.24700482644279978
379,1.8340640568095978,-1.2522172226165198,4.123198325575743
380,0.5990155082725344,0.5557302200605118,-1.4292685363143696
381,-0.439301321231795,-0.17017957666824504,1.0013504880671
382,-0.05786809716057556,-0.2554147522964557,9.594697035378022
383,-0.7089327453918364,-0.4484185489585665,10.868103116204985
384,-1.7017934101085448,0.5745508221689075,6.2595035879131125
385,1.680635541049201,0.7035866255703037,6.243912308696414
386,-0.6933104763288702,-0.8013590620858826,4.151690581412255
387,-0.34913685059052235,-0.7715801916829449,0.7870836278856765
388,0.28368215496964944,0.38763802491218213,4.644863956757921
389,1.5116043128987449,0.8407157656417984,-2.7527649394281015
390,0.4380068406942459,-2.3108391307844234,-6.638965321015398
391,1.291619372932018,-0.7731369606182915,3.1859825949831273
392,0.7136254299611002,1.1344376347077219,-7.978131299231501
393,-0.7470948413691219,0.23901984182683741,-1.6880484216238303
394,-0.24156195449117504,-1.669849056482095,-4.058573996278165
395,1.1876647125909572,-0.5965813375366926,3.5557063974312584
396,0.09574273601980726,-0.04115350705231614,2.5867930036214593
397,1.1159893330961488,-0.7971106935148874,5.459210469869188
398,-0.2939960276305919,-0.5025874908733875,2.5166013582980096
399,-0.2165668365712845,-1.4730233250935734,0.6308776907207889
400,1.7689605112783968,0.19456906941338484,0.08000351690243113
401,0.769263481363391,-0.17126449381907943,1.4633900214294884
402,1.8383130334112963,2.1775756941069475,2.2660440944069733
403,0.3891339528241141,-0.9116745828638785,-1.9787668653441055
404,1.7758331070480462,0.6119669243779617,-1.4644992602339375
405,1.1414110606343355,0.49984207946300735,-2.3909073056000785
406,-0.11110211829848976,-1.0194421042048827,2.657030549639022
407,-1.1836243798360102,-0.9774469186948893,0.6706817151952909
408,1.5010276178029112,0.8730248920326678,-0.3486653802851414
409,0.39190557952320654,0.5418413323091897,-5.912051884505982
410,0.42482079379231386,-0.9850302757268027,-12.127565494353604
411,-0.09157744838545356,0.06077860317155039,-3.6931349658081833
412,1.0316563122281408,0.6055257855275755,-0.934818476643962
413,-0.4163374643639004,-0.682455419207199,-2.4963732859276755
414,0.018262163307241147,-0.6802796104306836,5.078967932360076
415,1.6971329633201409,0.7424163839149317,7.598576760244752
416,1.0142898600918642,-0.3463941901656127,10.926256240447923
417,0.606644584716741,0.7552037703663503,11.003791063314278
418,0.9846338955178044,0.1613283665015491,3.2397907914713784
419,0.5071746720242875,0.2724785992761724,0.6492485761879667
420,-0.30991761836438686,-1.513333501981931,5.75807479870816
421,0.04238218230946006,-1.9120679651782317,-5.097314710855042
422,-1.0366653697064292,-0.4568422782187736,-1.9662476603891585
423,1.2014706607727155,-0.3986494611278769,0.6841816570896773
424,1.616641904118655,0.5835668245094139,0.43717710589439185
425,-0.24816895308422643,-0.11237479716199204,-4.393957057066874
426,-0.6177987847209012,0.017564221055060242,-1.320213667476454
427,0.044100643450198485,0.8434526286767232,5.515085832481546
428,0.28715342092736906,0.8216849863516745,-2.147646087230096
429,1.7473763663693767,1.1415697487082483,1.2191226769248569
430,0.5776908024676589,-1.4346786668445226,2.3254682588455817
431,1.0694059132070184,0.8370113085849378,-1.820576005491799
432,1.400315085932768,0.3459125885235684,1.5264070211776875
433,-0.9225432418339898,-1.031453913061844,4.376340520406069
434,-0.6217867123572801,-0.8157316153622638,2.901980555364955
435,-1.3995632477405984,-0.2919599614189275,-3.7216923432391638
436,1.476156061489463,-0.16218041840480776,5.650459576294295
437,0.8033787101614202,-1.622791900133503,-0.17734960403345335
438,2.115816292618946,-0.042235748742485306,3.3956342423249266
439,-0.1894445939032005,-1.3477769142351985,2.161862384493781
440,1.1408588877788972,0.5352770937780837,0.5695663633084229
441,2.245695672738144,1.1399176336541252,4.129365305460146
442,0.48754149552559556,-1.416040591338786,8.373427788718486
443,-0.06895613479387183,-0.7406235731128814,-1.2705194969691351
444,-0.34586599335024004,0.5163939098945336,0.6089464840351793
445,-0.29415342582677473,0.9988007875515719,-4.187895687901912
446,-1.257341128108887,-0.6647377989787757,0.5786022842230807
447,2.062984188762471,1.8377579180092214,2.870561271321797
448,-0.22988941426078768,0.3679758484549577,2.4513948349644687
449,2.0273423535638213,0.35318917030464,1.8499371707888237
450,0.324448509285333,0.012961656705932492,3.370743817005655
451,-1.0584287883430583,-0.07832563241934003,-7.010461175347196
452,-0.4115042272008457,-1.6631725756750246,1.1222318282057597
453,-0.9446940742723537,-0.3340529178939776,5.614802714483348
454,1.5693963568829976,-0.8112910518466482,0.19029436333588579
455,1.9006456824979292,-0.55788833971616,5.346283512590542
456,0.6529113943168214,0.08318922533452364,5.138217106858462
457,-0.06493825572111622,1.1406398596723,6.273169476545068
458,1.0998534346327182,-1.5639688728380823,-6.817267509471924
459,-0.001628417183554054,-0.11389836474823443,8.281159355085999
460,0.7522515375464572,0.5812993316662688,-1.780547595990249
461,-0.20889206844846275,-0.13103996367966442,-6.354781224819414
462,1.509552798345797,-0.17763489274942307,5.057867220881964
463,1.2419084601520662,0.77772059278774,0.9224219347710623
464,0.003772651200767696,-0.184473013054635,4.161665449474524
465,1.8091635433051243,1.738738141601857,4.420148792393105
466,0.5314727581696025,1.0579986351058344,7.472209862728624
467,0.5893353682181001,0.18160080129138922,7.255204147464804
468,0.3693505857573409,-0.21158096308753116,3.308204786669312
469,0.5573299094792082,0.25058365176081454,7.409204936855423
470,1.288472555745604,0.10411663946325263,6.372888807392353
471,0.13817349433017637,-0.5828293308064331,-1.4856493204870365
472,1.4491114517465022,-0.36197835766211944,-1.5475989091728564
473,1.805464178394676,1.0056928171630912,-1.2752395074711425
474,2.9660053841297325,1.0304220827124904,13.55399622599923
475,-0.12748335761331203,-0.14978638544634784,1.3990680437970273
476,-0.7028459983569739,-1.728218139670379,-0.7446367725953649
477,0.8485181513939035,1.7662878434985885,2.8474676844563818
478,0.6292144356225357,-0.10627192935537962,1.1585483921336186
479,1.894346622253297,0.1296187871482694,-5.258530892004167
480,-0.43109759199617226,-1.4075716317877243,-2.9194099778021694
481,-0.011141411402764367,-0.1760889009172762,-0.8396566350231942
482,-1.0181918419995881,-1.689035493262864,1.759514599877002
483,0.2530128990280278,1.3448208372162,-4.487913857435166
484,-2.2522986587545395,-2.157951201993805,1.0446534933222869
485,-0.3089914106167083,0.060751991301314305,0.14129249778739283
486,1.7566910856375784,-0.2832303867246126,2.6578695722059047
487,0.908372368287901,-1.0552808644895189,-6.005590763775558
488,0.5321956823563552,0.5414220252196158,-7.1266528196918095
489,1.580043009541342,0.7143577991148449,10.678640219632005
490,1.268917041411608,1.1802608640717132,-4.841907173079799
491,2.504312974098525,1.5116596935074675,11.051849387593183
492,1.315280979228654,-0.8962618552283672,3.5506724420123703
493,0.7108743587901709,1.1400022309967202,13.264059173178257
494,-0.5106165596866876,-0.6077237797301852,8.311114225670115
495,-2.5564375877078054,-1.7920098772333155,-2.7480453759761434
496,0.8968859682620793,1.1805279946415912,2.0831130369805773
497,0.8979690102361543,-1.4177873251338868,-7.840094850688494
498,1.6789057730613695,0.9961409210015402,-2.492930539394051
499,0.5258104539273465,-0.2309615711373198,-2.590453842640936
500,0.9850842140976384,-0.057545162856214326,-2.807989165922888
501,0.0757305251601888,-1.0884427610443033,-3.0126197897162132
502,-2.2127493270730856,-0.6813305910473321,2.335125138275957
503,1.2489386710413695,1.0787910835517451,2.864650858496643
504,1.4138978501636994,0.729912895606256,8.940411456807897
505,-0.33741836531708225,-2.5674861499193615,-4.23224193492781
506,0.9985525547136667,-0.4562466126388664,-7.536965739609249
507,0.827776397197749,0.5349380646889754,-2.739830006888495
508,1.1699771437968458,-0.7759471341668697,-1.5555862844986368
509,0.2764778663361315,-0.6381520709985042,-6.789272802450811
510,-0.3064675666905137,-0.53072464021693,-1.9222641017943742
511,-1.468233899835274,-0.7416767275065352,0.7641063033315343
512,2.3424951007577954,1.4262673573272837,8.887971415082951
513,3.013565857519457,0.48705552659813595,-2.523375014363934
514,2.2376144844192947,-0.18054619091377508,10.474916866399031
515,1.0261548658655566,0.11275024798621429,5.576048002980501
516,1.4098138955026256,0.6763672202815706,2.8003909358421106
517,2.2898237207061194,1.086691299820592,5.529875208386518
518,-1.100582825522227,-1.55923309869324,-1.825546052911923
519,1.5480396068515656,0.004668842797435588,-2.323996258510263
520,0.5345366478042645,-1.1636537416287085,-1.6096939327767719
521,0.36025852597254376,-0.9862111201249266,3.1766226057095555
522,-0.48952340188444676,-0.4579444434357743,-4.129320026531601
523,-1.2895927628147734,-0.7380527254357655,-0.6037158381852143
524,0.7986242874158931,-0.4590458741337522,2.085279078726107
525,1.10276834129402,0.6255199992529986,7.575985335320364
526,-0.40904562521095866,-1.158522726132498,-1.626294449492249
527,-0.1552595457674708,-0.6546473505069742,9.333013247333271
528,0.40391223683598704,0.5681228554713487,-3.0691066231512463
529,1.3596976769138154,1.0727045110977589,-3.272894375212825
530,1.2583486186678727,1.3311448943806912,8.818719579831129
531,2.693220595666652,1.218827008474316,0.12173555593924812
532,0.6021366482942787,0.209066948454102,-1.8999025027937932
533,0.6407524513528031,-1.4432443344797212,4.764917755775214
534,0.5520384331832697,-0.7328623218859684,-3.7980097631631096
535,1.534070252064232,0.9800080499752934,-5.509093085153047
536,1.2584815712584567,1.41272400964419,8.248954686763621
537,1.5849439870477813,0.6956379595602875,-1.3135592843867507
538,0.2408602608987993,-0.5016052587996341,2.8515227023255707
539,-0.23464463269635588,-0.2217073708732268,0.11572538849036135
540,-0.5172080450449072,-1.452005408051224,14.469305494052483
541,1.7414815575497538,-0.13447511937150675,6.222143859790837
542,2.7195882153056186,-1.033678580687416,8.834231006832162
543,1.053743906813114,1.0611874702343387,-1.4949581125757645
544,0.5698066846707563,-0.37566775892035514,5.730146326017979
545,0.7880376022051191,0.20786420795698116,-12.620543764249428
546,0.05742129791383754,0.29854133674248196,7.472054076996087
547,-0.10888297235026667,1.001645593246923,7.985838768262743
548,0.42839714306430715,-0.05362950894301549,4.966387509730595
549,0.7568780979819132,0.3377414445929682,5.777801896119915
550,0.30693475944192533,-1.275474630965433,7.044859996785606
551,1.2000888468914754,1.3149521562103188,2.0284881212973414
552,1.928155140442608,1.9889179974613658,-0.7683201766373178
553,1.3355323347948584,-0.10106199418159703,-3.0826171333414307
554,1.652299924400476,0.1493223557993544,7.811076813595838
555,0.6716811348563664,0.4090831017274913,2.7403573858135086
556,0.04692179729000645,0.8081788145498916,3.096198863571796
557,-0.08330389770277336,-0.0008982214282038703,-4.654233346793731
558,1.2772145033597435,0.5691409470740075,-1.6228690550527938
559,-0.22054310433709634,-0.01366426545246816,4.143974477033704
560,1.377519855077597,0.15011383352335636,0.08823048790827315
561,-1.9282663511925309,0.08431953055267274,8.03685481685788
562,0.7051505822304289,0.8488461474036135,-0.16573731202327358
563,1.0139229869445803,-0.44483542889621697,3.0980204461066774
564,1.409382410267935,0.8434087769079506,-4.106183953498796
565,2.5179776097565636,0.2822251585847705,11.255893785516342
566,1.968619614052439,0.9619977600662023,2.999585792309825
567,1.663483439397864,0.7616342986607575,4.823503615506398
568,-0.20746481805221223,-0.3152502393211095,-0.4756291587769174
569,0.9150697171564883,0.02039449037025886,4.836415504426331
570,0.9670517542009237,0.6189191222632422,4.342162999483218
571,0.39594249863544406,-0.5569327243935556,-3.3750749101109485
572,-1.029748370154714,1.5638716375987933,-0.24710858949872538
573,0.4347374935656795,-1.1810496044568288,-1.9894981593277812
574,-0.7986252289934374,-1.80852853830931,4.460062874516942
575,1.439690824580302,0.08577657055007573,-1.6368959670811227
576,-1.5797775742639264,-1.093009999313273,1.5620404113852784
577,0.9729403705187455,0.08174915615485844,-3.5385493758690973
578,1.7978161305826452,0.5800638722432063,5.175337946850386
579,0.14250397219592992,0.4606704185703298,7.0060080217853296
580,-1.3923086494840122,-1.0987053315161988,10.583126788377198
581,0.54655107921936,0.05676526396997537,-10.523766849794443
582,0.9343237318124418,-0.11319909557419688,-5.080418887389828
583,-1.5973775700327473,0.5248505314412372,5.5041325755012664
584,-0.6516310215112386,0.8754059448224828,6.398966610968461
585,0.6440158028219471,0.778173589678275,3.98867451218155
586,0.03982836828792148,-0.711490538192376,-9.093985362925691
587,0.8410733004725087,-1.2554336933838113,5.863648900844569
588,-0.5602032951917852,-0.6733868105837758,-1.2493427108611075
589,0.39850076791568645,-2.255636896519318,9.82995627645222
590,1.7302688785789062,-0.4248834299118987,6.60392567049322
591,0.5834663289236266,0.17379558945914106,0.5622886504614613
592,2.4020927444079163,2.6172266448291923,6.572875007046527
593,0.5154746303940301,0.6824799587282806,-4.820681540725808
594,0.30460573117618206,-1.51252066731541,-5.914028184664953
595,0.13173280762496664,0.989622746075475,-0.09519655392687909
596,2.075767385994529,0.18130576385353817,4.401308055622029
597,0.34289304623762895,0.8043174737112655,-4.7568837191561
598,0.3384437731868776,0.9453862771554833,-5.9931934280381505
599,0.4486521250058523,1.0798242583926863,0.3066970326320124
600,-0.6202822669655221,0.2815828735618814,7.2520503389140485
601,0.2663133556031003,-0.7525302812224645,5.124694736133736
602,0.5364114214144743,0.4043013059386765,4.7095359042951515
603,2.463835410406652,1.0058436081676194,2.959733787411723
604,1.9175247994943332,2.183858527905425,-0.8001100381948412
605,-0.6041330269772467,-1.184799879107795,-3.3211977802179637
606,-0.8636482629957625,-1.3726848369381166,0.6480017818646704
607,0.6738162433783282,1.7778658357768828,-1.4681278877469897
608,1.066121072110081,-0.5636342327476638,0.9880700723093163
609,1.6143225391861977,0.3986415954805455,3.8339842478157413
610,2.6928637950533942,1.6588737502203483,7.863002440289769
611,1.479844703985298,0.5299492606033764,-0.37913965989928045
612,2.1989183111965245,1.0291233976583514,5.3014093169078
613,-0.6688347249695097,1.5418040572991394,5.563669295140712
614,-0.3474098210106027,-0.46414616509633855,6.332526079250371
615,-0.9655273639382463,0.8306904064532732,5.568825636082229
616,1.972465524173352,1.3420914271330744,0.08123492164287849
617,-1.7364598347589189,-0.8371632504640455,-3.5465366817637474
618,-1.0737415407225441,-0.7371011118628894,3.923384655131882
619,0.14969784452878504,-0.1800018970495193,1.4919244187494631
620,2.3159791799661575,0.07417462395419822,6.307426457722922
621,0.40996381361624334,-0.6326800201831299,-6.043078656142373
622,0.4968296214544034,0.5126933560193314,12.218709026940756
623,1.947582272302661,1.8997133201670602,3.260635240291152
624,1.026989869646234,0.1834665568016949,6.665722696645201
625,-0.2526835714152307,0.43977773000859116,3.033124591333051
626,1.7872768476049292,1.2525811413776315,-1.9752245813859397
627,1.953472660451474,0.4677409902207449,4.661210961497238
628,0.9134362158770364,2.4060686131621916,-6.4775859346334155
629,1.1693581942168727,1.7112473420569796,1.4506439595263572
630,1.752633194864686,-1.358858364138552,-1.5003369916424099
631,3.195325527694167,2.1307821632021207,6.821087003452973
632,-0.6389514839692324,0.595614757413838,4.833393061489371
633,0.018480519508896842,-0.41985519800373855,3.3723634136346403
634,-0.23373275524406306,-0.3246654795026517,10.142934007403042
635,0.988938545119682,1.1688623001318672,5.613153340977981
636,0.18376090078921586,-0.6696450741121227,5.805993921945065
637,0.9543554007095528,-1.158985651538038,-0.45382871443675965
638,1.4710076555715372,1.7177289701440726,7.333538510982776
639,-0.6286471041410411,0.6138158542366862,3.371834067685282
640,0.38348795857033213,0.8295678915178513,-0.7017604540424598
641,-2.7379816056579918,-0.3603906741095262,-3.124601580576631
642,0.5840753931050393,-0.48983352380523065,-3.513507906282602
643,0.6507013908975434,-0.8529005111138599,-6.5162816512942054
644,3.2022809408889197,0.5467432794389694,1.6004986884511005
645,-1.673543927920784,-0.012215723419267525,-2.244648632906395
646,1.4419191211192586,-0.49238960713187846,-6.450301483014431
647,1.831569207374524,-0.7585268954351309,5.467955045454944
648,0.524620076753815,0.0012805437166989893,-1.6254528790006144
649,-2.237782054083505,-1.2433941055254845,-4.321725692780257
650,1.6900670893779508,1.2079962882375868,-5.506444235402958
651,0.00834260265914033,-0.3383691304267356,6.557004561841737
652,0.8929411113763179,0.37158397175908514,0.9288861645842148
653,1.3968299851861696,-0.3020232160680955,-3.096642871546984
654,1.7092576479738844,0.45099204109373026,2.8771681448605504
655,0.15749814615932178,0.5261827257530582,-2.1159860313193914
656,-0.31460032460269016,-1.4698553700762593,4.063887958959474
657,0.280442561354616,0.020672835114758783,10.777631381558942
658,1.0648093397944087,-0.7826216726234242,4.135419819289382
659,-0.11662976734138181,-0.5123350414569083,9.252134850379163
660,0.8083495436634925,0.6823701190214797,-2.590476485438437
661,1.4005902552300342,0.9985755878289267,14.340941911531116
662,-0.30330495034852256,-0.8963031341963741,-9.667222503636463
663,-1.0973351345411433,-1.1803136994567647,1.1145162186090156
664,2.7534110237831264,0.6472292598389916,-3.5190233990091593
665,0.7929062670361122,-0.44046491352248657,3.006430397419771
666,-1.507609837399107,-1.8149287220400498,-0.4557738794852072
667,0.5892833157242313,0.8375347478903654,3.2763082448945564
668,-0.7789545135025996,-1.522976943932482,-1.364803516851365
669,-0.3964684218574188,-0.5863455328096618,4.764743231965434
670,-0.1796997634008973,-0.9273386522138417,-13.133575725202052
671,-1.6836683687341256,-1.549749573003497,3.7941466557201298
672,0.3720309883012568,-0.16072847077154714,2.7119830921149473
673,1.0643688103465117,1.0424518309954653,8.468853240693953
674,0.552672140913771,0.66680936388057,-1.9384304617660286
675,-0.5094424707604992,-1.0889328212952682,0.46179392093261956
676,1.5886951454394223,-0.7250111249932234,4.159375299520719
677,2.4673699546775696,-0.17258292990179522,9.826707094555317
678,1.07831253118629,-0.30946964393939164,-0.12704656950113402
679,2.8671820543331155,1.277009552143207,13.488112716319034
680,1.5929219040338256,-0.14167841136372336,5.139263708671791
681,0.9765737204199767,1.2427541353880742,-2.415336789834794
682,3.5260072270300826,0.615245441767273,5.680646135756343
683,1.5324232188736646,-0.3673375188727032,-2.252056343355634
684,1.0298396250351003,0.660048591627878,-1.3739812126395208
685,-0.36892412296917504,-0.6852733649788137,3.0519181810527876
686,1.9335409772480392,0.5684913201129159,5.6775793854172205
687,1.3789107467811985,-0.898993381285233,0.5572739893670388
688,1.834147922663806,-0.48420121516706827,-0.058224873152032286
689,0.613934206943372,-0.14044964786313888,-1.1009996989691706
690,1.4547732592062075,0.07933381058582864,5.359343252872795
691,1.7776920543441488,1.9919142976063418,9.68227592903029
692,1.0787820968027773,-1.3154504221071277,-1.2515859225431325
693,-1.0450541089874301,-1.6637520657611653,-9.130615164788376
694,0.19931980687698087,-0.17005316960931594,2.2068998157439945
695,-0.9104594430682778,0.12369671609922638,-9.302582587508688
696,0.4729154655208079,2.9423324324768894,4.066347532791958
697,-0.2744748316316561,1.324213650639599,-0.48070379668766083
698,1.2512493731738838,-1.1067256452433385,4.466541277587369
699,1.2737062052424701,-0.15475975467318556,6.174468503055676
700,1.3198638399002887,0.37889332899757183,12.287798238148381
701,0.47773097365650297,-0.7221501527096654,-1.3579853518344016
702,-0.8799505443021951,-1.4287556192637996,-3.269927818092568
703,-0.5030042522427649,0.49771949084862277,9.378193913908756
704,0.8104677969983618,0.09382511484941418,-4.073721088599468
705,0.009564495668075365,-1.1399311950394009,-4.243764565664235
706,-0.8008856656282153,0.8441315560587052,8.204886567210686
707,-0.6715107856588554,0.5077079032031335,-2.77642910036191
708,0.4577316982990942,-1.5176565442683827,-4.731014803935423
709,1.1191052943587758,-0.3740259319013169,2.4759090194382143
710,0.45137559250951337,-0.6351200853340183,1.4223201510748116
711,1.4103312236226815,1.0991990406928795,-4.539942662643368
712,1.274419674958968,0.474100780501575,0.9811674735535747
713,-1.6404181904923842,-2.260307717969163,-9.426072526902527
714,0.8231731310702974,1.4503911650509715,-3.7590087977878994
715,-0.2523210426678974,-0.9540834285191293,3.4788937461213956
716,0.939275101414706,-0.6868864254535473,1.3338765382889484
717,-0.4151827046478185,-0.9625812367578833,-3.1246631441361785
718,1.2876162525600976,-0.0263801412933568,1.6669957454628812
719,-0.10532047395450023,-0.6101022685062634,0.8175698601642627
720,1.2232029719784796,0.4627634298787948,2.516957141954554
721,0.6339462518716175,0.6138003924983841,-6.312146202211139
722,2.111605344065214,0.24131993336666083,-5.801960042654604
723,0.3747357923730591,-0.5935458252089446,-12.96866989537305
724,0.9954699929895969,-0.9558386005618217,-1.3424495341302198
725,-0.04917649146106584,-0.4203898343129952,7.539213279628321
726,0.563676593125661,-0.035067081712239136,5.41676091380818
727,1.613841058703875,1.6711229396347305,2.6330599148128524
728,1.3448082730876632,0.7973435865306034,6.24807007700937
729,-0.5319150442333536,-2.1909339274383397,-1.7435482674836762
730,-0.28193063655679906,-0.27603538472717987,5.1218706792898585
731,-0.7047013139493943,-0.2622743801961076,0.5360210317122547
732,1.7284732179000226,0.8013118193390635,12.21560357818566
733,2.3816676556292626,1.9859441045522976,4.577633323703173
734,1.8254878115426263,0.11014368281761618,3.662568048909438
735,-0.8200973937149183,-0.4488572701383343,-3.6193187452288944
736,1.0154619747848475,-0.43220275319049495,-5.889760715535488
737,0.8704225363746099,-0.8966917471903381,9.932880806422403
738,0.2975306266635356,-1.3626390794357681,5.631255150686128
739,1.2692868650296205,0.17429811036676404,10.323514866683341
740,1.1137145762124059,0.8167551835017152,3.6581800301735834
741,0.23906601945274863,-1.053864292426179,2.003963350726911
742,-1.203999386235986,-2.3040266403563674,-4.62144298049407
743,2.0919092922037232,0.47020036118184433,7.461951379713501
744,1.1809555841380108,0.5258342819263053,1.8822690413439216
745,1.8388878727417124,1.5982597409526806,7.379034158745416
746,0.7643414665940973,0.7632958456549853,1.73712677255323
747,-0.8380090758282519,-0.47084996511822175,5.693121521598195
748,1.7348569518697836,0.37973678348177814,-1.9343351065473557
749,0.44858508441004147,0.4394780730687623,4.277991543318008
750,0.9654571593560891,-1.2378418962021545,4.077829752742957
751,0.2976916780613596,0.2987418696560447,-1.0308579818176957
752,1.958262127861679,2.5475632183256964,2.435933910481979
753,0.6498324639921934,-0.12262300578184827,4.2269105797217685
754,-0.4433509995000582,-0.44752772194726703,0.8033375048329786
755,2.6101481090526333,1.4653332659133285,5.495471596527018
756,3.2672653686728887,2.4896741098191284,4.332569017655472
757,-0.596249749289331,0.5801347718820392,0.27776835624397433
758,1.5917737771808045,-1.2842604938646713,-5.137093026937219
759,0.1361764826753467,-0.7932512989952406,-0.13769627653466587
760,1.1912916891413343,0.7107775097105881,2.2241483170220055
761,0.6577328397374189,-0.7130616780111158,-8.126552335724524
762,0.4425053018153556,-0.45266262402725677,-2.359557303274876
763,0.12195736365364648,-1.1436675656342032,-6.54641775994304
764,-0.9312614881524437,-0.7439333337273198,-1.0880562021027544
765,1.9991529171743907,-0.3084115415346245,6.166089630090966
766,0.5222907580498817,-0.5162903255659766,-5.630087664618708
767,1.246831876336534,-0.6197009611088763,4.5516853202946645
768,1.5055396709308078,0.09991236275788512,13.023010940191762
769,-1.3961260651750909,-3.1965924346334678,-8.987877262655205
770,-1.7837960042214955,-0.4350163101908459,1.7360129988525017
771,2.6056687292215823,0.03475669669424913,-6.421302426237445
772,0.7825331920490833,1.549388697421953,3.8068330597379054
773,-0.3619176286865301,0.025632281840541886,2.89579956725962
774,-1.7688073510101168,-0.7349421721363018,-5.712249641952408
775,2.4632077814729354,0.38893982651397024,2.630351763977897
776,-1.1060650292629202,-1.1748048992610267,-3.093257618308367
777,-2.030851525490867,-0.22953955290907305,-6.895331641863532
778,0.6975410357145648,-0.7077229624187947,13.166171205097928
779,0.5654908316698761,0.47950080923966615,-2.420311925857801
780,1.7319121299181435,1.6531376971945673,14.360669617557614
781,0.0176015647712221,-0.23762985987630655,5.320299966406239
782,1.8103231747482642,1.084216283281897,0.29488306298010913
783,1.1904046240217594,0.33899570829156594,-5.847013925321519
784,-0.41734782403157156,0.5422829515005558,-0.43677173229570854
785,1.471124585009876,0.8647255925090598,-0.5462695284957495
786,0.6913354692754696,-1.67506363608322,0.21645049331580551
787,1.1363313463125948,0.8756809975606301,-3.781000668400737
788,0.656436030684423,-0.56929421378679,8.175336771751775
789,1.224210279881404,1.0056130860390424,-8.065212573339757
790,0.9523474242651673,-1.7018308117100784,-1.9927144325339867
791,1.6737766117311481,1.75354313294087,6.157632555675016
792,0.9153935123172614,-0.09946504835995186,0.7354789172690912
793,-0.8765626742868604,-0.8120929898142412,1.2616098692850175
794,0.18418219951975234,0.5724098338402651,0.5196259951122235
795,1.1036570545809892,1.8306472230729973,9.602870722867562
796,1.0585127865920396,-0.27599993914863397,3.960641160659661
797,0.6153050640040529,0.20210219516975236,4.352470337733471
798,1.001741944641899,-0.39516102418353877,-5.1190714828102655
799,-0.2581204227977949,-1.7969643181258157,4.707118069693097
800,-0.1205461386112803,-0.8781664733077914,-2.0553999396749436
801,-1.2684029448091527,-0.7837512111242637,-2.172104350643959
802,1.674106720531284,-0.3635344879283997,5.696519097969785
803,1.4869886865192266,0.5455174738783909,8.602251223028698
804,-1.1339205563640589,-0.9959791675338924,-5.358220180610771
805,1.3467358014441566,1.0317402238064064,7.44731341868388
806,0.7024892105647348,0.5627683795395999,6.480441172271345
807,-0.9735667301067297,-1.6017219108452059,2.829321708311644
808,1.1823054727190334,0.5312859843522365,0.45144013649752024
809,-0.5144152677812673,-0.0896245498504829,-1.4642854790396354
810,0.0438036567845656,-1.8770760521293837,-3.3439512045971655
811,0.12295204575458518,0.6488294290674537,-6.792789844357689
812,-0.9286538765631694,-1.1145963774503385,1.2521247353061007
813,1.4012779387064311,0.6106066828827581,0.17027184210504687
814,0.9272422063789622,-0.3105380309579718,-8.02413228188036
815,1.310913401615246,0.5690843037467376,-2.053655827249823
816,0.23206750716514873,-1.2246224917112714,2.9521104524227173
817,1.6823044793653321,1.223248924954484,9.982943104109504
818,0.15906144983968185,-0.14775895615021492,2.162527005842538
819,1.5304511398798861,-0.999199718318623,6.171562559566777
820,-2.0879513661948113,-1.4082675917512504,-11.798144847751464
821,-1.5077671499227707,-0.9339002104216059,3.459243220452519
822,1.0714480464251217,0.5082195383832457,2.1540097257694053
823,-0.46838540963740705,0.27132479133663817,-5.655595966118807
824,1.5314731069356737,0.05250741052754032,-3.829300257834148
825,-1.003900734706089,-0.20219212473951712,5.584041711089958
826,0.3966929109537543,0.24878889473999583,2.335022660211366
827,-0.31672025094064005,-1.041694064798218,1.083241335678947
828,0.7776205023185937,-0.9116555877169457,7.14699482249627
829,-0.706345046321375,0.38080477252737077,3.7609096676966836
830,2.077660102729242,0.22178227843272239,-5.257396359556612
831,0.4495632438589309,-0.05532192136103516,-1.0263203560076963
832,2.075663517079608,-0.5523905928365835,-6.6534807988379345
833,-0.5114755096895025,0.7366753706178971,-6.746734835720947
834,0.8086781591844161,-0.7141509487057865,5.512622444346092
835,1.13382093619986,-0.3049336887896054,-3.8700101376516165
836,0.40066678833545266,-0.07901979353485106,3.1514222492317243
837,-1.2907143551059197,-1.643973342835046,3.99899179401185
838,0.8717495009984426,-0.645205191509981,0.6124831575540446
839,-0.9307434877293679,0.15224380128663242,1.2460323230094528
840,-1.0755714320161565,-2.162827361829236,6.086048080883171
841,0.328129514043164,-1.1116215027006617,2.819673867394369
842,2.5217917945535513,2.308292280841326,2.3849160980747106
843,0.4212885713239793,-0.21273550483477666,-7.012434085758583
844,-1.1102631862336492,-0.7035452122764221,1.3021541633367835
845,0.5382475190300253,-0.8105397674563243,-4.301781227592905
846,0.18218778186193302,-0.39348478249745655,-2.331047271800951
847,1.911484304297988,0.7527387417209045,-2.842491008255984
848,-0.6966867278590922,-0.0781521607083526,4.562725096531527
849,0.6244250599661068,0.036235526043077414,10.67044010153289
850,0.1583875323995343,0.8502711449896181,-7.026080483485605
851,-0.3637383425702437,-0.8389096175717101,5.899329558923659
852,1.4002665699705543,0.5426669490092692,0.9914476410828423
853,1.4450446910020844,-0.3381578851017556,0.06641081827369444
854,0.6962451238642073,-0.6457976612599922,2.911519527940778
855,1.7490981098883744,0.8084795826540533,1.389007510098452
856,-1.0061700457945058,-0.9266511033266888,1.5962447012719438
857,-1.0026355536812168,0.012072470770847572,8.393205540789438
858,1.4724260776242935,1.951632179214758,2.2791639591180353
859,1.2686356662975211,-0.19324120688928692,11.248703933263243
860,1.2049628190665982,0.8080270729971553,1.7239237173982118
861,-0.04526559221142856,-0.2376178733971883,-3.677310809268138
862,1.6202064834024679,1.1364466608626957,-0.2293199693335768
863,1.7160382622024062,0.5558703056193274,-4.421105234749718
864,-2.11487821887461,0.1515985507534978,-2.37400464153641
865,-1.4544351042195627,-1.4843925563077187,9.067148307330722
866,0.5738336919240002,-0.5229308950656624,-4.61295134356328
867,-0.6047396222407293,-0.36850911091459804,-3.7655241607257666
868,-1.2361050662962516,-4.26307428052263,1.9154819350239043
869,2.726339829543149,2.1082255317568475,4.087799245580848
870,0.11642904180511593,-0.056339204584380756,-6.572939283208991
871,-0.9280526839031973,-1.4037147212750098,1.2885024505743339
872,-1.2646300379941653,-0.7688214314954244,-8.236143046769593
873,2.3589299538865487,1.8061977215465306,4.393312136651997
874,2.275090625078175,0.7230235682606664,-0.37235064557854014
875,0.4513653920525884,0.15923097785294754,0.7551512927752614
876,1.2774115765709382,0.13993412903585795,3.30992888245677
877,-0.13032497222783967,0.359723498134352,-1.043375017560245
878,1.857170655822622,0.886350240169868,-4.311338261355721
879,1.5904333242127764,-1.4219480576581969,6.4414413724340385
880,0.8840352343843974,1.45058126765095,2.0442341372960717
881,2.4143509842494923,0.39336960222695555,12.319047661143964
882,0.4365583895023102,0.09171968416965375,-2.028486521425534
883,1.172241727996806,1.1442918689254116,4.858566893195278
884,-2.3100291709771947,-0.17766447222004736,-1.6533607814201339
885,2.3631737095742764,-0.750146749149585,-2.9882902956763377
886,0.4131275563691172,-0.28567150035233924,-0.4529793318007824
887,0.10080947538732715,-0.08629064281464813,-8.743447951806228
888,2.5760417711623775,-0.2653095923036033,4.5662439329983115
889,1.4224708888771305,1.6316729243701442,-0.5343099386761199
890,-0.7372117564439574,-2.0661461993992583,-7.0839595652394625
891,0.2573595178021049,-0.6212653075592388,0.172678030332568
892,0.6901243677291814,-0.37404704626495644,5.5603214533992
893,-1.1467649854676731,0.26929173940889406,6.6276206293656
894,-0.12530755204096022,0.09940757105043237,-5.7006489246272105
895,1.2272897793624336,1.6295890241292172,-4.894661730024311
896,-1.053806236562279,0.44277044176430186,0.6108988507001456
897,0.39199349201452516,2.3426867737342394,10.73180061785391
898,4.102756496525744,2.5651698046319655,2.0804781432973063
899,-0.9645486610689921,0.2600901298701606,-4.750000709168477
900,0.8275468483439857,0.6581970173285943,-5.652527506238445
901,-0.015553057001854054,0.2808132996057335,0.014361049388261216
902,1.3754479192357985,-0.08573936393891715,5.893757918520022
903,-0.3452593343208049,0.3106551094407812,6.231348709376312
904,-1.1364506941531616,-1.4190491523835354,-3.26097909219895
905,1.8254459398022256,0.7248128193555146,2.15776825361473
906,-1.4580817805288888,0.09646765966848439,-1.8748023262620483
907,-1.4539276374054455,0.40481374006776966,5.004925667693191
908,0.037371372282996806,-0.38991391239110135,-3.9176417302035365
909,1.8743770484232714,0.46880485485789114,6.199005208050943
910,0.43009917242762974,-1.0921739981374703,6.941179357925932
911,-0.4359845656537249,0.900946327398307,-3.348403713875042
912,-0.9278980836230515,-0.27652674551274803,-4.930691308438701
913,-1.2868444498495741,0.65423095145649,-1.789711541835532
914,-0.49471848429416565,-0.49365278528112744,-8.933815275106967
915,0.15476957111095135,1.0950560895911525,1.2409190490578876
916,0.2556192662588669,-0.5088160688459409,0.1480828050475851
917,1.5441566973785137,0.9333006909111021,3.6345817548150188
918,-0.10000103769890545,-1.5473919908730123,-10.56293106737237
919,0.16048127204765805,-0.10138750303323187,-6.510521118021323
920,1.2123798473735297,0.23721851753605688,5.917239344471027
921,1.1849353601775001,0.580773534208425,2.748531666988324
922,0.11503833423387283,0.0778247137110386,-0.8811980691329342
923,2.4367206041165277,-0.1334638581758625,1.4276711517787413
924,1.7393016087864728,0.24794401465307597,1.2760491578875157
925,0.45913347658504144,-0.3777997556262201,-9.726009275956923
926,0.8070490309579622,0.6484886474695689,4.842884927636632
927,-1.42745633136857,-2.281139863164879,4.191468971207208
928,1.1832804310260414,0.41212266109331114,3.250327490158622
929,-0.02763063379868269,-0.05343015784861742,4.276151663314635
930,1.306065651617047,0.12039971011354522,-4.252480173657846
931,0.9159606030910328,1.3942978465006781,-1.143367418114317
932,-0.2992471180700622,-0.13169957711241145,11.02564379341309
933,0.206891438978329,0.21083535175846596,-6.266732344357694
934,0.18546178548433628,-1.3048583102484512,-11.074341956770247
935,-1.6628209950082375,-0.7522344942417232,0.8391669743057051
936,1.142136215703623,-0.6111793061566574,0.10119542833657924
937,1.9071060322289917,-0.2903639475248692,-4.039644954338117
938,1.3193731183008441,0.2798708358482734,-6.083537817975971
939,0.41445661330366845,-0.8949468537573677,1.5835581702574153
940,0.5506412947186191,0.1680225289954221,4.795065133697421
941,-0.6500610914636865,-1.4223865478352797,-3.570820803519422
942,0.9217098413529101,-0.42989469875285236,9.166938987651251
943,0.6742796178251106,-0.0006952010071754543,-3.0427934877419984
944,0.9606958841582467,0.4080292680768263,8.092708811292367
945,1.643233957186319,0.8845989937747205,-2.917546012380589
946,0.1524862736142053,0.5532177396717946,4.333828395291832
947,1.8236622406025926,-0.1432494472404988,-5.7069344440033944
948,1.4306009994716227,-0.07405462258025065,1.480848114033614
949,1.2301494084449032,2.2143653957611917,1.5764424576404394
950,0.8327398082594685,0.6161044752977808,-8.948975167463807
951,2.028574818114386,-0.2564043931352957,-7.3595071198611635
952,0.9222341565152782,-0.35702397202916664,6.757621006099251
953,1.5475625922009186,0.4204145730006615,-2.3547423617213
954,-0.43091743464613563,-0.09106515765356146,-7.622606810391409
955,1.7757886958677136,0.715184954814474,6.847418910190738
956,0.3225665766122032,0.07415390395810703,-3.4092685463694408
957,-0.7057123715528097,-1.002167613935229,-1.5995432007267383
958,1.5582771841458776,-0.1181433414021893,11.259558717522589
959,-1.1228012054778063,-0.6209911340157861,0.6655200484252602
960,1.7916841819909703,0.8920290129180146,5.050272254379216
961,0.17688068354079833,0.44039764863521375,2.9417603750030503
962,0.5246686063024397,0.34259480685340093,-7.678846452485816
963,0.0711632496619605,-0.44260328415725775,3.629929026085706
964,1.2724161277481196,0.9410943731201444,12.348097464791278
965,0.48325146712169786,0.6639396081954234,8.11217025260717
966,-1.572116360777044,-0.19146399586096122,1.4439765208593833
967,-0.16462932861419444,-0.42681850895677287,3.6756978951311043
968,0.9583762008691645,-2.3055294606922714,-1.259372451031239
969,1.176590338199502,1.141752795964612,-4.25398717664485
970,-0.776344354333093,-0.7836393275965329,-8.65628001839252
971,-0.31751947157218763,0.9589930397756413,0.36405004514810946
972,1.1957203540535715,-0.17680752667265945,3.116588050314464
973,0.3591637465362117,-0.9311878160814799,-0.38703795380717
974,-2.5990862215281485,-3.122000958435232,-2.5142552967531153
975,2.539386557959184,1.349183788495743,4.863145566005159
976,1.1031734286140327,1.1413289013916383,-4.402493470998601
977,0.8723977729250348,0.5332250084805208,-1.2647957941640917
978,0.013202883587509429,0.14782671209097317,-9.445093089597922
979,1.243766734115458,1.4996908919768936,-8.485773588367438
980,0.7647853838276581,-0.03196692269486043,-1.3205385819011692
981,2.499434290080786,0.9538362624285242,-0.06009790945239546
982,2.09107119511937,0.7033363373431465,3.1558321883677363
983,-0.4673331241264151,-0.447284685354406,0.14136372009849696
984,2.261609543710342,-0.5570363419234708,-0.23660378115280656
985,-0.32826897425314366,-0.7078582722690201,2.3057469713772427
986,0.6770433397216424,0.2830673396434369,-1.9380525630224876
987,1.733943046994511,-0.14323611167066597,11.156026279788534
988,-0.20209570967828266,-1.2696253231227579,2.4012173858665973
989,-0.5905050324573045,-1.7726987838134214,-1.3152853307320107
990,1.0307686566983758,-1.652903074585342,-4.0831961726661525
991,-1.0695961562533534,-0.10821047308131342,2.7152816598110703
992,0.7397734803730789,0.13308583669762758,7.554653919390979
993,2.3498650501941203,-0.8303715328181911,7.885295255618878
994,-0.058388388901419175,0.6924724170100763,-4.9840030451733135
995,0.35766097849284717,1.3735562229038634,2.427137308719957
996,1.4820927235870065,1.5205580066848416,11.466804471192162
997,0.5079569658402276,0.894388372129806,0.05582967213724488
998,1.7787252440498202,-0.05347348400569888,-0.4554336512106357
999,-0.28685286968341756,-1.591922060341164,-0.03784913209377222
