,x,confonder,y
0,-0.5157170620605106,-2.045660977873735,1.450168429544661
1,0.8445512682473995,-0.029720578753817936,-0.5369196175831826
2,-1.1763382376190692,0.9762768895563341,2.8755036349292236
3,1.5817170492087818,0.4800295577471006,1.831092391990869
4,-1.123249406159331,-0.8752608991842348,1.7278509087307274
5,-0.19031434804367353,0.22816155697214147,3.577089652104161
6,3.628190381731516,1.677584068255016,0.95684322176036
7,0.896470639389507,-0.07831158278141478,0.1771595147305497
8,1.5089068522470381,1.2885842900150855,3.910711396631683
9,1.2708598032498528,-0.25510241342519924,3.157431714810789
10,2.1007294034954236,-0.131079498263613,1.6351981254268622
11,-1.3893476784927175,-0.3883070936731812,-0.8467023443101109
12,0.7885076373044277,0.10901506247923075,0.23089588412076892
13,0.5280650094461703,1.1252107309238313,3.5655138574474265
14,-1.0536572371467363,0.1839666427876845,0.5830255997343361
15,0.5077227073106279,0.48967595418247456,2.5868607128573275
16,1.4914173320921242,1.1461116044037745,2.5606225184850637
17,-0.07326593514510416,0.8004017113891565,0.8806838605127114
18,-2.303595854813596,-2.5144598832865857,0.7808755296536016
19,0.5204914858814649,-1.5538069078204026,0.7420204504660093
20,0.8431472227482444,-0.23375696546371533,3.2824366316080837
21,-0.21947810269567095,-1.1172165835499888,-0.8448712044970491
22,-0.6377358902326958,-0.513692933502713,2.793082178566259
23,-0.7274699555450279,0.3435906245620494,-0.4249790899716215
24,-0.0925672597694388,0.19794867974701547,-0.649402515887745
25,1.919748155479574,0.06387492394473702,3.3136891014891963
26,0.9354998506603844,0.911563962816912,2.2501648140909696
27,1.524805960184565,-0.052858837718681974,1.0772234762808974
28,2.034867685442975,0.012777819440732729,1.1781308894095028
29,-1.3022926461554882,-1.1528076684496438,-2.3035134825604286
30,1.795982385074522,1.646001650619682,2.819910764464673
31,1.7906298476101434,-1.1150423301004617,-0.34146154174971705
32,2.493962645992045,-0.041112554176197386,1.4237649536916814
33,0.46385915161667773,-1.0362677533386848,1.8417268961270663
34,0.36098762915735744,-0.059501129057843154,1.0592452566067794
35,1.6281468732939706,-0.5014957389367799,-0.3735806644727713
36,1.0989920706401082,1.1290512879713228,3.5224384000622413
37,-1.0503202017844377,-0.21423731823783526,0.23217942416949625
38,1.305695648761668,0.4684918472467135,-2.834019268191982
39,0.561525094647986,-0.8593421951942785,2.3325331101608833
40,1.3552514114709384,-0.8513934492126465,1.1989133972867854
41,0.06612118726783622,0.4894361725982146,1.8397175657626472
42,1.3397512081699985,-0.5880492386997583,-0.6211310207172647
43,-0.3023401141212798,-0.34204312446177454,0.46168255503432737
44,0.6890330137264127,-0.9631950343947688,1.4103193294121388
45,-0.5925619191495761,0.43298718517714574,0.6747755739077029
46,0.7756776031012702,0.6719479346634997,1.729982507683774
47,0.651168479021304,0.2367270625872873,1.9500617188700593
48,1.7304343640661846,-1.2088656399058244,2.737825576918188
49,3.2787587055780927,0.4719018321297465,1.8601083669830134
50,0.10756227821518083,0.24606394924853542,0.769181021423633
51,0.10753055581945636,0.4637901861109654,2.5837664480838365
52,3.437542768683162,1.5006644489635141,4.377767378277749
53,1.4023445846946863,-0.2873117582184353,2.8282944455757795
54,-0.038927813465018446,-0.45646355598158755,2.467065022954136
55,0.9890163291996144,0.8447079609425392,1.6615115899518837
56,0.39743295307577853,1.8486267114737516,1.178137080024611
57,-0.6357573749709624,-1.9187502168752348,-2.8087480232332775
58,0.2659486770673307,-0.10418969694291375,0.6836834737278451
59,0.4616143636825265,-0.3485263895896732,0.8608890507217213
60,-0.38473112246810487,-0.7945400462972245,-0.5548310153241586
61,0.7965392552541832,1.1604391943636458,2.2363321832913017
62,1.0448300539435627,0.6930385406908552,2.1784591521931973
63,0.08447880979021921,-0.17914815143364052,1.701325242478223
64,2.296776487937393,1.3394978544139533,3.0790929186793456
65,-0.2166794400270827,-1.737723832470302,0.7979933281956142
66,-1.096194331578574,-1.5925456984267183,2.5339433052195703
67,-1.2503681539431981,-0.3415984294713563,-2.2475801892676106
68,1.9765209868257447,0.9042286400519033,3.6823832927625477
69,-0.8854424064160885,-0.9805320847704544,1.8655297791614267
70,0.845224535351922,0.5762893892474179,-0.5002281497001588
71,-0.5577178842824746,-0.03652589966138449,-0.578807752576767
72,1.8221493628354473,-0.5087462216563751,1.5938248078674735
73,0.6129511667742943,0.48246272286648373,-0.18644034050475666
74,1.82454713903176,-0.7831635176385343,0.7939862436438374
75,2.1158097445360244,1.344857216223969,1.2957454990222728
76,0.38875417642715815,0.8841488011641735,1.0518623571314467
77,0.5253231679833538,-1.1847158536885374,0.1296089806739137
78,2.08076207114816,0.34855572112967415,1.9554553643660484
79,1.9900431537998726,-0.8275485203264122,0.21592229524966033
80,1.4210436837149094,-0.6676887274931372,1.480824743472681
81,1.9040309686275432,1.4138576878929154,4.849035399539521
82,2.5890289644122286,0.6808648754542918,0.20940935661234372
83,-0.25866228309756467,0.39878166433091944,0.9659406429978901
84,1.0473190294739674,0.9486528609951712,-0.8330020502180988
85,-1.4182048083955756,-0.543510529986373,0.41000432572525514
86,-0.3513830519491007,0.31324853692468513,1.0607872229253814
87,0.7147980570558595,0.8922597008194039,2.9592309268339156
88,1.1907198032965183,0.03221082410503098,1.7782723572492884
89,2.289081459305818,1.1377397688138664,5.2818515719981205
90,1.5635949203863901,0.06547873882580546,-1.2039630152105885
91,-0.31865679521312196,0.02611620719603786,-0.5146943635215089
92,0.5378762531669111,0.17128453170286254,0.8093528694808154
93,0.8397181101575861,-1.3690269708434037,1.5497537617818684
94,1.7747576641055556,-0.0008698789120445032,2.9608587689456147
95,0.761704940455695,-0.04829689506517617,-1.0906284308793683
96,0.5793431979579093,0.049806981239389536,3.3300906329370172
97,2.0539449886843295,2.8616618477729223,3.0056532635453967
98,0.7590793907622463,-0.881104416133498,-0.30955878480864396
99,1.1007893835529807,2.00168201843306,0.728961589648037
100,-0.5511282568958612,0.0236542958893849,-1.2618396980199529
101,1.5256174082474487,0.48395332320878354,0.6822925655165695
102,0.9176517236759648,0.4419779810911869,2.9740869975307027
103,2.0178649345025126,0.2378964263767173,3.0133440232209723
104,-0.9871685494436383,0.851904046841198,2.2327611457075207
105,0.012356050514113814,0.2469631648099788,0.46464235174549406
106,-1.1790729614078925,0.0010667018400916622,0.7885592721126977
107,0.7519219679664256,-0.9617427995827643,0.16281858071061212
108,-0.11590354595951913,-0.359830204030423,2.513399899329676
109,0.2956384398345673,1.4670967371469983,0.6188430416873596
110,1.6318021213447738,0.9561460700060036,2.2455388490054107
111,0.7321002082757718,0.7668147981179864,2.272052036087307
112,1.491601461796924,0.12669251423629893,2.064096950720236
113,-0.1347199892649233,-0.22313307204715507,1.8761638327204722
114,1.0100001185238827,0.6192495973765224,1.3954369498615071
115,2.8837455409500024,0.9785118551307503,1.7983642071609174
116,1.242750300383256,1.2522150676748927,-0.7828973277443536
117,0.5866714259477337,0.6441773942019876,3.8945936265429446
118,1.3598376605918898,0.4380741921489133,1.982767520894962
119,2.0044580427757976,0.6147071787799994,0.979623942967075
120,-0.5146342908577585,-0.8222638728224996,-0.01896208224155882
121,0.5481167389486952,0.26069105431818335,0.6943010553080271
122,1.0035781331168825,0.39892191897966905,1.6875556423554852
123,0.9590153928665328,-0.5941368669653824,1.658126705474479
124,0.24594868687738813,-2.219614259867215,-2.2182809299700885
125,2.137797440657268,-0.07247933413479495,2.3099395355494394
126,-0.8729485704362314,0.3471893869392918,1.547762551479439
127,-0.7820251419249681,-1.4150174398746835,-0.016914370552156832
128,2.530514320279425,-0.6967013604499817,3.0810541734865686
129,0.006585841652989144,0.24340197605876993,-0.69412490469818
130,3.3707343690510676,1.7407826585854562,3.6887559617147803
131,1.55968458562345,0.8543112507629689,3.555116724361925
132,-1.058961158091019,-1.0417093347663922,-0.3682074302438683
133,-0.03023156292656441,-1.047016725476168,0.8030114294963469
134,1.7579509747374962,0.7257994100244576,1.4711350675203043
135,1.2479264386057474,0.5384172690007399,2.819797476033525
136,0.2729350874636566,-0.8950415431742954,0.7697513864119744
137,-1.8547657840847536,-0.4857312005627703,-1.3364368412448178
138,2.420736352573436,0.4541230013736894,4.782188803337779
139,-0.5384238045316454,-0.8730076489606923,0.012055726409020084
140,0.751780777118766,1.2853234278341357,2.2877310705248934
141,-1.3385530744144907,-0.8402344229071662,-0.5820308276349819
142,-1.7684310335254367,-1.986924882061756,-1.6822979401809048
143,1.6135227409580235,0.6237272823786323,1.7130264105488218
144,0.24567772680837419,0.5076097502559719,-0.295319707114729
145,0.012876294687878764,0.5246937364605949,1.2216647931148141
146,0.9177342527927865,-0.12425498182960909,1.7470309899465435
147,0.07425840515356841,0.47853072214935044,1.3593037107157224
148,-1.0378013550334115,-0.5847739449663598,-0.06407856077941751
149,-0.49350032182113945,-1.7947151671633352,-0.5556527505422431
150,-1.1221442463518259,0.15524978647645762,-1.5529789884019396
151,0.28389410863191233,0.6448376001193454,0.947944356143645
152,1.1537387114680755,-0.5213617054341272,2.542930482471827
153,-1.1075783197642353,-0.3835941274658855,0.7311189569690391
154,0.9260379958909759,1.1696950352262812,3.245990293145383
155,-0.5574520261466435,-1.5715245486265421,2.853379995023566
156,1.659466614398832,-1.7356979957654666,1.60929724290725
157,-0.823092130180098,-0.860602853050603,-1.7897758617214405
158,1.0830146408875834,-0.7059108500686602,1.4793391663940132
159,-0.16445914753241253,0.46188165296417055,-1.1101731002721027
160,0.7637768398881628,1.036201259918676,3.569867519263137
161,-0.20730812686562852,-1.3487671056013322,-0.006148649799309014
162,0.20754311947546375,-1.0599755482469673,2.9886670947263636
163,2.7601753186024975,1.712230247951177,4.538466230022261
164,-0.12950122107075868,-2.440209865228439,0.06562372236644753
165,-0.4921837984686328,-0.67858650382227,1.3864823916104907
166,0.059830894061767115,-0.711523582042602,-0.5302750500350264
167,1.2972478972827584,-0.8417941009324068,1.3703299553553223
168,1.256454927804612,-0.20076948696435326,2.880003838945891
169,-0.18668527219662348,-0.9944684448924506,0.07331910146490306
170,0.3366211339380134,-0.09898239766802157,1.1994572846489095
171,-0.19353945704396813,-0.056574586171525464,0.6583272488519939
172,-0.24602538713901378,-0.3671424140630435,0.10750844230291623
173,0.3923266054875614,1.9152591798915501,1.9719465252823518
174,-1.574032463755094,-0.9256420000408307,-1.264804707819191
175,0.8498257712206361,-0.06795967172685387,2.702882465999138
176,0.7533706902082493,-0.48940613287638923,1.670938917733432
177,1.5309047063266639,0.19189222167555284,2.976955563286128
178,-0.5265658573105889,-3.0608089144268913,-3.099715152460101
179,1.4572876204032668,1.0103224673028228,2.5876525841462206
180,0.11377662298187013,0.17393796200681472,0.767053595528158
181,-2.601136896840174,-0.4704037630630617,1.7410729719763685
182,3.760708750838366,0.7961849897002194,4.350343205017968
183,2.961036821891306,1.4471442350733421,5.252472989254602
184,-0.9415514048687501,-0.6428176086834515,-0.6789419255680909
185,0.6969447500197152,1.6318347294930022,0.7205169796314199
186,-0.9034122766984237,-2.5625559703280203,-3.739068197424438
187,0.4546171694299117,0.5213090664240924,1.4564509009409135
188,-0.3959150282955248,-0.18109218468262203,-0.23141406348283722
189,0.16989296268550774,0.27125761033535384,2.0525509473685206
190,-1.3564315448506128,-0.008043583453737364,1.7010098931304776
191,1.50400837870658,0.8606019082324766,1.5654545927782864
192,-0.7498105326609422,-1.080111767715937,0.1339239861434034
193,0.6900995282800004,-0.4880400122249078,2.087356409351763
194,-0.7778396019933094,-1.8701763361188635,-0.2900937907062243
195,0.7433432474245587,1.1515350717623094,3.2959546205599928
196,1.1341801717667956,-0.21168249589798782,2.5032941133373394
197,1.462282523806357,-0.7634071442337337,2.5696292485263754
198,0.36677132389269645,-1.0068165457453582,1.9841951301991039
199,1.893479074601251,1.1562243942840071,4.092082826035381
200,-1.1197608463540156,-1.569903347165045,0.057402677863292784
201,0.6466846338987526,0.12744090027135763,2.1380083525693867
202,0.7398161848039784,-1.2626967032980048,0.8111522637242368
203,0.32608940127102076,-0.5389678174624751,1.4931305514056934
204,0.9696082616371859,-0.6238223408609165,0.7707770027140167
205,0.5431068268672068,-0.644412406178836,0.7016942215274197
206,1.3157181234458721,-0.3587815407057744,1.473399688636546
207,0.6957983418093712,-1.439923766186727,2.7317652511579453
208,1.3011880055932044,0.43378072528956607,2.475634379573545
209,0.25863417967320884,-0.2603617199802167,2.766891170338027
210,0.7487619157732021,-0.34001467947345737,0.5960537392998011
211,1.179427590237901,1.3169313255472488,0.24982491457613598
212,-2.805414901557506,-1.0926114038564005,0.4427080261522094
213,-0.3577314743269404,-0.28378816528032225,0.18177634919986235
214,-1.0670833981294048,-0.6916230715460567,1.3740793240548976
215,-0.21966301986475778,-0.23489642851105288,1.1645140826883065
216,0.1718241672785539,-0.8024108228104898,0.07951050377774439
217,1.2877077223376507,0.5752018977955857,2.2520193769152446
218,0.42664678665010053,-0.6749369805281655,-1.2383715592991629
219,3.3595915650157453,1.8858531035512527,4.337091716953499
220,0.624417571296607,1.7358431185314749,2.2013654571682677
221,-0.6720827536282532,-1.8014849009312728,0.13284258352709546
222,2.5857218324636837,-0.008438038999123718,-0.7499060437504927
223,0.5463933005887569,-0.6170699922515345,1.5194342319496517
224,3.1953942694269193,1.762829130074227,3.2431681849252483
225,0.24582083496488621,-0.2631619544827068,0.01447330406588529
226,1.2421921820373183,0.8584497527612904,1.0771218098917688
227,1.2140515625423123,-1.8108475066975356,-0.5100990756197538
228,0.594055800703924,0.21978462540249177,2.4365525998129596
229,2.343395441752369,0.6256271015776497,2.8226167376146725
230,1.9692448964061113,0.30111287050886987,-2.658618822425404
231,0.8656019426345083,0.450143210127254,0.5061323299642867
232,0.8910409295347836,1.1750574607861126,0.8670082650395485
233,-1.7889660326260086,-0.023426359748896463,0.5313369906680949
234,-0.1504640627964669,-1.8462849056243533,1.5446749925517942
235,-1.4047559207803102,0.6867388690240888,1.275544872258192
236,-1.593968002240329,0.08590013205431117,3.125961295857291
237,-0.36575579416032317,-1.6210661911311333,-2.2357733665049775
238,0.5691875501187349,0.16562110916074405,2.065889390200864
239,-1.2085393717995214,-1.6365069361143445,-0.039239704439878176
240,-1.5785052312096828,-0.4916966445333905,0.2935950798595196
241,2.594895374549876,-1.277180113762008,1.8341918943677584
242,-1.1335619827367251,-0.8677585063855874,-0.922600006682113
243,0.8223549398188377,0.1215340121889385,0.10392650393430003
244,0.21560095622942954,0.4581104509751366,2.2770852219238042
245,0.8382716591908881,1.022045724097655,1.1334686925557784
246,0.08917476360480903,-0.2665049083238023,1.787514815948783
247,0.43676975044679933,0.6072470131712617,3.2154017777816457
248,-0.08874352874988137,-0.9781683376996546,1.9115489818260423
249,0.9319897420631464,1.408658666530777,2.0477919667325826
250,0.7114155980110897,0.0018203190875007097,1.4063746823439283
251,1.2610417118259551,0.19472393688066397,0.24253980379522067
252,2.3200621879934693,0.16473514448451643,2.4145012760532842
253,-1.1656118531978912,-0.3140048631229301,1.516501350681831
254,1.3510416811801111,1.9137002763384052,2.8507947797213298
255,-0.20227431427112097,-0.36514381196153384,2.5649574940277695
256,-0.31493316280987893,-0.281047996514149,3.19019376404757
257,0.9980999079589379,-1.2214359978600506,2.103901343360776
258,2.9905569695031344,1.7479017835451787,3.6216930461827275
259,1.9349510076146041,1.0513313714212857,1.7971422679603446
260,0.8827498844519067,-1.3316756141942816,-0.9498256578543313
261,1.2269372143838781,-1.4002046963927997,0.9995258978379163
262,0.4416439472673901,0.5358145888875022,-0.32596781884943926
263,0.009668770007415617,0.03593733967614065,3.8012595428370064
264,-0.7524693686317786,0.10791053157180444,2.171549420091446
265,1.249227687227823,0.15992956327635308,-0.4397305948315678
266,0.14059285927649792,-0.8509455701984822,-0.09728739044895296
267,1.325137945875445,1.258827633453341,1.005259410658309
268,0.6997043052977693,1.703294830724791,2.557979906222279
269,0.5563611865322188,-0.21811937958684707,1.1347183281418038
270,0.968045274291488,-2.5045507351160126,-2.9148092121222393
271,-0.01965266802555138,-0.3742245797635242,1.828148068098177
272,0.005328560639711988,0.49730623698866055,2.2214045847938637
273,0.14598803078093664,0.06346067565773587,-0.36479949677934487
274,0.041736436416243694,0.4293279601682023,1.9064088906778762
275,1.7739263166662531,-0.2890311403116264,3.4449191934998504
276,-0.9242549378013226,-0.7719067626000247,0.5681860132218028
277,-0.30897641801306014,-0.8085506249170166,-1.2078559900440762
278,0.7721479762442367,-1.084354871496537,2.727437148792749
279,1.4332198575861361,0.5363991722434384,1.9381887862472795
280,0.43139951264593146,0.9042371378963343,1.5536402460778655
281,1.0004296102598578,-0.25864330272844005,-0.26539344714656754
282,2.0610343126915245,0.3910781676014131,1.8292371194276773
283,2.1549054169093314,0.9117621263971344,2.422182132461164
284,-0.5565986304261639,-0.8876784245398225,0.15737306391061373
285,1.2178280085593935,0.1462094250248392,2.217825119795587
286,-0.3163802533002476,-2.5348237478879643,1.8041576527070082
287,-2.3826695469498307,-0.8705266053251862,0.6919080290442567
288,0.1919644673246112,0.36258024582208165,2.950035098674772
289,0.41516235510249555,-1.7432913873485671,-0.14779616329619988
290,1.5128040439194823,-1.9052347847248081,0.8669319040235179
291,0.3853888822411907,1.337609947020445,-0.00611580356809549
292,-0.042814049983257496,-0.39762885149358834,1.0127323912274138
293,0.19355403364419987,0.4817528840695038,2.098941850132577
294,4.079958706092759,1.8986464992273466,1.4351041852265534
295,-2.3115079688265365,0.2257643704240738,-0.941575921544104
296,0.6663302831019582,1.2760797668492876,1.7448276865273944
297,1.8793519932278098,1.9577520598376295,3.0249484201809604
298,0.5970840290191108,0.731104353297634,5.454151944187493
299,-1.830879157241786,0.5089401715611089,-0.018419336353542648
300,1.4085988089726387,0.34398102049569984,1.2460821857664892
301,1.1369730506996145,1.5642515120208633,2.9698422672297435
302,1.0852372335620744,-0.6447767589756422,4.117544098609106
303,0.18677624952758481,-0.8844495316495955,0.13054585708324717
304,-1.2015940190805332,-0.31557588943379167,0.6357287055608145
305,0.8828017989811386,0.47908314445597144,3.696724935037591
306,0.06491355409920385,0.799998932926525,0.2720446285535765
307,-0.383001539524422,-0.8501823366495959,0.1225498615515836
308,1.1557832834498039,-1.238384328824345,4.230760168277243
309,0.2763815919714184,0.860470852989963,0.29087639807326016
310,-1.9140260151195323,-2.4085552665875625,-0.19772352064516108
311,0.7872231288864862,1.2179030877245787,4.211520280513609
312,1.893461362461132,0.43198687730805374,0.719272550987782
313,1.8065146206113487,0.32053060591706994,-1.699266819744287
314,-1.211512610779268,-1.9401064446710223,-1.0207968130171623
315,0.16677133543816242,-0.9356094186450417,2.081111234329319
316,-2.316535042723748,-2.0182603559827665,-3.227054880378199
317,-0.06523669354873873,-0.37332867952851406,-0.19678506381594052
318,0.5883297640770977,-2.0892273354540265,-1.0440859785061614
319,1.4590864125666,1.2516856579159483,2.338816297401223
320,0.5076250628896092,0.649110954627622,0.9645114825835588
321,1.8499203835908495,0.33080795193066675,3.8471374140847665
322,0.7518666630692821,-0.14891375050916567,0.8694533522056361
323,-0.8841373007506798,-1.0700251078454868,-0.7722572338442764
324,0.7202698918256778,-0.7209187598447543,-0.5900636494698649
325,-0.6972970087114325,-0.09164260760256596,-1.4957487840009258
326,0.5969025747073189,0.9816435706847252,0.9649453998492519
327,0.7331337911031106,-0.27743280181523383,1.0629841812347198
328,-0.9931696945759085,-0.8760808611210581,2.2404775319831614
329,1.1242146671643383,0.11684913442092303,1.8255772545375895
330,0.4109959291554961,0.20354394255980018,1.0149261581341118
331,1.1597914131500602,0.6193838664848107,0.3256465570816972
332,-0.7108487052735368,-0.9365450552484854,2.0899677507325856
333,-0.5327006505229882,-1.6164370840803652,-0.8814462310209691
334,0.13773235294989705,0.553893377167872,1.7310589684371074
335,2.0981829852421336,1.0647125253350895,2.0580527812704044
336,0.7039977215869122,1.206185186935884,0.5981257526532398
337,-0.6305866429602283,-0.5747632675683184,0.9985843646728096
338,0.5499579991310464,-0.8312101378806362,1.5726133683049741
339,1.1285165298410702,0.6220344867464722,2.0498924524580837
340,0.8099184292939993,-1.1769692798195814,0.306035270109867
341,0.7309396009058241,0.31684227685130256,-0.8908075142587237
342,-1.0321474613553425,0.44391807616789986,-0.054375436731152194
343,1.0553257575182076,0.07874810440016888,0.8458329989705439
344,2.829449250763677,1.2798938255523573,2.1978960505021026
345,1.1299407164962258,0.6120587572611712,2.1531737288727433
346,0.6575386084673059,1.5288189001410377,1.1862012996276392
347,-0.9212726171279079,0.026732680666586024,1.4656821222595402
348,-0.033587346872284846,-1.1245590071883502,-1.0367893923767977
349,0.7299636200741636,0.14833969408152142,1.4775679170568887
350,0.7956095630340009,0.419877735532337,-0.45870118091927325
351,2.547121480773326,1.2098154732493558,2.373992769499237
352,0.20635628309510323,0.9611865588460626,0.5056294174981264
353,-1.014138620282738,-0.2386972084099874,2.326244767364744
354,1.641803393885354,0.38072353010055027,2.6520494658966953
355,0.8581149630340815,1.1903760399567012,2.275938561672346
356,-0.772307059257493,-0.6262195276699369,2.6104607320285105
357,0.2807884603949224,-0.5149406382596677,-2.171484658752192
358,0.28484442066132504,0.3273135179286915,1.448204743088469
359,1.4661696932331016,-0.3141963064646379,2.6672245005498048
360,1.1357629360477972,0.48063406019187943,-0.5466408842735571
361,0.20766149963135933,0.19507054412491626,1.1321006372738265
362,0.8754584002537733,0.9870956495188742,1.8904117225222057
363,0.7842403140401528,1.1186766180468848,0.42710769255941844
364,3.214664645903672,0.3501304564529787,2.687464986432177
365,-0.8882036863629172,0.6546375566278612,3.292795409771952
366,-0.5260841629082201,-1.9290717204696195,1.6025156494644444
367,-1.677800038940081,-1.132860706298962,-0.7559962124828228
368,-1.1826382240919584,-0.7376692381286202,0.014324715873509766
369,1.6623268442812948,0.2976556180823106,-0.18577777500687742
370,1.0156231363651447,-0.5109085772542744,3.4427079621275807
371,1.587189540027949,0.2893343032190241,-1.2329643776367498
372,-0.34464174445488094,-0.33515243130935674,2.269806905637578
373,-1.2640192084048918,-0.2422348863729279,-0.7892992438437059
374,-0.6885234192467236,0.37241877083487784,2.1797644142624515
375,1.5939495117395923,0.017428006009414753,2.176905405587197
376,0.6028313672762056,-0.3535751532429961,2.641286067346076
377,1.8678160158472186,-0.11221518295129933,0.7651948200843564
378,1.0882292636894655,0.9602865598962387,0.2582111554727844
379,1.1805370613372876,-0.8800606514692269,0.5271561200353088
380,0.8185147400275673,0.42618129830787843,1.3569217335943793
381,1.1649730966921013,-0.8851634316585943,4.172494580385358
382,-0.10062363422666892,-0.48481935570230245,-0.4453903351117582
383,1.5391346352326174,-0.3400913595895061,1.6564371888115814
384,0.5243691776777122,0.8285731448406092,-0.8022101875714311
385,0.21085154348021845,0.3435425380290704,0.11580040979168804
386,0.5978755521329678,-1.7947276433588752,-0.4536227343057788
387,-0.8255977297444076,-0.07622723957435149,-0.31500471746912295
388,1.642824199715522,-1.7959787699365257,2.045632658277662
389,1.1703382066550976,-0.05284325121805729,2.0468152149872587
390,-0.06028526485333324,-0.020039230478651537,1.6777866023892112
391,0.8092617794324689,1.7137429213163775,1.968020939954478
392,-1.6475677323479867,0.2950365011538272,0.8875599032699656
393,0.27433302129818055,-1.3143963711701783,2.3413184223245707
394,0.19462200877694916,-0.7051410848011532,2.1672827631972496
395,0.2083298050564668,-0.4163429507217724,1.4460295049561287
396,1.562740880732552,-0.31217647263847503,0.8511873377027391
397,-1.1862818574072076,-0.549935256682624,-1.5458583312391188
398,-1.0322608369719457,-1.7692228571866482,-1.239114448335573
399,-1.1754647633449469,-1.2600380372956046,-2.1710886495848785
400,2.3289447835595714,-0.27950253282821025,-0.1982387657517759
401,0.3287347265436808,-1.1025887777766394,0.018956663073200875
402,-0.7319868021862407,-0.5252343695135211,0.9801661734126147
403,2.3409196482493453,-0.057716779169864535,2.8335530263228184
404,-1.5785059458963904,-0.9019519869006231,1.1113730267946005
405,1.250670088758303,1.4504552656761034,4.4990132834451
406,0.23147358847615684,-0.9484851883717799,-0.9252276214227848
407,0.028299816813631917,0.1297986294210691,2.252126821155815
408,-0.14367967966558187,-0.0315662679925172,1.6288527515273152
409,1.3889283428548325,0.7011053353914892,1.5165815486145542
410,1.9103665799060523,1.202134622903681,3.3580578817244175
411,2.112277893076552,0.7939061986898467,3.839234682671144
412,1.2102331586686996,1.460737569969205,4.123885926003291
413,-1.4558647600294532,-1.659418840857875,-1.6481323253337083
414,1.024178367976583,0.05675228133290107,0.14843696004976614
415,-0.2642207171272681,-0.8674916477337109,-1.510692831281335
416,-0.07353568296094254,-0.7104097020153167,0.6482370255032637
417,-0.4808558185386861,-0.33491096575924234,2.7632445385193036
418,-1.6901823181177411,-1.0543626253024634,-0.0894515229410704
419,2.159115284051591,1.4374337597429143,2.6291449156393547
420,0.2986530910393849,0.33635088251261125,-1.0961036131537472
421,-0.9476788088932662,-1.6144847104815874,0.4602327461448816
422,0.2215165784014511,-0.3138801896814075,1.1218932876704857
423,1.492691117568856,-0.642734713659156,2.1662642997627297
424,-0.4033517834297573,-0.4808705259473429,0.7778196766178047
425,0.796897993430882,0.33766197181815283,2.39272729126398
426,0.19797828053059996,-1.0349975498382238,0.6425806740791589
427,-0.7155254970747835,0.8602959809610974,2.117845771588674
428,0.45450858555377754,0.4960067866299147,1.515568659642816
429,0.17449692676449202,0.14988721808570166,2.399066505536412
430,2.1309526275976998,-0.46933300621712276,1.4052247545427115
431,-0.03608445942381766,1.0003076040625618,0.926669460476015
432,-0.9042900860929757,0.3380466957685573,-0.022787061662777663
433,0.676545282855547,0.5259808319252716,6.009766107351526
434,0.14574890628020565,-1.0666293854246722,0.533153496190488
435,0.7402823376946877,0.616335924242675,-0.4051854101935518
436,-0.09492661749322284,0.1512885987495172,1.9088820840499827
437,1.7544111126961592,-0.37255687643034985,-1.2122766689983544
438,-0.9228103705298462,0.3302895581686978,0.8828371362638334
439,-0.4105196011852521,1.2620262568693452,2.334440272395732
440,1.1811533029250174,0.41319559026923647,2.452210837465225
441,0.4810736402588559,-1.6164030771940319,0.6959863800498569
442,1.4938154486244812,-0.5783849480457111,2.2796360342765825
443,0.9000199218256646,-0.6354531756704562,2.0153439252906353
444,0.5676717628467052,0.37239303790056405,2.935495525514742
445,1.32131126939224,-0.161994428171471,2.2830321341607047
446,1.3970482075203683,1.4284500286486213,2.802157480064336
447,0.3575091008874998,-0.4062714926850949,0.05148294985399296
448,3.411327341497513,3.024354684032701,5.663024092361556
449,0.9373781586514565,0.6571193108652326,1.0717789391308896
450,1.3936092735867034,1.0204302165700714,0.7955975764867468
451,1.265405572022759,0.6614486739723895,2.974511079270731
452,0.8169364712474718,-2.7397655730860015,1.2474496795650178
453,-0.15593853182297643,-1.247028250512403,0.190764265612968
454,-0.9311174900598127,-0.39561188412926507,1.9695081183968886
455,0.05251917788314997,1.262062909897166,2.002683480390212
456,0.398790303215588,-1.1528488207411158,1.3606535583331354
457,0.2208048585342454,-0.8598408480315268,0.8539253744526152
458,2.3540115048822523,0.48163644388367216,0.8125855824090208
459,1.618796018634828,1.681731892148482,4.539772171845292
460,1.6067423034212802,0.9819889465471862,1.4800304043040182
461,-0.3522185040601319,0.07542705346106016,1.265704800504905
462,-0.2488479919140888,-0.04861696457093404,1.9222373671767656
463,0.14170234942504129,-1.2149260971723577,-0.0036562957244218874
464,1.1986616873105953,0.3649106491947252,1.0862253096328316
465,0.5914654914692982,1.0324588515530457,1.7412346969612476
466,1.409304160705665,0.5632870583166457,2.9633628173702182
467,1.34950177614069,1.2798934842097778,4.532312115447059
468,-1.110532196196988,-0.8109018305820819,-1.9332905143506585
469,2.1209380648744762,-0.29389034437576345,3.573305153377872
470,-0.19780123812203954,1.719948212311871,0.9164364571073087
471,0.6505323242861333,-1.254671950876513,2.8883507039757603
472,0.008530198240149583,-1.455336759464232,-0.7879045055180173
473,0.02596801746719024,-0.2558384603336517,-0.7991559764570126
474,2.6534855123450756,0.13491962110212066,4.199514697788709
475,0.058032094406089196,-0.221248237111696,0.7472381717189215
476,-1.4076766982665776,-1.6380534560087967,-2.402353007741956
477,1.5139134791266686,-0.018500352394133116,2.8413002512931014
478,1.6587048582448258,1.5155715118106303,1.9876388413306358
479,0.9268556510358642,1.0891468160271514,2.3114783817803657
480,-0.15844597878398503,-1.0383264820599327,0.3888536005215555
481,0.17679629489574733,1.5286248879061988,2.6305285844268154
482,-0.9027709871035268,0.8633027707122446,-1.1168371732494429
483,0.23730290648393632,-0.5924718105937645,-0.5516308811880688
484,1.435048126783374,0.6131404541651689,-0.7072445153917093
485,2.418995925079393,-0.21265675684581853,0.409898439957878
486,0.88756218046643,-0.4965451848407544,2.3490269952442686
487,2.7654750366411363,0.7652701352350771,2.6141244915764767
488,0.10284939286460963,-1.0229341905994107,1.1545324023110148
489,0.1552582915377616,0.2307321700924552,-1.3108993329255696
490,-1.577439551464244,-1.3655253460832912,-1.1407484935518017
491,2.312124001517091,0.8901124066160231,2.5781338214707237
492,0.15406589115116054,0.739220352922192,1.3164823550701248
493,1.6651195704622945,-0.31399672250152955,-0.9579055117244639
494,0.818692576788231,0.2790101279169813,2.432776937093869
495,2.0144255428939064,0.8933173421646311,2.599049179035693
496,2.3985103471804563,-0.975762258306312,3.1687670088534903
497,1.9972193897298944,-0.8163761675220633,2.4772497489485454
498,2.1190316861323133,0.6196238133355907,2.920402671996011
499,-0.6374691084401756,1.2875440964907903,2.209465342259737
500,-2.731097355184729,-0.18764519420732925,-0.8576305695276483
501,0.2195363155240379,-0.588037846449108,0.3650441846285961
502,-0.7274146753618411,-2.2008430415439957,-2.385846313739241
503,-0.6092289308550297,0.5182110090239538,-0.34953546847240147
504,2.391370534931192,0.8703740458472196,1.5488297224407304
505,1.4251590228265678,0.3832196230912822,0.633553216478395
506,1.5360067965608961,-0.5922045011983946,-0.1163297903109275
507,0.9799725027635501,-1.6602249042093031,0.40740272391257587
508,0.794009553249206,-0.8763056640223035,1.0682072648177519
509,-0.9234554866583111,-0.10781521575093504,3.0927564221186326
510,-1.463451766327283,-0.4031849380375777,-1.0640284696936348
511,1.0705352990929249,-1.7824640940446401,0.09911680710535298
512,-0.012766879452394742,-0.14672961281274477,0.016982938514293
513,1.7617598653389,1.2627861470073098,1.5433771838581036
514,0.9149468029560532,0.36955224920315116,1.33268235548437
515,2.17063865514843,1.33909125172607,1.5635206966197184
516,0.08140352858131439,0.6620966359774991,0.49067554419335724
517,1.3459761061020186,-0.42170308694290715,1.6134621669443086
518,-1.0821600514457195,-0.18884508849679973,0.4441645957284713
519,1.7427953076884894,1.2048552445357286,4.259145767631255
520,2.3088165276293404,0.5326330611560995,1.7482488681509147
521,1.0891923777098569,-0.17453740442407698,1.8322101697681255
522,1.6656124120418818,1.2122809205825054,0.4641589264494019
523,1.3191837310793753,0.2300001278344556,3.7212671223712688
524,1.0452471460442803,0.7317315889083867,0.4485981064440274
525,0.5783669864552164,-0.15288180985959504,0.5846958888017477
526,0.5115021027079705,0.6741655962410317,1.366430401728533
527,0.15963242320476212,0.016574610055876737,4.215524081006085
528,-1.2521754726747731,-1.0310095632179666,1.064615709065533
529,-0.28445649483146485,-2.7003955120821894,-1.2300283980438707
530,-0.35331167891333104,-0.2740766410317894,-1.327039453429958
531,0.045306175735300824,2.10584942379218,0.8807773674704465
532,-1.1274759146169016,-1.188200186740732,-0.9004246424682677
533,1.11643335714577,0.19127602702349794,3.2831427328653264
534,0.3247796820958333,0.5539303634203557,-1.8926793912925057
535,-0.15612293578250608,-0.12631411005655646,3.6146133651978385
536,3.300743044128271,-0.1595124871220274,3.7983884197384206
537,0.3315340299141346,1.2446222286665338,1.8215862356243615
538,0.8699160851381905,-0.9907108956371704,2.431615380784674
539,0.5137134989221692,-2.2610932356381506,2.3899691721962384
540,0.44307941053119504,1.6791927486549958,3.12113353834406
541,1.8778746500542143,0.18320430468423307,0.9015893631046599
542,2.4337115197270944,-0.3196262281094284,1.5127953610083322
543,0.4526280301017399,-0.49003444764833987,1.789457643301311
544,0.3422593699742922,-0.46725612698981345,-0.9532174053096536
545,-0.6747156682927853,-0.07711013050109297,1.7790330979167215
546,1.3113387501852978,-0.912783519495208,3.180320519303079
547,2.328708099357328,-0.02317306976815641,2.774918497894646
548,-0.948057421240672,-0.5318263265454838,2.051944136870122
549,-0.4730486892615848,-0.6154063488245417,1.980373901402118
550,0.06999903102204097,0.14469664525382042,1.370232844558072
551,1.0185504004250594,0.8897913086551715,3.586531193395208
552,1.8765842807969306,0.10351132063424633,4.169514033806857
553,-1.7644522068291015,-0.2615297338336399,-1.249118643795113
554,0.9177883498060371,-0.3719827871920417,0.200090661217456
555,0.9835661190158616,-0.701274506085197,2.7968230206481293
556,1.2423084726091447,0.46562201436494827,2.041770069947445
557,-0.9166950134274763,-1.6104241951626876,-0.19941648488181313
558,-1.9938517204948174,-1.2136346911784859,4.0184498836845695
559,-1.26015595667442,0.8001142298274052,1.4016925299265353
560,-0.23513727399107787,-0.8873106582782765,-0.17333575626711317
561,1.2523218248507988,-0.7076694143333748,2.5357062202906056
562,-0.09727542152701818,0.4716956862120912,2.143814666326235
563,2.7343885187566896,0.7560167870169573,1.6235119791831045
564,0.47643280793087134,-0.09942475964413297,3.802433175294661
565,0.1893218163314716,2.0836106433689254,1.8037727404146875
566,2.725148833116003,1.386851840789354,2.8947015068375066
567,0.2658161264087229,0.988828962031643,1.043838417632973
568,0.8699950843332358,0.44000411119991567,1.298793860356093
569,0.9196187519237311,-2.238275652726094,0.5023445125809991
570,0.7216263821366238,-0.25993763732575514,3.345852160340173
571,1.2869136293870143,1.7667420382177959,4.3023583504805645
572,1.541180494508788,1.0877719677026803,1.4697149218132175
573,0.7593426301487789,0.32434354546747046,0.7539247995473741
574,0.6460794829786687,-0.5319889331212411,1.4240055442734783
575,-0.5409716866254679,-0.20708598934387779,-0.18434324063593077
576,0.027774433326245518,-0.18780807938169633,-0.6757476745597091
577,-0.7728868144900538,-0.9672759207662129,-1.2977515747710948
578,-0.03287459131992823,-1.3494766893386347,-0.5098946688293673
579,0.07027056177624391,-1.3949312492104478,1.551512366851208
580,1.4958890176918693,-1.1203604703697452,3.427260276427213
581,1.613250360443518,0.5012785563613757,2.0403917910088714
582,0.013020082206387729,0.27374140174488887,0.14900064047766282
583,0.6713200319273733,-0.7756336093931802,1.9621254337943517
584,0.7811776665843291,0.23362402170704014,-0.6729744999561302
585,1.5155086718841262,1.4302264529439346,4.969052636057221
586,0.6107484504829678,0.4709533318750177,1.1890609651884474
587,-0.2765293286761198,-0.952538814231943,-1.8058180251796356
588,-0.912493793693559,0.07025285249204997,2.145850918741585
589,-0.6797898475092767,-0.7038792495624107,-0.5613864663247778
590,-0.8781435154164361,1.0964276631984313,1.0005081544328114
591,0.3884213686592459,-1.1276959943955862,-0.5916597943268906
592,0.13788675704826636,-1.9772039105790418,1.068598423894195
593,0.6489154487034867,0.5573929410706276,2.073070553542876
594,0.08974200581102143,0.10581914993029903,2.8037314984783333
595,0.46756929030177957,0.45516959441212934,0.06559854712716051
596,1.1227408321606005,0.4070144495832418,2.7808823177698234
597,1.4767122202331404,1.2130025477349369,0.7923957133857997
598,1.3352166927202382,-0.06824314539798135,2.492649098176881
599,1.0919945813210377,-0.06599119134849908,2.284050771102875
600,1.5421315610605564,0.8990487891063181,2.8872890503875563
601,-0.04404229336190468,0.9544959092016497,1.4404815484699371
602,0.6589166768082942,0.3309300953249626,0.4221265765500226
603,-0.6713537006524367,-0.15547369016615137,0.19024410077962473
604,1.9425301892407119,2.6539890121192156,2.1831820534539923
605,-1.9934889558183955,-1.794779827508938,0.3239746347600081
606,1.4087511024921477,0.643262275654066,1.8327841568560785
607,0.8356862838188057,-0.7158056702435813,1.8114244733937719
608,-1.6726723509865464,-1.2102375952710946,2.0220175420472186
609,1.3765280001567186,0.6098453437582407,2.0143901736054612
610,2.782896630864834,2.2320848779985676,3.727473194051715
611,2.2045647504897286,-0.3303994148796389,2.630668215313057
612,0.8182555694563793,0.05950910159320122,2.946497273846721
613,-0.627787904957136,-0.13357839819552533,0.9621577149598745
614,1.957386771808994,1.8946075293764673,3.7533337932419464
615,0.1979099092978791,0.058336888852964126,1.6760083963928607
616,0.5214647377837212,-0.5099376994202923,-1.1692953962670878
617,1.2206072138757427,-0.14877349799134773,0.19589434305878795
618,1.7717344744911538,-0.3636057739143436,3.818540340032634
619,-1.2388067184880147,-0.7773735677529073,-0.015090908460416497
620,-0.10466223053851362,-0.7752115908312059,0.8209031184462103
621,0.9330334687529594,1.1464296021203695,-0.5202720571328558
622,0.24115198696204293,-0.3206137264363687,1.9954068745257525
623,0.005678861850327066,-0.2529993546741221,-0.5740273923838675
624,0.4890119931594032,0.6192501738118836,0.7329014208233505
625,0.47560302465996485,0.620616213784935,3.2153851466563133
626,0.31459300909565235,1.793854067759932,1.8283165449707424
627,-0.7916417005013741,-2.0315969386712895,-0.862962218984886
628,-0.7460281370504596,-0.9452006131768628,1.6024531800716506
629,0.42404671975676533,0.7553913875915531,2.162947455635273
630,0.8345269795412776,0.7250417457394266,2.3574406066618945
631,3.8927213350749432,1.6580658998261537,4.15100229102681
632,1.029208667204875,1.4050914061910575,1.891214552205653
633,1.6096441653836924,0.10735231450781753,0.11082519681867198
634,-0.5985488374093432,0.4886403295939232,0.628837224700433
635,-1.0515749339570735,-1.5890486953702294,-0.9084613281230055
636,-1.277338781132924,-0.874981845726828,-1.9502280802868581
637,0.839787373066919,-0.5956194167424796,0.872758906871143
638,-0.360672564876926,1.3442266779503214,0.47114499330559234
639,0.5685152811827967,-0.6487019063750339,3.5418977931157096
640,0.26842891676476005,-0.4398396125646825,2.7543692949605987
641,-0.1132224783981268,-1.5184276395749523,-2.2854494739585567
642,1.5775120699900245,0.6154812377636961,1.4449307368008157
643,0.7573712495801704,0.006069312925741684,0.596060597259976
644,1.0571401766747308,0.7322810882938937,3.856480726506544
645,-2.1623216298108923,-1.282584163014623,-0.8047697982028694
646,2.4632384979872226,1.3940007396585974,0.4156505751466195
647,0.32639499687772994,-0.9937151037346342,-1.6858745222890779
648,0.9121878072383862,-0.8582596080520757,1.1398361472272782
649,0.38348355435617265,-0.47909787080714217,-1.962791365425355
650,0.8700458262829254,-0.4644819018041841,1.3972209953821366
651,0.9937596933498711,-0.16703008983497838,0.6685423403669518
652,1.346618157263158,-0.5990719096857393,0.6349895766305533
653,-0.28394148319743073,0.117493785597583,0.6090861393915643
654,2.2391667670029523,-1.1530619117320382,0.9278984975289373
655,-1.2089146388750487,-1.8770340742941882,1.6340789074220068
656,0.7899104683797658,-0.192500274473636,1.3785883870563094
657,-1.1536325699340588,0.4838054012359493,-0.26458609728513627
658,1.8119629105689476,0.8639495471843371,2.718933171024464
659,0.7440033275405311,0.8752104272883258,2.9194728593740997
660,-0.7922554017288799,-0.7921448621320523,-0.9626763878269256
661,-0.43353371984767314,-1.338974356143812,-1.0958171540202182
662,0.2099593870412838,-2.1623061732693363,1.2136189434126545
663,1.6776747700273997,-0.28841069307330996,0.04005379450408775
664,-1.572866114301304,-0.42053495428988935,3.1034645043085676
665,0.015788005147816156,-0.8220468233232043,-1.3874267847927548
666,-0.07271827107918127,0.5096200118627143,2.5416027656703237
667,1.2875040089729004,-1.364798593491114,0.9752811572633113
668,-1.3729350461993421,0.4899721853284212,0.28761923210728546
669,0.3144349493772889,-0.2271350706399699,2.5119071051953266
670,0.8295842329641361,-0.3344197697609582,0.0637820981209749
671,0.9746442447296599,0.5574640671433534,1.345572638139043
672,0.6365320478306788,-0.710563109728617,2.699802481973374
673,0.8285570986385323,0.2790334069363385,1.2309594175637377
674,-1.1870977547915262,-0.9869555933999667,1.3068524745513803
675,0.8078442147727334,-1.17108269351193,1.3250885817938352
676,2.875763099269933,-0.2893853548325604,1.5920289740819098
677,0.570389238021152,-1.012585369403126,0.20751100204352801
678,0.9602959713581302,0.43985576941182963,0.8475733472653703
679,0.5660721779448311,-1.115257314468838,-0.21552421046822598
680,0.8898342137813369,2.056722368167421,3.9931728332518244
681,1.9825478194113808,0.10117523232099114,1.6538457290747406
682,0.4704044940744957,-0.10911320757194769,5.2160752749342
683,-0.8754816860115281,-0.48347783528582927,0.49837583928910406
684,-0.11161878956147406,-0.7424042693743879,1.0886260584473342
685,2.5558614597027054,0.8753752632849405,2.1796422151707926
686,2.664481059703002,1.9627634233312112,3.4536048735849443
687,0.2823853626522731,1.42690652333659,0.20294019272231556
688,-2.145614529283428,0.14144505143331287,0.6768416615742046
689,0.3195458152572643,0.2210640356750352,2.5923812005045095
690,-0.23657175921843643,1.1881869843017847,1.218072054293846
691,2.942514796613536,2.348326219115167,3.2240711999296368
692,1.676264282106169,-0.5093083695001819,3.5430472428206756
693,-3.8414564533530027,-1.5559106205238902,-4.251349932265631
694,1.3433851718031646,-0.15386545553299563,2.5088595302151298
695,2.009102130313541,0.33164992157640233,3.4302747887977127
696,2.379946205321581,-0.7549004042489749,0.8991171819707997
697,1.1269014821224668,-0.5489034567787598,2.236197788231042
698,1.075594151037004,0.48246568716305205,-0.3069750305340815
699,-0.12908128478100087,-1.354520482138573,1.2124536721367054
700,-1.304352496132796,-2.1502900698332725,-3.478053521735358
701,0.445851078810535,1.2306303834037196,2.1564413126522433
702,-0.5384118166613332,-0.34235874843010605,0.6643144030274593
703,0.9040318184293705,1.7016138965601018,3.300987916733869
704,-0.7031258013256633,-1.3577609909610797,-0.4044221573269051
705,-1.0681345238709556,-1.0483607251820617,-0.5012264939363542
706,-0.9280063663022272,-1.4691622419965684,-0.754240821302703
707,-0.17259471573779134,-1.1647659663967762,-0.1150599370072346
708,0.34010783659518173,-0.9303738201861439,0.17369739408031237
709,1.083789923293247,0.49724215172045716,2.0004765822450894
710,1.3722888405080191,-2.045594101368707,1.1141546071121384
711,0.2127982682233151,0.35054021309375344,1.3985110861741974
712,-0.389757253651823,0.717526447950772,-0.6007070226139626
713,0.24396568767366467,-1.4682758578621125,0.18489952155270772
714,0.6201699655804204,-1.0155949272258544,-1.4439257961856535
715,0.48954432379370183,1.010348633443436,2.417766920314353
716,0.9088853273245311,-1.3250699453765888,1.4765703682380964
717,-1.4571848416806963,-0.724371067452276,-3.453676171660838
718,0.4952818783389911,0.6193067834941824,1.3931371322906299
719,0.4308739924358882,-0.0717742275601297,2.6162413529934794
720,0.43653514138482,0.6571110846531542,1.1686234948194743
721,4.586669726424905,0.5909659762848347,4.4126928120091895
722,0.6273214735858462,0.1932654591967862,2.642949310198332
723,-0.3532424776212408,-1.505775651951274,-0.3829238656200341
724,-0.08034665203431576,-1.586520755552231,-1.5975222996610197
725,1.2847042624476406,0.49986612666015423,0.6852762779468733
726,-1.1685115184469255,-0.47935741474879295,-0.4088024679290924
727,0.2682392166835078,0.16456275724878192,0.020188859766828715
728,0.1514152761637998,-0.18521394374807124,-1.4225507492607312
729,0.626037195171369,-0.6209080554074422,0.43562496404384843
730,1.1865661130466023,0.45044748761087405,1.736695292519038
731,1.031522298271168,0.6349440663739522,1.0540900204414516
732,-0.5531861528685753,-0.7412160595126501,-0.22876846731944228
733,2.741804055485767,0.6991504823337706,3.5692381086433747
734,-1.1627337827299593,0.6478867163644836,0.22707081664341366
735,-0.35511269811132296,0.9026061418549818,3.4890528549014084
736,0.6267190937984373,0.9026776455536831,2.2377423807958574
737,0.4536655486362026,-0.1275006654906278,-0.389368951240775
738,2.0691763633483693,0.42646159170034087,3.570053154426698
739,0.0730576431627864,0.580605150876613,0.5735962220937363
740,2.3227381161115384,-0.8879363938039861,2.6833363316657883
741,1.2315350974353763,-0.10562359099784252,1.7940651471700146
742,-0.20444520518625753,-0.7591820026868036,1.6632590961181255
743,0.48346935738214425,1.3590466112419322,2.746957758978158
744,1.3861858950064379,-0.2560880918309429,-0.6480924391486197
745,1.511244744596998,1.1735844887580096,3.365459183354965
746,0.47993969863214847,-0.026457705118588835,0.13758374996862832
747,0.049761331301690304,-0.33476761761881874,-1.5296903690236445
748,2.1409660546710296,0.3045179615914573,5.252904809666841
749,0.8969643409457686,-0.820909859166359,-0.4773700004261058
750,-1.8976840887796642,-1.7937896495427355,-2.4076156294321756
751,0.3750645186932109,-0.26394976095949807,2.354093367049561
752,-0.6343185712622044,-0.09336869403209357,1.5868702144708866
753,0.31213514933981257,0.13943873044914756,2.673786214017744
754,0.16838584670331863,-0.2466247519797065,1.7846870478670969
755,0.6618200190665837,-0.9016425925331832,0.3109092967624231
756,-0.6727087990204494,1.0758947515445731,-0.6062795946561004
757,-1.3730463294008963,-1.5044486332598643,-1.0407023537597562
758,0.5586557312482385,-1.7513564211521908,0.42569563194075904
759,2.186263543085703,1.6574583184387721,4.377946361834722
760,-0.05173502022841221,-1.2480079338490784,2.5217805873993373
761,-0.007478132124991821,0.8908508077628197,4.681171066823398
762,0.23465237849534448,1.0198993045079134,3.520689404219027
763,-0.2469915090632453,-0.4689677302348832,-0.7278413738421685
764,0.2919250293500102,0.6006751802666231,4.854113593249169
765,-0.5282302024101725,0.489502944634826,0.03340468123295848
766,-0.39254330740586063,-1.3144113107046402,-1.8447068956297472
767,-0.6579716430822373,-0.8117680737091416,0.9505859136338589
768,-1.6559353037823343,0.39505351998068666,-1.0300874050529925
769,0.24605053158711465,-1.3943645196562766,1.901273918765332
770,0.8499690865576828,1.2853698643476321,4.708790643721242
771,-0.8237313026090718,-0.9044286018684181,-1.1335088115999925
772,1.4138049923712335,-0.8711642906435679,-0.28029209079763917
773,1.2663557608413283,1.181961768309028,1.1744942449430942
774,-0.6458197738631262,1.2734525874694342,-0.6735292456620385
775,0.5651503165271978,-2.4683261012670785,1.3757623040141076
776,2.075890728259291,-0.8892329962912138,3.8172773735603402
777,1.1778403791226921,0.16116468168685497,2.322895414892711
778,0.8812990084852275,-0.2682926609781482,3.5461909696425837
779,1.1977990544963566,1.148001698173839,2.534683684340639
780,-0.20816625823112156,-0.6012752997788945,2.06995899234121
781,0.5087704785791516,0.08826908629571967,-0.04422521684613745
782,0.1808433062467374,0.5045952943508041,0.1752324709360351
783,-0.3743136867735495,0.47070154975846146,0.9120188572541861
784,-0.7868111497900191,-0.7594161143125726,0.8160035367321631
785,2.55481027987004,0.40196876728876524,0.5039759216300548
786,0.3070232936084918,1.5173151096160855,1.4502264076875289
787,1.4599769611686888,0.43616209628705516,2.0544120423172307
788,1.6865912797194111,0.98973602083092,4.8871281053277285
789,0.016535620569824272,0.051052337977834636,2.90503751082007
790,1.5615293663498926,-1.2584391559501853,1.502262005181745
791,1.179399348703918,1.0761519721032902,-0.7867012187097102
792,0.2809261549887127,0.35370848627873674,1.3551541851929025
793,-0.6842420733818566,-1.353040501065883,1.220243389446809
794,-0.8231948128285773,0.3846373654501698,-1.2683357471638421
795,0.6330779638845817,-1.8806551682514374,0.15120549684863216
796,-2.94657441534298,-2.9085586062766984,-1.663526936779577
797,1.5362530575031688,-0.30344871320485833,0.8999612094866853
798,1.3280396109934216,-0.19475675388340785,-2.0939012793659386
799,-1.337627759681048,-1.5097971738090816,-0.777476654174968
800,1.9378131387142263,0.9407676724467523,2.187488248333862
801,1.422219243236312,-0.3912720512379814,1.9318539724844195
802,-0.6339960909275382,1.570819666913302,-0.45000127863539496
803,-1.8466017631415812,0.36250074300156576,3.565245891082598
804,-0.9435673332416964,-0.4024350660228666,-0.5398424220374748
805,-0.20430187473300587,0.036392203476253195,-1.3099930685733145
806,-0.1627649621256766,-0.3940462394543091,1.9077040274186121
807,0.8439884911994737,-0.20837887085121537,1.4127512893051317
808,1.998018608676816,1.6741789679816241,1.5741950578225228
809,-1.6074605362741792,-1.1323518663301186,0.3842350608669476
810,0.7211974377965529,-0.4409239903065539,1.9991310314904043
811,0.8625309675679952,0.48155322544275647,2.412680631325124
812,0.8683945982804285,-1.5369075555809595,2.5742601445565123
813,-0.6017926568446037,-2.061170636173199,-0.600347234656059
814,0.6154086369748311,1.038270103927194,1.5918443065501329
815,1.3427167202611858,1.9745119807469633,2.914517080077821
816,-0.3817411086899716,0.857650500367857,0.2170073756413884
817,-0.5469288596295259,-1.903622630844545,0.35369699970722646
818,0.9158082556721117,1.2596080783407841,2.342477720457756
819,1.2654386176633867,0.004718099623300977,-0.38051365299725576
820,0.12004962153357945,0.6794119691228481,1.9979347015701363
821,0.5182995486979185,1.4894636942339843,3.056230038283743
822,0.26741889475617653,0.8698353251494515,2.598727166407154
823,1.5671322728114538,0.4193017278958861,-0.9902717159055908
824,0.30168122088026594,-1.341186988279895,0.2385886143811547
825,-0.257263899340449,-1.8173474880738676,-0.14263633760863792
826,-0.2316082073495146,-1.8018465874731089,1.0808051726557526
827,1.0399294458683976,-0.6386045622092804,-0.4413661283422776
828,-0.8707720903099906,-0.8540194654812894,0.6596670272396652
829,1.5011804347768232,0.432893629814275,4.708389734072988
830,0.24309151391966433,-0.11492661268593617,3.4653986568549087
831,-0.8943685483329369,0.1271136301314443,0.2961144262848949
832,0.4845892987938225,-0.22631896334251025,0.30063570566111114
833,0.8591263223747556,0.7355610295846768,-0.8543073011886472
834,0.25457107024339987,0.520007711706062,1.807918976337921
835,-0.09016745861347664,1.9311880937274248,0.7069712805284265
836,0.39982397957116217,0.4269697278098775,1.2999240742393576
837,0.28025342192437175,0.6878940656719406,1.8336459356879904
838,3.314746441838676,1.0332223728405519,3.1534981955918306
839,-0.20295598182119853,-1.0008229258129253,1.4842226752642582
840,1.5660218713575773,0.08133914139361427,0.4323555907520663
841,0.2485879034698089,-0.9026576025191727,1.7597896669493127
842,0.7719456350625324,-0.5092822982933002,1.9995192669017723
843,0.5440272765979357,1.602423129820849,3.682358988742804
844,0.8952895237221492,1.1356182023211918,1.556482186559212
845,0.8885199239676081,0.7309468624635266,0.6812985718476097
846,-0.34383461628178114,0.9346556816381616,0.34492155980324535
847,1.0933636483246916,-0.4436303642572088,1.3978029260464713
848,0.9819061825082488,-0.24761215738230197,3.1230639991661278
849,-0.3104408133092942,0.7423252346257532,2.240464673619362
850,0.6465895112163389,0.18741341209335002,-0.367371464208903
851,1.0516057673874184,0.3633975468455341,1.3912403935244744
852,-0.319500855769134,-0.7305090654324972,2.8912216817911958
853,-0.42006438618422615,0.1399461689017859,-0.6368249164924533
854,-1.9243953050833706,0.7199788325201719,0.7503154485523449
855,1.1824456057174277,-0.7685437380363453,-0.8072078362594597
856,0.6133426591644531,0.053643326140370755,2.9891933001172037
857,0.05475370092228349,0.17982312346620546,0.3905241697638695
858,0.1802577179952833,-1.0482580369732188,1.4178725123440272
859,-0.5109812541170102,-0.837865193330788,3.2214264201144127
860,2.6489289994624627,0.475504497047463,2.3853317914667533
861,-0.37639772967247737,-1.0718466471774653,1.4635548092736494
862,1.2747526424082967,-0.027500590187788693,2.7078786553834453
863,0.5734958817840434,-2.013201655097647,2.2547308271146194
864,-1.449106948715846,-0.3139316678833582,0.3297597301150432
865,0.22270694269145092,-1.1863317531073538,-0.5707846901411424
866,-0.2811305788547166,-0.4821083831991504,-0.005204694011133881
867,-0.9516788878881932,-1.6826854903702895,-1.440191468690947
868,-0.5881662463785278,-0.687627326417222,0.2658379484349347
869,-0.21030705134656474,-0.4507762534047629,0.6561215991495546
870,0.33351355971388835,0.03043386451771184,1.6095636655770413
871,-0.6509780152304734,-1.3644674800537935,0.09305598859529679
872,-0.5160080378005472,-1.382006013546325,2.0719852151000335
873,0.5680185563823202,0.14733591572178964,0.41494400372015516
874,2.2864045430522175,-0.08905432919292797,0.921331940439603
875,-0.729767855722312,-1.7624999480813617,-0.7683883463935117
876,0.5227434061577083,-0.6465178088541912,0.14719292085401098
877,-0.33315941871391247,-0.5372270046983944,2.705881429227997
878,0.8169009387632794,-1.6861101530848648,0.5690335888116982
879,0.1407013397552413,-1.2196521950633687,-1.1702839752696492
880,-0.7815975285089813,-0.5047511064434339,-0.6587228281871962
881,2.7144608925986367,0.5261836942597181,1.2871894141337745
882,-1.2952087804062078,-0.3420216468012443,2.0536781055830873
883,1.5242582768751607,-0.32405881055981145,3.6233424535789363
884,0.15639432301153752,-1.090953520740639,2.300613951874379
885,-0.031659427005087504,0.927389884677731,2.622213400531524
886,1.4994546886730273,0.05252572907493103,2.4646026341364538
887,-2.330007574932065,-1.2063783332734999,-1.3347271364147357
888,0.16859245791121175,0.2397322096385207,0.9360052420097327
889,0.10319912652266537,-0.6643633691643,0.2848743290791613
890,0.05790402963859339,-0.8138851316378891,-1.3571823874027067
891,1.6783177170077228,0.1807980412003032,1.7744955296139597
892,-0.9480421552723032,-0.7387930597104104,0.5318565681887013
893,-0.31319701756310603,-0.3661742988112819,-0.9314862164726125
894,0.7588572354596194,-1.1771400078313217,0.6787143445688304
895,1.0686441826646127,1.038595968406194,1.3107848877621766
896,0.8009412484334951,0.289245795761305,1.1066749759884975
897,-0.8330658648662388,-0.35935866524665977,0.14595328629055654
898,-0.6338093764121592,-0.9907343763194005,2.0005648579090445
899,-2.696533877488769,-1.653996063264733,-1.8239856165587875
900,0.6646026447462408,-0.2258615456343137,-0.6805918711794904
901,1.3873483804115747,-0.1914567720102056,1.3968873731644487
902,2.3300672331798022,1.9290385405356723,3.0011780589818082
903,0.9812728965139841,-0.20022439968958286,1.6973287947418534
904,0.17830321948113892,0.7923329177480974,1.5986863904817759
905,0.19735755508420338,-1.763639604986485,2.9093723777579825
906,1.1309183582300546,2.0362823706709374,1.4230616095896242
907,0.01195154955197597,-0.2828680237560825,2.5278935787988033
908,1.7240425591404742,0.9546332161467576,5.61815133177957
909,-0.8109742888990756,-0.6240844932349806,-2.353230268741523
910,-0.7312155848804347,-1.498537817156552,-1.4185938333285921
911,0.7059292037611854,-1.243509816421466,0.7382543071534902
912,2.040798422913139,1.0726410473800543,1.7124443109747696
913,1.2175135323233075,0.12195787131322797,1.6670145659729085
914,0.7315529053174068,0.7671772776058828,1.0917962274325441
915,-0.7386926815658121,0.27892466989568143,-0.6304844599544622
916,2.511324500260901,0.41465470191673626,4.9870836212945
917,0.4138559638707865,-1.4833406841126011,1.5382919345262276
918,-0.3576892711742512,-2.079072554156919,-0.841937973009778
919,0.0789008367792462,1.0301924981705814,2.5289738707581413
920,-0.16141170405252692,1.2857670401495207,-0.8772987685700663
921,1.0403635152679427,1.8468055855977812,2.689206424808214
922,-1.3211097269145213,1.0073652465868035,0.6879595188954497
923,0.48073163328318896,0.5551092595529614,1.7274762960090575
924,1.3132011448183376,-0.21969714155337094,2.6762140816995936
925,0.5670905825140773,0.7958944218276695,4.7310887175336145
926,2.0045820452709586,-0.6145626047468765,2.9464800155023574
927,2.1804114285070515,0.042790063215927224,3.3117013708946583
928,0.5315128282690638,-0.9228767563887295,0.33380645725645564
929,1.0115203431028166,0.6284382875781779,-0.09886170268615545
930,-0.42515530680539504,1.2518975976720383,-1.526380944822214
931,2.5528747050849847,1.0935083302781197,2.483985405546839
932,0.8942500576859487,-1.128028808630251,0.584000420265862
933,-0.8489803171134079,0.1175742293859299,-0.256436877421239
934,-0.25557867759900915,-1.7710493949757289,-1.1385888963121105
935,1.2377859570120002,0.5251438615141534,3.0617632645423987
936,-1.0838774658228865,-1.546585558818811,-1.5742639537991545
937,0.538992234563326,-0.22823260020329586,1.1418998383091514
938,0.11018601552069496,0.7070604593171378,3.9007380703423085
939,-0.2288910605028589,-0.9222360441784232,-0.491965501003927
940,-0.3929435970063683,0.09814128558678759,1.7704976663506493
941,-0.0638301719152326,-1.3226653626914455,0.8209482670910258
942,2.028528563443924,1.729289426956774,4.222572514045214
943,0.8045534333264968,-0.9676675180033234,-1.087277130785257
944,0.8400970824448963,-0.7341853353105338,0.3732761294051364
945,1.2076628265090834,-0.14732867085974577,0.7048203097082892
946,0.6744308374270256,0.21127963686331408,0.9035273739355718
947,0.6977856223853347,-1.3602439018496846,-1.4397106066224663
948,1.333614506317749,0.028837366007858967,3.0511566268378134
949,0.27976633129801576,-0.6672959623579113,2.4525588804771346
950,0.5616723474208941,-0.07590492898227043,2.9316383108763415
951,-2.507836798417617,0.28516446415520597,3.244955124265994
952,-0.9884893440688963,-1.533467675924839,1.8370468841169034
953,0.44061921044884533,1.2244177285678919,1.9069986025106713
954,0.9457063037027542,0.4479170539235668,-0.2945979400307184
955,1.005926886444439,0.8903546468313073,-0.6436038229847361
956,-0.45437243469694694,-0.6952383450101066,1.1583697314593295
957,0.6734093026055907,1.1748086601900636,-0.016620693880271098
958,0.26999070915097645,0.08607119233342451,4.1649803951089535
959,0.5341484948878812,0.21906918724351662,-0.4490280879409414
960,0.4790362661174793,1.8732085207732865,1.6750607223958172
961,0.5578625615333355,0.0002968294778564783,2.189568067998101
962,-0.2666376060516617,-0.49269482258279995,-1.1037851866093702
963,-3.1980113143569153,-1.9880402490035485,-0.46233002271405377
964,-0.7108093234641006,-0.41134005679219593,2.0820680511965435
965,0.23546599933715362,1.469522447984064,1.121084662759208
966,0.8157803202998369,0.8262485115501783,0.20243630444865232
967,0.5672523768597768,-0.6027188413685213,0.904823030406843
968,1.0964923856632998,-0.4365487691492481,-0.015594742066216583
969,-0.11820047097196085,1.7626879671709703,1.7153255479360527
970,2.128824947280178,-0.046281560762936214,3.039225937822316
971,0.4367558874852704,0.45400850568914625,3.7735719949166397
972,2.0602883513818084,1.7798329621775533,4.199735841792183
973,0.8814183886489065,-0.14450004735686484,1.6981698311930318
974,0.3697930314403566,0.07126182975494262,-1.025592330675415
975,-1.1421185655027126,-1.4608675957888093,0.9447833655446332
976,2.0869525482802613,1.412898902999241,2.204800622935338
977,1.0666623847313796,-0.3248546382747557,2.586154754361636
978,1.2771842976378778,1.3349341031075803,1.438573911961675
979,1.5029998103373183,-0.19844360102440298,4.5444105128498595
980,-0.777154651408291,-0.404201407127824,1.7682755105727361
981,0.453740316198076,-1.126758454783612,-0.06960923268125019
982,1.9694369250238004,1.8750076086425154,1.4729693856376187
983,0.8824342783846079,0.19852363351527097,1.1565465209773493
984,-0.20327878486859885,-0.14301244456302967,-2.455988386638127
985,0.4698791007328803,-0.6811958378581464,-0.9230779146262884
986,-2.1827772308988074,-2.713295973549482,-2.5670135853714777
987,1.145006452898704,-0.7940872189615966,-2.267164862957778
988,-0.8895906498850288,-1.7116757265762044,-0.6267667757181097
989,-1.1828742884909333,-0.5348796467129493,0.8097903744607786
990,1.0949844439995546,-0.5504006998794082,4.656242268802377
991,-0.1068085005215651,0.21734832148618122,2.6319198804522372
992,-0.7463117986534972,-1.8136076051834287,-1.4996752368610953
993,2.424108976313675,-0.9619867715045237,0.010023523514742283
994,-0.7845134156871447,-1.2696141974176878,0.027973684144762923
995,0.8327566123514587,0.6782874254569303,0.8328996776583664
996,1.5042880811745132,1.0344119690092037,4.189721437913948
997,2.4022262744798346,1.7965187870874,1.3279364029213925
998,-0.3418494417097469,-0.20390368638123038,-0.849987770044792
999,-0.14313960299165868,-0.0023508445991736707,1.5554207914639173
