,x,confonder,y
0,-1.0759646800925506,-0.34191657389490165,0.7152600484898217
1,-0.48651813396700416,1.1230555313996766,0.23398737141352763
2,0.7066127922167418,-0.620989765089388,1.7722082287880678
3,2.6974472341764546,2.214304271379295,2.5393125103245002
4,0.8824878605259345,-0.14202235464549465,0.6815796598533455
5,-0.08482345373556976,0.21537559032124126,2.1401507624277447
6,1.1197254975862694,1.3496733474522595,1.7202502243732736
7,1.855323503464945,0.3306838790291412,1.7250937495352423
8,-0.9914379034287906,-1.0340643730870032,1.547782581102816
9,0.7808381034070833,-1.4398960956725482,2.216467563561064
10,1.4343329622094394,1.076359394415419,1.508230993599517
11,-1.0917466611835958,0.21092959459698465,-0.12293636689088214
12,-1.4098948922294343,-1.0446040012385298,-1.9994625108403783
13,-2.0387612316975012,-1.3438090062279424,-2.030598316987901
14,0.21873271029526015,-0.33006253008378267,1.1748102546758614
15,0.890646671206252,1.7367011434234183,2.358377446033364
16,1.9909608225762678,1.602215666858657,2.9303505224445567
17,0.7759260580894279,1.0619666788649957,2.6246657649408984
18,-1.1259839850093225,-0.8094395342395692,-0.8053885482833341
19,0.35418400570777003,-0.9219844823531946,-0.004180035013814948
20,-0.7923997754538632,-0.7683036424849271,-0.7997004198527177
21,1.1284852544548496,-0.24952579625295737,1.7940121569703307
22,0.08825818097546367,-2.8428508883135613,0.6452022784697607
23,2.421489308766632,0.4555926463904011,1.6728823951085339
24,0.14020752496287403,1.1588877408801008,2.87030228683272
25,0.8809460613362889,0.2994153735378694,2.2953747718208266
26,0.9293085531799895,2.451543844419429,1.9854139183666888
27,-0.6081920069825397,-0.008824531805868452,-1.044847114296716
28,-0.8119408869872471,0.023132736493322596,0.18094134398961223
29,2.7650387802822713,2.0395642527944107,4.122744917785405
30,1.1398288513153316,-1.1802658642269044,1.4411223499836479
31,1.9351128828032256,-1.6998473303756207,0.36725222138691793
32,-0.36250047078422143,0.8279487306203462,1.428259983292139
33,1.2229127598570941,-0.29821591861391644,2.3574104619454728
34,0.35096735532479517,-1.3300946317214726,1.6407562394249924
35,3.1186858695364084,2.2425037920644546,4.848130300036766
36,-0.5225723209134117,1.1606153739030498,0.8020253459598221
37,0.33322857286105234,-1.0134117633581026,1.051076323434853
38,2.0865093263431627,0.574128929207683,2.6416058700144607
39,0.22462269495308118,0.6742559814966786,0.47135933345895153
40,1.03053243952087,-0.19032776928912945,1.9501690604264983
41,-0.9153094087836832,0.5061140188484654,0.4348164050665604
42,1.0023941802910816,-1.1117676720997403,-0.11036614068607772
43,-1.2058298775512304,-0.25611608368895467,0.8643296659502642
44,-0.486693256975811,-1.6160565517629957,-0.6149978379293155
45,1.0396060697426972,-0.15970407947648163,2.085568648484861
46,0.6620858489997158,-1.3638056307237292,1.0482765189795638
47,0.5690843628976436,-0.6920893045729679,-0.6037043789003665
48,-0.2392346701651702,0.8061975297692126,0.3498743419394851
49,0.3116604288210883,-0.3521764709862534,1.0975845920539091
50,-0.1508370647557556,-0.8994634701990397,-0.4595017424067583
51,2.9675189523910683,1.7850367175368929,3.6346249568480586
52,1.2115739733939936,0.8159152085201551,1.3102357587936777
53,0.46032506771908765,-0.7329948876452592,0.3755940426677079
54,2.1585215593584834,-0.5790467043162502,1.3802143765066606
55,1.1247422397954834,-0.4542588538434321,3.3183156426316627
56,-1.0259370461610007,-2.0153390352063467,-3.245028723430665
57,1.1919731883634688,1.0881824080310663,0.23978812499800378
58,0.7977960016461232,0.5826736812894268,0.9805711550286363
59,0.13226657319245327,1.2054415770923796,1.7307397756069078
60,1.0267869359694728,0.4300937922086939,2.1342783811473085
61,0.6801771730161357,-0.10730718713407439,2.2554651299958843
62,1.187586559155169,0.44625488633972255,2.500525845131293
63,-1.1225612381159265,-0.4422174905976476,-0.7168953366368784
64,0.2333854919002637,-1.1227037253340504,2.197599213460521
65,1.47712742797366,1.5599115184672434,1.1799118451786808
66,0.42911033653417696,-0.3699881486962023,0.39650785570390185
67,0.27478453173687467,1.0595100117292002,0.958199534846444
68,1.2920856549121171,-0.583546876698147,-0.11643367488814932
69,-1.585464425836915,-0.3951929417139158,0.342251964196744
70,-2.816814072714524,-2.3048128606176497,-1.3350381051304887
71,-0.9656803826887095,1.2698811383911386,0.0744301361807973
72,2.0061597955427546,1.6318551868120155,2.8267719154077953
73,-0.8301595752714659,-1.6989723000991468,-0.07101721234508498
74,1.8441844393553026,1.250666580989399,3.009573923498474
75,-0.7836910535528827,-2.925972363721536,-1.0542149618855317
76,0.2509284527181015,-1.6284228876437254,0.9312237105582399
77,0.006770610622103934,-0.6412084960597693,-1.1236213689436494
78,2.355061939239316,0.23831768863997432,2.4172820910766823
79,0.6032063358478936,0.611358030688509,1.1658472776426898
80,0.17990158333742567,-1.9521150794320123,-0.528328521300587
81,0.770884505535895,-0.44442677067769637,1.6941444177998446
82,1.8841923726922143,0.5534600377812432,1.6853250384076246
83,0.9583811616695302,0.3807246667028261,2.2371761858230026
84,1.163911005770871,-1.6895702214349526,1.500436271650457
85,2.0516391324408616,0.7755413081307837,2.459896003467176
86,-0.5377774613565133,-3.2855915129899405,-0.49056877121146414
87,-0.43388168361734414,0.4233544115002738,2.3556835742214646
88,-1.6992704234280116,-0.910143295016895,-1.8424428198858425
89,0.9515451408439963,0.7560537361676385,3.2322744976800037
90,-0.3541496154154804,0.7991760494850396,1.7519779648037102
91,0.6040662420951279,0.12424801074774487,1.0710861111436154
92,1.384826025116042,0.6432653323211965,2.538060695625172
93,1.132272699114026,0.0519088719340906,1.6760986361321069
94,0.42352559410469504,-0.5319213931817885,-1.167769500136538
95,1.9856459394773296,-0.5717040036542274,0.7103765884420085
96,1.4729517626585416,0.8479051070522644,3.5659029109030937
97,-1.0197134002970571,1.0657885544857144,1.814917880964714
98,0.6271573045719903,0.5220976044575018,2.0877541928000793
99,-1.1610425800557258,-1.0446746025193465,2.1508413397927204
100,-0.6797891236108434,-0.789802623684541,-0.07695055613865692
101,0.320861551260218,0.8505860165051753,0.4672839832639944
102,-0.9789329300215893,-1.685815613713774,-1.4364274197796725
103,0.4232815465431332,0.9085522074880059,0.9232753026317019
104,0.615760525138145,0.3841100006261299,0.9829262299561174
105,0.12110549769168011,-2.380147518526944,0.8490685476142523
106,0.7320874190957531,-0.3942269970586187,1.8678606422066144
107,2.7867482959524565,1.981997346191288,1.4398910462207257
108,1.1320014817600916,0.47132814395135264,0.46481491002901354
109,2.8213557656242796,1.480795581759396,2.596188117047891
110,0.08921445470726153,-0.11123991113913158,0.4255070798260447
111,1.1577497456056816,0.6196884081241825,2.0911485409182067
112,0.007581234756086186,1.3636489211602552,0.662296125671571
113,1.7923506789378019,-0.7777238494904133,3.293983159535014
114,-0.6031935437684173,0.07819889825522176,2.945640390434888
115,0.8277730137069701,-1.2590953374722302,0.8338269719230681
116,0.9658817627482201,-0.5610729275650704,1.496488127985589
117,0.09033628811437752,-0.35072160781051226,1.1147735211980938
118,1.3190929392532944,-0.6547683345343493,-0.22563066863148498
119,-0.025350518593161286,0.45698854497740105,1.488282449464259
120,1.8865774569048437,1.0984672957305233,2.5573771279624573
121,0.8198863320551063,-0.4411231011527558,2.8695779108725046
122,-1.2938951863829815,-1.0604728207930718,0.7394318157309008
123,1.7542557408995263,1.2600724546589352,2.5132087625358395
124,0.5419125078881826,-0.3274755962635874,0.6705543041576474
125,-0.09337715465875096,0.7499395335425808,-0.0018959076918787093
126,0.6079131580565773,-0.298968497597928,0.6181194616846314
127,1.5270764526530913,1.2481381116784331,2.7204895251826815
128,-0.601021544604524,-1.8140984385980041,-0.3901684140920643
129,0.009074355925606237,-0.6352062120495358,0.3626899641817585
130,0.22575805445899644,-0.9813629433740413,2.743413676895962
131,-0.8964331589906163,-0.26047402827123134,-0.3782716076806215
132,1.3474367775898086,0.2785112214723965,1.1747238331745562
133,0.5653835248217367,0.6293587626839706,3.4799678595498773
134,0.6350943000033559,1.0239991973412677,2.6498318263021217
135,4.004659335901375,2.3974369783479603,5.675726339424914
136,-1.4984925705311107,-1.1348432108882118,0.1885511239840296
137,1.2674792671209263,1.4022877132566154,3.648379707771397
138,0.011636865368975957,-0.3919105816658326,-0.08587508148875021
139,0.023983085862252285,1.1676604412993703,2.2082750787849603
140,-0.675363505121289,0.5557587122874027,0.32956258261068244
141,1.5067030964662003,-0.6013621596054193,-0.1833172205785412
142,1.6227618236964565,1.4864957745497613,3.6895122933664646
143,2.623891622356103,1.0776862203068052,4.518967100879299
144,0.5000395920241102,1.8848526330372553,2.16329654511299
145,0.7289779218249675,-0.7732619447131199,0.8870468528293364
146,-0.5863391370132837,-1.0888363068383096,0.6182357291112894
147,-0.6356359202473895,-1.0130016169137095,-0.06917970557296585
148,2.4648603461690457,-0.19258136690333694,0.5336949071551353
149,0.4669942820174192,-1.170067022060864,-0.7343180194292579
150,0.9198987323470237,-1.0639715776196315,1.3442358108690056
151,-0.7437959560963906,-1.9947902267521387,-0.9665584888624444
152,1.3131027600089684,0.30951295991365474,0.49982363083084763
153,-0.2700632689154078,-0.13591198997344403,-0.5086914038260602
154,0.35028772854920265,0.6962772947329826,1.596538057554079
155,0.3450609760051472,-0.3315225160081868,1.1872693544227844
156,1.1613963998978103,0.4009299385597757,0.7691671827456448
157,2.036304193710567,0.7622515295322154,4.16950941567659
158,-1.3737132225668305,-0.11792447740068145,-1.309482576954005
159,0.7423704620380039,-1.2702545226163426,-0.5459465110764927
160,0.15593736387889356,-0.9012074235053784,0.6689572199343661
161,0.5426819961027168,-0.30762056091326223,1.4650730809074444
162,2.8533894653995517,1.1241115712383938,3.6590180002710766
163,-0.16800990645306454,-1.021484303501656,0.16036116010789508
164,0.6201075813963892,1.085007503508531,2.002565767375597
165,-1.5069347657587826,-2.7649333714984494,-2.674393005655406
166,1.2554021224668477,-0.12194048903272263,2.66312605764108
167,1.1560160953506655,1.3723648986198773,0.33111314634476857
168,1.674407655210557,0.7230095199045142,2.608451134277973
169,-0.1015752020037651,-1.485998290667383,-0.08647972694755784
170,0.16978782874098797,0.7238222408674703,2.030823881625203
171,1.944294672423638,2.460116720989052,3.8873679676519797
172,1.5890908711371043,0.4884710092252239,0.05711881791707595
173,2.0275148787495336,0.5771722355474458,1.9446287431475637
174,1.1101266609138034,-0.49930694035801587,2.16955864539252
175,2.585269256618327,1.9756564119612274,4.257462305328807
176,0.34344000003398156,1.0296831911229458,0.6887712911094461
177,1.343890756516831,-0.7215509337380143,1.435793030289446
178,0.1705036931172537,-0.9367925564451859,1.5724942931965298
179,1.7960125383421244,0.2497042983778209,2.898443854301903
180,-0.44411195822983934,-1.8423554310895531,-0.3231653743946872
181,1.218060943963222,0.7699517010186037,0.914596502146536
182,2.9615191868536703,1.4832124028099605,2.159761852160456
183,0.31906171195923794,0.3985911049146257,0.12615278029978982
184,-0.4140667234536855,-0.25284622888878816,-0.4420614858167121
185,-2.05245372027567,-0.9159140413633946,-2.258705521537494
186,1.3694964292224556,0.607078857670021,-0.4180154797091231
187,1.6263733620606797,-0.10142740007203953,2.155038188211355
188,0.29656575561018583,0.6450407487806684,-0.191758839987172
189,2.0015169882373716,-0.9061967006770437,3.081362370711867
190,1.2431866863441983,-2.6651207374172636,-1.5440085988793961
191,-1.87233727815444,-1.5297125339302848,-0.728821472456532
192,-1.3207136839963414,-0.5387313723525176,-0.06336119004622001
193,-0.06090814517304077,-0.3722742293741422,0.337146364799362
194,2.377892502343253,0.009891440674912062,4.3173594521856
195,1.3814878585293027,1.1084780791138413,0.8961067030631386
196,-0.5541038378158006,-0.6210295404735027,-0.5752453833207936
197,0.8114525623603721,0.5800014694962011,0.5661154193024386
198,2.4728221852952093,-0.08042749815439659,1.0806887100527398
199,0.9484598878460041,-1.305375492279618,-0.6340501014667035
200,-1.211801574518645,0.8387883733019387,-0.3658907612517394
201,-1.6574804475167748,-0.668578827631032,-0.8468266941213347
202,2.774287905265409,-0.060141610498979314,2.3722445887126047
203,0.382319065380446,-0.611018560097209,2.967030857439453
204,2.2395423490303,1.2144815535639368,2.776190455736939
205,0.5612362464432644,1.6968310153875934,1.8966207906313095
206,0.18856309779857672,0.4078119651102393,0.631201446111974
207,0.5436834873787726,-0.35252959299718883,-0.6503341868494856
208,-0.30652592106768095,0.7522565994261358,2.8902888860181646
209,1.4290728277356095,0.6345880656420905,1.4046472585895262
210,0.6067289783137585,-0.49661059903289245,2.892287375311799
211,0.5042025282166085,0.02150655087750993,1.3065205100591348
212,-0.42142876516930095,-0.7768804949969086,0.0835907206033571
213,0.2650938947800099,1.4116844804072273,-0.31847422920855495
214,1.5934602121461974,-0.07361168443566714,1.458137582417312
215,2.432811559615091,-0.6041644867463898,0.9873414200310185
216,0.7828362637086586,0.6185959288505428,1.6714071163165778
217,-0.05384230693376585,-1.6499458191852463,-0.5852249255567724
218,1.1117494818726217,-0.2178872877047132,0.21774782732108938
219,-1.373056656804128,-0.9135900166305914,-0.2932792262384386
220,1.1472083353652032,1.8356692411491617,3.2480452007193894
221,-0.8636573867368798,0.28536991722250404,1.3226988752973925
222,-0.8617518149550669,0.3965403493154494,0.5692291239220989
223,1.1537870085834423,-1.7111165667523995,-0.22164513922536352
224,0.3074873561957342,-0.05620502109658969,0.8696869142025174
225,-0.5575859651861901,-0.5968509668577734,0.825554521540819
226,2.308232496282138,0.7269245929543516,2.1340311089082
227,0.25169268529031014,0.24656388446939348,-0.038470850957363356
228,0.9522918936396843,0.015095134184413831,0.9924206479247133
229,2.087270061523432,0.6290691185387026,1.7267742136664423
230,0.6860380682169244,0.15420120337633472,0.6931946643745075
231,1.953506889509843,1.4156067228138036,0.9151667718716665
232,-1.1090382848177849,-1.6053877993778887,-1.1988133425113237
233,0.20532304335652152,1.0242667187638377,3.1108038820696207
234,-0.460527483659004,-1.1434702232917524,-0.2798004986087198
235,1.446809512013767,0.8767227160464469,1.8616903883753058
236,2.6233325525266533,-0.7416028819669157,1.1910751010786984
237,2.3037653158422766,1.5028273975294875,3.104948523166356
238,0.9456649440774488,0.08478689006585148,2.8768654035955823
239,0.5700042605440945,-0.7370826324647302,0.512760619747726
240,-1.252646652431478,-2.1922623025980172,-0.12994627098105566
241,-0.0712078066684821,-0.9861833988412674,0.034106370201140906
242,-0.7930412802747392,0.37096423646577814,1.1849892532673763
243,1.6082321344322326,-0.2506022851033504,1.5862285054105825
244,1.083393612253103,-1.1237453753307924,2.9779815285585105
245,0.5507398937600383,0.4113810302921124,4.018181837333874
246,1.4379278222187823,-0.09711395465833185,2.83795121977626
247,-0.8022448450353322,-1.5629988898921299,0.1722849099607212
248,-0.7829786453142167,-1.9870103662317777,-0.14074310270550017
249,0.5457717600831802,0.7271431143794423,0.13744122460626526
250,0.49567208626948334,0.6270878462577325,2.8370760891673568
251,0.19444051449047423,-0.3898496475402215,1.5542519732391669
252,1.2646778264827052,0.8566702000414578,1.2456637360655287
253,2.514234756043781,-0.665866139992305,0.04578287565447493
254,2.185055184883076,-0.09222922347782325,1.048760139128303
255,1.9507443779152744,-0.5611884873433384,1.1201437037022648
256,-0.8628113767230737,-1.4225946948513652,-2.3117429631330264
257,0.984067702117075,-1.8508221358627526,2.497198010256345
258,0.8309463771728518,-0.2905964048191842,0.6295014028121634
259,0.4087866491481248,0.5715168713949599,-1.4182848251583065
260,0.41704340439318754,1.503904970581973,1.745295219248684
261,-1.137249061953081,-0.459021110721922,-0.9990570927296683
262,2.0257314260164003,-0.2176978692118839,2.936694554628237
263,1.1527014289712887,0.8753120221260003,2.3943420755742677
264,0.8585671495199099,-1.684190648001259,0.25178211921741733
265,-1.2902219002629367,-1.3775191062114631,-1.5094016196726607
266,1.004887687106001,-1.3724295223779797,2.6019578336319866
267,0.35969706821574365,-0.5534532684816719,-0.6609770795143498
268,0.03293347335373836,-1.7286397227412793,-1.6270283141263426
269,0.267833549197549,0.02200264496695493,1.5746806412981922
270,2.0373919094057222,0.9165865704914788,2.5117706008309564
271,2.2210997623695152,-0.5364034775910699,0.5064448691054588
272,-0.5456626091841147,-0.33795363553241553,0.853994316847996
273,1.0258823425889116,0.3822649046567918,0.9854734588836565
274,1.0214075734757337,1.0330349582933944,-0.12847295787897567
275,0.24609576941162703,0.5476391863667791,1.0107413446765545
276,0.3822822959059409,0.5180242006028309,0.6713896044088268
277,1.8787429622833949,0.4896441234712148,1.9218434457168907
278,0.8105558054607289,0.987268426248322,2.516247631438349
279,-1.4162469211224173,-1.8664633368579777,-1.9845713299998102
280,1.7319712970381056,0.0711120593236875,2.885612203868
281,-0.26203297907165285,-0.3124506468113516,0.6146263224986742
282,-0.2046428172760122,1.5198966485492773,1.509625309946223
283,1.4691933512532311,-0.4444101980383118,0.7187116892535721
284,0.26372353139671356,-0.21400567193039607,1.4493082480583594
285,1.6515910672414391,0.8779268209793267,2.99843504317206
286,-1.8045943081443483,-0.42409684906909145,0.6011581725096286
287,-0.30881751281167746,4.097947276684096,2.5335261211579256
288,2.3139959722113814,0.39864608219284386,2.4742591856678904
289,0.11235243712720794,0.17219023259043506,0.2997944627746289
290,0.7945563055536733,-0.04475763731919511,1.192945535393882
291,0.04624118549188461,0.5449239603623945,0.8183717532712387
292,0.7290389583755157,-0.016574753109229023,0.7046706929927158
293,0.10529465844520969,1.6563178669970333,2.147769277194779
294,0.5649766275427988,1.3756992185849373,0.8505911500855232
295,0.30817175008188025,0.11991304586187315,1.6880978188242433
296,-0.4200742861801825,1.0984058682573132,-0.71440389361977
297,1.392485994405194,-0.14101448419218007,0.9533035504878107
298,1.3030102336805194,1.189451329710591,2.6351148292867475
299,-0.11072625698727512,-0.1482297518392141,-0.08202658862939172
300,-1.176977090235719,0.6219245281074711,-0.8379500404844356
301,0.5180035731269185,-0.04061789680548682,0.3736467823306418
302,0.19342492174538417,1.0036059308980338,0.9875091363693059
303,0.2107339975092396,-0.30529484983324107,1.9232896696555324
304,0.6130859679453102,-0.48071841056850795,1.720539245728133
305,-0.5701141202962776,0.7052584409833605,1.4770345857188325
306,0.944767530349637,-0.7777378210436072,2.1950826153178897
307,1.9123021263370743,0.18372436180816226,0.4150050497180221
308,-1.2473481844632104,-1.5974421459688155,-2.0569868530359585
309,0.27623436891417386,-1.436447256641248,0.34775839735275793
310,1.1098869491210879,0.45007632690368315,1.4172784261761888
311,1.6522452746729335,0.5149851054415929,2.794951001367726
312,-0.1612178293350902,0.03544015004282614,-0.6050073698217977
313,2.024963039207103,0.09372374202262448,2.3982022545604273
314,0.2554301522013773,-1.0831191387982226,3.2604017342911025
315,1.0492567017186052,-0.39877682668805037,0.09341654866419968
316,-1.0839831783087321,0.6675779005313437,2.211594136814292
317,0.9172327271747782,1.2749175859898458,2.431400942737685
318,1.100935706615468,0.500293926915034,3.4323421628272492
319,1.2610099222720499,-0.19979381082973616,1.3012942857008425
320,0.6913651322535525,0.14839399464992495,-0.10281425837366232
321,1.170484358547696,1.155790805660408,3.071655569322027
322,0.7083079693688844,-1.7079046159163862,0.27352814917541524
323,0.7381457270361618,0.7518196151617126,2.8146546425412486
324,1.6013271998534604,0.11686036970557387,2.145073829052243
325,0.6981277635689375,0.5556714269589166,-0.036919694654936386
326,1.1168491254245192,0.6522189939513983,0.42550141399129127
327,-1.5608079905642458,-1.5970047289008122,-0.5362366897766913
328,2.8296495014509535,0.5881372004688791,3.57875584330566
329,0.6886544328835559,0.24607974198408022,1.839881868733389
330,-1.6045117187246714,-0.10925545566320752,-1.780993716086311
331,1.8181652857203907,-0.8789423206309649,2.4707735314330157
332,0.014658486329555132,-0.26624332068486994,1.2620192525941214
333,0.18192793449068967,0.49781881593998795,1.1222016147682272
334,0.13897831381656167,-2.129421872593242,-0.45857420486369965
335,0.6308427711428775,-0.4290373946882995,2.392371673494574
336,-0.24991266645308663,0.5031560592822495,-0.31567407829545785
337,2.2076118425195776,-0.2159083347492239,1.4347292326108358
338,-0.8930923611482309,-1.500924320886964,0.6564034734281339
339,0.2524903756035478,-1.487911174867971,0.6158289212295054
340,-0.8157840577876757,-0.7954657594194912,-0.30028229485444974
341,0.6247200199026188,-1.2781537393310656,0.1563399478872488
342,0.8118532203950446,0.7476497291100088,1.5222554811140918
343,0.07856063661621662,-0.9127562427028839,0.6349047165075034
344,-0.17766848693340992,-0.7970658982839037,0.4765070373830411
345,2.2994303971926735,1.3305050057730587,1.903569942860401
346,1.290255589140431,0.05316590013243342,2.6039174291174723
347,-2.1299524345405465,-1.8222423636325515,-1.2010225263727619
348,1.1374612760738858,1.440817960974867,2.56030399236173
349,0.7264969189189461,1.8736010069557696,2.697325236598119
350,0.051864747469331896,0.10398901590302945,0.5871617385121173
351,1.4397178751130622,-0.3576031112718142,2.058757746170473
352,1.2170279393511843,1.1460830610648187,1.8987450089454683
353,-0.0282894791252912,-1.4369168072485305,0.042975544410611466
354,0.574303283647407,1.3271257224078299,2.002945203154341
355,2.272125968598576,2.5221516966067274,3.477082153743613
356,-0.9260338235898224,-2.020124368832619,-1.1118190317083032
357,0.5466435597425705,-0.3493768932786197,2.6006635278273746
358,0.2632092074542446,-1.7255903516017082,-0.7567770517266659
359,-0.22195522227192122,1.7432485358839391,3.149711429111633
360,0.8913695352320794,-1.6593977789160483,2.40927690239874
361,0.4113773252863872,0.6932152532323769,2.3309915856004255
362,-0.25342481069676337,0.27341192759519983,0.0693749685914602
363,2.3870415404001912,0.09310941997900722,1.541543412435897
364,0.4653348241838287,0.38037343911539906,2.2892745357325195
365,1.663230089620053,-0.2901912534846153,0.949423900478976
366,-0.1551432359280416,-1.745193208217791,-1.768267663408992
367,-0.14576171167611995,-0.8698456644591426,2.8991996265948936
368,-0.8075860731410294,-0.11211649132723174,-1.91806102495295
369,-0.5820269487429109,-1.7939424067042946,-0.828660360690535
370,-0.38910889691524303,-0.44683071669975993,1.9589016875339829
371,0.3023402310386233,-0.34070968033581694,-0.33913173787381035
372,0.5621759706633302,-0.6609625287124484,0.7859653814138832
373,2.3970898912553613,0.5713052138754668,-0.2256369915319006
374,1.1301888459598106,-0.7441287552676527,-0.12403309295093609
375,0.32109563273669517,-0.4649222076599682,0.20006513649980692
376,-0.871039545769492,0.17047262330859708,1.5757256045676866
377,1.0082396417704569,-0.4521643352918983,2.183981778884447
378,0.034344542199565786,-0.9447021830354353,0.32726954295004695
379,-0.690396325287246,-0.8332357837559949,-1.8909244191942445
380,1.9810231243668253,0.48943558386487673,3.0215869023996165
381,0.15501323382012558,-0.6093379517925297,-0.3190604602849736
382,1.5704092733158599,0.40742248857056707,1.6934534943760722
383,-0.5720919450846983,-0.6607154022527808,-0.6198905660874371
384,0.9468662447154513,-1.3645835325339604,0.6080432323075466
385,-1.2652613234835612,0.6361070212299444,-0.20064063267493998
386,0.7349951793607513,-0.6840674191057134,1.0784954423388418
387,0.030097205637675928,0.5566254441604522,1.2605156729942364
388,1.306498203720051,0.7408940478256835,2.003562547079154
389,-0.18421713541432216,-2.5782323855729623,1.8457210230132004
390,0.3421543804722138,-0.057579216740388725,0.5499814651261158
391,-0.567937363100333,-0.09048297553382728,1.1012444812500433
392,-0.17121461460306953,0.3064581814150668,2.405716874268699
393,-0.4376968793775774,-0.5885530034982809,1.1046419564905374
394,0.40002677686461896,-1.8393990467312458,-1.4231302356554068
395,1.983819695099185,1.1667462552006087,2.6340605705643845
396,-0.04412404473198704,-1.0281036660679617,1.5066584035558133
397,0.7560703920306382,0.4098883916512208,-0.1012335978056502
398,0.45064716063431454,-0.5261769071891877,0.5882524643718202
399,1.1210137258315178,0.7304358048344193,1.651717263250972
400,-0.08461356600445291,-0.10267127416057845,-1.5484803545718437
401,1.24647280111898,1.037491733842686,0.555912228918408
402,1.4524461527421537,0.11404200634887532,1.6575160166085294
403,0.39310194279753485,-0.7538376493652676,1.7607688010842515
404,-0.5011078388682815,-1.3154707094251297,0.5247375493899752
405,0.9923048116123478,-1.053844826773636,1.171445460022028
406,0.3591096046904623,0.6888565093143794,2.16221635709186
407,1.1858115666087161,0.2963262676857005,3.4296292858889594
408,2.866447412026704,1.9458797222908035,4.267333179088361
409,0.2752414903386933,0.6148590475422179,0.9485361752633784
410,0.6967725120971392,0.6374380126940246,1.3860808413635248
411,0.7659945058132048,-1.0692894417839374,0.6202024588022933
412,-0.3505720808295971,0.4435091369600089,1.6978741998515012
413,2.2371569603831087,-0.18746572596516253,3.9966166425651326
414,0.646053932223024,-0.03711786988209547,1.2902299407331892
415,0.011548671134003291,-0.4771078518239224,0.5083899483723153
416,-1.1831229924958029,-2.9067362181783194,-2.4996437506361113
417,0.06246981109411387,0.5931930826888674,-0.7310493608539819
418,0.43182138273994586,-0.043021182771621265,1.2491623787575554
419,-0.7090394159063023,0.21492728444435868,1.6880731418888952
420,0.135534251820005,-0.7551371150988294,1.935145892441313
421,1.4294269527486223,-0.8454932076218017,-0.1415045488055437
422,0.9944230321545753,1.3687781588622396,2.136280141494898
423,-0.46016212996901523,-1.6090353671565942,1.1701686181937847
424,1.0725218948069626,0.24246592872780653,2.694880693673838
425,0.8891318950132654,1.717243822960654,3.2437823032279733
426,1.414587013091439,-0.5786047489407586,3.6611125887795155
427,0.24541885732734103,0.6967952666432332,3.3887773535979906
428,-0.8720006257257534,0.3112399088080815,0.6634749231789872
429,0.3025762599234042,1.394709370907457,1.255885422166018
430,-0.41089119394316287,0.11465249509184715,2.5609555754657585
431,1.498543311736209,-1.3103248175624898,0.9047642262179671
432,1.3538012169951097,0.274032840950362,3.143722373686849
433,0.14437425285910477,0.7421306496634618,1.405229047809454
434,-0.12444745274128821,-0.09317472735627817,0.37941333003574657
435,0.8756579884706606,-1.042768694353556,0.8543907171120393
436,0.9369300926773457,-0.23237977952310912,1.3631704389789352
437,-0.6546023950115122,-0.5383755457186012,0.5594866746113248
438,0.4752404323964983,0.29767288992843677,2.6855630007422824
439,2.8258791603153472,0.43078034460930054,3.873094120251854
440,0.39078638753621264,0.25414355421654555,1.0295322248976015
441,1.0158360545450522,0.27874537075224326,2.8365782973153255
442,0.10164402453540833,0.7088445991861873,1.9760471392062329
443,2.268105922721645,-0.0112335994837771,3.2949352993918293
444,-2.428714673386028,-0.6435264657456847,-0.8989398701280218
445,2.1660050700330267,1.3634845879106627,1.411504590956548
446,-0.6456403270854545,-2.271757681803686,0.6515353521641776
447,1.1912155760611904,-1.0609883790117907,0.544878619992023
448,-0.3467174989925682,0.8740366225493446,1.4008070249127997
449,1.1824428454341502,1.7889104111257248,4.265881266291091
450,0.2764928014639626,-0.145338890175662,-1.5307704904262225
451,0.406811147346389,-0.6468939374221586,3.405266484629328
452,-0.2603396495000214,0.33735434879489407,0.2836279285951677
453,2.2267540317644166,0.3983609370416019,3.446599039709398
454,2.3800169066527044,-1.0919736174624457,1.6373546630960278
455,1.689890186762273,1.4655053716895132,1.7369236757545181
456,-1.4019705451896312,0.513839841910082,-0.1259484399997822
457,1.4484307662789133,-0.4083999680750139,1.556056625276486
458,0.5457486443040903,-0.32614525071461864,2.1585437732190518
459,-0.5483100745940677,-2.7023534065034602,0.24937105704952187
460,-1.2219748604840415,-0.5047577312632296,1.392951671247372
461,0.19624522896197338,-1.2622252612358416,-0.6852751584259508
462,1.0864083732880652,-0.02569966468688956,2.2966957169910547
463,-0.8738188195338779,-0.4578927680939878,1.124857342335019
464,-0.11916843412281031,1.072944524029056,1.6248799702980283
465,2.381451755386789,0.8732439622311613,2.205812466406964
466,2.56322100898452,0.3161949256944149,2.872712854853786
467,-2.959248350229368,-0.7674267312741374,0.9236450951646218
468,-0.031212835542456796,1.4848189679957613,1.3711015191845297
469,1.347236721056608,1.4810229487298725,3.954487565046388
470,-1.0410169407588548,-1.1729108720572436,-0.27985335687363605
471,0.8874025505897694,1.0077773223373356,2.7034357437502545
472,0.1370297101491439,0.8861554537229153,2.509062647023613
473,1.1146041992806186,0.48179343996921115,3.7771303700223817
474,-0.6543684822444472,-0.3749845870070932,0.857382111862277
475,0.056951215435566194,-0.09105341246461997,-0.7560106811856754
476,0.28348156134426783,-0.19445484060960389,0.6448872947063076
477,0.34765222334785195,-1.2422118006789202,0.06701966742466264
478,1.1731655571562014,1.7731464330050857,2.7664888194235546
479,0.7487219556241166,-0.09799690015525019,2.6281948300148343
480,1.8461223013252357,0.2123773984061037,2.8108844405861952
481,-0.6293245773770293,0.34223417058941663,2.102615133002854
482,2.537000646839986,3.3263247305328543,3.6023273955745174
483,0.10984430503335094,-0.38068745766181944,0.9803172516309704
484,-0.43376597866074396,0.8698717360259031,1.9589386206527961
485,0.18630605199927575,0.5440935621005585,2.147780278931659
486,3.6235467575639175,2.286178202956439,3.9607346537307655
487,-0.7247769325355606,0.5126250185511455,1.3859940896213945
488,0.9117066573744338,0.9292573827819999,1.4659166798013126
489,2.0204920620484357,-0.435378227940291,1.0744310042747565
490,0.9136568023719214,0.45406842368958894,0.10918510305952353
491,0.5747801029471103,0.15031253995315247,2.0606677144576357
492,3.6824851640924674,2.896326327449312,2.9199815807489062
493,3.5820184111009734,2.0917561872666943,3.921885904523351
494,1.8335526058142237,0.5581881510051698,1.6786644343238994
495,-0.5493924340676228,-1.2673660877268849,1.277323957421951
496,2.0964226005114837,0.9809474003333044,1.6341509696662817
497,1.903973927460529,2.3436634893748196,3.314920277259049
498,-0.0017885992830947162,0.8754689714512245,1.4926454060604382
499,-1.2381539623431856,-1.307977858790561,-0.12034960483833856
500,1.0260952763303153,0.005099470511286218,0.7119042236743566
501,0.7798390492529866,-0.7152158124322578,1.4229536001433625
502,-0.6214350411589984,0.10472175373017648,0.6527659757873773
503,1.6041696604153275,0.13871449204410038,1.5401315696539244
504,-1.9051928616594322,-0.39346231559709294,-0.7285351310048215
505,1.0605784692061533,0.018837026717476817,1.975193847138304
506,0.08657373974846566,-0.01694164588672113,0.3547690318561485
507,1.5441461793158253,0.5775166640030361,2.2864023029193916
508,-0.3676885101243886,-0.06219955855701352,0.5564096405889759
509,-0.43510665300959067,-0.3461389601244734,-0.0018603807713752354
510,0.48920908632142934,-0.05784667934479911,1.3379393440898477
511,0.4429111181137437,0.2584821386537191,0.7397332672058795
512,2.6940128350332717,-0.7820544909636802,2.639284541321854
513,-0.3816590821578067,-1.0606584214612793,-0.204077736638097
514,2.2039872715102073,1.871038920854393,3.1226437777076055
515,2.862208134255468,1.1726091499568112,2.800199556936887
516,-1.469168176307901,-1.8668402073615125,-0.19165443095365375
517,-0.9954800337319648,-0.2806838408148551,-1.0590371352821804
518,1.6171507429982181,1.7036684168284575,2.2711820417127493
519,-1.1090082417700788,-0.5449210673324709,-1.5685015046626838
520,-0.6161347227040601,-0.7047533834863114,-1.2741161720598968
521,-0.02056218468603138,-1.4272512927567333,0.8794046396802979
522,1.0698420127316246,1.2081791777939161,1.2380525564590643
523,0.7719317408043339,-1.2476452332573147,2.744103457729079
524,0.49567154644066047,-2.093677793158663,-0.8366363891345698
525,0.4962278684332391,-0.6321866888281967,1.2143772987749977
526,0.5182536296982321,-1.8850451893800997,1.6779174015116738
527,-0.603285438829039,0.3113533089804447,0.7069338985757867
528,0.34499462996316244,0.039144911881865085,0.1309322089162026
529,1.2998439908462545,0.8981180982929201,1.204191878202103
530,-0.022951792099317928,-0.9762975540760732,0.7247845849867646
531,-0.6812496914782544,0.2549530434843122,1.7711302115177814
532,-0.7791808785205844,-0.14938772133309608,0.7948448532754182
533,-0.6108573500440466,0.40299532273741556,1.1376388689268748
534,-0.19409179867820625,-0.5548195396644887,1.654061169043736
535,-1.1433222808966583,-1.3051905056134476,-1.1701884044048882
536,1.3564245934427177,0.22718630514005334,1.3648148923120005
537,1.776678678842121,0.5085128885933989,1.6938183418132324
538,2.184420195046739,-0.9029711618708076,1.4911208714980961
539,0.04253791141532154,-0.06390196331715638,0.6290528353942866
540,-0.37386415533152517,0.4448399282183142,1.6554885183711567
541,0.6676642909954694,0.3473841813344893,0.6242000352205139
542,0.9387877707703356,0.05859425817682793,0.23739995885489187
543,0.1977606811538392,-0.131410123572097,1.2926395741268613
544,0.25426600083458123,-0.3559214342611599,1.1490454283291047
545,-0.2505500711694313,0.7094187976569857,0.49728747497987913
546,1.0201775572118097,0.8029957901023479,1.9211816873138292
547,0.4410787467225393,-0.44750476414306334,-0.10811793164056452
548,-0.37825539639108674,0.3465479786253256,0.7186861904738643
549,0.3676006297717034,-1.2785902721019626,0.3462684699894395
550,0.7184096203042232,0.23002245595173942,1.5181250475545236
551,-0.6034109398382081,0.9173348211555757,2.3051669014183633
552,1.0299269457211944,-1.0202845531748697,0.758860716205704
553,0.6805204278925645,-0.6369640250780616,3.0090656811285874
554,-0.5050911973523077,-0.054670425813503766,1.2304842020662314
555,-0.5599851818742435,-0.8663532810560717,-1.3976444394426186
556,0.21356774898083755,-0.39473088232234127,-0.08464245382852986
557,-0.5007377735852967,-0.8255192339442154,1.0248348859280458
558,-1.647879029651988,-0.7429428185337376,-0.37672565920036444
559,1.330376571104968,-1.4377422706449627,1.2919017720042658
560,0.9857354278221476,0.6443038513223047,1.480683920652607
561,0.29276087410337126,-0.11563496429872416,1.6445541670111674
562,1.791136022732435,1.6060429256529005,1.2070643321337826
563,-0.6404914661669927,-0.8917190172017299,0.14976962645917913
564,-0.24455727339433397,0.764508988911342,2.1566918267048063
565,1.7024820411890191,0.09613892200419161,2.7104454242381997
566,-1.5931512270668675,-1.8548802902601276,-1.3939102308753848
567,1.2645176128309716,-0.40509578948845915,2.0892091100887793
568,-0.2886637052319805,0.2717036550240909,1.4742010504161205
569,1.7267876998084355,-0.8044001732165165,0.9298687705113092
570,-2.600738569412278,-0.8077818223649573,-1.5370685153800043
571,1.896725425113598,1.4411382420249712,3.7463397040863806
572,-1.0469285618141773,-0.4806160150978757,-0.15441842865906638
573,1.0739270276862274,1.7190571037493396,2.1187747469475955
574,-1.9924055976034387,0.8307106839883044,0.6140834065985034
575,0.11502613047873184,-0.915587743152059,1.3174107923414924
576,1.024068727078788,1.1754164575963453,1.5973790931146004
577,1.2831395017697962,0.534237077640723,3.023851071889464
578,0.4909492400090525,0.7396493369741663,2.729691574322379
579,0.598336438568641,1.0648276087223498,2.7779321294041597
580,0.2960491540286717,-0.09359100853285124,0.8570596938164031
581,-0.2517754701220848,0.10489266168439279,1.835433556659096
582,-0.1496231280967491,-2.0071695535732292,0.045359551737238185
583,0.41076865929003115,-0.8656743852033695,1.4901400696515108
584,-1.0273965577582334,-1.547581594011569,0.1878378632015188
585,0.11473755459531193,-1.5795772839294688,0.14844833013454614
586,-1.5580495297756576,-0.2537118408575016,0.724864159367085
587,0.2075887894384369,-0.11133929077444289,-0.11153774215153611
588,-0.9550825024191159,-0.5402394850972149,-0.8742430998187815
589,2.1952057852135995,2.6528386610903874,4.843431893653957
590,0.6933425161340436,-0.3498055934516547,0.8830768136962759
591,-0.7619836142558983,-0.1616267382827335,1.4792654165209342
592,-0.9426999536564604,-2.8019643245968724,-0.2636869803699137
593,0.42132390927698127,1.4278395905127137,1.9886177327910834
594,0.007499937650960617,-0.8531965949207344,2.0854876768424275
595,3.205538747182615,1.855755817082291,2.7242578150895977
596,0.8925623126581603,0.1708958357336325,0.4257777092096731
597,0.21285015560479517,-0.5257163944028713,1.7578474188188744
598,0.4027602467488232,-0.5881715982599126,1.884615711878195
599,-0.34146248275428803,1.131017792449087,2.4807185106515233
600,0.745179430098801,0.3822569685058887,-0.08393241873831517
601,1.0900275321270292,-0.009376265474477294,1.4928984099973357
602,-0.13006319604496208,1.2604404093074841,-0.4381083174377676
603,0.607719848228364,-1.2701146625209354,1.2803090613888581
604,-0.9831901922005183,-0.22989800285628204,0.35726859135342154
605,0.5204396759573211,0.37668434819656016,0.6874037500536679
606,-0.44416719954863987,-1.2621307526463612,-0.6090924237296793
607,-0.9310642732427273,-0.5018304344789775,-0.15300900481451443
608,1.660156017218858,1.4813261623713891,2.5413006431583867
609,1.5370607602484603,-1.293400038501852,1.29853024732837
610,-0.05119954811152949,0.20377155519123,2.3514288909630676
611,0.27827276162820014,-0.8729472584130458,-0.8327281242525942
612,2.171111356074954,2.09427376073887,3.7073161381007225
613,2.454407007212323,0.47241979498775893,2.689143582715961
614,0.9783884006421515,-0.8708044052868379,0.4137293457105271
615,-0.8059870984789461,0.9774969046722225,1.5306876409714603
616,0.48831476093545756,0.7148625084710991,0.41853009259144913
617,-1.829814970461014,-0.5159182872690764,0.001931895383249782
618,-0.6360883254492514,0.888824585557636,1.5707199058409684
619,1.0789500825941967,-0.3659946882063223,1.1671456147649666
620,0.9560930645087171,-0.25171357966834546,1.604631494248511
621,1.02082397920166,0.0785219263964945,1.5120550367111432
622,0.7325204357544847,-1.0674981369619843,0.32714460352036834
623,-0.27257192101898164,-0.8212000950926842,0.015357625769886727
624,0.0902171735443007,-0.1054360594351534,0.6677303558346113
625,0.23512864803088493,-0.6078717355086503,-0.4735980907885255
626,0.5915504203549418,-0.7442576986469881,1.2113911555063723
627,0.012884445934973066,-1.3996679598926407,-0.11521031019315618
628,1.1492726004460094,0.6175178715637235,2.6037871897668037
629,-1.1122022984684374,-0.14088630212604297,0.655675783119553
630,0.48334874690787827,-0.26635113073981337,0.7410247526829973
631,1.1534881536396882,0.3966635389725551,2.08670729822981
632,0.6666276104629268,0.7005156914957676,1.4927484696480962
633,0.1910187865199495,-0.21816982613098276,-0.5308824215034801
634,1.6546984294663458,0.7382754483973626,-0.21709369878122167
635,0.8925123305899121,-1.117173616915319,1.5576474914835807
636,-0.1819245344838202,-1.2869841643370685,0.2318097371631756
637,0.18429184454692366,-0.9657616741149864,0.6725979379980803
638,1.5766516279495928,1.038752155083719,2.1674010643358432
639,1.644394680488338,0.9779062000135446,1.3673325609312277
640,0.604009139968507,0.42138213476951186,1.9648657682779291
641,0.3268826810948747,0.03835698527199171,2.575229765269049
642,0.7008445519930493,-0.030946874696476823,1.9466446710101657
643,2.4057850418777305,1.5560633975637657,2.775164611811475
644,-0.8450084650752906,-1.87149225309203,-1.4270466785405356
645,1.7047980079352305,-0.3921892434150893,3.066055334965191
646,1.2484937817130142,-0.40283710733811945,2.1927862161894316
647,1.545543417123044,-0.1269253672916546,0.5359974448198898
648,1.4400392678877698,-0.17882129687686918,2.9492317101996655
649,0.9830246708556271,0.6994583691695786,0.5707367976973117
650,0.909195543718351,1.3854398531308207,0.4544212382460948
651,2.3291948255287336,0.6011299267799086,1.2015258824609274
652,-0.08575115937957067,0.0586615829889532,0.18948419538664954
653,-0.6620967606275224,-0.1626650506845053,1.8352255442160785
654,1.3370893287330294,-1.314473082643609,0.3835521198811999
655,-0.039768007156740504,-0.7019984368710688,-0.24424834836906378
656,1.922847248512656,2.354387804252502,3.5302255288983546
657,0.49696637739897703,0.5064460447712205,4.347783791762094
658,0.45015117613948086,0.10110640718234386,1.2275281529586155
659,0.3878681670565418,0.7758608703169927,2.4385379087109884
660,-1.7564609518971492,0.21334465958552298,1.2653982218299178
661,0.44388704382357447,-0.6552427799024523,0.1464142618521168
662,0.51542810227945,0.4639933735810074,1.2837360595397256
663,0.5191774986942144,-0.28422290874145645,1.095253462254541
664,-0.09276978914667111,0.12243808557134885,-1.3780016735610947
665,2.9960063786783966,2.2527007277968343,3.9079391598341187
666,1.1169298959049496,-0.6055371140710724,1.756873310617237
667,0.3674064579863048,1.2214370173865081,1.7034216639185775
668,0.08102013579221595,-0.21545098136079874,0.9612328487767084
669,-0.680061018477415,0.9955268223316486,2.2492526056429227
670,-0.17770903062755206,0.2909841625589914,1.9242567928150973
671,1.2016403715519706,2.279204443883341,2.4812492955285
672,-0.3009906132469188,-1.6313325862761718,0.1410548840058139
673,2.3980285386462747,0.575536835972295,3.1805786795422883
674,0.9175991004214926,-1.4452135844900942,-0.33056092022973943
675,-0.8895129205436173,0.3322743081161749,0.06886712303817645
676,1.036601463994161,0.5244479234653894,2.77335877304916
677,0.8402159972470473,1.425134054651104,3.572350507109563
678,0.930035734978881,1.217227019334356,1.5955405094852793
679,-0.5554488239228652,0.42228250825823277,1.797923479917658
680,-1.309866504765623,-0.4187732506583671,-0.3894860554750343
681,1.1105493579034234,-0.9487449478215327,-0.8930963471770146
682,0.2204347250963391,0.29229300875820535,0.7379571894707738
683,2.7157071859206976,0.5302256058108377,1.2295520580086725
684,-0.591040899335769,0.14747589676093217,1.7477502984274949
685,0.6287496519610815,0.7382090571506906,1.284166596836736
686,-0.8062980243479405,-0.8083866812665069,-0.44385898344877744
687,-0.6224697608769865,-0.8860552329885519,0.9912039040252812
688,-0.08238779091304349,0.40070249298599486,1.9742537666635382
689,1.178175516007279,0.2927934374908122,2.776477535542735
690,-0.6149836205743799,-0.013276121224540865,0.4100297900013462
691,0.7651923480651113,-1.2892438174855416,0.5239523215722779
692,0.7283827292647312,1.170846885580325,0.16495310212436995
693,1.2553575557700647,-1.6928019300646324,1.302094638646305
694,1.3113204752916099,0.7566825161514974,3.3679150635828754
695,-0.30043452263529336,0.47380411150054913,3.2582384261647888
696,0.4968480541695841,0.19190006525549988,1.5868985986235256
697,0.42334148083576556,-0.9346626295922389,-1.3125339487397076
698,-0.4130867478841729,0.1940007290603939,1.2208937213111604
699,0.726564829381322,-2.1983438814989205,1.0136175748152771
700,-1.4138332667300042,-1.8791224297178373,-0.750941963406376
701,1.2382993015807842,0.19213188429168743,1.9295258070545944
702,2.7292631712356856,2.0945539733427134,3.0555676872393707
703,1.7030569283236567,0.5546775046997607,2.4611533282284643
704,1.4112552060737484,3.1420793572762613,5.018052651184871
705,1.0620111888434367,1.9764549406982712,2.910796186475568
706,0.8910498828173039,1.2504218148935902,0.8367136748620856
707,1.0657624798758996,-0.5725247712002367,0.7382420569618828
708,-1.8544209889125018,-0.7296604147401544,0.06600589471638574
709,-0.14976306137473183,0.15072521065400235,-0.25088176734905404
710,-0.6165344903451513,-0.14508036063787172,1.5192917723620938
711,-0.31961317575256665,-0.5655699030759886,1.2148219198815533
712,-0.7672234474991837,-1.6287733487972424,0.8668915017825474
713,0.6193560244551767,0.3563670356243799,0.7173226287577783
714,0.34236204357000066,0.7864587543729232,0.3469225301720092
715,-1.3878814322083368,-2.133464397459325,-1.08263083065942
716,0.28650877946581854,-1.3364362320669578,0.4826877578231096
717,0.1211906567184573,0.5203164221889238,2.267050050531343
718,-1.595887514054584,-1.2073414392114918,-0.5158974207518504
719,1.6809574818430022,1.786103087819021,3.3086048823082588
720,3.9175387595857676,1.6555603231984983,3.7780329126749255
721,0.276359889762944,-0.12093115498358557,1.2373571296978974
722,0.6430862521750971,-0.4852693368574172,2.735347790801926
723,0.387499045142466,0.8931899461000997,0.1208949722789956
724,-0.025859174272428287,-0.49459010298281064,1.0942994727208208
725,1.0560250794267738,0.8246896240351652,2.3765737246103833
726,0.8136480019132231,-0.13970799560690322,1.7684036954967866
727,0.22945886149588862,0.30637988381523135,0.5407523881412173
728,0.6966030606930004,0.854259672997708,2.479407335752872
729,1.9663247893871596,-0.06407261253878418,1.8870431402425583
730,1.3477937907924553,3.2093136483831084,2.6146327718120315
731,1.328044955528879,0.7743370084358464,3.4264180784647205
732,0.2635489372852572,-0.1800456103408566,2.244149819748517
733,1.4282666215593984,-0.7594080107429612,2.0523632210647276
734,2.5747714918733813,1.6170648944174941,5.1162489603753505
735,1.6381681132964996,0.07835841218928402,2.993399936223097
736,-0.34756895516066955,0.6362445550937625,0.7789315819669338
737,1.1800521773462225,0.4160006012883289,3.5850935154752355
738,0.09941446437526047,0.7793259582485168,2.6836352602004125
739,-0.5868421152140526,-0.987927666975941,0.058250939215067715
740,1.0942711571513222,-1.5695323199114726,1.0341878624593877
741,-0.23642409180462973,-1.1537028090189319,0.22957949962780383
742,-0.848653172407686,-1.838016005719533,0.05375559923242115
743,-1.21831182082821,1.0580703841933965,-0.1725054202594168
744,-0.03069981292541213,1.932736244286992,1.2303480851388833
745,1.1486359590817032,0.7136772531562716,3.0292958871263416
746,-0.1920305574998068,0.38823625938045186,0.21633384970356048
747,1.4193603050061416,0.914578266423965,1.664435645835951
748,0.6139768447070586,-0.5072037653435704,1.5044982289431656
749,0.5500095214425753,0.31604764848986483,1.2843101611548615
750,-2.095278162412912,-0.7351142506558619,-0.20536475271981477
751,0.16511704960733425,0.21126585901008263,0.5988107018235443
752,0.295782564615486,0.7691958616525226,0.6210215132716039
753,0.7803840417369645,0.15877885885273227,1.051423216666907
754,2.069889308167008,1.9529606082852469,2.177195107065965
755,2.279029185293634,0.14844333505482402,0.6122468101830868
756,-0.6397617667986184,-1.6235796777344178,0.2405328149946645
757,1.7449813486793806,1.733410508933785,1.5627616664825554
758,-0.1645091533761326,-2.0200176700449544,0.003931496022521519
759,-0.41968972815747607,-0.3816342463479309,0.41284617022888026
760,-0.7675358065081538,-1.2249946702031578,1.1528356742828105
761,-0.20793914203915365,0.41425226607283483,0.6427838799353562
762,2.214942050259663,0.4538132409436674,1.8285615042583439
763,1.8318849556911654,1.623498953985029,2.66831440599955
764,2.2048739972187126,2.8265286694688134,4.332275578376313
765,0.8813982227981347,-0.5306459731922033,-0.12266780057177017
766,-0.22073276112659132,-1.2981757725975422,0.9242166924572348
767,2.129491504748422,1.2637197841481982,3.7769005481110636
768,-1.180225221114528,-2.1540173470490163,-4.0317851689573265
769,1.086563600392151,1.042175673326842,3.200028625634634
770,-0.2261347860551297,1.6220810139755901,0.9839632195151674
771,1.6869842062322773,0.9950059580153368,2.66423413780053
772,1.665272889670921,1.5082824362577456,2.6697480780197487
773,-1.2390669838963628,-1.536507713606869,-0.9820357804368921
774,0.16588163384728838,0.7738956820867939,2.4111388498847233
775,-0.6259053955799934,-0.5223115376675664,2.9701371717574374
776,1.949093475734528,1.6468133654376902,1.1259227058305212
777,1.2697282824632141,-0.16391184638930115,-0.11149781289712618
778,-0.5141716445075828,1.0436259585711667,1.6679663755720253
779,0.5926045748998784,0.3510618146718433,-0.32998623361007723
780,1.578582811207798,-0.6007511355111786,0.9281313767273092
781,0.3398605444591742,-0.00394853011493462,2.049544173708279
782,-1.066830071034413,-1.9694736063021832,-1.1777244022968494
783,0.2194109938102362,0.6105615386056407,0.8366479257937416
784,1.592810616763201,-0.03989441256131763,1.5432681623304112
785,-1.961058042460106,-1.3334671450374602,0.27441828568035365
786,1.8552450399871085,-0.27433594483064544,0.6615038108861637
787,-0.3210495433215643,0.12228102468692567,0.29296590155163993
788,-0.8548818793740338,0.5433551907399422,-0.4153617783616229
789,0.5418179770983248,-0.19199744909650873,0.7272061270274135
790,-0.14410161928929244,-0.5610836845836304,2.3114318678960535
791,1.4722450552603428,1.5324198447735782,2.094166562473898
792,-0.08718622450872049,-0.8328290305149028,0.05232098253102116
793,0.8465889418853361,1.3454081323611728,3.4862414554220615
794,-0.8625213648690919,0.15919335850343153,0.016132355582836468
795,0.3554220192505349,0.6930156130717974,1.635841495797138
796,-0.16695960523763564,-2.07170971763402,0.2551231204861689
797,0.3372384286091692,-0.4040730687763855,2.4832214978903115
798,-0.4224001807894461,-0.5249180826768218,1.1149555138792144
799,-0.7723956762496589,-0.1608155776273893,-0.0740700324256051
800,0.27952638913076777,0.2334715628010287,0.46681159256871174
801,-0.029699624670279645,1.4148089599241478,0.08802496948813868
802,2.5101269702540585,1.2774113492642565,3.6357787761257887
803,-0.34717386981496046,-0.26934572615432995,0.13260509545960686
804,-0.12335963798841953,0.720837418330185,0.3523059167726862
805,0.39129431577792795,-1.131370328393121,0.06188687985685655
806,-0.16507515439392656,-0.40849079249919623,1.9559363666510061
807,1.2351299121437107,1.8608354247876313,3.4420555360894065
808,0.999396263101273,0.5497304849332542,2.489214886680236
809,1.5342660804339632,-1.0073376001569803,2.8596685185404254
810,0.18565564155205616,-0.09192444326208665,1.5661978583882987
811,-1.884755611242989,-2.3178322441511168,-1.412197351356644
812,0.21063933202395846,-0.1302533424242112,2.9060275218417346
813,1.817892009673079,2.738901530180207,3.7334179480995426
814,1.4749033418235873,1.8101796004002118,4.045387130302826
815,0.3113678027986536,-1.3350860459688445,-1.0467520445098157
816,0.7343083950350919,0.1433749617058438,-0.8517793542037441
817,0.8273994497594077,-0.25991159427047006,0.6797909157303159
818,-0.0979135670025556,0.6892426480628553,2.337774240385891
819,0.1911862033660343,0.04955120564051232,0.5911486925965087
820,-0.009092905452604966,-0.9556780430326468,0.9406619969559155
821,-1.8262082202275693,-0.6210691748286836,-0.011281477255706232
822,1.281789346142482,0.06426117653562197,0.41811732918343775
823,-0.07482670169447858,-0.12922799121271406,2.597653467444984
824,1.0092302253205891,0.4915421344388671,2.714929426294302
825,1.3893203724246375,0.10631801720813826,1.1815936774886568
826,-1.5994442785718668,-0.8991949641827423,1.0603266351898408
827,1.8504891522391405,0.8241399214957948,1.735685088795736
828,1.3589304253069316,-0.6510646955964909,1.8746172622819484
829,0.9065163618335849,0.7662761536922066,2.2802369309777384
830,-0.31558072634159823,-0.127230014859863,1.8520085815617104
831,0.6023557380228467,0.4816061866688411,1.2193508549748617
832,2.077081530565928,0.777238563046224,1.8446984242210525
833,-2.8101990395468905,-2.9046057838516606,-1.864807668524774
834,0.5347308543169421,-0.7047436038074001,0.9438067404024035
835,0.676334304303756,-0.2622461425587815,1.3158978373694241
836,3.582644483216878,0.07644960856098877,1.5587507223128827
837,0.47189120798677475,-1.226852851701017,-1.1008325460169408
838,0.3830407300794782,-0.2215099017139762,1.101987128150764
839,-0.40766079747806194,-0.0947411263064169,0.7695739413958727
840,-0.8150212273484555,0.5260253791805167,1.3645647816707627
841,1.0020742296953675,-1.4618979005679793,0.2803513961703836
842,1.490278761511627,-2.380423778773536,-0.321156580431415
843,0.8380088030768178,1.2889254363085727,2.09246679690142
844,-0.42371327247327534,-0.316731484494695,0.97129423878641
845,-1.5746880192295696,-1.083236086731609,-0.3920801376084556
846,1.2583169832348386,-0.8889863461542131,0.5807392416831362
847,-0.26451507096812443,-0.4161153518837752,-0.3636275190346743
848,1.5390098459121384,1.587484605942393,5.090895873041238
849,1.5651615972335111,1.4019755011213493,3.6254264577043402
850,-0.28039395584808235,-0.5496431492391638,0.46792448495126365
851,0.35243810162236333,0.9627954749969242,1.2490895943660578
852,0.800971772350192,-0.8122083707193801,0.8000473411668055
853,0.21721107068675005,0.56487710962929,1.4343684087262263
854,1.9258026027533017,0.9182515260652395,1.840050935588554
855,-0.5281550978545211,-1.5034696458845995,0.6317909178976208
856,-0.6521425391849582,-0.17911493437307704,1.355964987628806
857,-0.611312965314014,0.43763669219317275,0.5983237130587691
858,0.29046777787458083,-0.9223310911487064,3.210121926923109
859,0.9272586020760041,-0.5346214371169663,1.4296397274948678
860,-0.25389749806922324,0.26893535100851007,1.9350936267963699
861,-0.1333074089682339,0.7060382842374744,1.838418479646004
862,-0.4664674253499125,-0.03564702673721359,0.3754347678489929
863,2.4107779022333107,0.5145950189403012,3.1057414864880557
864,1.8867568062136915,0.09485929292903685,2.80592157693628
865,1.725818075505111,-0.39380599557236967,0.0487829565613013
866,0.39535758603495896,-0.3428533880128662,0.4832573315117168
867,0.3853676633475215,0.7918766634138412,2.7303947366168657
868,0.9681316303283184,-0.438649466159116,0.8772496844014692
869,0.8226879176811857,1.676415726366139,2.130803727258069
870,0.4229894035286167,0.2586244260350853,1.114643603429485
871,-0.3109586058312024,-3.006717501142759,-1.15111557445458
872,-0.45983808436345774,-0.921348677514515,1.6881041919977433
873,0.9383408590757487,-0.3299523720871617,-0.5583672373531825
874,0.2017787756459225,0.9616571969569222,1.0332587328415834
875,-1.2943632291781284,-0.6664277379215721,1.0138630200690544
876,-0.08341808992061028,-1.058566724697855,-0.24571116730523895
877,0.91356311802761,0.6773578974933652,1.7883038553977724
878,1.610407605622778,1.8698963161341347,1.088470782070719
879,0.7577695354099105,-0.0006230536666783705,0.9528685791118802
880,1.518277472344106,0.7306963028032762,1.4052056572341638
881,1.232157229481517,1.2162203195205674,2.8891817451091426
882,0.30309445318526906,3.0442461923372792,2.7816101453393305
883,2.0982021314805506,2.180436125037972,2.5683851443384755
884,-0.008207501508688986,0.856146226140213,2.671595182699475
885,2.287178366239253,1.4529796422256176,1.7502247459155285
886,1.0750031034445324,-0.15246716735776278,0.5775769353747138
887,1.9440722627519904,0.20140805864282335,1.4259167552582028
888,1.8472799367317203,1.0251490562982917,2.88011679885534
889,1.1421718162041568,0.8882004197509855,2.4709304409819084
890,-0.5653104127937845,-0.7442427707844961,-0.10373131567545515
891,-0.36544831359536056,0.659213166292075,2.6080359056759903
892,1.842832515830712,-0.241346463493985,2.404868508833648
893,-0.20862112608408417,-1.452336974018035,-0.3889147323189027
894,0.9647504740272301,0.8453361647952572,0.8967987089035493
895,-0.010623214629057576,-2.7525068244789317,0.7881048870137043
896,1.7896649587171427,0.7787041256911014,1.940592301349513
897,0.06138126584273196,0.1365772003149007,0.1647660502242368
898,0.8331159587023578,1.3554523634131759,1.9662758811918084
899,0.6456530949885555,0.5177143313973315,1.3368382877178462
900,2.2936698201310084,0.9872530494038403,4.204196441435325
901,1.5814157614583637,0.3796748019687841,-1.1959633596451462
902,2.123514065196388,-0.4859081820901754,2.529388524768129
903,1.3701412834106828,-1.2867028742244961,1.1630404113163977
904,0.4539706522502789,0.6980120096984196,2.1464583113191873
905,1.0614658390314107,-0.8396492196275791,1.4284323103640573
906,-1.232073461015463,-0.4246835300240836,-1.5643524035182979
907,1.429678948087112,1.483364942679735,2.9833590384488446
908,0.34625139103045033,-0.6100783043793367,1.1040044323568927
909,-2.3771539385583487,-0.7397651353168646,-1.100324590302501
910,1.0149982086513067,-0.8098721939682735,2.323008616300878
911,4.026856474476433,2.032998681760851,3.4113910567101913
912,0.14620232822370888,-0.23013130091168602,0.5708089331623267
913,-0.07393985489111976,-0.2627467797878131,1.3368732494943947
914,1.2810880100134725,0.20531061946070164,3.015265569893863
915,1.3781413136275025,-0.24517821606142998,0.4816100758732901
916,0.6177670395711901,1.8387209193582197,1.721232976017213
917,0.7667532073951779,-0.4020971035920512,1.9604955688975252
918,-0.408963018481029,0.03557470304406373,0.23327143359300662
919,1.8565345483286646,0.4402064680109058,2.273727599452238
920,-0.2749572430585945,1.6325244197407762,-0.2510599573818114
921,-0.5845550617627306,-0.9033658161609776,-0.9188324886923129
922,3.2072124366769916,1.5422190916688296,2.661648042794957
923,0.7404483283308296,0.8690877388135847,1.425097052045367
924,-1.5176023729514017,-1.462328359900929,-0.6373755476787298
925,0.4344901492741322,-2.1671705890470445,0.2509054752220305
926,0.8631297348888574,0.7819673985752218,1.772717653649208
927,-0.8690358331422054,-2.157186552298911,-0.9917552723087921
928,0.3967957172875448,1.0331494188541117,0.571566448957038
929,0.8301412017416041,1.4177118844822312,0.9238580670604262
930,0.8309798671715365,-0.1168937542392158,1.7746889767734988
931,1.308765249832759,-0.03165261215267569,2.08575561044835
932,1.1046271147016073,0.576140232361547,0.902811673157602
933,2.2905644579968856,0.09211334848092834,1.9589468434534183
934,-1.3666607933198625,-0.9195485900167766,-0.5584877899057443
935,-0.2868912104439746,0.8957731957629493,1.7120477391002649
936,0.5777682692327035,-0.6631076963046815,0.3203265158922843
937,-1.3217934036692056,-1.6702668058292436,-1.0667563959645268
938,0.7270800346795037,-0.8530400403797679,1.8586365529875852
939,0.19867282693808475,0.5905383144231606,2.110800990710276
940,1.442645327509454,-0.22227357022139438,1.0644906838040142
941,0.41364147142250735,-0.7265891937632414,0.3949962198860394
942,2.317722666839809,1.0999053825162073,2.5819900173929864
943,1.3616633774321039,-1.0369617756883491,0.5995329190922593
944,-1.1521080815163605,-1.751796116825007,-0.33124522272307383
945,-0.1767894489567095,-0.5311668084482064,0.5359493836661056
946,1.590634812701512,0.08695421847074075,2.150833784117205
947,1.1138770177795698,-0.5797925581464942,2.049859541288286
948,-0.38994185134334425,-0.23537638264744995,-1.1482154046143729
949,-0.3669420908085073,-0.7417356817674821,2.4649796836378464
950,2.0434746093571956,0.5209939847388493,3.4319859685769103
951,-1.4464240865355298,-0.6350338294524156,1.0587339513553935
952,-0.7116806073394535,-0.8757581447599568,-0.1266205912719833
953,1.9064885676804362,-0.38331534949110596,0.7280186179763297
954,1.1104269758454866,0.531581930154464,3.190948044171364
955,1.2844814184358384,1.7009333224039187,3.2012466050749944
956,2.294636258107238,0.3562439693063402,4.410525442497379
957,0.8015100086912006,1.6053017669600553,1.6948560565590016
958,0.023146268707533696,-0.6016155944872341,-1.0813634561287513
959,1.5263985317537332,0.7972252391764704,0.9298865097111955
960,0.2573807353656544,0.1831209957684596,0.8476487275830037
961,1.8003038951745243,0.2427798507430693,3.845588031932887
962,1.2936243755245658,-0.8147655310561811,3.7599394528194168
963,-0.27601205987041966,-0.0852406773097452,0.705235297324119
964,1.4180668818235906,0.9047531122487679,2.21478211151609
965,-0.8963452037608299,0.9441937573953525,1.1065729472509769
966,0.9626476807618272,0.5889287897233746,1.2471969162234213
967,-0.9169292807149914,0.6713246220453127,0.3696062581360876
968,1.9730343669894896,1.1532694568057167,1.5909270602943377
969,0.48513354908129247,0.9075335566666454,0.9773215625798899
970,0.3461751821173621,0.9977535169618634,1.9972226046940231
971,0.829187591726747,1.6121122312613498,4.158614162982027
972,1.5811239161860584,2.0209868154572552,1.8152004469389125
973,1.2111359950194127,0.4615525556262023,1.0096076945583208
974,0.799737577396211,0.0738447919522884,-0.6259676491755559
975,0.03996021371841242,-0.670935098014704,2.2281864395742823
976,1.804590264536321,0.8567284163807852,1.8409763030623196
977,1.0369823527992814,0.6619134061472943,0.8857157596458298
978,1.133791646572535,0.08566248659834863,1.7022872982901447
979,2.108075724104451,-0.02778364140731972,2.177024052583995
980,1.8715884705574708,0.551169228621692,3.284686347396852
981,1.2062796756874494,0.6317247207968226,0.7409290459821285
982,-0.37789348827516184,-0.8071903376586027,1.21734180378067
983,0.11976543779060528,0.05653959787628358,-0.04525121971018835
984,1.1168967713194489,-0.24248001132881813,0.3770459948703284
985,1.6535547453939698,0.9226423897158579,3.53703306476807
986,1.8155791319726382,0.6388644376056399,2.8675820728021693
987,1.9782685410000003,0.826063603549826,3.318080921487422
988,-0.35245556415762236,-0.38892596668544127,1.566300675022996
989,0.09537683695949015,-1.192411810117458,1.1754977734600198
990,1.3178017939803461,0.9306242848729352,0.8374558265659566
991,1.8667632085980301,-0.8709693249828453,2.266168416971805
992,0.6106581541952348,-1.143298328761937,0.6773658415539415
993,0.5085217173210457,2.1221513716369222,2.5434196856108904
994,1.3837634106211976,1.6036718117080104,3.1188660954348286
995,0.4908240477715104,-0.4552892301342198,1.5491458057103127
996,0.5284556998505625,-0.2055754759316561,1.253383295560223
997,2.866667534870949,1.409724138295787,2.2862342058244423
998,0.38666571153006024,-0.5247687770980375,1.1223931042376385
999,-0.7189797781639146,-0.36735506268912205,-0.6679371521685582
