,x,treatment,y
0,-0.8614815492753906,1.0,-5.383460197307443
1,1.0896686681112846,1.0,2.271477501814206
2,-1.0773101088880226,1.0,0.5471216096735994
3,-2.7646734150218286,0.0,-9.052720768514309
4,1.4865179191511093,0.0,5.097863111373566
5,2.2606055043375326,1.0,3.7595154764957477
6,0.3804632776549017,1.0,0.8155725474039461
7,1.4295357725851154,0.0,8.799511044798223
8,-0.5878842318317612,0.0,-2.6700786425502683
9,0.020870202144279013,0.0,4.11904248121727
10,-0.5405989120362261,0.0,-2.8615846596255983
11,-0.21877809872857631,0.0,2.3444811546840443
12,-1.7563866529478702,1.0,-5.282902381331876
13,0.43772405723065866,1.0,-0.740336401547129
14,1.156427821282282,0.0,6.095975802997121
15,-0.9442583105845597,0.0,-11.066371989745676
16,-1.4340551706681182,1.0,-2.6529215272145343
17,-1.0182315674062226,0.0,-2.6548498411773194
18,-0.36088032477757775,1.0,-8.209186236607447
19,-0.3874808783256314,1.0,-1.4177051409167971
20,-0.18860817045814124,0.0,7.762486620184175
21,0.09032139078306377,0.0,-4.589449314711064
22,0.03529074260120131,1.0,6.1042516993626705
23,-0.14677818293596634,1.0,7.011376733322459
24,0.854449830342749,0.0,-0.8704505121567485
25,-0.5122272296249385,0.0,3.549339056348885
26,-0.8432687674992422,1.0,-4.583122503290058
27,0.9570404126615927,1.0,0.8980119802117099
28,-1.0791085385192587,0.0,-7.567773465588629
29,0.6335596187295265,0.0,7.677662167270411
30,0.17284605574395112,1.0,9.852683029596117
31,0.7930701269649537,0.0,7.841216835467376
32,0.2671237759923767,1.0,-2.083135667398095
33,2.380686306883508,0.0,9.295014677084682
34,-0.9988313909729769,1.0,4.137432491014452
35,-0.9086244636885102,0.0,-5.612355578472004
36,0.3705830740084633,0.0,0.9924748949229365
37,0.7800813712118536,1.0,0.2663281987545427
38,1.1127527869226803,0.0,16.259330578896616
39,-1.3190917978442642,0.0,2.162626014449384
40,-0.3944734237679411,0.0,1.3749113540986957
41,-1.2404990736039865,0.0,-4.248572500654431
42,1.1521381791060956,1.0,3.644049179919884
43,-0.9670293867816971,0.0,11.062207394511923
44,-0.712932408917823,0.0,2.8892996008097396
45,-0.39267719489240566,0.0,7.968241183571062
46,-0.15945719820743792,1.0,-6.209260992476072
47,-2.164107169810087,1.0,-5.565364704690583
48,1.662172469626428,0.0,0.8748025875424323
49,-0.9918394861223802,1.0,-7.988901245966691
50,0.2544261613828817,1.0,-3.7422249688344156
51,0.0854248034105147,0.0,-4.551104649745283
52,1.3365617882621665,1.0,6.822695041261436
53,-1.119394644443249,1.0,-0.8587016817679047
54,-0.9757663634993393,0.0,6.007072530953818
55,-0.4976093360238559,0.0,7.037348308719335
56,-1.3126587721304683,1.0,0.48741006340372417
57,0.43367133220806403,0.0,0.49457150356762863
58,0.3483810712942901,0.0,11.75134068955425
59,-0.45967431374984513,1.0,0.9246959912872879
60,-0.19849079129795155,1.0,7.841922042867698
61,-0.6867382490371714,1.0,-0.277489007856206
62,0.47903302179940765,1.0,10.92715411289253
63,-0.42385833585541854,0.0,-2.615041174506308
64,-0.3554239454744733,1.0,0.07338085348449286
65,-0.5521198342203223,1.0,1.314688057780286
66,0.3486794783555611,1.0,2.4208710349990215
67,0.12802307228472778,1.0,-8.663170296449202
68,1.4497148647712041,0.0,0.8037603770672701
69,-0.04187246617230157,0.0,3.0777852763303244
70,0.5916018126852152,0.0,10.134928275601819
71,-0.47754372614831353,0.0,1.2767734939358721
72,0.21958423202109614,0.0,-5.437921979633224
73,0.7840762098177253,1.0,-2.1316716694275795
74,0.42690595849654267,0.0,-6.933621785318537
75,-1.0979120910700582,1.0,0.8819620765413476
76,-0.37340688727414806,1.0,-4.242391337601003
77,0.030515002627363053,0.0,1.0004767387612117
78,-0.06362389705830677,0.0,3.2475264819666174
79,0.5766470144584259,1.0,1.1417792364205313
80,1.3681989420849103,1.0,7.6467959127826415
81,-2.003225255263427,1.0,-1.2946752892895264
82,-0.01287712774814217,1.0,1.7907219555766367
83,0.6290638463149807,0.0,0.9511162234895505
84,-1.0429980068739264,0.0,3.3704276035969354
85,-0.9109545485012802,1.0,1.0638926820656547
86,0.42510264558541,1.0,0.023425116998982976
87,0.19010236085816085,1.0,-4.120308513673081
88,1.0618723245315602,0.0,4.03875197295479
89,1.1548448394009934,0.0,1.280659185481889
90,-0.10181831348105588,1.0,2.992532504267726
91,0.4841260431763938,1.0,-1.0482771153826502
92,0.5612461017481776,1.0,-5.938554661719587
93,-0.2900757625041894,0.0,-1.997863960605983
94,0.2961899975411598,0.0,-4.2543769373449845
95,-0.11260771866378307,1.0,-1.548322943531594
96,-2.6734219491035596,1.0,3.4613470087349896
97,0.7637789638440368,0.0,0.4344025845025752
98,-0.4847079202676505,1.0,3.7715480443095197
99,1.1561089568067247,1.0,10.597450353399207
100,1.2514011065286061,1.0,4.130648011020321
101,-0.2421325449633327,1.0,-0.5235892101370494
102,1.5253176968955597,1.0,-3.998381607281927
103,-0.22307774339625389,0.0,5.23052933835647
104,-1.3218527017356374,0.0,-5.445178246647037
105,-1.4035338154862185,1.0,-5.519292112362948
106,0.04055697447547,1.0,0.9487584655176264
107,-0.23033127344599702,1.0,2.6414698703591566
108,0.451176030995238,0.0,3.403675185523765
109,1.6336661591795085,0.0,7.8969486023864235
110,0.5834574243543168,0.0,7.700214311895946
111,0.8079606874784447,1.0,-0.1465115021383414
112,1.2945301991316982,1.0,1.8306804609048286
113,-2.0410008977432637,1.0,-2.983666056332208
114,1.5046051716573086,0.0,4.066423703458327
115,1.878865825980663,1.0,2.294074943196646
116,-0.6100359713736755,1.0,-4.038044075611191
117,0.18138830728629865,1.0,0.9434939791602213
118,-0.6596667387759366,1.0,-5.676337692413817
119,0.14475560011079927,0.0,-0.5825417348967098
120,-0.4202108646006282,1.0,2.9634781739569087
121,-0.457629746234771,1.0,-0.265517026543108
122,0.15440098187321366,1.0,3.5939323606820253
123,-0.4153473597005889,1.0,-6.551731393566381
124,2.7388629386512884,1.0,5.998231152134821
125,-1.185321173871679,1.0,-1.8764043505437065
126,0.7268409654207081,1.0,2.2956753585534857
127,-0.411788461898002,1.0,-2.597266242726541
128,-1.1571217932651625,1.0,8.05541121122279
129,0.39018240048005565,0.0,-7.58979908854975
130,0.48740203108553926,1.0,5.983197296810214
131,1.3337848875635765,1.0,1.1973616076989
132,-0.1936021547808494,0.0,1.1221012759312161
133,-2.829018921076335,0.0,-5.574949472491926
134,-0.9715891627578203,0.0,-5.475568689462696
135,1.0768924260073869,0.0,4.964495368866189
136,-0.29038363982646115,0.0,-0.4155518523117267
137,1.9083395483199332,1.0,0.4441444430425481
138,-0.3319777737997748,1.0,3.070117462491239
139,-1.2715687759679997,0.0,7.390146048257948
140,0.95489069573973,1.0,1.9296269296104436
141,0.7372996902624869,0.0,-2.144641572396268
142,0.0646060812345655,1.0,-1.4613951396303269
143,0.8087617027319197,0.0,0.02313830757738522
144,-1.3251596077305268,0.0,-6.199676718080166
145,-0.3026268134618738,0.0,-0.047364773873301624
146,-0.6575808679355459,0.0,-4.176466873103664
147,0.4086428096530702,0.0,2.0855991825766473
148,-1.240631582364584,0.0,3.954206566300436
149,1.0631415643924989,0.0,8.086317980833389
150,1.0373168987782613,0.0,0.16120122337994847
151,-0.06363613760595359,1.0,3.570892560832153
152,-0.6730068565249697,1.0,0.8905788590058514
153,2.298690264900969,0.0,9.989478350945276
154,-0.5948823177697273,1.0,-5.0749926735003825
155,-1.1854844298377627,1.0,-4.0828226014617
156,-0.5006433107694307,0.0,12.034435869174878
157,0.5455818541952929,0.0,-2.4189090663043933
158,0.9974744425038591,0.0,0.2009984296389009
159,-0.2142241703214857,1.0,-12.25596002608952
160,-0.7573266250309767,0.0,7.501265129771013
161,1.295312817603537,1.0,-1.0996858408047183
162,-0.39155742635441715,1.0,15.198611219590045
163,-1.7304711278535845,0.0,-3.7068400366099374
164,1.5946796843113475,1.0,1.214473510568677
165,-0.3138944586782188,0.0,-1.850513544619352
166,1.5091377353431408,0.0,-1.6710656268689368
167,-0.28466941265684664,0.0,0.8125722488190407
168,1.2011862446382024,0.0,7.966505645816988
169,-0.1252205954320684,1.0,-0.8120192027755281
170,0.69254880707399,0.0,2.373503137583241
171,0.8795594113798966,0.0,-5.282057346659977
172,1.2734110860708903,0.0,3.954276992450499
173,0.6941804317886643,1.0,4.533668023308476
174,-0.45990266987189404,1.0,-2.697219877194696
175,-1.43997503003867,1.0,0.9827702971311549
176,-0.3955296650622092,1.0,-7.578246107818666
177,3.755999019948987,0.0,11.058171516476
178,-0.7654899264712032,0.0,2.4494228800569484
179,-0.016919068328402835,1.0,3.4534693211372116
180,-0.3121374698929073,1.0,-0.5641130551724004
181,1.3052176601116323,1.0,11.65507620520339
182,-1.0915775318946916,0.0,-1.4062668342281286
183,0.743613780883283,0.0,1.44700783035831
184,0.07833397210894695,0.0,6.97769472980905
185,-0.8470706489586384,0.0,-2.270668345470896
186,0.48583385285269604,1.0,3.700233844661673
187,-0.2216226993663897,0.0,-1.831796762741311
188,-1.1845236806145656,1.0,-5.219508488451187
189,1.0746582121313597,0.0,6.485165016546263
190,0.4410384626426499,0.0,10.290858401107563
191,-0.5133905319970604,1.0,-2.460583236142879
192,1.0293852681624882,0.0,3.243863505797446
193,1.8258121085718904,1.0,10.716418737712365
194,1.397543101695186,1.0,4.810631641811065
195,0.5297457065981397,1.0,-1.3824878177646935
196,1.9026283444300387,0.0,7.773621435956317
197,0.7268070052962035,1.0,2.4561843978727387
198,-2.725648361315781,0.0,-3.7119317428813403
199,0.4201148423297201,0.0,-2.7594747309684093
200,1.024717515906632,1.0,2.4512387341057154
201,-2.2184252016611037,0.0,-5.142764132383606
202,-1.4006091204124078,1.0,-0.8102733096067074
203,-2.8286773999986994,1.0,-10.206069192279092
204,0.48353585583225195,0.0,5.027672350554503
205,-1.426083061503891,1.0,-7.540895513406678
206,0.13402912187781632,1.0,4.560291131158844
207,0.24493523766049943,1.0,5.279854615497768
208,-1.7992453115804479,0.0,5.376607039338046
209,0.39600413122136635,1.0,11.26650117778781
210,-0.44857925369328966,1.0,2.1238483024995176
211,2.369874417056315,0.0,6.498496698980886
212,0.4868482719829363,1.0,-8.723403480681892
213,-1.401677838376682,1.0,-3.2495813800170503
214,-0.973412759970103,1.0,-4.322336589150148
215,-0.33981135794333184,1.0,2.3694155432911805
216,-0.5677950227154724,0.0,-0.5259828586095529
217,1.0659938692827229,0.0,-0.7022494481060502
218,0.26167709305445325,1.0,0.6064538446301679
219,0.34272178227816785,0.0,5.686063067031998
220,0.8588479708446165,1.0,8.633261584380797
221,-1.4774223371770685,1.0,-2.9631065153787723
222,0.0038109847564008524,0.0,1.6802640640809903
223,-0.09016164758718201,0.0,-7.24647742661069
224,0.7761365085218851,0.0,-5.1973720908017675
225,0.48037100811779343,0.0,5.413582108793721
226,-1.3629767539950377,0.0,-4.030872368265495
227,1.7864524743085937,1.0,18.847171645390873
228,-0.3448249267603256,1.0,3.250000173510747
229,1.0683928924077828,0.0,8.007243418333108
230,-2.185931439544665,0.0,-5.044244978269248
231,0.014606717296168829,1.0,-7.227368788370175
232,1.0026977389733815,1.0,-4.0668701945916785
233,-0.5572765010311369,0.0,-7.03860528293994
234,-1.200912411186908,1.0,12.599207047088044
235,-1.516585997919043,0.0,-8.985169669583986
236,0.33598640212984926,1.0,6.992976703387509
237,-0.5520527421798281,0.0,0.32916284850558464
238,0.07376101013528485,1.0,-5.829209053633212
239,0.6333398295909506,1.0,-5.170752115020392
240,0.20316825707293124,0.0,-6.400813483259938
241,0.21556579885099256,0.0,-3.698746982757183
242,0.016304545095187483,1.0,-1.6465404699436723
243,1.449624158831598,0.0,6.941980585296836
244,0.3071310374162805,0.0,4.708185052752748
245,0.3810153745151498,1.0,2.040336953393018
246,0.18725516310274515,1.0,-0.6081284859351501
247,-1.7187839272675243,0.0,-1.8650006689253313
248,0.1245608907428882,0.0,3.2488931638450915
249,1.285476694498439,1.0,-4.042859157141338
250,1.553368964994204,1.0,12.443102205669888
251,0.2662183599466645,1.0,-4.680797462231331
252,-1.2432704578432658,0.0,-2.7104191267008204
253,0.37615296406033805,0.0,-5.234619727963963
254,-0.6912618336141947,0.0,-10.145705177169932
255,-0.1464474772779231,0.0,1.0277949859972395
256,-1.6411224574007608,1.0,5.32095043236565
257,1.9333658038836985,0.0,9.48825462556239
258,0.11088976457750635,1.0,-7.970740872869057
259,0.3516853102582796,0.0,1.2385690880456404
260,-0.008824147624657995,0.0,-2.8259158857048723
261,1.4532324489991475,0.0,2.3935636612461186
262,-1.0765730890802578,0.0,0.44859640348092444
263,-0.42407979647194344,0.0,-2.254780324041976
264,0.5704028646010959,1.0,1.7983700754756953
265,1.1681481978008657,0.0,11.37011401675035
266,0.7286725674450575,0.0,0.37243940811871457
267,1.1320166570118702,1.0,1.6282573670800091
268,0.6632164064564597,1.0,4.2636795112892445
269,0.34160177358506955,1.0,7.25457221044116
270,1.8790831799723406,0.0,7.347403272098113
271,-0.4369999204294221,0.0,0.5291153645842187
272,-0.9619104408213172,0.0,-2.8873202824977646
273,0.30566927877906597,0.0,-2.96830414902928
274,0.13936719687845173,0.0,3.015779551921577
275,-0.865964843678612,1.0,-6.576327528084304
276,-0.9320121545928353,1.0,0.23633648220737707
277,0.09377012255113733,0.0,-0.5327359189419939
278,0.24758032117271606,1.0,-9.839832271841686
279,-0.7102649794530935,0.0,-0.6504847468616699
280,1.609122349631613,0.0,9.906382409681399
281,0.3233491913743985,1.0,3.9921611051985852
282,-0.26614116133229176,1.0,0.9795140788894776
283,-0.6083067185077524,1.0,-2.114258464691241
284,0.6078621701720566,1.0,2.292129560415088
285,-0.17356733677167618,1.0,5.363075740669515
286,-0.5427473436590978,0.0,-0.19990101236855212
287,-1.0482231101870412,0.0,-8.12726470863346
288,-0.7317668686515407,0.0,-2.802176782980216
289,1.0175933210320736,1.0,6.936616719956948
290,-0.6701309448683737,1.0,-3.207656462902528
291,-2.596045048802111,0.0,0.4071504262750887
292,-0.640561667467993,1.0,-0.6538679506419043
293,0.15547148300005095,1.0,3.62935574262684
294,0.39210037066657916,1.0,-9.056386984696005
295,1.2316693226919524,0.0,3.58717463399963
296,-0.5205849663586595,1.0,-2.700154712130935
297,0.8743190620556017,0.0,8.196845655377235
298,-2.0028559324940978,0.0,0.035848414912617255
299,0.3156696083071162,1.0,-1.8483019783497725
300,-0.16618080962811274,1.0,-0.5943944991265541
301,-1.099447727810356,0.0,1.4236817011414868
302,0.4536376825927336,1.0,0.3489657434532576
303,0.30777827272255465,1.0,-0.5217259133974603
304,1.2420394051076924,0.0,-6.094604412896551
305,0.6428548902166478,0.0,8.94787352890661
306,-2.0750919906216914,1.0,5.368699550045847
307,0.5754310519802236,0.0,4.788651460855943
308,-0.0034872421403818366,1.0,13.976446500590361
309,-0.7329258129291759,0.0,-9.706674494484119
310,0.729789319392143,1.0,4.036859182770925
311,-1.676529212586058,1.0,-5.971945487323021
312,0.20049673020244793,1.0,-1.3441316843010622
313,0.08266750715779932,0.0,-1.863772125963167
314,0.01668972462246615,0.0,6.574986431308831
315,-0.08524812006250677,1.0,-2.0719244166040944
316,-1.823535140519272,1.0,-2.7177784239750205
317,-0.20856850555673603,1.0,2.2965357189180704
318,1.3770430459049916,1.0,4.4529426890210715
319,-0.5241306609585112,0.0,3.7194869873190592
320,0.9389730084636672,1.0,4.381905666856451
321,-1.8094554658081075,1.0,-17.320098870085154
322,0.33403164158896986,1.0,9.581907860842993
323,0.177610859481816,0.0,-6.269738384598793
324,0.2522957240895587,1.0,2.1918443826461473
325,-0.28491744380570405,1.0,2.3565905418684903
326,1.674121269900198,1.0,6.932006388634732
327,-0.3938683801029178,1.0,-4.57850047591136
328,0.5492268346137102,0.0,2.458480946553202
329,0.4809934994247784,0.0,6.233903624807738
330,0.330418715450131,0.0,-3.202265322127402
331,0.3745877065410834,1.0,2.6994286526603775
332,0.990127990485234,0.0,2.8328533654198447
333,-0.9096324359564849,0.0,1.2659460353573655
334,0.03239565105939096,1.0,-0.7991762672863527
335,0.8225110495017178,1.0,5.329973571162173
336,-0.43117878615679917,0.0,4.163911711229531
337,-0.5050111275542155,1.0,-9.603290275838189
338,1.6890008484922374,1.0,-7.342722800761489
339,1.021559340093146,1.0,-2.6458471962044423
340,2.3316011638976257,0.0,2.570490714276133
341,-1.7567987173608193,0.0,2.4102291765314945
342,0.39780297757353456,0.0,3.710906296459412
343,-0.7303614831015152,1.0,1.6532196882917602
344,0.5726634486879213,1.0,-0.15148049552583043
345,-0.17294625009477188,1.0,2.9239504889057253
346,0.5238452070650957,1.0,7.39525902619992
347,-0.8540505114699275,0.0,7.9768517099870415
348,0.07332732352235168,0.0,5.93090130055734
349,-1.2570090769615778,1.0,5.409323661260165
350,-0.5280263334368318,1.0,0.1757882875314109
351,-0.1297823585933918,1.0,-6.676101599123874
352,-0.06784879478168335,1.0,-0.37691315972384576
353,0.6546342169801975,0.0,-6.102825411468416
354,-0.8021942771177638,1.0,2.9258743516821197
355,-0.8624712537868809,0.0,-6.914144109533945
356,0.9804387212031458,1.0,9.16292828711531
357,0.5502445417653644,1.0,-0.15621986959775858
358,-0.2293247524132918,0.0,2.018816982278947
359,-2.2630517921922615,0.0,-4.141310454901997
360,-1.0106992775484396,0.0,-13.520524410274556
361,0.9940991225332565,1.0,6.2976693000585575
362,0.05556919764152525,0.0,5.847766614615404
363,-0.47494546136659216,0.0,5.35820870813004
364,-1.0269623620146235,0.0,-7.875604297461015
365,-0.9985991974372377,1.0,5.452943447647791
366,0.9998637291141164,0.0,-0.6879987827135778
367,0.11972457072237852,1.0,1.3986732161472781
368,-1.2029966910789949,0.0,-6.79498977918385
369,-0.2654680819900902,0.0,-6.825847808374713
370,-0.30542898765422827,1.0,0.04592295963927562
371,0.30130700976022173,0.0,-3.9744712659579333
372,-0.2629103244647776,1.0,5.405832917132535
373,-0.030118781806374093,1.0,-3.819100652675081
374,0.8037206049863576,0.0,-2.0475895915539537
375,0.8469911811486265,1.0,6.465060572463646
376,0.8714507550094615,0.0,1.5473620249874283
377,-0.8717105119574589,1.0,3.6822944110297144
378,0.15508973095349918,1.0,3.0976406907589844
379,0.3634441173865799,1.0,1.305939858804606
380,-0.7826929745564776,1.0,3.1298050987381814
381,-1.258005883326784,1.0,-9.729090078616164
382,0.5922396952184715,0.0,-1.4154227048846626
383,-0.6390350025521241,1.0,-0.6788439242417343
384,-1.5871588567696615,1.0,-2.6214025319775027
385,-1.7372304928878048,1.0,0.02849516691421705
386,-1.2262107028609983,1.0,-2.2280242679728826
387,-1.0337895104149402,0.0,-4.147581069401834
388,-1.2294708896727882,1.0,7.37551519574802
389,-0.8894718071850174,1.0,-6.1023200960984205
390,0.1020500037529301,1.0,-0.3457956637287414
391,-0.2333404315781609,1.0,4.024812248184782
392,0.9077868800895821,0.0,4.267064352465541
393,1.885095664158381,1.0,4.590770872234983
394,-1.2694370894171372,0.0,4.607644934011215
395,-0.7380152982531862,1.0,-8.621261220346469
396,-0.8622815996316971,0.0,-2.715298852032822
397,-0.1393110299507903,0.0,8.210651360614557
398,0.25501380724736733,1.0,7.173023665066154
399,-0.6885788936223022,1.0,1.1149299412824563
400,-1.7916780970178534,0.0,-2.144269591569076
401,0.18457154544602386,0.0,-0.19070581181764834
402,0.21944344997883491,1.0,0.7293575858536788
403,-1.220707469473284,1.0,-0.2588627525766265
404,-1.4170561480145727,0.0,6.522374362224593
405,1.5443851134040723,1.0,3.9441080438886695
406,-0.49601962619111123,1.0,0.8236971103877987
407,-1.0648000344794775,0.0,-7.6966096814967315
408,-0.7157635219519065,0.0,-1.5614248163469056
409,0.17346595148403834,0.0,-0.08500636529230601
410,1.1158348798335311,0.0,7.636411937716751
411,0.44315451798767097,0.0,-1.6342130950050748
412,-2.1810249804642603,1.0,-12.219544861474159
413,-0.49650554346336484,0.0,-6.824400784580497
414,-0.4439201099516693,1.0,11.752239507538203
415,0.563368012861837,0.0,-1.336433864458121
416,0.17119871313030263,0.0,-4.183865134926312
417,-0.13058606953036936,0.0,1.193828488080851
418,-0.09375228695510418,0.0,-9.802111796368653
419,0.070572967103335,1.0,5.204985874192331
420,0.6259601953756344,0.0,15.969151317253523
421,0.8281465851062567,1.0,10.768422668079607
422,-1.4619039810448609,1.0,-6.675224770997865
423,-1.5923015214000555,0.0,-13.272898053315924
424,1.4666610531223592,1.0,5.78977105484475
425,-0.9018727819547848,0.0,-8.259839077567682
426,0.9188024141046618,0.0,0.10736514569712274
427,-0.21926779315128597,1.0,7.764338997846361
428,-0.12015518358452505,0.0,2.211469093429944
429,-0.6749274493031887,1.0,0.10248754867398727
430,0.25620287877274617,0.0,0.48308857280548523
431,-0.4911886930456556,0.0,-1.2970694563325595
432,-0.6008752520938729,1.0,0.43987982545005233
433,-0.07200169809823331,0.0,-0.11339232230947971
434,-2.0441076856385876,1.0,-6.736174713630408
435,-0.3934959247986664,0.0,2.8131692394836723
436,0.41928309985831125,1.0,10.853161117061296
437,-0.6731386342629192,1.0,3.684994919710265
438,2.4070771434087357,1.0,-0.2342730470345682
439,-0.6202342420132627,0.0,15.247550501461948
440,-0.2661882018147846,1.0,-4.542494394932326
441,-0.7336434367424787,1.0,-4.105848690266471
442,0.042555963345830616,1.0,3.8948960037638565
443,-0.27294493952056664,1.0,-1.9258751416954456
444,-2.0332524325293444,0.0,-11.021443249114279
445,-1.1855401236963414,0.0,8.491712427744936
446,-1.1161157610631496,0.0,-4.499994684153725
447,1.488358568077119,1.0,8.813922957953286
448,1.5645797533862202,1.0,2.589859131375821
449,0.45338574768059703,1.0,1.8402334123695487
450,-1.7718743567229327,1.0,-3.9227814542695247
451,-0.011628799324924916,1.0,-0.8879493304255379
452,0.4784964207528924,1.0,9.364397556992177
453,1.4204775899849225,1.0,5.025407130422062
454,0.1610222205065233,0.0,11.240946518006638
455,2.263791250593594,0.0,-4.42229787849868
456,0.3331538962820358,0.0,-0.4427276223559029
457,0.29389564505158133,0.0,-2.159535389885971
458,0.19666007007366282,0.0,-9.089088534089731
459,-2.1120998358544134,0.0,-1.6772490737563022
460,-3.2754935760013115,0.0,-13.169237223417198
461,-1.1626312869952007,1.0,4.522001801403578
462,-0.29336345272024905,0.0,0.40324148980848784
463,0.23119572384037687,1.0,6.403350169232722
464,0.3102244785329358,0.0,8.963804069704388
465,0.2447064883976666,1.0,1.6571894722654703
466,0.7461469120856994,1.0,-0.8714879231879209
467,0.45703626124236113,1.0,0.013012759856169342
468,0.9869392960195095,0.0,5.077472297063281
469,1.75161932937662,1.0,7.949994893420452
470,-1.5048613965255053,1.0,11.212519231421805
471,0.18002609699362715,1.0,-1.6673884184929864
472,1.3876616617832895,0.0,-7.056540856938407
473,-1.5305184255852269,1.0,-7.6148706498180685
474,-0.607921190417361,0.0,-2.83642936952949
475,2.1413449601283645,1.0,0.6306656411985854
476,-0.6422194109092717,0.0,1.940745600697704
477,1.4370951629306428,1.0,8.75970906339667
478,1.5782373276451138,0.0,0.8178554524194639
479,1.0392161832535036,1.0,2.8754955661711503
480,-0.4012346628121294,1.0,11.764549885972224
481,1.1819130349974292,1.0,6.557672645033634
482,-0.7474100856551287,1.0,-0.7206668327463566
483,0.8004546108356295,0.0,8.47185435235416
484,1.0294804485426845,1.0,-6.235035263644747
485,-0.8259246867394032,0.0,-0.6780476560174524
486,0.8413517869050197,0.0,5.621529904615749
487,1.309431840722822,1.0,-3.9259000961802055
488,-0.3476662170284861,1.0,4.325554137652784
489,0.06041421322016701,0.0,-0.34232148960854225
490,0.8819583059741156,1.0,4.808766898987701
491,-2.0899351691913406,0.0,-7.9189760101171975
492,0.9326033785461951,0.0,6.573243822253507
493,-0.668461454567474,1.0,5.507959413954939
494,-0.3781721741803128,1.0,-4.904636317097478
495,-0.5252716831457097,0.0,-7.251788207534935
496,-1.111104158440203,1.0,-5.08399629240323
497,0.41815916919669666,1.0,-6.902881578775304
498,0.22333586229472252,1.0,11.767087201355782
499,0.2145353294301443,0.0,3.3867063278609932
500,0.04465364892688699,1.0,0.1457605357333347
501,0.4979844318462445,0.0,10.915587229102924
502,-0.1795827283011992,1.0,-7.295133633144691
503,1.4739669504774664,0.0,4.067174770174829
504,0.11033510519951996,1.0,5.405063192208786
505,-0.36611900369819633,0.0,2.8419066540814066
506,-0.36053500020382356,0.0,-4.322561677091365
507,0.7681220412766332,0.0,2.165848474667961
508,0.19976341827336308,0.0,2.1624168242648056
509,-0.36486136193949487,1.0,-3.471027150434219
510,-0.5431115097957884,0.0,-3.7948853739155792
511,0.6298802538484654,1.0,-6.1881236173270855
512,-0.14900101702604074,1.0,-0.15733149480068842
513,0.7368999309500159,1.0,9.920951344051426
514,-0.3022270985551529,0.0,-7.415893711172008
515,2.077147221486726,0.0,9.538947912503044
516,0.09894619505160988,1.0,-4.106651416866491
517,0.4441296273825118,1.0,1.2804360611324013
518,-0.8529498452858764,0.0,-2.531380833287573
519,-0.6446431702966003,0.0,-11.04149521629257
520,0.8529878130310768,0.0,6.334549657856535
521,-0.06693674141335514,1.0,12.375068860147266
522,0.8700573932514301,0.0,6.687319416440266
523,0.7821174457379635,0.0,1.3641616197727435
524,-0.4121987695147865,1.0,-2.3264051506169423
525,-0.1524270087687522,1.0,-0.10855873291662066
526,0.2950084900615131,0.0,-0.3160802164311548
527,-0.4629265861503885,0.0,-4.6772164066363
528,0.2146336693235632,0.0,-2.411781330147271
529,1.4510966579765336,1.0,0.9172528354042528
530,-0.8111626578460598,1.0,-5.712016114208243
531,-0.7687043990647928,1.0,4.71043600981946
532,-0.7327009101477586,0.0,-0.25078360251611576
533,-2.4894606824238648,0.0,-16.4766387034105
534,1.276149090842675,1.0,8.667935480020887
535,-0.3141775256815842,1.0,-5.448065132619934
536,-1.0406618178934453,0.0,-0.69828306681613
537,0.19980949099492779,0.0,-3.615344666302941
538,1.4927172744021338,0.0,3.782749917765238
539,0.7369388042302187,0.0,-3.3602457685279377
540,-0.3211632299634119,0.0,-6.421406048226455
541,0.20744000387967088,0.0,3.627020360102567
542,0.38319988788540277,1.0,1.8331796416650052
543,-0.5781282803431572,1.0,-9.591108745198584
544,-1.3445888015113119,1.0,0.44495657785479015
545,-1.0672892962580354,0.0,-1.05765390928637
546,-0.2446953766645436,1.0,3.266776403473832
547,0.5437080488937497,1.0,8.1482708463263
548,-1.489318572123683,0.0,4.303566906990904
549,-0.6300501713571851,1.0,4.377892802509862
550,0.585368574539103,1.0,4.810521465868167
551,-0.0490543452033027,1.0,-2.558047694042251
552,0.7609637431475877,1.0,-2.4705878416521005
553,1.816942114785542,1.0,3.6657602594345207
554,-0.11279079649744352,0.0,-0.11990602855674176
555,0.7414502394670808,1.0,8.098686110913782
556,0.19875509464431504,0.0,-0.969311072588348
557,1.150907701987928,1.0,12.849562541447204
558,1.0949014978638507,0.0,-0.1274337933520111
559,-0.3819196094847173,1.0,4.659159554968776
560,0.4618303546925979,0.0,-5.591705581801136
561,-0.7687568813076778,1.0,5.72674399463523
562,1.4219624956384318,1.0,8.668344989323277
563,0.14808440733298117,0.0,-0.17654611171225
564,-0.9614791540198977,1.0,-7.230236660041864
565,-0.6997782157832051,0.0,1.4135310807697676
566,0.12680482340001759,0.0,2.815875211408727
567,-0.18537583189822057,1.0,3.6941049298388284
568,0.5641287086222653,1.0,4.5742808125809455
569,-0.24867508900202917,1.0,-5.417565318201835
570,1.1815372043504562,0.0,0.8939149268760778
571,0.8535232304913695,1.0,2.184689802825144
572,0.617255059225244,0.0,3.5706301393121462
573,2.06659891246763,0.0,13.011457084808697
574,0.6817873846681983,1.0,4.709892269199486
575,-0.6339554187011904,1.0,10.514187252411991
576,0.07324341683239151,0.0,1.9076799549496717
577,-1.5282553860282586,1.0,-0.1356218198080934
578,0.0023447507511504097,0.0,3.709309278057722
579,-0.4057637384887992,0.0,-2.583439150996044
580,-0.6727989262310435,0.0,-2.5113780276184405
581,-1.3724910115851512,1.0,2.3187573275969804
582,-1.198089630679966,0.0,-8.131057183430574
583,0.805100528160178,1.0,-0.5396384834997998
584,0.8678195316326454,0.0,2.8024206074486444
585,0.523975964337504,1.0,0.5555187313655168
586,1.8673715220270515,1.0,7.195290080787594
587,0.46255341449905973,0.0,10.47941738425006
588,0.38496435414463226,1.0,-5.952535878656873
589,2.294352774166896,1.0,9.034353939531657
590,-0.022068645096522996,0.0,-4.010586436666238
591,-1.12121405301832,0.0,-8.552736524874494
592,0.0885574230070789,1.0,9.592796790392082
593,-1.3805884674560418,0.0,6.211587414776787
594,0.9134955768592429,0.0,-7.075530414855908
595,-0.5786183838220057,1.0,4.634567087030972
596,1.1851430372325975,1.0,6.311592011405348
597,-0.05137755332641228,1.0,4.279258449091813
598,-0.704718352647811,0.0,-4.568878149417093
599,2.0593836676664363,0.0,16.096202468323003
600,0.9255631196488557,0.0,-0.12491472740473064
601,-0.8324636678063866,1.0,8.257656051217333
602,-0.5639994736161713,1.0,-0.7999094802243851
603,-1.1424922051108115,1.0,-10.268251251975897
604,0.1957227971037412,1.0,0.9711030124262627
605,0.005731634778782235,0.0,3.0359346053118976
606,-0.1293011732186485,0.0,1.4080182181592291
607,-1.308561143706318,0.0,1.430874248697966
608,0.41073400669317967,0.0,12.290288076461458
609,0.49358360511273397,0.0,-6.486204798380168
610,0.6008553805522205,0.0,-1.555286720532271
611,-0.3894792007346243,1.0,0.5811508833889087
612,-1.156770572806914,1.0,-8.887997802623891
613,0.47724452194778305,1.0,-4.4202672199398645
614,0.7756634325743894,1.0,5.933535671948822
615,1.838555942475017,1.0,11.30638429598387
616,-1.1997000416290995,0.0,-7.114815511484396
617,-1.2252372214546818,1.0,-7.045143337523342
618,0.12420451891421806,1.0,-1.2885639017314758
619,0.2950370675810411,0.0,7.01088266843741
620,-0.6949757417254772,0.0,2.807993086531219
621,1.1937376167741538,0.0,0.45541138662322833
622,-0.5644992628452732,1.0,0.7884886137301481
623,1.799049270762126,0.0,12.039167623162928
624,0.6473578162149739,1.0,8.581009830061229
625,-0.4922880213074928,0.0,5.532477195402977
626,0.534088699737814,0.0,1.118548490780862
627,1.004401880251786,1.0,2.304821551794967
628,0.8808551782773534,0.0,4.74672167698133
629,0.9714587362965384,0.0,2.9984714973478868
630,-0.07200206171646817,0.0,3.7965784823550135
631,1.6727881944225886,0.0,3.5773919660976192
632,0.07441892998824615,0.0,-0.9309243640490421
633,0.8882687047140426,1.0,0.9241720354583771
634,-0.6884798411575314,1.0,2.8605890320551826
635,0.8114602850706231,0.0,1.870416360518097
636,-0.5506637431144721,1.0,-7.3845184440496965
637,-0.8092394468793939,0.0,1.2249622800833728
638,-0.435254856404466,1.0,2.035104617731002
639,-1.2840047553985041,1.0,0.2801708713029787
640,-0.13990778268260112,0.0,3.826614146156867
641,0.675814465926273,0.0,-1.3897687734451631
642,1.0980733941537046,0.0,9.867313617287978
643,-0.402315792029498,1.0,-1.7875836790579642
644,-0.17265483975959245,0.0,2.1343533350416144
645,1.0784001668660437,1.0,3.4893347842621054
646,-1.5671432139481443,0.0,-8.144272261362484
647,1.0458154423918007,0.0,1.1082863151612599
648,-0.028501453504516303,1.0,-3.15511398415953
649,1.5131843589069771,1.0,10.565093151818939
650,-0.5379847244961568,1.0,-3.5876135817218042
651,1.5114010260152078,1.0,21.27325335834822
652,1.0343326093155396,0.0,7.738625681812413
653,0.5090031736022702,0.0,-0.7115794199845555
654,0.09869739862654998,1.0,6.392988787450517
655,2.3346630170373825,1.0,7.3355036765386386
656,0.06077360109011155,1.0,2.3856283987788447
657,-0.3485848297906516,1.0,8.41591873337442
658,-1.7532070591414937,0.0,-12.847259019594626
659,-0.833331810686042,1.0,-1.3368231863516624
660,0.8055073263208187,0.0,13.56713280596486
661,-1.122783784668399,1.0,-4.690339075807624
662,0.09274348940105195,0.0,-11.532641532069183
663,-0.1502379036177075,0.0,2.259194503460236
664,-0.2845258156213974,0.0,3.84421871505068
665,-1.5700314485063362,0.0,-5.883864572530287
666,1.7097139411245674,1.0,8.683173119369881
667,-2.598913222155617,0.0,-12.053327936873824
668,-0.44598256817517734,1.0,11.791649773487471
669,-0.3620788562207554,0.0,-3.3880067525138275
670,-1.16664994241306,1.0,-4.188397839102982
671,-0.26430392678047754,0.0,2.1308471353118796
672,0.7586952436654856,1.0,8.603385460290395
673,-2.3134803564176147,1.0,5.41167767452348
674,0.9353080870062495,0.0,1.7093821334614638
675,-0.8093510015884771,1.0,-1.19516733088307
676,-0.9233409257591046,0.0,6.8335789985014825
677,-2.041525271710045,0.0,1.2405547252685922
678,0.662111235031609,0.0,3.162692704318245
679,-0.7848554975575073,0.0,-4.105920949775373
680,0.043313567134709775,0.0,1.8024754953324076
681,1.2990735095332817,1.0,5.588649950254129
682,0.08756646859036353,0.0,1.5141536319792375
683,0.03809074779427642,1.0,-0.7255738881227336
684,-1.61239763456447,1.0,-6.959228457993076
685,0.07129857859701433,1.0,-9.316751450549335
686,-2.6686833774491254,0.0,-16.999974585348866
687,0.7845288492909609,1.0,12.847792989514463
688,0.4052583794304323,1.0,7.331331324864336
689,1.1134567188479927,0.0,0.4319783229962675
690,1.9736643957493456,0.0,-0.1560282337876373
691,0.6472007993011563,0.0,7.497609618846935
692,-0.7170516948611526,0.0,-6.299555913828071
693,-0.6885373923030256,1.0,0.6117036886690139
694,1.0903748343105342,1.0,1.038887368222571
695,-0.28289304683301436,0.0,-0.008787809253505752
696,-0.8289395851437023,1.0,1.1008285948041054
697,-0.18489767628295195,0.0,-2.8625613022358007
698,-0.8335064380858472,0.0,0.6302943924529036
699,1.6016467946539357,1.0,-1.1965045651836732
700,-0.3973818405092297,0.0,2.0344119805951104
701,-0.12324737394670336,1.0,-6.673966523713865
702,-0.09646746132136834,0.0,-0.1568899435345441
703,-1.8072396837791036,0.0,-11.657673044348869
704,-0.607361123555149,1.0,-4.221185633726423
705,-0.9730314928657386,1.0,-6.349139006616543
706,1.4142815573131944,0.0,4.615836564266633
707,-0.7463785362988206,0.0,-1.5945529070088023
708,-0.8895656896482987,1.0,-0.20565870330716107
709,0.17263540462725505,1.0,-7.311794639152719
710,0.8139764465591305,0.0,3.1811348668406136
711,0.43598086507891937,1.0,1.8336572566209723
712,0.5331213749018342,1.0,5.657977305277132
713,0.8918408824362494,1.0,4.05846304078845
714,0.3191767901602577,1.0,0.6295124180337026
715,1.6160691158928822,1.0,-6.662090164784076
716,-0.8573793609933883,0.0,-6.351101993205171
717,1.5033343562936987,0.0,-5.86054561105585
718,-0.022077274874342943,1.0,-1.0995934053237553
719,-0.944784795619762,1.0,3.2527498705298257
720,-0.36430397960213057,1.0,-1.590050892103334
721,0.5368551881890126,0.0,1.950971008918092
722,-0.5856555745147957,1.0,-6.667278048220381
723,0.25196670892768686,1.0,2.3097425536020983
724,1.5173308041653002,1.0,-2.4399756980570277
725,2.6076454348174583,1.0,13.259459611487065
726,-0.9412953136769993,0.0,4.566871598574222
727,0.20065153050770632,0.0,1.3278472496379765
728,0.38453954823937164,1.0,5.864567651797844
729,1.4892601582771394,1.0,6.207737770115802
730,-0.7657613815917801,1.0,-2.428512759088248
731,-1.2570829003692319,1.0,-7.5018465010061295
732,0.6714011056728179,1.0,-3.0841362839694533
733,0.737824712764068,1.0,6.753987392017504
734,0.32927785543037047,1.0,-4.723628452262247
735,-1.4283646515059476,1.0,-2.173231974107167
736,1.0621513079568878,0.0,4.525091239420081
737,1.4666651283099927,1.0,7.415798143078357
738,-0.5570777286994235,0.0,7.245297410097637
739,0.16788553082460678,1.0,5.39845835494835
740,2.1398502173774503,1.0,-3.4072373406908465
741,0.31810372683735,1.0,5.180790671800308
742,-1.611487559235658,0.0,2.32557237707137
743,1.0226187540435019,1.0,3.763320929096221
744,0.4281160374838289,0.0,-4.120084007108007
745,0.9003747850701899,0.0,0.38815469796268687
746,0.8390974225337816,1.0,-5.619568801814443
747,1.0511611761328281,1.0,4.8806760830478355
748,-1.8840830156134147,0.0,-1.492696243467007
749,0.8113872230870205,0.0,-3.196495816973701
750,-0.47843202981710625,0.0,2.1516261945363526
751,-0.19375847304561172,1.0,4.8472512822586475
752,0.6145147603583858,0.0,-1.2874946401728353
753,0.24740572624835136,0.0,-0.03174248741285213
754,0.3300691013376758,0.0,4.1207503884899115
755,0.9217330937384218,0.0,7.7481218992497745
756,0.4645998504981306,1.0,10.842000556485505
757,-0.2149612293424762,0.0,8.030588596214043
758,-0.14530934087096264,0.0,0.3378328951797247
759,0.38170305454706255,1.0,2.291911895260365
760,-0.1929821337914502,0.0,3.2513084768498692
761,0.08575718415948595,0.0,2.9412649258325554
762,-0.09893960779736702,1.0,9.552174080485695
763,0.42849130612087916,0.0,5.522942308918813
764,0.3197215217465966,1.0,-7.539969742349975
765,0.8474102491548333,0.0,4.340513890054314
766,0.3549332556947295,0.0,5.001916004847519
767,0.5358782973552589,1.0,1.3045487273299292
768,-0.18536943871968592,0.0,-5.496743241809577
769,0.575545258771835,1.0,8.124495256826993
770,-0.6634402759669313,0.0,-2.428354494429227
771,-0.30119356714421114,0.0,-0.8461698725027157
772,0.39814064059858123,1.0,1.0725944558774603
773,-0.46583733787572246,1.0,-2.3399192730040363
774,-2.0788816740004465,0.0,-11.37502485179856
775,0.7549654037337268,0.0,2.322244400304225
776,-1.278410131822209,1.0,9.176787934695266
777,1.4823976326754973,0.0,10.255073202547408
778,1.8948807155003338,1.0,10.622245477624752
779,1.2486181943192185,0.0,5.080395960175281
780,0.766709367156819,0.0,1.3077741120587627
781,-0.3661272285238234,0.0,1.1086575138375814
782,1.0534687477345333,0.0,9.39725084959929
783,0.28546442246146225,0.0,3.0642146144137903
784,0.21902084437681588,1.0,2.8114030147132043
785,-1.6215012599490666,1.0,0.1025794764190926
786,0.20591492962547903,1.0,-0.02591240831889907
787,0.35739003783078865,1.0,4.0653653424867375
788,0.18206936085215786,0.0,-3.0590265404475243
789,0.9433691388203831,0.0,0.6405158087096194
790,1.1257142155411648,1.0,7.405832501278706
791,-0.9747366726939817,1.0,1.8424610743224932
792,1.0246086806598813,0.0,3.2082612671862765
793,0.6070153330277993,0.0,8.421135417107775
794,0.18388768773953934,1.0,-1.0530106918575166
795,-0.007850096863585825,1.0,3.532227353246409
796,2.327055177423817,1.0,14.981731299423446
797,-1.6969384676291044,0.0,-7.702802487276287
798,-0.9677235840727011,0.0,3.0316258790032578
799,2.09845161292353,0.0,8.46014747260107
800,-0.19545580751631775,0.0,-1.5340372690635733
801,-0.16359953475061714,1.0,0.3986439042228285
802,-0.4794510039079138,1.0,-3.0219478070727703
803,-0.33663157217192746,1.0,-4.15378154900455
804,-1.9241678497162544,1.0,3.178760391778754
805,-0.3611051174408326,1.0,-4.116522526467191
806,-1.099901077909921,1.0,0.8843335052596051
807,1.6199563237112389,1.0,5.8064573140631275
808,0.4627388884091188,1.0,10.39468687560261
809,0.44140295188430606,0.0,-14.849173312261215
810,1.5236934448790707,0.0,3.9337976475719705
811,-0.22135781054777645,1.0,1.38590148819029
812,-2.1541744893824535,0.0,-0.9902522322517795
813,0.29220360162339987,0.0,-1.4012739992784744
814,-0.12282613959915052,0.0,-3.351614748306659
815,0.09535283611080124,1.0,7.345117905156294
816,-0.09355986882699577,1.0,5.062294966612269
817,0.829285785985148,1.0,-3.9518752150756846
818,0.8753101439683316,0.0,-3.7481513174894188
819,-0.26305782128168476,1.0,7.566933719051441
820,0.2426442895867769,1.0,3.7186179885392447
821,-0.4178845749413661,1.0,6.362627505461922
822,0.027403628214832484,1.0,-3.9498634445425305
823,-1.2556300981201887,0.0,-9.356434167597486
824,0.9191200538278298,1.0,3.0278671669702604
825,1.4162870586078102,1.0,0.7620373274769667
826,0.8737503930915976,0.0,5.002062641033894
827,0.5562975582501289,0.0,6.141382000681318
828,0.9732727984303103,0.0,10.635708936089543
829,-0.8544587267348388,0.0,-2.9695716005753985
830,-1.0171185498109694,1.0,-14.622000101359466
831,0.18242706251900806,0.0,1.8362417571751106
832,0.9716646018027781,1.0,-1.2532464992072936
833,0.4939059776484025,1.0,1.339087635050221
834,-0.3660533969894825,1.0,-1.188794733900579
835,0.3615928622206622,0.0,1.0837676116209196
836,0.03796941428485404,0.0,-3.827140243576008
837,-2.358447079626735,1.0,-2.7693336369245447
838,0.24866211574270045,0.0,0.21981195922907282
839,0.5992944095351159,1.0,11.886152558924966
840,0.580657805202474,1.0,0.3474803883415212
841,-0.7375122534445326,1.0,-1.4621674373644271
842,0.09793470424092135,0.0,-5.045234167648014
843,-1.3950345102948112,0.0,1.2640206752400247
844,-2.917358715413913,0.0,-5.835026762700513
845,0.32528820963755867,1.0,12.053343062831663
846,1.0898049668674432,1.0,-6.551653665767179
847,-0.37341916486693105,0.0,-0.8506203164151519
848,2.408141304831703,0.0,7.916418118001453
849,0.007202284556182674,0.0,-3.7605872755696264
850,0.7050268892627731,1.0,0.44908238019721836
851,-0.7744890009193598,0.0,0.30978667319383657
852,0.6894838806627438,0.0,5.727996268544399
853,-0.19025949600611586,0.0,-2.6316406754851243
854,-0.44837606446707184,0.0,-11.247515789820778
855,1.0773543742924414,0.0,11.555758551110014
856,1.3179327623267252,1.0,7.207558412908484
857,2.381857150365554,0.0,13.542096169895963
858,0.2065685015230455,0.0,1.648503061862819
859,0.46462293311465164,0.0,-1.8038671068400376
860,0.721049086782016,1.0,0.09041328124091574
861,-0.42741405751302086,1.0,1.4283251669390729
862,-0.014030700775066048,0.0,1.8644043510025057
863,1.7092881993730586,0.0,2.427431123988724
864,-1.4993596926903683,0.0,1.992493726633029
865,-0.5201995978097811,1.0,-4.554689800552497
866,-0.24979835032106446,0.0,4.803745931245167
867,1.3710244587081908,1.0,9.081550370679857
868,-1.8098320742895693,0.0,-9.835980951515698
869,-0.12485493670100407,1.0,-6.530224490562862
870,-0.39358730519568946,0.0,4.568174958103528
871,-1.5393369164802988,1.0,8.0688255999131
872,-2.178200244630418,0.0,-7.003071766734598
873,-0.3743672071211869,0.0,-5.750650971500916
874,-0.8519423045633328,0.0,-0.45782030400346363
875,0.416509470932899,0.0,-3.869476709602242
876,0.5235047615813448,1.0,0.7157672303967209
877,0.788652017135212,1.0,7.8223380108433
878,1.2467210034050065,0.0,5.422229168525689
879,-0.6704274007899563,1.0,-6.5793677892153095
880,-1.362174227671066,0.0,2.035819190763422
881,0.04194734357562121,1.0,-10.486318919477789
882,0.22167329191559174,1.0,3.5615769385452882
883,-0.5380209144040939,1.0,1.5398902259486456
884,-0.700227061570145,1.0,-0.9127188934950574
885,-0.7393443125991451,1.0,-6.552750203280938
886,-0.7014631407010135,1.0,6.988522418576151
887,-1.261062280434993,1.0,-7.810804998110786
888,0.3557438642281658,1.0,3.193581811176651
889,-0.9380056012183484,0.0,-5.655547103345001
890,-0.1062994679467497,0.0,-3.2377109547013365
891,-1.3156335322684185,0.0,8.08780660874928
892,0.5270987791706881,1.0,1.3451765687502437
893,-0.00898800130510673,0.0,3.1586945593200157
894,-0.42491799429414606,0.0,2.6739044058533357
895,0.6021108194743802,0.0,10.61368682672735
896,-0.6499228506042204,1.0,-5.544660057104743
897,-0.10333049556099025,1.0,3.4210939931200044
898,0.35438557421671457,0.0,14.651311085542147
899,-0.6252158444150224,1.0,-4.812049894023035
900,0.4525839386385028,0.0,6.113564422222659
901,0.8443821158556498,1.0,5.090386928655047
902,-1.1433120338546792,1.0,9.958890982370814
903,0.12867268415739222,1.0,5.592880410470245
904,0.7892947236957181,1.0,2.7636062006800657
905,0.2817532212334074,0.0,-4.2678535599876115
906,2.928577071870592,1.0,7.606357258990794
907,-0.8309283370571348,0.0,-3.6100034499815967
908,0.6190547601855086,1.0,-9.253013760052841
909,-0.03210242857060476,0.0,7.100726410882656
910,1.945803154116459,1.0,16.73883534027898
911,0.7681172699460123,0.0,-4.785772578625638
912,-0.5010722403004904,1.0,-7.958814974382798
913,0.294002514365809,1.0,-2.258094038257018
914,-0.5782701202100395,1.0,0.11849169127532799
915,-1.5839499911714923,0.0,1.7716165903270578
916,0.8564875144480064,1.0,7.935457011932471
917,1.0268735680651964,1.0,2.215507232529005
918,-0.6250512419935621,1.0,-0.9577445743714749
919,-0.5435094725594457,1.0,0.06714718607098136
920,-1.532510936221843,0.0,1.1183160262580074
921,-0.8321161295603626,0.0,2.1407553814134985
922,0.7550457931665592,0.0,0.45823561029977267
923,-0.03462201239968205,1.0,1.4871607728072322
924,0.8209293796571686,1.0,8.532293699199194
925,1.3398438215481159,0.0,-1.4765589572384705
926,0.4552452681246379,0.0,-0.6378412199654742
927,0.024440395998287373,1.0,-3.117089159995403
928,0.7326045606789198,1.0,3.9099265479460206
929,0.6084020073997755,0.0,1.1362930723251852
930,-2.816631837059912,1.0,-3.682316530860978
931,-1.6796651065032082,1.0,0.9960607271611259
932,0.8222230443083933,0.0,4.860347628001345
933,1.8466029566768396,1.0,5.478498948486315
934,0.9215655748623283,1.0,8.999527940035728
935,-0.4860690252220896,0.0,-2.3354253328953316
936,-1.9867885613469012,1.0,-10.32256259172738
937,-0.5507500231026258,1.0,-0.1489578389799191
938,-0.5710165439146749,0.0,-0.6658316690026355
939,1.3353693887761793,1.0,3.3617880031283525
940,-1.631028878640894,0.0,-9.174284017325748
941,-0.17573937112091195,0.0,-3.3254824739269093
942,1.239038430740434,0.0,-3.793740618598757
943,-0.5541145703906815,1.0,8.749196831131437
944,0.22531106425124098,0.0,5.005219191346442
945,2.151599600095194,1.0,11.244607858705542
946,0.3375789356613482,1.0,4.081470608426905
947,-0.9531112100774082,1.0,3.3917940887271185
948,-0.9457019411957014,1.0,10.552446581291552
949,-1.286949248659549,0.0,-2.523202350624364
950,2.3672738917033036,0.0,3.8014302905995834
951,0.4371390128834174,1.0,-1.993998723149073
952,1.6612966274443226,0.0,7.00158347562496
953,-0.40438771170819576,0.0,-8.70463541294428
954,-0.41448440723137797,0.0,2.99272994207199
955,-1.0302399646728693,0.0,-3.621774203717002
956,0.8752228381393616,0.0,0.27762942128013113
957,0.3369108217208126,0.0,5.375175391472174
958,0.9933219790145081,0.0,-5.258667945133061
959,-0.15807371723678484,0.0,6.6741169839131675
960,-0.2792807901671732,0.0,-1.4851572985453108
961,1.3099366625650364,1.0,1.2602179380767777
962,-0.4251087082528257,0.0,-14.011886980220778
963,0.06361947609612457,1.0,-2.840878312920622
964,-0.7072269434852069,0.0,-5.124268798545828
965,-0.9359050848757227,1.0,1.0177428192177569
966,0.5387913603431969,1.0,-4.535093460101647
967,-0.7200007104403623,1.0,-1.537773029813429
968,-0.24783186447806824,1.0,11.280844445777493
969,0.9073686978021241,0.0,4.1059603781141565
970,-0.6788211607796979,0.0,-0.44516108086521733
971,-1.2836917600164321,0.0,-7.1984570007342485
972,-0.8065079526231581,1.0,0.9725839610281781
973,0.9122110428447445,0.0,5.224535477748748
974,0.34816286922181555,1.0,0.8040476517832384
975,0.8787140734893905,1.0,2.8052162672372445
976,-1.3226752431274396,1.0,-0.31600632462285283
977,0.39825736655294375,1.0,8.888085828227123
978,2.340754051105697,0.0,7.747823930071917
979,1.8296573901343236,1.0,0.19004262782112136
980,-0.08209781007332786,1.0,3.6295762819211435
981,1.2550956068991945,1.0,11.383544235141997
982,-0.009175396125234592,0.0,-9.087835092890568
983,-0.5198121081431054,1.0,-7.807474456631065
984,1.916622357179291,1.0,1.9854309865102548
985,0.767878642894787,1.0,-7.203985382462509
986,-0.09565382275218329,0.0,1.7994709406242924
987,-1.4769811339355854,1.0,-1.7618269703747376
988,0.8291576215029636,1.0,2.5315209712032365
989,-0.4842979808415261,0.0,1.1354830563431606
990,-0.47208822201149403,1.0,-7.001103157035541
991,-1.3517859980787612,0.0,-2.8821156678028563
992,0.6864972621212306,1.0,3.6274486884855244
993,-0.492567691959051,0.0,2.7899830358375235
994,-0.5016288546384255,0.0,-4.203949879440003
995,-1.700548396618753,0.0,-3.1536171902349235
996,0.785663586956749,0.0,4.434060083017762
997,1.2197070646258725,1.0,8.913666956327967
998,1.56520907217499,0.0,-0.6816964747597325
999,-1.286496268472127,1.0,1.8303630663467452
