,x,treatment,y
0,0.813106572864669,1.0,4.38190645276507
1,1.507519177835819,0.0,1.5444025634865515
2,0.8934759446629783,0.0,2.974614804602669
3,0.9184948562932151,0.0,1.0884053658985213
4,-1.538501185247768,0.0,-3.2835509697763237
5,0.03255730033596856,0.0,5.194095389385433
6,-0.21793490331230808,1.0,1.8814780432583347
7,0.7842948004486687,0.0,0.989147998101914
8,0.8230475242596754,1.0,1.0305354325800609
9,0.10875753474353787,0.0,0.8293631878655567
10,1.3490589330088036,1.0,8.588956761454405
11,-0.06671957464311176,1.0,1.7734194511284562
12,0.3221699401176229,0.0,3.0454492408172777
13,-0.7179739206314151,0.0,-1.8400445415603373
14,0.8579144068451392,0.0,0.3428703878899635
15,1.1717732705059332,0.0,3.347590304585819
16,-0.038663047957409546,1.0,3.2613871826046497
17,-1.8712764802859203,1.0,0.23601842659407524
18,-0.4144902978516043,0.0,-2.5347101741353337
19,-0.08461917548828904,0.0,-2.301618428435302
20,-0.19076469149723374,0.0,2.37512042102257
21,1.2549714276830295,1.0,3.132932617038382
22,1.805074334754208,1.0,4.817907383639138
23,0.388971566210603,1.0,2.194627890060065
24,-1.740916308742618,1.0,-5.338203772378286
25,-1.3198749769513967,1.0,-2.6427741442611046
26,0.7451169384181068,1.0,-0.654494154531081
27,0.8566790609177484,0.0,2.243800271181397
28,0.9485908870562875,1.0,4.067677734849028
29,-2.0659289350912724,1.0,-2.516596570981621
30,-0.19680719757533469,1.0,-1.5785624753897232
31,-0.7102861455428352,1.0,-1.8077153741820517
32,-0.7791536714006564,0.0,0.5589934979878443
33,-2.241546764079342,0.0,-4.669487524213472
34,-0.7198441762549138,1.0,-2.188542839381657
35,0.03231348559980508,0.0,-0.8395907089281647
36,-1.5149678243634503,1.0,-3.8988844498814954
37,0.6961352114286717,1.0,-0.3146299815442286
38,-0.2088886379232047,0.0,-4.944591321041495
39,0.45468082590310627,1.0,6.0673729601696955
40,0.624330921572881,1.0,5.515329023929953
41,-0.08951535498135897,0.0,2.9876102409747265
42,-0.7003446292238114,1.0,-6.085481735555709
43,-0.2637100297185989,0.0,1.2547360837578723
44,0.2684646745295932,1.0,1.6761456326755972
45,1.1991081933397858,1.0,1.6210822616484952
46,0.5189621314143644,1.0,0.5530347957121481
47,0.43497345462377535,1.0,2.0514485762904173
48,-1.0903104668077237,0.0,-0.02371093845590133
49,-1.2530970383162705,1.0,-0.4479825283991381
50,1.0215805219961058,0.0,1.3873292534172634
51,-1.3988565709677325,0.0,-4.501644774549005
52,-0.4414860418973549,0.0,-3.256498616940355
53,0.14123397622363756,0.0,3.2791485632619755
54,-0.922685399535115,0.0,-2.6620901272955377
55,0.7814303669944934,1.0,3.6308481930394247
56,0.7362273841888802,0.0,2.9264620647117447
57,-0.26682214287733674,1.0,2.44095067262543
58,-0.23690424643193256,1.0,-2.2902279369235687
59,-1.246763919443752,0.0,-2.9885010429264183
60,2.4422383936879055,0.0,8.889727796082607
61,-0.24285865199424464,0.0,-2.8536979344358335
62,-1.0472232224869629,1.0,2.5239896167577807
63,0.18909869516485214,0.0,1.8185279282829714
64,0.23774444163062328,0.0,3.5968206103664917
65,-1.684345018262325,0.0,-2.6191230604868534
66,0.01853169347503684,1.0,2.6572029374047688
67,-1.0233919195171586,0.0,0.9174801647191133
68,1.2405082236033986,1.0,-0.7814272691416644
69,0.38633649006722554,0.0,3.6968665814352257
70,2.6440065120987715,0.0,8.840736371770372
71,-0.7487504632107437,0.0,-2.011592584628798
72,-0.13592677369373599,1.0,3.1957997052282945
73,1.0229105870376192,1.0,0.1677333181020546
74,-0.6578212719751492,1.0,0.6656865787126696
75,-0.872608008168675,0.0,-1.905516008947766
76,-1.1038105382645034,0.0,-0.05053591237972027
77,-1.518484192044218,0.0,-5.439748273018209
78,-0.6240062358514354,0.0,-2.408515447738094
79,-0.48173455333876625,1.0,-2.91188216316877
80,0.2647148216332208,1.0,1.8585358902615732
81,-1.294772557674556,1.0,-2.8647589668924147
82,0.6819786793878724,1.0,0.1467051709631213
83,1.8042850135825108,1.0,1.2481931581153143
84,-0.8025369090384853,1.0,0.3868332716961478
85,0.6806923674408638,0.0,1.7013372751833111
86,2.7306554744032185,1.0,11.696077424579011
87,-0.8236094369971544,0.0,-6.521212875817771
88,-0.5461395114977442,1.0,1.4309648411141502
89,-0.309603837472835,0.0,-1.4458827109468804
90,0.7010587307187547,1.0,2.365599631397985
91,0.5275829935736821,1.0,3.4292904037966436
92,-1.1284343907153942,0.0,-1.5840570813528563
93,-0.8694673923556838,1.0,-2.907394853127874
94,-0.18037271362615984,0.0,-0.07932306392425477
95,0.06940231725823091,0.0,-1.3320787805876904
96,-1.2127991735392198,0.0,-2.821176830693861
97,-0.11634822810526464,0.0,1.4406215268413256
98,-0.2096167367261001,1.0,4.299401537377857
99,0.95741489653692,1.0,5.7028107468792255
100,0.08387377608011186,0.0,6.0037331646868175
101,1.5665930581946363,0.0,6.1353960563762815
102,-0.22764283558932943,0.0,-1.9538573882874708
103,-0.16961047135213483,0.0,0.6415617573541621
104,-0.2523036221875922,0.0,-0.043579413602956585
105,1.6903703747740246,1.0,5.775039432433476
106,0.9707939864539282,1.0,5.2000353444139025
107,-1.0905593358118357,1.0,-2.049402589558983
108,0.3283085169606136,0.0,1.7683068847304526
109,-1.3027172766470438,1.0,-5.6450758074563
110,-0.16490572393744596,1.0,1.1895185128593182
111,0.20946170661828445,0.0,1.4466014916114396
112,-1.1217947900342615,0.0,-5.255578140372075
113,0.2935388999409657,1.0,-0.2643820594027755
114,0.07635393241492025,0.0,1.5910690878865497
115,-0.8751869823950693,0.0,-3.439071239070126
116,0.023554535103439567,1.0,0.9570762605865011
117,-0.1772917272521013,0.0,0.6119091485913899
118,-1.0668541148351647,1.0,1.0871934930272644
119,-0.4976461134996031,1.0,0.42799213898464084
120,-0.5738877825915273,1.0,2.7734838335260985
121,-0.2098201003421522,0.0,-2.942618329133178
122,0.6249284241348755,1.0,3.432080326242806
123,0.3075275212043641,1.0,-1.4515605708281079
124,-0.5157137476077103,0.0,0.7754182321709884
125,-0.2513079752773733,0.0,-1.6248897494841112
126,-1.3097313227040783,0.0,-3.070516045262074
127,-1.2256428868233926,1.0,-5.119284900159039
128,1.1146489657823395,1.0,2.353134603702901
129,-0.30449308786347284,1.0,2.82546301064433
130,-0.09090020391705207,1.0,-3.7638721115356404
131,-2.252956110483068,1.0,-7.740376775617932
132,-2.586571451543058,0.0,-4.142969214455574
133,0.6916600279917966,1.0,-0.3271925356455827
134,0.06511412638459835,1.0,0.7911388243162167
135,0.4965349265463373,1.0,2.0070808774555635
136,0.5920194039871268,1.0,1.1279916947782347
137,0.5334197673574037,0.0,2.068126141723599
138,-0.7787552434376757,1.0,1.1675533118971924
139,1.345562043313273,1.0,5.520728810343642
140,-0.7661327925089987,0.0,-5.006997360770114
141,-1.8673549567909171,0.0,-5.747230359737489
142,0.08419693465853803,0.0,1.0931057931017567
143,-0.7671565666175156,1.0,-0.7083805232553934
144,0.7692574230240149,0.0,3.190467119726991
145,1.8492336727513536,0.0,5.614690545616603
146,0.6842629797337008,0.0,-2.577877543463726
147,-0.08141894444426916,1.0,1.5856640356640976
148,0.9405962047010381,1.0,4.5454762112068225
149,-0.2800589935223549,0.0,1.4914583917485411
150,-1.3428138158772545,0.0,-0.6523417267898375
151,0.7137904391061496,0.0,0.18314453452326318
152,0.14852654430114595,0.0,2.9125795904900205
153,1.3609209439553083,0.0,3.7120177784858672
154,-2.5135035288644785,1.0,-9.5927178005681
155,1.8945608512720107,1.0,8.028005121911301
156,-0.6790703762629967,0.0,-2.0543107447209
157,-0.6208276198738544,0.0,-1.1236182231822411
158,-0.9745266994527593,0.0,-0.5536758662849801
159,1.5349941339628084,1.0,6.282252491163069
160,-0.01750154958043469,1.0,0.30835012835232606
161,0.21708964877556725,1.0,-1.1594246300851134
162,-0.2895883485628078,1.0,-2.6700451139618386
163,-0.8106854761140353,0.0,-0.6706411233272392
164,-0.7540941038149912,1.0,1.5511983114389667
165,-0.8299203456488785,1.0,1.7141724744968956
166,0.03470783564700389,1.0,-0.33345980563944444
167,0.20920037477242376,1.0,-2.690490796539495
168,1.623786692059914,0.0,3.6422293402721415
169,1.3039654866274577,0.0,4.232125482418545
170,0.1568747051778208,1.0,-0.9718191972282115
171,-0.22749832847010737,1.0,-0.4391276881324595
172,-0.04158606468098514,0.0,-2.6772605000254237
173,-0.7081958152742208,1.0,-1.3231105790227389
174,-0.7893539748603436,0.0,-1.1822769261930839
175,0.21257170517902801,0.0,2.552669521557806
176,-0.012855915131753444,0.0,0.5901288019914123
177,0.23998420711463123,1.0,0.32918369948093984
178,2.443467928066403,1.0,3.113958371800775
179,0.23020931291440266,0.0,1.0823974944831019
180,0.8136920351332053,0.0,5.499010981730321
181,0.3931448765237682,1.0,1.926464272023292
182,-0.5278039414956753,1.0,-0.12388544219259112
183,0.21296681642913065,1.0,0.6315612452055072
184,-0.9964601089539645,0.0,-4.085111791241976
185,-0.7460032474300252,1.0,-1.135879996268652
186,-0.4664767915211718,1.0,-0.36775538211065983
187,-1.034382220019846,1.0,-0.5059025543650806
188,-1.403975776009816,1.0,-1.605630243906484
189,0.8781128125936426,1.0,3.7583962919592313
190,0.7486565269792506,0.0,2.5564695080201356
191,-0.2343658355969764,1.0,-2.562131756686914
192,-0.18820058944784254,0.0,1.9950639605263096
193,-1.0128879314569763,0.0,-0.1943987124674904
194,-0.13064088760208914,1.0,-0.18730459734377092
195,-0.5047826791764745,1.0,3.378491131141753
196,0.0019823131809594097,0.0,-1.7791811097949308
197,-1.5613525232493861,1.0,-0.6175134924275205
198,2.320130032224648,0.0,4.109062022891015
199,0.0638447686551034,1.0,2.893159937099049
200,-0.024438065794854795,1.0,-1.3595813452326078
201,0.06909568532047433,0.0,-1.164891776124317
202,-1.9559581003131967,1.0,-6.777508168655096
203,0.45923696144035014,1.0,0.554814132304396
204,-0.5794496348461727,1.0,-0.5604767259471044
205,-0.4143070007067664,1.0,2.7628999154934077
206,-0.6532327959367717,0.0,-2.1630071697161735
207,0.09672223168029666,0.0,-0.7297533903454347
208,-1.5397245943409905,0.0,-4.611700055680525
209,1.9372095711611161,0.0,4.750430075604841
210,-0.3382727729733783,1.0,0.5031058403968482
211,-0.2796208503675274,0.0,0.41711108630305094
212,-0.8189668661527972,1.0,-0.002036284657839449
213,1.2025042228016738,0.0,5.478965043133504
214,0.6308890560736797,0.0,0.30167990257863464
215,-0.265363511561742,0.0,-1.062807905021419
216,-0.9498128540162593,0.0,2.1043135795090597
217,-0.3612910311827619,0.0,-3.647474237189619
218,0.5489739356499372,0.0,3.0229264159968023
219,-0.8959718167608487,0.0,-2.708465075693759
220,-2.5772939572081035,1.0,-1.579983878663934
221,-0.2081268871066614,0.0,1.2791255396920858
222,1.6497709556909577,0.0,5.673493315109884
223,2.0422087771074775,0.0,6.94410832752855
224,-0.11109054567777864,0.0,-0.4120789040426587
225,0.6698255428532841,0.0,1.4468781933158446
226,-0.2606902299596411,1.0,2.6679877330703516
227,-0.12945957442214723,1.0,4.438107576663947
228,0.33507994793604645,0.0,0.0224132736982543
229,-0.9439657045285457,0.0,4.464061086057207
230,1.424987647661888,0.0,4.735323724432046
231,0.8593674082733311,0.0,-1.9256423704534802
232,0.4329860346642519,1.0,1.0057655196840836
233,-0.319983374651752,0.0,-0.7720945603689416
234,-0.8035767634713238,0.0,-5.573823008402854
235,-0.5543702075059747,0.0,-2.3645365291458504
236,0.3493699615719774,1.0,2.035462984588113
237,0.8097324590653794,1.0,3.588957200345458
238,0.11059165382267987,1.0,-4.333195657447229
239,-0.6513416021532052,0.0,0.29754833429859207
240,-2.673068560767893,1.0,-8.557562715752601
241,-0.4407999035930409,1.0,0.8817574549455168
242,-0.9517059614231247,1.0,-4.266910086694012
243,-1.042669562880183,0.0,-2.546610458040544
244,1.1383093162491793,0.0,2.351989274575156
245,-0.8788847525712807,0.0,-2.765020991851868
246,0.5735629512710536,0.0,2.163819321182358
247,-0.47204954765031326,1.0,-0.5593806512643427
248,0.22954716642257955,0.0,4.36813979971426
249,0.698045621632893,0.0,1.6670282833181078
250,1.1255928752469841,0.0,2.208674437684301
251,1.4671193454423803,1.0,6.212958418806985
252,0.9893286899136551,1.0,0.1358218967445728
253,-0.07303311699760984,1.0,2.24988653462073
254,1.2223478899904494,0.0,2.99661991407403
255,0.03752902342799572,1.0,0.6769173547643466
256,-2.3371868325679457,1.0,-9.278381570850163
257,-0.534933024033199,1.0,5.165631225935319
258,0.14379962877651042,1.0,3.129943853713601
259,-0.5361719090188882,1.0,-2.6674790417518364
260,-0.020106924442626035,0.0,0.7913681595024731
261,-2.141429342980281,1.0,-7.0481933537129775
262,-0.9523360988623562,1.0,-0.9588351622024218
263,-0.6377220284466502,0.0,-2.7888910965762994
264,-1.276438212462329,1.0,1.3765081731727622
265,-1.3342836138817828,0.0,-4.372023204365233
266,0.6410159109502261,0.0,2.690822070921329
267,0.22748408066298534,1.0,2.3544352010877274
268,-1.2634323875609534,1.0,0.5120886091157577
269,1.3176467633062527,0.0,4.529286456699826
270,-0.06554765005273405,0.0,1.3639818495988696
271,-1.5177389592435375,0.0,-3.500773377143743
272,1.61099771232313,1.0,4.967864071113263
273,-0.8105911827954447,1.0,-4.687865791721011
274,-0.047421016692806614,0.0,4.780259859915006
275,-1.1174940237913586,1.0,-2.257473351397813
276,0.6025218844855339,1.0,2.8088578065716687
277,0.26878976563374607,0.0,-1.838262434812262
278,0.408790219627662,0.0,-0.336268621557559
279,1.003926844951571,0.0,4.257254902060717
280,-0.6471730680537396,1.0,1.8052566998358133
281,-0.017433934564454495,1.0,1.123616147798037
282,0.575040841027766,1.0,5.037362827712683
283,-3.2795590813819477,1.0,-9.5218885418281
284,-0.2229778036157548,1.0,3.0293863167436568
285,-0.7053690623695025,0.0,0.6195838528543633
286,0.21682413679639906,0.0,2.2973367607481263
287,1.8474892373242104,1.0,5.669572411310531
288,-1.6897966485977922,0.0,-3.106139061616137
289,1.1368770595575046,0.0,4.081448375834625
290,-1.312471191635071,1.0,-2.0000506913858507
291,-0.24089264423282078,1.0,1.1327557829590247
292,-0.4433424720851029,1.0,0.18852050233445644
293,1.564520871840957,1.0,3.0780569386270438
294,-0.974769640485778,0.0,-2.915306931444959
295,-0.7461485885750558,0.0,-2.2175465596517454
296,-0.5096826618512109,0.0,-1.378570417496988
297,-0.4356487556201901,0.0,-1.3814676389355065
298,-1.0000296622797575,0.0,-4.013828584273993
299,0.7310961711221621,0.0,1.8107655486594174
300,-0.8918606684383655,0.0,-5.505640418038674
301,-0.24740891258979128,1.0,0.6547481210242108
302,0.6061014853468841,0.0,2.376320576782077
303,0.9035388617611881,0.0,5.212454897591476
304,-1.0116030555189595,1.0,-0.4028810603188293
305,0.8163841485650395,1.0,0.03406355009326223
306,-0.013061786557608356,0.0,-0.4184895727310769
307,0.5813161228143285,1.0,4.662092430377587
308,0.8283696826067305,1.0,4.032786994499114
309,-0.8131424364259736,0.0,-2.211539247187728
310,1.7882276045271743,0.0,5.801030298958217
311,1.5169313772920778,1.0,4.609461782448394
312,0.8542499155196467,1.0,5.862628407426984
313,1.3105076659106512,0.0,3.8219734087821715
314,1.6658501392733727,0.0,6.386160472852003
315,0.6643253264894997,1.0,7.499398401528255
316,-1.2952027190221087,1.0,-3.357808901772123
317,1.5044664802394427,0.0,2.675923606212886
318,0.5275371986026774,1.0,5.0469232836764055
319,0.05207127081660363,1.0,-0.6978335702298349
320,0.6774212658985043,1.0,-1.3461606740583951
321,0.519354209200112,1.0,6.257037254096382
322,0.7037806663371275,1.0,4.77756294105952
323,0.8872473454369023,0.0,0.0802463247119527
324,0.9327285209578976,1.0,7.273357074864567
325,-1.7402401821287241,1.0,-3.4485951649162905
326,0.33788105839906796,1.0,3.2438894507154585
327,-0.8657557487709376,1.0,-1.8252722185082058
328,-0.9979481426630715,1.0,1.476961051230823
329,-0.3235233831397897,1.0,0.48450757688335866
330,-0.04524887559042608,0.0,0.057326960699789264
331,0.12629918141498422,1.0,1.7157115909189906
332,3.1490024583483285,1.0,7.039449530591795
333,1.1730787724212155,0.0,-3.055090529778989
334,0.775024906074458,0.0,2.121990107167428
335,-0.22938186037240482,1.0,-0.9659019646878247
336,-0.6735598607985667,1.0,-3.7974580407498513
337,-1.0599516272233356,1.0,-0.4620145619623921
338,-0.8986132914582393,0.0,-3.4970617317944814
339,0.8201946730270279,0.0,3.2193181271507996
340,0.9092673822949886,1.0,5.8961493132294684
341,-0.9881217606328089,1.0,-1.315366435045625
342,-1.7565068260528032,1.0,-2.4590245697488107
343,1.4188768315650508,0.0,3.787776425999647
344,1.3143726564862017,0.0,3.745434244542598
345,1.2446806958820582,1.0,2.687081728927807
346,0.179967922214416,1.0,2.858699690631796
347,0.9423464412737803,0.0,2.814122938949459
348,-0.7410217825852417,1.0,4.11889392619463
349,-1.2106560904259163,1.0,-0.7895719721761215
350,0.25308179555426014,1.0,-0.16382968245877283
351,0.806175552333652,0.0,3.4088726921147985
352,-1.2873652577122492,0.0,-5.437008045265115
353,1.8013719479778263,0.0,5.513423388780241
354,-1.1469965468524765,1.0,0.14696102534126654
355,-0.26196938550725163,0.0,0.5919288746444976
356,-1.1906109695809441,0.0,-0.32560221564005953
357,1.4102704525020706,0.0,3.8745482755773373
358,1.2822757844873272,0.0,6.011969075416674
359,-1.2197199780111938,1.0,-2.1721589531988172
360,2.196648769950854,0.0,9.4603184207273
361,0.2604691835552675,0.0,5.081996064049193
362,-1.8030555707810825,1.0,-0.34200550585072476
363,-1.0514599258353126,1.0,2.1012393011369292
364,0.7987086573259843,0.0,-1.9979199264821537
365,-1.6480316332605838,1.0,-5.8049595940427805
366,-0.42085141101391554,0.0,-1.2129105770060864
367,1.0295145002035622,1.0,5.164657436002173
368,-0.4715887766275695,0.0,0.20443802759119573
369,1.206523131371318,0.0,5.7476926286532315
370,0.11770385980858245,0.0,1.0809484515737606
371,0.0893308082982649,1.0,1.0948027870868877
372,0.25097159011875064,1.0,-0.5432228234944931
373,-0.32143318910602875,0.0,-3.4093259702506797
374,0.19046254306104773,0.0,3.483461277100786
375,0.7203226197827487,0.0,0.6812892667127171
376,-3.1797199617924266,0.0,-4.800528348228054
377,0.8091140789649713,0.0,1.9021023942733999
378,-0.2828790963617663,0.0,0.25607166523188485
379,0.40675551324834497,0.0,-3.159915543709995
380,-1.338192676233572,0.0,-1.669481369614242
381,-0.5518720904277271,0.0,0.4669996493889157
382,0.26901261206607324,1.0,2.4288881351934877
383,0.23503961444866986,0.0,3.6662269686802906
384,1.4871401187156492,0.0,7.410854081560705
385,-0.6948436695869871,0.0,-0.15280106253176307
386,0.1857308420134551,0.0,1.0727768165673335
387,-0.16277896647907947,1.0,-5.162024139189686
388,0.8788766636104492,1.0,4.125951181404366
389,0.2000192407310352,0.0,-3.0281995683482132
390,-1.8077020415634868,1.0,-6.35901326068273
391,-0.3027310743414392,1.0,1.2608274724316715
392,0.010707632391373803,0.0,-4.145398019311691
393,0.484488631735539,0.0,4.422254803260097
394,-1.0761156337023907,1.0,-1.6527493080648477
395,1.226215213943229,0.0,0.1949860520144755
396,-1.800840078717506,1.0,-0.4073535871994789
397,0.3968906185389593,1.0,2.43508438138407
398,0.40558043371837327,1.0,4.560390066913764
399,-0.14156314315926083,1.0,2.3071273989324714
400,2.436061601483912,0.0,7.301667717909653
401,-0.9081993341413852,1.0,-0.8820465241463198
402,-0.8988526545693417,0.0,-2.4201377790854988
403,-1.4593723425394678,1.0,-2.6589613596724493
404,-0.6654133204968988,0.0,-2.9491363692687242
405,0.6174677815059044,1.0,4.57864978566118
406,-1.1461498054583867,0.0,-5.417131197142991
407,2.1557081465135077,1.0,6.643295300787267
408,1.8883190008307738,1.0,7.700290119663316
409,1.6662774063673407,1.0,4.531341986029385
410,-0.03833355667854058,0.0,0.09732901645472403
411,0.3434399621009916,0.0,0.7410546529252104
412,1.059587801693121,1.0,7.263582252577791
413,-2.211245546649561,1.0,-4.298367516940782
414,-0.955428546295901,1.0,-2.8217319441907645
415,0.1845139596942275,0.0,4.859851889426606
416,0.9204289970571631,0.0,3.776776478005532
417,0.4119203838728231,1.0,-0.0870648708143037
418,-0.809789820345207,1.0,-1.5292864528590888
419,-0.6603862463358043,0.0,-3.052751105989961
420,-1.2109448796753928,1.0,-0.79014605942672
421,-1.2053700967474639,0.0,-2.504795349378078
422,0.07783308364687147,1.0,1.2935336392532761
423,-0.7445364343354004,1.0,-4.008607058678738
424,-1.0041035069453341,0.0,1.4393140628422427
425,0.20612583701801876,1.0,2.4041035562834825
426,0.8027789373948019,0.0,1.0613949624967018
427,0.48510047429223985,1.0,-1.5914401896955161
428,-1.7222807861999436,0.0,-2.9906795349828723
429,-0.3211150351691458,1.0,-0.8953639280451412
430,0.9379877709846647,0.0,3.726399450279397
431,-0.9770263146865079,1.0,-4.630380519961136
432,1.2495475179909703,0.0,3.5644540651008714
433,0.05159395542154063,0.0,5.303659956513762
434,1.1054344116315595,1.0,3.627734307455607
435,0.7541330799487802,0.0,0.631086375890519
436,-1.0240333006208138,0.0,-0.19744315343937835
437,-1.5343023076842415,0.0,-2.928056670625572
438,-0.6151513932006646,1.0,-3.604572127024886
439,-0.9202117783676828,1.0,0.5474577556523772
440,0.32420297358396305,0.0,-4.166068967011245
441,0.7607813328193611,0.0,3.3040056429511027
442,-1.72994851741855,0.0,-5.664104095847769
443,-0.059071201171444106,0.0,2.0992944663646833
444,0.4848108389369186,0.0,-2.0484708756060366
445,-0.4703270439539141,0.0,0.27915031216766467
446,-1.4140861542247105,0.0,-2.6767915460928515
447,1.1373773538651089,1.0,0.8253977695463637
448,0.5912061996805984,0.0,-1.4193180297913837
449,0.4408035639574813,1.0,2.940111052773234
450,-0.08087007127813128,1.0,-2.665933824873001
451,-2.5166554752022603,0.0,-5.830905802618473
452,-0.004203428354262411,1.0,5.777814442416171
453,-0.7482665018639878,0.0,-4.0916627714875045
454,0.9824096675531,1.0,2.55503279980785
455,-0.3257804490582023,1.0,3.569503659042872
456,0.971796162074514,0.0,5.558809870946972
457,0.21566275802305893,1.0,3.203961670579692
458,-0.3509204960168417,0.0,2.601659917696078
459,-0.25454839604318596,1.0,1.0406010806240822
460,1.7429446378868554,0.0,3.9598076304859977
461,1.5679134082063357,0.0,-2.065276950058363
462,-1.0852118954725185,1.0,0.2948435895601518
463,-0.39708950518783565,1.0,-3.5639236282422475
464,0.7796858335293185,0.0,6.457454207480404
465,0.7430891811099003,0.0,1.601452206917616
466,0.14928975804754763,1.0,-0.2559303901252643
467,-2.159658654886481,1.0,-4.089136285774078
468,-0.36620250476995586,1.0,-1.164585840747797
469,1.0219425542703267,0.0,-1.033034218332387
470,-1.319730607744903,0.0,-5.365012737287724
471,-1.2690378730880578,1.0,-1.7249991861443292
472,0.11272279358534952,1.0,2.7539391952945214
473,-1.8866951840577684,0.0,-4.830346748524363
474,1.319726736276735,0.0,3.2947282192146092
475,-0.4241475746075047,1.0,-0.19635023972114984
476,-0.68365437812526,0.0,-1.9190611768207506
477,-0.5270906966301744,1.0,-2.4168359568898863
478,-0.519950777395857,1.0,0.3608661792990435
479,-0.32710373687069216,1.0,3.0945530320765653
480,-1.5511330306124247,0.0,-6.166498772936512
481,-0.7298955652855157,1.0,-2.621803409928765
482,1.5150283098693453,0.0,3.266604063137539
483,1.1216203735937045,0.0,1.0441910340463
484,-1.0646820175942016,0.0,-2.3539423285788046
485,0.19644159529661012,1.0,0.6368071701775104
486,0.509864798187546,1.0,4.470480429994373
487,-0.3990889560262279,0.0,-0.8626086416208378
488,0.3976598219981614,1.0,3.9528568768748578
489,-0.3947655719420213,1.0,-2.376518424587879
490,1.6813840314145716,0.0,4.691605161488052
491,0.9157850653673791,1.0,3.377876428043608
492,0.8675070400729973,0.0,-1.1666382048852157
493,0.19373232230821633,1.0,2.135073964450978
494,0.4371341769223442,0.0,0.8230994080225372
495,-0.7005147074633307,0.0,3.487216007089249
496,-1.3560838602368712,1.0,0.6126336567575432
497,-0.35326372833545816,1.0,-1.0340603576879306
498,1.7832357594928354,0.0,3.801292167719252
499,1.0956072345243393,1.0,4.7563826965372815
500,-2.0426015312180827,1.0,-4.8148140719579615
501,-0.8739276619519538,0.0,-0.8758657846022102
502,0.7659325089564577,0.0,-2.00110628929251
503,-0.38832578760667474,0.0,-2.3764340836196363
504,0.940902405667102,0.0,6.222058858261104
505,0.8439167855729326,1.0,4.838110514660705
506,0.01318478272469468,1.0,0.22540628989828038
507,-0.5965811025170931,0.0,2.3685705285732794
508,1.3806802707384263,0.0,0.3199030610245912
509,0.516322278347843,0.0,0.8797152653237676
510,-1.020023668910617,0.0,-3.6591813872847885
511,1.2559987615003454,1.0,5.149508924699652
512,-1.0927948593984367,1.0,-3.093769012322432
513,0.19923986139917946,0.0,1.3773969821441543
514,-0.37147945410291655,1.0,-0.15034325647478541
515,0.5743519997960039,1.0,3.005893192229888
516,-0.6376540622238943,0.0,0.447326147889596
517,2.0323715957947326,0.0,3.354616450271581
518,0.6204572450925004,0.0,2.1043496499285057
519,0.31938640420382397,1.0,0.02511875790301854
520,0.3853954899441024,0.0,0.25874946117266306
521,-1.3089173496975222,0.0,-4.556260775071116
522,-0.23450894850381043,0.0,-4.50241356793071
523,0.16042555562170557,1.0,-1.808768934281914
524,1.616231631628035,1.0,7.608127252485401
525,0.9259733579170434,0.0,-2.420650081279728
526,-0.8004297247053194,1.0,-1.2739805325755484
527,-0.4861744828058832,0.0,-1.6939804220290187
528,-0.8382654321858518,0.0,1.9910689474139387
529,0.988919346220068,1.0,2.88012505002634
530,-1.5863072213510034,0.0,-7.8608586444726924
531,0.4167105331336614,1.0,2.061570583865034
532,0.973756008329122,1.0,0.1691081724543677
533,-0.0518143325259956,0.0,-2.637748447198788
534,-0.8673794939184017,1.0,0.4340382278176719
535,0.9137482925546089,0.0,-0.20531949908522606
536,0.3356988125042761,0.0,1.756912789746263
537,-1.8991450270954877,0.0,-2.324334058667632
538,1.8691847694539843,1.0,8.296849985956948
539,1.9878591775300518,0.0,1.6544940552375316
540,-0.2644730446800379,0.0,-0.8265777394743024
541,1.0825190724401113,1.0,2.331126707857085
542,1.9302574102220824,0.0,5.496643684388941
543,0.9076891311066646,1.0,2.9665226819309654
544,0.36861086331943665,0.0,-0.5594875720634067
545,0.619164698787089,1.0,1.2787290446209885
546,0.12392516818895459,0.0,3.139787006727419
547,0.8286326552576391,0.0,3.57096945173165
548,-0.42708674919134165,0.0,-0.436540120074143
549,1.6167827767833334,0.0,4.1679070905428
550,-0.5284495673831147,0.0,0.18163770359485457
551,-0.27106741329053347,1.0,0.21419022960997136
552,-0.8274653348360378,0.0,-0.6575581333821454
553,-0.42008853482445657,1.0,-0.4670061742082008
554,0.8284057862418002,0.0,1.214948008330893
555,0.8548432311065286,1.0,0.28631770325147365
556,-0.1251273754362542,1.0,-0.012677537197680389
557,-2.3257401399524844,1.0,-0.928176521537849
558,1.1905004952264577,0.0,3.7665410320829196
559,-0.3780543060750951,1.0,-0.9793032624051414
560,0.7515365456369951,0.0,3.4617805412686815
561,-1.1106812785652247,1.0,2.1607475665534825
562,2.2626992370353207,0.0,4.314611125007486
563,-1.2840289544710666,1.0,-2.6806536506109917
564,0.02320245895747691,1.0,-3.316765894341399
565,1.3736627180292214,1.0,4.812448853427651
566,1.1688667731664284,0.0,4.92064157104919
567,0.5306117966692901,0.0,0.11342160750463859
568,0.19600122674398987,0.0,1.887303784884816
569,-0.3365176635712332,0.0,-1.4817368198824932
570,-0.49362300303262446,1.0,1.6182699719025675
571,0.16077721169686637,1.0,6.2238985669777005
572,-1.1702422425700334,0.0,-3.598325612205246
573,-0.506942569031384,1.0,-1.468390358912184
574,-1.2089409617225149,0.0,-4.0088017886039875
575,1.17480804859107,0.0,4.38673729523414
576,0.8186640296093962,0.0,2.506445432459444
577,0.41114604766289653,1.0,2.5048847862940375
578,0.1840963248228067,1.0,5.258018399137939
579,1.0952585091087248,1.0,2.46367441637278
580,0.8600484568853985,1.0,3.589658868296327
581,0.9758220928744198,0.0,3.313962026865106
582,0.8242081918505162,0.0,5.24263459009296
583,-0.46494519385486677,1.0,1.192692442935801
584,1.0166226590075638,0.0,6.373734467911325
585,-0.42300389857159926,1.0,-3.6257693225094
586,-0.8280937106897014,1.0,-3.876743523683163
587,-0.2909034343934353,1.0,-0.2978703743438728
588,-0.9891591587504002,0.0,-3.262021866187199
589,0.36090028469542823,0.0,2.17813361595525
590,0.6315371895845434,0.0,1.8705015262026279
591,0.05657155891086767,0.0,3.83429705759575
592,-0.5475453942249308,0.0,0.6668416218097442
593,-1.2679075778694493,0.0,-3.0028304989525023
594,1.3594487286172139,0.0,4.0939088527158765
595,0.19663275831470212,1.0,-0.6655919063564211
596,-0.0809629671904301,0.0,-3.8428760529798183
597,1.5170204837137415,1.0,3.6929449154362564
598,-0.050847324615160734,1.0,2.138779117343996
599,0.7546314208820611,1.0,1.741970657119925
600,-1.4609743737953769,1.0,-3.2715873242994036
601,0.15662731819971132,0.0,3.70379062685006
602,0.7065357807165659,0.0,-2.1077487377483735
603,0.19518170166124513,0.0,2.1248902693151077
604,-1.9743996213357409,1.0,-1.0871334122831753
605,0.23968998464246513,1.0,-3.6650053683014723
606,-0.07809888679550825,0.0,-2.9940495989334845
607,1.5301561909612287,1.0,7.806531339287611
608,-0.6046565619917341,0.0,-2.3531246519877174
609,0.3150545149873069,1.0,-1.3084144376316749
610,-0.6028622527235474,1.0,1.2847846749665224
611,0.8427075996311707,0.0,-0.5487274316424453
612,1.5724389098939016,0.0,3.166211288950529
613,-0.36018101210596365,1.0,-1.9709561959991546
614,-0.13645290442264194,0.0,1.6492470943877313
615,1.086383545982249,1.0,1.1639675393237519
616,1.5728019839580534,0.0,9.836897792155941
617,0.5885018098614876,0.0,2.3994818432739344
618,1.244138296619377,0.0,6.602445889084608
619,-0.6445665986471996,1.0,-1.0159322943901847
620,1.6539340719365754,1.0,5.422362203534992
621,-2.881608051367454,1.0,-3.617757490495619
622,-0.6150296830515734,0.0,0.3809050457331975
623,-0.9435582012672501,1.0,-1.500724261028843
624,0.4923198668221931,0.0,1.386671463420867
625,-2.035443505681846,1.0,-7.149040600693397
626,-1.3595933813565635,0.0,-0.9373445371160901
627,-1.1929046653385635,0.0,1.0032407362700508
628,0.009822104463210121,1.0,1.0232722321659047
629,-1.6054276700419243,1.0,-4.9155524363296585
630,0.7049665135456941,1.0,2.5120366292538865
631,1.6978005475323448,0.0,5.12961467539742
632,0.7918502210448091,0.0,0.922895723222237
633,0.4084004818146952,1.0,0.4035958419824718
634,-0.4495802367893662,1.0,0.6519487207072343
635,-0.13060285579891173,1.0,1.2746384549863368
636,0.5847196819922856,0.0,4.883599930229025
637,-0.735421549034143,0.0,-3.4187421850590125
638,0.4877230372882611,1.0,3.8798551181906324
639,-0.992660403220035,1.0,-0.5346236982541408
640,-0.6696802639000361,0.0,1.6010521261212365
641,0.7188645582010681,1.0,3.5503632450814053
642,0.24399806407686778,0.0,1.653153120382619
643,-2.8896724037516246,1.0,-3.754060171160446
644,1.0413458797558972,0.0,1.2741061400775386
645,-0.31294098268158066,0.0,0.7559171639803774
646,-0.5138807524986249,0.0,-0.45580668279372905
647,-0.0713603022052533,1.0,3.0283691554748495
648,-0.5706494914371198,0.0,0.062237353651601435
649,-0.2980911468280739,0.0,-1.6421302737502264
650,0.3610461471023647,1.0,1.001375772446614
651,0.14699293425199472,0.0,0.7876504392690065
652,-1.3910762290451304,1.0,-0.169225626681894
653,0.25061058470268505,1.0,2.0894765225808682
654,0.10288893592095472,0.0,3.275388318834618
655,-0.7242067434230508,1.0,-0.8046708175541513
656,-0.39875141485760207,0.0,-2.2770158521733626
657,-0.2554400360938597,1.0,-0.48658960377454374
658,0.9578376168449025,0.0,1.2262187393644397
659,1.1775931170000014,1.0,4.683680513674106
660,0.7572456720684032,0.0,2.6768902843907894
661,-2.377730322430691,1.0,-3.2456154722358557
662,-0.4413708177786367,1.0,3.653399884322137
663,-1.423960516962174,0.0,-3.5361481952577396
664,-0.05241196562834724,0.0,-2.603023364903193
665,1.8844388281291164,1.0,3.9976988780690053
666,0.7287748301950115,0.0,0.29448507412377634
667,0.8498062729875346,1.0,2.1539946137531243
668,-0.36737192829994403,0.0,-2.4540881609310117
669,-0.31608755728752785,1.0,-0.05029126336792866
670,-0.8743057789807199,0.0,-0.7666644005118362
671,0.4040764508763778,1.0,-3.5959500743640467
672,-0.9431269597195476,0.0,-2.4213730846221364
673,0.4974644631889924,0.0,0.23729917606905793
674,-0.924520312719779,1.0,-1.6961750141815548
675,-1.4128678915287742,0.0,-4.084790918689567
676,-0.8028334857819142,1.0,0.6228259636118287
677,-0.6611757443145235,1.0,0.6690844702799332
678,0.08305897171290028,0.0,-0.5756410829497906
679,-0.024585449671982364,0.0,-1.1365976089184608
680,0.47607090043839584,1.0,2.7388092938414057
681,-0.4066023798916971,1.0,2.1997758990167657
682,-0.35517130262101915,0.0,-7.538009226262038
683,-0.09361782314175726,0.0,-0.1795272270527658
684,1.4566845687826582,1.0,8.607769922873405
685,-0.9433094603495509,1.0,0.8143996134520728
686,1.1299405371025295,1.0,2.5545410131665376
687,0.7620465830966215,1.0,2.25621524600095
688,-1.8041417555767623,0.0,-3.9450278934370893
689,-1.3067470729652586,1.0,-1.6187645530884616
690,0.5790558928090305,0.0,3.347399575854099
691,1.7199380810356868,0.0,5.6790508174172105
692,-0.4785771787574923,0.0,2.7314452295192746
693,-1.033409548464537,0.0,-2.5048679273343195
694,1.6761421071698674,0.0,3.3632937707895296
695,-0.3106757264712912,0.0,1.9926098865179045
696,-2.31700718590174,1.0,-3.4209309544062574
697,-1.2366042597762372,0.0,-1.6786780817108866
698,0.8148525310211991,1.0,4.817312386032503
699,0.7777037572392566,0.0,4.83604988606561
700,-0.2292958861106392,0.0,-3.6613562751530635
701,1.3220763860529638,1.0,7.203977700419238
702,-0.3120297271364336,0.0,-0.13590451314095808
703,0.3186586266014265,1.0,1.2502637453326226
704,0.2971430107752416,1.0,2.219902963822008
705,-0.255349427388138,0.0,2.2039173693315166
706,-0.49461901571830075,1.0,-2.267627714636391
707,2.317193860227882,0.0,6.591615919705666
708,0.37059141719826677,1.0,-0.36347230499759875
709,0.12288165916628335,0.0,-2.6795914265551497
710,-0.1831053202085964,1.0,-2.072530725175575
711,-0.6835454824030388,0.0,1.9786289404162922
712,-0.47235531643660317,0.0,-2.8717113955569733
713,-1.468940913805418,1.0,-0.6748761898487312
714,-0.983353757365612,0.0,-2.5504108260947396
715,0.12024423502781051,1.0,0.04528916354434953
716,0.7523555438530337,0.0,7.085853358488114
717,0.33293686685480334,1.0,0.10737129240209464
718,-1.0990565465629054,1.0,-2.0155348696689868
719,0.9883120875681878,1.0,2.7297613012762443
720,-0.15363213588608626,0.0,0.11044458926923195
721,0.41007497822237443,1.0,2.879706034000888
722,0.21888302887881408,1.0,1.4419086694917305
723,-1.1139324380646949,0.0,0.8950924719732756
724,0.27721652209890735,0.0,1.209066687344463
725,-0.687630548775202,1.0,-1.9654703467209207
726,-0.404553768324192,0.0,1.2943370855543161
727,-0.6748650068277645,1.0,1.3338115522205938
728,0.7666650455927847,0.0,0.5342728681072
729,1.4140921088289793,1.0,4.530090925759405
730,0.37676376321634786,0.0,1.4630819473102035
731,-0.35547664710364824,1.0,4.608369838594468
732,-0.5897307407273679,1.0,-0.09131808376998779
733,0.7863150255452808,1.0,7.078820471863959
734,0.2999627082273302,1.0,1.7065710119820265
735,0.8590894381336257,0.0,3.215149362742163
736,-1.590142319675161,0.0,-4.97552007663727
737,-0.8583706238114716,0.0,-1.1784103030255864
738,1.3674459404070523,0.0,5.472882285845204
739,0.8332916574013676,1.0,3.351120637011353
740,0.3519056904438302,0.0,-4.235498230579048
741,-1.6544092870458387,1.0,-3.089256640597492
742,-0.1618327385799232,1.0,-0.44706848344951045
743,0.9234786931727478,0.0,3.776250332075017
744,-0.13097945797087432,1.0,2.6487851064270975
745,-0.1626830871180051,1.0,-1.8286980509082842
746,0.8255298847308844,1.0,2.652805285887732
747,0.9492956306209349,1.0,2.428264508471165
748,-1.5062952708747013,1.0,-3.7844396825032276
749,-1.0798700230743028,1.0,-4.879841726171308
750,-0.5692980441100389,1.0,-0.09071870227596002
751,-1.6686496771794053,0.0,-0.1221859262570888
752,0.29155721902071274,0.0,0.4434466947952873
753,0.27344252605476804,1.0,0.2652156631745036
754,-0.48842213383796346,1.0,1.6120626494873997
755,-0.36397301860271314,0.0,2.746041344281611
756,0.5215302168426945,0.0,-0.7191778539135028
757,0.22853329610508968,1.0,0.8280830816622442
758,-0.5813853895485396,0.0,-3.0855648393777937
759,1.762563811042819,1.0,3.7227346142443216
760,-0.5227700408273436,0.0,-2.2548119473798445
761,1.1203006242521953,0.0,1.1898979956584248
762,-0.5854189071657074,1.0,-5.948203633207816
763,0.054871898220659535,1.0,-3.927523861805538
764,-1.0993543437528184,1.0,-5.104409965143256
765,-0.31389979055492595,1.0,2.425743849472011
766,-1.123430857253733,0.0,-2.4206010868131975
767,0.7448744364099347,1.0,6.480396077297797
768,0.6451264145341883,0.0,3.7419731943125463
769,-1.1212295928323721,1.0,-5.815010173884753
770,-0.4426011193780435,1.0,-1.8115134227804135
771,-2.027911562259477,0.0,-4.510609644685843
772,1.5669187531262563,0.0,2.6807799530196204
773,0.6869706274836062,0.0,3.881525081245832
774,-0.8128074650408648,1.0,-3.423454211171551
775,0.47721906987810864,0.0,2.066313458199648
776,-0.7656161126081842,1.0,-1.1767111252565319
777,-1.7100423049681985,0.0,-0.8241232456114811
778,0.630569827259762,1.0,1.1690453767489246
779,-1.4712166143566858,0.0,-2.989228321315176
780,0.0922610470126011,0.0,1.2937656340974482
781,-1.1883077050115232,0.0,-1.9968769478086297
782,0.09879471551581823,0.0,-1.8351404992491376
783,0.3061641471575848,1.0,1.9441348572710053
784,-0.5792731527446099,1.0,0.9926680122190299
785,0.8665027010671335,1.0,3.8480676615867626
786,2.0143607423921814,1.0,7.87212962067343
787,0.44899868446303,1.0,0.33680296434850643
788,0.40804258616917477,0.0,0.11779547313651462
789,-0.5004156953812461,1.0,-2.5774653309151563
790,-1.772792608092853,1.0,-0.632494607759142
791,0.8024193253201009,0.0,0.27369203974707607
792,0.476288285651576,1.0,3.2558601750935967
793,0.03163171852290268,1.0,-0.593859957148797
794,0.9332245086398495,0.0,5.502518426492412
795,-0.6625706995355483,0.0,0.026339392237470505
796,-0.041984948479718516,1.0,-0.07314954582220246
797,0.6481143467545843,0.0,4.149856884312415
798,-0.17486253487543807,1.0,-0.5006550781343921
799,0.7673256423963211,1.0,1.7300372744660093
800,1.513883005178665,1.0,8.169101123883213
801,-0.11130707969041173,1.0,1.552799320610057
802,0.20319021112496086,0.0,1.3845536963761251
803,0.09537905217322623,1.0,0.1224402241800544
804,-0.28352035365435063,0.0,1.0088901398896593
805,-1.4038921298620228,0.0,-0.7441862540406954
806,0.022492804910669052,0.0,3.829391495222788
807,-0.1373555470602223,0.0,2.8252977153695804
808,-0.4551070638150525,0.0,-0.9185966064323838
809,-0.3389411036191144,0.0,-1.7456701894013629
810,0.8209910720296231,1.0,3.0900324516659063
811,1.359204602674791,0.0,2.733859519718332
812,1.1001045305353045,0.0,4.063652374752604
813,-0.653174167322516,1.0,-1.3262729529313384
814,-0.25084208858830986,1.0,-2.2909783695989683
815,0.863089486216574,1.0,3.5760883626724893
816,1.97444125844662,0.0,3.830510868848198
817,0.5042954111464916,1.0,0.3028082658750655
818,0.0669920379377458,1.0,-0.9545734312693578
819,-1.272964009529162,0.0,-7.709791779392535
820,-0.9388229556107546,0.0,-2.7950994383615315
821,-0.4225051504704618,0.0,-0.531300831357524
822,-0.1169729583758988,1.0,-1.3038121404096519
823,1.60910633336835,1.0,2.5774789361010217
824,1.1706262817845932,0.0,3.333492528070685
825,-0.3906824796071634,0.0,1.0212546666121245
826,0.3962965205606069,0.0,1.8280597346673553
827,1.038696302879375,0.0,3.593094496981701
828,0.6185145478175508,1.0,1.2050566584361193
829,0.4993161693715849,1.0,-0.5382207701985902
830,-0.3022085988278804,0.0,4.5161470697741395
831,-0.49193313920885784,0.0,0.8043305666732719
832,-1.7963322036999845,0.0,-3.920129004423056
833,-1.5124103434641334,0.0,-4.552760585969454
834,0.1872889212334608,0.0,1.0253661267908596
835,-2.7747894294295947,1.0,-7.365455434398097
836,-0.2542457914203911,0.0,0.45441247475679547
837,1.9910645983197768,0.0,4.565009124977765
838,-0.3385359242372885,0.0,-0.9617497660022687
839,-0.33560759346082336,0.0,-3.5492245965514764
840,-1.153829481411412,0.0,-3.532334166472469
841,1.2605144753766944,1.0,7.496208828805477
842,-0.4989086452094259,0.0,-2.7035674049017597
843,-1.8658741555236171,1.0,-6.498061271189597
844,-0.06342350156475533,1.0,1.8784822350633248
845,-0.8835938548953676,1.0,-1.4942757294445488
846,-0.2052320792548087,1.0,0.25147279278060186
847,-0.5119139928503311,0.0,5.747844025352872
848,0.5008047127349363,0.0,1.3887950964431173
849,0.43012521448291124,1.0,4.090492786839322
850,-0.7108759440177872,1.0,1.8179181746169046
851,0.9701888844590298,1.0,6.507687413193455
852,1.4699396892267258,0.0,4.040553774980157
853,0.2654324262435123,1.0,1.3560113536141265
854,-0.8005318004753035,1.0,-4.797351356934451
855,-0.24691649741376928,1.0,3.5237945622830225
856,0.5533881921841611,0.0,0.48472038012420127
857,0.4495585953839999,0.0,-2.506012211190588
858,1.8786565021958688,1.0,0.7746414100718129
859,0.9359693266855929,0.0,4.994659852595898
860,1.0771531911891339,1.0,5.072657045948846
861,-0.19350210959477682,1.0,-2.120686440991784
862,2.4545626217176255,0.0,3.8380586931343603
863,-1.0040098591991564,1.0,-3.071406203150084
864,-0.8346708648798913,1.0,-4.698437624744979
865,-1.222396903589462,1.0,-1.5142519195573185
866,1.0224919653516333,0.0,4.964244465089614
867,0.6034066880256781,0.0,1.8995788876488209
868,0.08473732299316111,0.0,-0.8000915049089063
869,0.28440044542782633,0.0,-0.43056507901810903
870,-1.4030018446844172,1.0,-4.47043474966544
871,-0.2651557327284911,0.0,5.025458691412732
872,0.4540184795115944,0.0,-0.6098487056951492
873,0.0038134025991314684,0.0,1.3710106668271775
874,-0.7496535496147069,0.0,-0.9580444825039494
875,-1.1078906078745132,0.0,-1.918725616386852
876,-0.7152500646132618,1.0,-1.1161360094885207
877,-1.4939390890737545,0.0,-6.4745137130756305
878,0.3598547022719496,1.0,-0.6594324378079723
879,-2.3971139566763853,0.0,-1.592838967585565
880,0.26661220907232375,1.0,1.728169060226466
881,1.0922995319357134,0.0,4.071605961372275
882,0.9543448977283124,0.0,5.41140669637101
883,-1.1771579190924428,0.0,-2.255957987623192
884,-1.633033025757122,1.0,-3.9719445986181117
885,-0.6703279410087989,0.0,-2.681421905658471
886,0.48703351170565573,0.0,6.021708136462315
887,1.2812442760582035,1.0,5.917333380354327
888,-0.9065883039582889,1.0,-1.1518008223922505
889,-0.8315900235751867,0.0,-0.6189198721811231
890,0.3854860597506496,1.0,1.3157611652205279
891,-0.48580968651170847,0.0,-0.2612227973662446
892,-0.39315377773473337,1.0,0.6253815473710121
893,1.8770149289441171,0.0,6.789156903936845
894,-0.7916163604734702,0.0,0.034770929770610526
895,0.6677448597169786,0.0,0.21182981619615093
896,0.02415796733130235,1.0,1.8449815321270684
897,-1.096509630664506,1.0,-3.9453017728266997
898,-1.3571150612282485,0.0,-3.9287870026526326
899,-0.9052268718692472,1.0,0.8297945355767014
900,0.5356700206199051,0.0,4.211756217493119
901,-1.1373724402948622,0.0,-3.025640770224172
902,-0.6655205833839667,1.0,-0.3501863452943264
903,-0.5402241384792841,0.0,-6.5639374240828365
904,-1.676914848091754,1.0,-1.2664853508952627
905,-0.06299517374362748,1.0,2.6180818113105913
906,0.8136696433900777,1.0,3.6062058832593182
907,1.2775031811586415,1.0,2.867795281506159
908,-0.3203591168758892,1.0,-0.6715706831869048
909,-0.1348668252027954,1.0,-0.4191283142051746
910,0.7535447303537639,1.0,6.408494647826369
911,1.0511206773856108,0.0,4.275926949145154
912,-0.4954706903559158,1.0,2.48530821043944
913,-0.577307933377194,1.0,3.0144425130480226
914,0.3081443410669139,1.0,4.473775335778246
915,0.7124518247963395,1.0,4.809042239610561
916,-0.8108198859543568,1.0,-0.5299522411331871
917,-0.26822088193034305,0.0,-0.20480423349953447
918,-0.3935328829860145,0.0,-3.580594505402132
919,0.051381784063142116,0.0,-3.399719865797121
920,-0.64895343163499,0.0,0.23039628114129684
921,-0.9774503163061385,0.0,-2.6064826175564844
922,-0.7166924468823116,1.0,-2.387036001743355
923,1.1973883364040836,0.0,5.78700131227586
924,2.201866214312856,0.0,6.6874161071574605
925,0.4844642079788534,1.0,0.03929922483211512
926,-0.00788700453336292,1.0,1.562045528201441
927,0.31670297628995614,1.0,3.3119142146025364
928,-0.3313654813611143,1.0,3.777218991575303
929,-0.9589285989411819,0.0,1.4136968749901204
930,-0.4703961974474172,0.0,0.666973410129528
931,1.8905700513479837,0.0,1.9598592899877372
932,-2.425035139429445,1.0,-3.1698261844704536
933,0.1277895604428212,1.0,1.1305751892493456
934,0.49374836560411706,0.0,1.0427237171711912
935,0.5074441226584587,1.0,0.9426545827262405
936,-0.8437909662287508,1.0,-1.525287895689324
937,-1.2990793311575604,1.0,-3.09127656361866
938,-0.3847424506955023,1.0,2.441024580955502
939,-0.18234497730609753,1.0,-0.9249509810297233
940,-2.4536369855235547,1.0,-5.802307824251747
941,0.8311235942120788,0.0,2.7686389851354942
942,-0.3074324695308847,1.0,2.489593797906348
943,-1.1652228061881709,1.0,-2.973510944399396
944,0.9901383262515681,1.0,4.428571451109463
945,-1.440204807763015,0.0,1.0030843978067314
946,1.0790168426852704,1.0,5.9801274970529334
947,0.028133899661182266,0.0,-1.4037096159401274
948,1.3501747285967634,0.0,1.7440113194535196
949,0.6252838522712434,0.0,-3.213806060565126
950,-1.3816416108131406,1.0,-4.116858226730182
951,-1.8558605926861762,0.0,-1.7956634333093877
952,1.640624982615402,1.0,4.48725831311274
953,0.09676072035399964,1.0,0.11935075721738131
954,0.6777219836862096,1.0,2.3052649756660726
955,2.0425973518243197,0.0,6.3565283038917935
956,-1.6868908668903717,0.0,-7.20037702811403
957,-0.15369529122287096,1.0,3.0130755740978357
958,-0.8984928618563177,1.0,-1.2114037116118619
959,-0.6087710257443943,0.0,0.02270249290194859
960,-0.9461173033132318,0.0,2.0144979576184134
961,-0.977927537541098,1.0,-1.5163912426514197
962,0.003691956373277076,0.0,-1.2821963395885891
963,-0.3440716119488156,0.0,3.886004347431675
964,0.7634465527269938,0.0,2.0942178765943344
965,0.23055349496557642,1.0,1.779195193915718
966,0.3143317365581889,0.0,0.27568128114202833
967,-0.7542645105536796,1.0,2.8663694554143477
968,0.11463261531590814,1.0,2.9848286413626637
969,0.6747428044918348,1.0,7.663062867440819
970,0.18171192432903313,1.0,1.8411951443427543
971,0.8037616946417094,0.0,3.994917676822242
972,0.010155953522553784,1.0,1.9568098302974013
973,1.4865383467110835,0.0,9.06624930585236
974,-0.28097193067272325,0.0,0.3616229353203862
975,2.071724190130728,0.0,3.108099379842143
976,-0.043637420343145245,0.0,0.3857740943182921
977,-0.10496486052728221,1.0,-0.6617314556689218
978,-1.0897061874774343,1.0,-4.168581967852155
979,-0.2133257714203318,0.0,-2.058872362298349
980,-1.4018599837270305,1.0,0.258497659709533
981,0.5457296067409171,0.0,0.8354531463654123
982,-0.5447202988974105,0.0,0.0027253337146153633
983,-0.7989813014405525,0.0,-4.874402608782457
984,0.5832065264520133,1.0,3.9117094215561687
985,0.16063552888693564,0.0,-2.748986260932553
986,0.2517377739970785,0.0,1.4264978437083242
987,0.5633485919156218,1.0,-1.3772243720046426
988,0.4440774353467836,1.0,2.591205671038409
989,0.07092418888452875,1.0,-0.9482027319202071
990,-0.0689783013861683,1.0,4.091910756904321
991,1.5116962230668376,0.0,6.701098156600567
992,1.852905221105207,1.0,5.986051300820525
993,0.9831280970109615,0.0,2.2948303226798212
994,-0.6534627846653992,1.0,-0.5618054466352171
995,-0.0025872956073948517,0.0,3.131754730014202
996,0.3449313925985254,0.0,3.148727407801739
997,0.358145331237354,1.0,1.962611119241301
998,-1.8175155367817455,0.0,-4.305162742351937
999,0.02734559789874964,1.0,-2.5373830096983276
