,x,treatment,y
0,-1.706068034675689,0.0,-2.384175697918349
1,-0.905701100962803,1.0,-0.22508786108778328
2,-0.739681808814634,0.0,-0.10260833832964997
3,0.48394791609572707,0.0,2.282924566030525
4,-0.05724453862255264,0.0,1.5055313645065542
5,-0.6030775543408641,0.0,-2.3380970674149224
6,-0.9388782663553731,1.0,0.020977201416654913
7,-0.4059659170922734,1.0,-0.5846544205286934
8,-0.20241615777693725,1.0,0.5514845912085852
9,0.26443352222259486,0.0,0.060562666890919714
10,-0.23389345562705674,1.0,-1.520430095782178
11,-0.7135173281699249,1.0,-1.0029879371262815
12,-1.6064889880999804,1.0,-2.8994210474596187
13,-1.5050108579937365,0.0,-4.373394747666858
14,0.003189632103455565,1.0,0.5642998421600053
15,1.0836214717840666,1.0,3.4398158092167925
16,0.9945525680989059,0.0,3.1782641702425822
17,-2.078603167737877,1.0,-3.497206886390543
18,1.012853086615967,0.0,4.315957755045251
19,0.11379236882092043,1.0,0.48311556013806445
20,-0.9365546544962221,0.0,-3.9300755525952344
21,0.2588840719352592,0.0,1.2592827813700838
22,2.45251660302713,1.0,7.252339776500782
23,-1.155673076486943,1.0,-1.5973515160865377
24,-0.2139456145958037,1.0,0.27664640288599196
25,0.774677894016032,0.0,1.2663883384409043
26,-1.1429919189322009,1.0,-1.2974938274824241
27,0.6247215611183673,1.0,4.090610179276244
28,1.1331747337734905,0.0,2.4182218483410924
29,-0.6099548174560556,1.0,-1.1616519429656869
30,0.2229071735817407,0.0,3.9942605540808716
31,0.40991646651984515,0.0,1.146480319030285
32,-0.1331649807166337,0.0,1.6406276061068774
33,-2.4673138927468394,0.0,-6.38682670763434
34,-0.13572470883355067,0.0,0.9270881909551931
35,1.3192462368943616,0.0,5.50769030143206
36,0.7474022340915178,0.0,2.733199966454876
37,-0.26041551462208506,0.0,0.31096673674753855
38,-0.6305152762460667,1.0,-1.341607744064407
39,1.716383127948795,0.0,5.439727950912389
40,0.7155648839471777,1.0,2.8764775680901375
41,0.08809841004783177,1.0,-0.43834572213375766
42,0.004990279614035712,0.0,0.759949786232984
43,-0.9431536108592351,1.0,-1.8908265268636069
44,1.146453562650509,1.0,4.171110328802411
45,-2.127617845470252,1.0,-4.06176950786924
46,-0.34699178977096906,0.0,0.12461227526358452
47,-1.501130182596351,1.0,-4.147693210989967
48,-0.10871715164234018,0.0,-1.6377099551733423
49,1.2917514919745454,1.0,3.5628509317587467
50,-0.13270777636708864,1.0,2.064446890570461
51,0.009366664386740347,0.0,-0.04031626661227397
52,0.43749884602973227,1.0,1.1063246039293322
53,0.08998257616710988,0.0,2.411565191086938
54,-0.25874050704172225,1.0,0.8148977836000926
55,1.0289227343888547,0.0,2.232283259852864
56,-0.3175532618508321,1.0,1.3597527389973796
57,0.5639070541059186,1.0,1.9410944057894395
58,0.5668032014536855,1.0,3.3000083973133014
59,1.0081476834957963,0.0,4.866307715056262
60,0.7040931392423604,1.0,3.077358206649013
61,2.185672245380682,1.0,7.181077522217476
62,0.0837776315776897,1.0,2.0600270918836068
63,-0.6929755851313478,1.0,-1.3395931707810493
64,0.9971480332231744,0.0,3.184295771230573
65,0.8489064388974413,0.0,2.7714101443641406
66,1.4577718572270217,0.0,3.0290934019764286
67,1.612640061380278,1.0,5.45796935317185
68,-0.8744864152525048,0.0,-3.9660777401226284
69,-1.0818507778447282,0.0,-0.8472906339953761
70,-0.20839516130278524,1.0,0.5808454484732413
71,-0.34358914243369887,1.0,0.7484426323805626
72,-0.7399595243119776,1.0,0.861223252404127
73,1.1415827998264312,0.0,4.098382160929947
74,-0.11588078970952866,1.0,0.24375058425032975
75,-0.15702202642059107,1.0,1.7840397023556283
76,-0.03197482546869806,1.0,1.2163748264300798
77,0.7138147681162631,0.0,3.909232707775923
78,0.8839663240461405,1.0,2.1245816693020525
79,0.006783363009184479,1.0,0.499827979852807
80,-0.40000626595935235,1.0,-0.00413307942541874
81,-0.4294228083394094,0.0,-1.1873866092112981
82,-1.127963665206165,1.0,-1.0505649933605985
83,1.1554114024446205,1.0,3.046247273333321
84,0.4864898048097593,0.0,1.6579557883233986
85,0.20631939349760045,0.0,1.6025393921715443
86,1.2903794193701859,1.0,4.282293189709671
87,-1.1081612663101263,0.0,-2.9032360514853575
88,0.19467347547222583,1.0,1.6328878718930624
89,0.033402256133489586,0.0,0.4838250114222763
90,-0.26251385893235646,1.0,-0.41172172045025063
91,1.1961084500737413,1.0,2.68233939838736
92,-0.9965294647734675,0.0,-1.1315900453622998
93,0.14190600660634214,1.0,2.6840343966519264
94,-0.8700865500724907,0.0,0.8702818006945554
95,0.9181780624475822,0.0,2.4308738627290856
96,-0.6719357647219937,0.0,-1.619693149273142
97,0.7759558298358105,0.0,1.207450280090962
98,0.48361426273001257,1.0,1.7842527679409435
99,0.9253944290094426,1.0,1.8708605767530546
100,1.6284064037619015,0.0,4.184467115681764
101,-0.6578648489208304,1.0,-0.8406014885510034
102,-1.717474385187687,1.0,-2.9361930668371787
103,-0.8664555952959648,0.0,-2.160751039351402
104,1.367652439259818,1.0,4.428579519889943
105,0.7239992551209565,1.0,3.8137166868373717
106,0.426285728533183,1.0,2.0041352773850885
107,1.2696114352892893,0.0,4.611549507530639
108,-0.37736422423795746,1.0,-0.39013121532082945
109,0.8770512175715807,0.0,2.208094487454997
110,-0.376740775511569,0.0,0.6928468352974956
111,-0.14339475791989642,0.0,-1.3941480893433265
112,0.8605032886196952,0.0,1.4153735269160688
113,-0.31963432096892075,1.0,1.4848992964625485
114,-2.090799586411357,1.0,-2.8825551002891494
115,1.1728417511796365,0.0,3.3844423111211364
116,1.4139613081667242,1.0,3.037662051558989
117,1.088938207247508,0.0,4.4304774148908646
118,-1.0246832324227566,0.0,-3.0386588238339316
119,0.0014308763805509985,0.0,-0.46636090559848464
120,-2.8183095115329606,1.0,-7.499043901297305
121,0.2993794518319736,0.0,1.7198491412862027
122,0.7862531520370319,1.0,3.4270816819303556
123,0.1645712920645633,0.0,0.461752406203756
124,0.6661874197520647,1.0,2.770457213133432
125,0.7137224565489595,1.0,3.9990532429401524
126,-0.9361073345478467,0.0,-0.5984534501307577
127,-1.0201637965635382,1.0,-0.8474303957035854
128,-0.14765239740905847,1.0,1.5328215787142634
129,1.8147155873189689,1.0,6.092354745691897
130,-0.28944365482037,1.0,1.1740733427980086
131,-0.0022412788953525753,1.0,-0.5951441529267659
132,0.09579090783674779,0.0,2.645281281441445
133,-0.6024726530849731,1.0,-0.26104093725673905
134,-0.9411269472506528,1.0,-1.5044990269403435
135,0.17276680887876872,1.0,0.38148304265465005
136,0.8201980539931978,0.0,5.590248999968382
137,-1.3495345237796788,0.0,-4.072423679435884
138,-0.048441950329352314,0.0,1.8039786708434684
139,-0.1105640049527194,0.0,-1.2286383548618074
140,1.1816766994841086,1.0,4.186867160946993
141,0.3315266948169742,0.0,1.2144451034202421
142,-1.269273803704215,0.0,-1.8163023415489055
143,0.019509459415749393,1.0,-0.13961104585857342
144,1.6338068746692047,1.0,4.710192788852208
145,0.4315014463968708,1.0,2.3139159078917086
146,0.4670907649886049,1.0,3.8153238046065487
147,0.07495846665002032,1.0,1.5560852738547053
148,-0.38254107696986883,0.0,-0.5873045648541508
149,-0.4507468346717416,1.0,-0.8418317569385714
150,-0.7450106075218631,1.0,-0.5276006787731631
151,-0.15947951745841338,1.0,2.0108218099302504
152,-0.16478099661048223,1.0,1.9112756627949237
153,-0.3380767512499574,1.0,-1.2383652835529575
154,-0.6273181788161986,1.0,-0.6735393186444254
155,0.9733182392026738,1.0,3.422262664211136
156,-0.8327562531340319,1.0,0.8542575455869376
157,0.4886650084784871,0.0,1.7380322858734725
158,-1.068226952576802,0.0,-3.5087365187350326
159,-1.4321092227967505,1.0,-2.945076705875463
160,0.03339594560961456,1.0,0.3084350321057996
161,-2.0084715714323735,0.0,-2.639944350248567
162,1.1422838678025684,1.0,4.507309592311669
163,-0.5850495967750229,0.0,0.37507210432774263
164,-0.9169307077578974,0.0,-2.231484843882694
165,0.21188343559502512,1.0,1.3395812555914746
166,1.3732839405163886,0.0,4.355865135173224
167,0.6853166242295466,0.0,1.5683305902585198
168,-0.6973724979935921,0.0,-1.5844062628743418
169,-0.3140534233417433,1.0,0.9086223542549332
170,1.75634403837761,0.0,6.287564226798478
171,0.3400039418341064,0.0,2.4802582890060854
172,0.1361528229918161,1.0,3.0589177986977
173,-1.0429984401414558,1.0,-2.408295749596385
174,-1.2944471460017175,0.0,-1.5076600689416586
175,-0.6630118167330664,0.0,-0.7318784937330207
176,-1.292008778004788,1.0,-2.067211584335635
177,-1.0461626068071113,0.0,-1.3290390832151453
178,1.148513470074092,1.0,4.298206138645158
179,-0.9415496374567881,0.0,-0.33477519655934895
180,1.9707687864180223,1.0,5.906962907467942
181,-0.5703590017291683,0.0,-0.2903935263293964
182,-1.5881816316928148,1.0,-0.7839084299134415
183,-1.3725153870797535,1.0,-1.4628614004170828
184,-0.9520134131678472,1.0,-0.7556688302320289
185,0.13199976451509157,1.0,0.11292263577156297
186,1.4358967506926479,1.0,6.077004220831364
187,1.4020636873101469,1.0,4.255815775405788
188,1.2921926139400637,1.0,4.616445607715482
189,-2.3044054692780813,1.0,-3.229075762984699
190,0.39425674002562766,0.0,2.1618480901095394
191,0.786173816555049,1.0,4.580725614715243
192,0.380646984219302,1.0,3.5774071816519384
193,-0.24811937280197446,1.0,-0.2177657909464733
194,-1.2608973310631428,1.0,-1.7099884235374907
195,-0.7988572133944889,1.0,0.06536871432773639
196,-0.24922884651786623,1.0,0.7934999237445612
197,0.660083645145405,0.0,1.2989730754107567
198,-1.1489954255388437,1.0,-0.8060006526107572
199,-0.2882338132816803,0.0,0.029894874542842703
200,0.002853562304712412,1.0,1.2565772261952182
201,-0.8847478396833954,1.0,-1.3483845636921
202,-1.5408393956416184,0.0,-3.668860382220779
203,0.7606063165612753,0.0,3.029638864225132
204,0.4253527874869963,0.0,3.2943440067076573
205,-0.9199622523864285,0.0,-3.782546837714575
206,-0.02359835406040473,1.0,1.3210751327581163
207,0.7996898438130059,1.0,3.7252495854563623
208,1.6214857357443913,0.0,4.983747361747206
209,-0.31337905353265,1.0,0.8816434098566532
210,-0.10138145937286829,0.0,-0.593539768551632
211,1.365670537306264,1.0,2.8468226773496577
212,0.6049919854723437,0.0,2.7866718879890993
213,-0.12399620399507563,0.0,0.8208677674463327
214,0.6481865256648851,0.0,2.827095121246737
215,-0.2855072687003717,0.0,-0.8419665370914645
216,-1.0773913970076356,0.0,-2.662811820793943
217,2.759801199421382,0.0,9.067490193017326
218,0.3156680639728706,0.0,1.0999455735944046
219,0.755575448346797,0.0,0.1830893508837776
220,0.987227566470736,1.0,3.3503225367969898
221,0.0026539204321397,1.0,2.9612759204021017
222,-0.6049692369066013,1.0,1.4726400302922316
223,-0.2790744537712849,0.0,-1.4928141735484344
224,-0.5046602132296644,1.0,0.07394323767633897
225,-0.015502245430289196,0.0,2.205291333467482
226,-0.16082335447141183,1.0,-2.2489714342206497
227,0.8873264365097834,1.0,2.9210936930136393
228,1.3638303019260294,1.0,4.965776710203299
229,0.8515990643295378,0.0,1.8133950757270543
230,-0.05913009695190742,1.0,2.0317767233586856
231,0.4206053754496161,1.0,0.28116444031146703
232,-0.5150395231398717,1.0,0.81194444840743
233,0.37459871114095217,0.0,2.2496540237358764
234,0.02845436872644073,0.0,0.5073943020539009
235,0.5904615376355974,0.0,2.0449002869207917
236,-0.6258500673446598,0.0,-3.6821339964723503
237,-0.08006532750481411,1.0,0.6319532350360779
238,0.19446067440889422,0.0,2.5404649266498707
239,0.34208231957532514,0.0,1.9736856137405627
240,-0.4382387572934161,0.0,-0.788608425856778
241,1.6934505114862148,1.0,5.055397767043457
242,0.11307507807634942,0.0,2.1764026815381188
243,-0.8800401930126496,1.0,-2.059821607874203
244,-0.48173433863371135,1.0,-1.6920540557321195
245,-0.08463212081573279,1.0,1.496909462035686
246,0.9487149251960695,1.0,3.9424599537447547
247,-1.3707873696101447,0.0,-3.520443829025199
248,0.011523015534629224,1.0,0.8540173922082163
249,-0.8869575350295791,1.0,0.04429721127093078
250,0.7776219492554756,1.0,0.34216772809668583
251,0.6368825673394635,1.0,3.311894042127496
252,-0.16960842751280958,0.0,-0.2145844156352677
253,-0.016560109442196637,1.0,0.8314092792669097
254,-0.08998833288308261,1.0,0.8984885284948209
255,0.4309814949890327,0.0,2.647111162604366
256,-1.8729487987858744,1.0,-3.6752089187469252
257,-0.0383450483802424,1.0,0.08140652744920865
258,1.3377038607649518,0.0,4.491553872818136
259,0.694672265528264,0.0,2.6183530800271457
260,0.05667018550466752,0.0,1.402101251248439
261,1.2547120554148208,1.0,5.493556606306545
262,0.6332947142493451,1.0,1.2996760823823124
263,1.1311905839811043,1.0,3.5651613513880127
264,0.7988758292468069,0.0,1.411695218088291
265,1.9352876729748607,1.0,6.001266896676652
266,1.6021363330363103,1.0,3.163233752207198
267,-1.2376645756997686,0.0,-4.886707758859402
268,-0.3034953570830819,1.0,0.3280651480427812
269,-0.5437491851299828,0.0,0.8259435755678526
270,-0.042610628591297744,0.0,-0.42940357628858206
271,0.7298835735555156,1.0,1.7558546996264692
272,0.46213838370891575,1.0,0.440748108358
273,-0.4448974645759422,1.0,-1.3163486445388684
274,-1.4536364628665264,1.0,-1.4140995825785634
275,0.7268327081092865,1.0,2.734063124650277
276,-0.5152137395216685,0.0,-0.7804016365917366
277,-0.1663462854939486,1.0,0.2590045069171081
278,0.7766860041703731,1.0,3.4328897311935176
279,0.43656767317697615,0.0,1.3613486095566902
280,-2.820118963171152,1.0,-5.267899207224093
281,0.1877515293383156,1.0,1.0049261827764426
282,0.27715757788450945,1.0,1.3279255930314924
283,2.09906739317908,0.0,7.043390426098807
284,-0.18787329386703394,0.0,-0.7003296643600925
285,-0.3166320123607711,0.0,-2.782942637175667
286,-1.3442432971805902,1.0,-1.1198061645498592
287,1.2715481613502135,1.0,4.834894842263688
288,-1.362928716889374,0.0,-3.243047789893452
289,-0.036168738021685645,0.0,-1.134304383087736
290,1.7358501533157331,1.0,6.717165235703181
291,-1.4592247545659316,0.0,-2.546256733882508
292,0.6484119800341666,0.0,2.8930871629527934
293,0.44860874539476453,0.0,1.7991949901459212
294,-0.05074302877248422,0.0,0.5692350719957794
295,1.5873277119017366,1.0,5.835496504359815
296,-0.5052105396944795,0.0,0.988322023870042
297,-0.01621421620581719,0.0,0.3502234161094981
298,-1.4971768263130985,1.0,-5.0439214415181155
299,0.11331690338669584,1.0,-0.6600236251215617
300,-1.6180177186650528,0.0,-4.625422738651835
301,2.3886288159153795,0.0,7.2248312957619465
302,-0.9690614169937564,1.0,-2.5740016668146732
303,-1.2342321017772868,0.0,-2.784041000119107
304,-0.03257236732250484,0.0,-0.32659990307059894
305,-1.9620781342664901,1.0,-4.041831281151812
306,-0.07858694809277551,0.0,1.0218753783176766
307,1.760064107808944,0.0,4.35383966649983
308,-1.4126104481875739,1.0,-0.5413614966686522
309,-0.9726798804651663,0.0,-1.4713246734256666
310,0.7683041824547063,0.0,3.2653561181787705
311,0.5522153667894361,1.0,2.6400313415849266
312,0.590794379703041,1.0,1.1693452616450948
313,1.4183881292946685,0.0,5.204305990421558
314,0.016817483816782865,1.0,0.7319490008096964
315,-0.21041827978791325,0.0,-1.1475559632945629
316,-0.14899598182027962,0.0,1.204258470542836
317,0.639163423771228,1.0,1.8815389414851769
318,-0.35218645554862027,0.0,1.1087704085057086
319,1.9832283356118594,0.0,5.597411104676117
320,0.717799494302248,1.0,2.4733081738740386
321,0.418273151677644,0.0,-0.39737570322707017
322,-0.9746910478916143,1.0,-2.3688646487737457
323,-0.3148532735469652,0.0,-0.5965229412105929
324,0.7181422338071582,1.0,2.0245771949325997
325,0.713728293294848,0.0,2.0666136392650816
326,0.12510482532050846,0.0,-0.30968915462020974
327,-1.9542335515278502,0.0,-3.1753218811739927
328,-0.6074385295508546,1.0,0.05952709867236128
329,1.4452394514718065,1.0,2.331270450965367
330,-0.4041397314599864,0.0,-0.6838211693913447
331,0.8633699796528966,0.0,2.4133916933296957
332,1.047217858534769,0.0,1.7208548914523611
333,-0.30406706350109736,0.0,-2.4747764393305043
334,-1.4534634975231426,0.0,-3.0271568284052397
335,0.2994593366231428,1.0,2.0302767477847365
336,1.5428172954791257,1.0,5.362355768286298
337,2.4099017147103203,0.0,6.616057958036336
338,2.345038276867173,1.0,9.192020621886385
339,0.9084562097899438,1.0,1.404303621212371
340,-0.870017073792106,1.0,-0.6792579579024274
341,-1.8104909999135743,0.0,-3.625747851147551
342,1.1945280133937588,0.0,4.1055038337938035
343,2.384893196780834,0.0,5.47405932979969
344,-2.0191206013194765,0.0,-3.2384056763901037
345,0.2813836646980728,1.0,2.4054598146765325
346,0.9377101344844654,0.0,2.4800264929523306
347,0.05973197715695941,0.0,0.30150284613856193
348,-0.4643419170489588,0.0,-1.2098799244894716
349,-0.3420331308181513,0.0,-0.5842507408580649
350,-0.6904365981952448,1.0,0.11869331259925608
351,0.9441870054201367,0.0,2.1056633925781996
352,0.7524489271229191,1.0,1.1480584398909623
353,-0.04964207775975432,1.0,-0.9733919935841758
354,0.3358671364695148,1.0,-0.584748677874442
355,-0.8595058502801888,1.0,1.2472351742640866
356,0.2711537287964913,0.0,1.4399630306933122
357,0.4685293519244716,1.0,3.3507461276470294
358,-0.19379543334654065,1.0,-0.0006997945615085654
359,-0.5935846507095847,0.0,-3.4417852563191786
360,0.048152302855181545,0.0,1.9474494767444108
361,-1.0372582016659342,0.0,-2.8461911457520377
362,0.810415555169694,1.0,1.8742176753501332
363,-0.31703374931587947,1.0,0.32894193790942644
364,0.08021847969515596,1.0,0.9596921707414315
365,-1.8904630473914454,0.0,-3.90821896939178
366,-1.5455084882669796,0.0,-4.108325476203297
367,0.3698775934538907,0.0,2.0286156272417575
368,-0.17044485930933628,1.0,0.05507852735159613
369,0.005963466393111379,0.0,1.7242013399184504
370,1.2630602403062725,1.0,4.20356036983162
371,0.22149652827431307,1.0,1.4349882681146262
372,-1.2819437531708187,0.0,-1.4256619912337563
373,-0.12517061324194206,0.0,-0.2532507961200885
374,1.9144930747213473,1.0,5.946120032509586
375,1.5731329429611791,1.0,4.588580388273807
376,0.06808286933249036,0.0,1.5324071615772974
377,1.2182135654570152,1.0,5.827563356661561
378,-0.8560313437530119,1.0,-1.0708664170928746
379,0.12911312260028654,0.0,1.3288492795613736
380,-0.8142083152425653,0.0,-0.812342537881289
381,0.9413090419471235,1.0,3.5855138330154124
382,1.2203621993370883,0.0,3.5238329198658525
383,-0.861802056572463,1.0,-0.37885364294613977
384,0.4670266104227977,1.0,0.9365803092227313
385,-0.010432930461514544,1.0,0.5422210121011815
386,-0.7756477276283281,1.0,0.5079377259599565
387,0.3675395744405547,1.0,1.4047053250936499
388,-1.0628694843680229,0.0,-3.042952471063935
389,0.4283574064381373,1.0,1.2825706758886313
390,-1.5607669942483584,1.0,-3.6293613209876296
391,0.7686812724722024,1.0,2.575137322043999
392,0.5323077726440072,0.0,1.4569637985949573
393,-1.3602855884419847,1.0,-2.5939622537692197
394,0.06318880012062057,1.0,0.9403799080674082
395,0.33533716159534915,1.0,2.2518601469623016
396,1.1103931136227638,1.0,2.9467625865836626
397,0.22282650381071092,0.0,-1.0255217432763353
398,0.16167301121807215,1.0,1.4977603450220052
399,-0.4697128784591603,0.0,-2.7779386709540197
400,-1.7085745171749784,0.0,-2.969626093267647
401,-0.4223336285423427,0.0,-0.43346440165784794
402,-0.16774914429860707,0.0,0.01710745551146492
403,0.251423698778708,0.0,-0.0818504984696256
404,0.4053373998577663,0.0,1.8919704345684647
405,-0.1408873343654662,0.0,-0.24541476149351227
406,-3.0985222744788543,0.0,-7.249852727492135
407,-0.4717465759863412,1.0,0.020895266095933743
408,0.8330135046515623,1.0,4.716391019820003
409,1.062236879932517,0.0,1.850516495344
410,0.6238682656932738,0.0,2.5373177890216163
411,0.2987240396614178,1.0,1.1426895752607544
412,0.2849186965533289,1.0,0.7458128917782982
413,2.040810995522851,1.0,6.764842249154879
414,-0.09035497442519849,0.0,-0.37747563661340355
415,-1.5039423143643775,1.0,-3.3130159907567194
416,-0.9763742360728668,1.0,-0.24450567462087375
417,-1.2788115407475122,0.0,-4.336215282251462
418,-2.1020211387965446,1.0,-4.333105529444515
419,0.1903588229897899,1.0,0.8728707469303931
420,1.4030937636701417,0.0,4.447018465838813
421,-0.19320967882419862,1.0,1.1543009433038682
422,-0.7198960743977365,0.0,-0.23672321709802865
423,1.2896652990406996,1.0,4.300717236472236
424,-0.2634122167385906,1.0,3.0329217639445916
425,1.2312083878266384,1.0,2.661013448319456
426,-0.20659926655118957,0.0,1.7514964757974227
427,-0.4074533698779768,0.0,-1.4642332870621084
428,0.14036620256340504,1.0,2.673529327764489
429,-0.5134406834874341,0.0,-1.1255940154363375
430,-0.30978086795264453,1.0,-0.4520055457426996
431,0.18839384349587923,0.0,1.2470277261198097
432,-0.9903253562603304,0.0,-1.8390050335171326
433,-0.27853980069564876,1.0,-0.37333335328379785
434,0.5652517297854907,1.0,4.169651659542267
435,0.3707302125099928,1.0,3.2067729321193243
436,-2.9328424119934833,1.0,-6.3783191293022865
437,-0.22196432883746586,0.0,-0.8071347940631861
438,0.7385844202739655,0.0,1.958080532710312
439,-0.7852711068795174,0.0,-2.9295530682164936
440,-2.2500607395357184,1.0,-4.1845348007036645
441,-0.9084918420064814,1.0,-0.8710302507553719
442,-0.6666805375734504,0.0,0.895342136769987
443,-1.144418954069195,0.0,-2.0407852250167378
444,-0.8852431338585881,0.0,-2.53621032848278
445,0.1316777410079972,1.0,2.164257586849529
446,0.26535025009084706,1.0,2.541533997604954
447,1.0396868124438985,0.0,4.933252749522631
448,-0.3102396921573048,0.0,1.6624453915111692
449,-1.9225471205222835,0.0,-3.7867537891450698
450,-0.38564514672031713,0.0,-0.5009639725244492
451,1.5277902439697333,0.0,5.822066309645071
452,0.4840810869468666,1.0,2.0030427678133935
453,-0.012236099148039598,1.0,0.9557398405208591
454,0.3512773641925074,1.0,2.504609293737003
455,-0.4682443472134751,0.0,-0.3820476367306127
456,1.5555945241543652,1.0,6.918742435617438
457,1.543931268543233,1.0,5.780951653502627
458,-0.5850890530066111,1.0,-0.9570009835307833
459,0.162708514383365,0.0,0.29835325941782603
460,0.43983328144560613,1.0,2.1342920895022806
461,-0.6949241928468348,0.0,-2.2806419442682677
462,-0.3097804390018528,0.0,-1.349064710464475
463,-0.9621396156001507,0.0,-2.28383620921024
464,0.40847174271196535,0.0,0.5791354958614047
465,-1.8523392460157093,0.0,-3.200980248605426
466,0.9530185690132931,1.0,1.9798661003860643
467,-0.05419980675441558,0.0,1.0112669867221358
468,-0.007489664838786209,1.0,2.06310001506652
469,0.07147913238796871,1.0,-0.5079716149137155
470,1.7211870247542282,0.0,5.8850941636646805
471,-0.005345197810131023,1.0,0.8052073277410277
472,1.5863511449037033,1.0,4.922038835472064
473,0.04082573910440749,0.0,0.9925896924663911
474,-0.9478193295201728,0.0,-2.836941839312738
475,0.13014001797938862,0.0,0.7961267112638093
476,-0.5164278808946695,0.0,-1.1128095403173897
477,-1.0215233519714741,1.0,0.27517441758604544
478,-1.066050468616506,1.0,-3.4670314078942472
479,0.7597146937149001,0.0,3.1944786511073575
480,-0.6825255362910374,1.0,-1.0377963404860873
481,1.7066570789558473,0.0,4.98648124723322
482,0.5756374939087507,1.0,3.439742139640406
483,0.0660442394116065,1.0,1.3061434086507333
484,0.3371311657752415,1.0,1.43798036532355
485,0.8455566177954893,0.0,3.060290361150166
486,-0.09026092615049602,0.0,0.8873002404516568
487,0.15122688193162773,0.0,1.7644374611214388
488,-0.5971476965608989,1.0,1.970150523306985
489,-2.100266500879089,1.0,-3.4779354650023717
490,0.8485307604341266,0.0,3.868602925675241
491,0.27919725394954686,1.0,0.41915145460529657
492,-0.17102496710580412,0.0,-0.9829994236702004
493,1.0857823770622699,0.0,3.935788189615845
494,-0.6438854197605735,1.0,-1.3101575726489403
495,-0.6876004835954497,0.0,-1.8701796997145566
496,0.8646731471550437,0.0,1.3807874910354563
497,-0.8419693340082895,1.0,-0.44562839788389047
498,-0.6359467990234043,0.0,-0.05448908403165387
499,0.07100278097556485,0.0,3.0208145466686087
500,1.415543570910643,1.0,2.91585567982114
501,-0.4481417545183666,0.0,-1.6773122482323406
502,-0.6040515392456404,0.0,-0.03462705130427801
503,-0.8130508480597515,0.0,-1.9732644426607018
504,0.458796848783095,0.0,1.9986625181432844
505,0.24922050172790833,1.0,0.6925124069885902
506,-0.43146937284482845,0.0,-1.1962855238906585
507,-1.7970662163331224,0.0,-3.0639921128134504
508,-0.12246335480487033,1.0,1.0160744526687024
509,0.7041552284084139,1.0,3.2875890163661436
510,1.2230307213296456,0.0,2.697542055857257
511,0.3978871578810515,1.0,0.8972147512275029
512,0.4736262092707684,0.0,3.1509421734274143
513,1.4322076567594566,0.0,2.7936871327896813
514,0.061907145483645225,0.0,0.6034942240412551
515,-0.3901149158227954,0.0,-0.8931742082009436
516,0.5392310669121928,0.0,0.7125242468646956
517,1.372347992901099,0.0,2.4855515721162824
518,-0.8631110605936374,1.0,0.7043060194266205
519,0.42757232201982553,0.0,2.7571548995185955
520,1.3483756778246128,1.0,5.902623761005349
521,1.5486799573922136,0.0,4.295652687684732
522,-1.1716263645821694,0.0,-1.9667062188413147
523,0.4940944917155978,1.0,4.46275174343144
524,-0.16788131808755852,1.0,-1.2328356875739064
525,0.7115566843933212,1.0,2.1202957584622695
526,0.5010076941214261,0.0,1.0315523060152914
527,0.8447188502882053,0.0,2.061513337518303
528,-1.8131752478123129,1.0,-4.289727978590145
529,-0.3306477294173705,1.0,1.1286170117388106
530,-1.3795756783532978,0.0,-2.757166703581578
531,0.11595180604560726,1.0,0.8002377530950159
532,-0.7993318462078234,1.0,-2.431627925076452
533,-0.11560357420997529,1.0,-0.23848174646330705
534,-2.2634504859656053,1.0,-5.1796093934706775
535,-0.8908666850553291,1.0,-0.9133461117189414
536,1.419763071764989,1.0,4.948000545908573
537,0.18685960968213206,1.0,0.5463692538058699
538,-0.0924494620467401,1.0,-0.3306253575047433
539,-0.7591924418226762,0.0,0.2719050278167943
540,0.08059018060638269,0.0,1.0989850630118214
541,-0.0730196806549115,1.0,1.3557170825055909
542,-0.3133843809616003,0.0,-0.4218222884227718
543,1.3093324839389864,0.0,1.7485342030571474
544,-1.2178102279558995,1.0,-0.4972307580688824
545,0.7983030426990431,1.0,2.982465677545487
546,0.0492622291989674,0.0,1.8400764386118873
547,1.054917607624274,0.0,2.23461172735402
548,0.2163695900218026,1.0,2.3186729229589758
549,0.18842192150514414,1.0,1.6083407176134292
550,0.7178772591239694,0.0,0.9513671524448922
551,0.162636143842362,0.0,1.643735375971568
552,-1.2842952217579962,1.0,-4.625216337358786
553,-0.7780481927275458,0.0,0.10097479852966611
554,-0.5657838438946783,0.0,0.6986923759866615
555,1.2582373485682758,1.0,3.7630051167780856
556,1.4850966498658982,0.0,4.421273785948949
557,0.11783711303048659,1.0,0.40632461598056546
558,-0.07341963380548681,0.0,0.22074513824334235
559,0.7472601523915914,0.0,3.261637496973009
560,-0.04546278149713621,1.0,2.4950117395619538
561,0.3523506561654628,1.0,3.3327182199714622
562,-0.5975535684084362,0.0,-0.19619676219992327
563,-0.32169534237830305,0.0,0.7325213644159648
564,-0.8221653853186283,1.0,-1.3547266935365245
565,-2.399491084085112,1.0,-4.660463808531107
566,0.992940177537732,1.0,3.904840863960832
567,-1.9514145665560343,1.0,-5.502254789515388
568,0.3911035374430559,1.0,2.5249502612310413
569,-0.8012730704181744,1.0,-0.2788444512895017
570,-0.921455391333189,0.0,-1.4475343407287093
571,0.30001361153474715,1.0,0.7028906767830363
572,2.023382339806858,0.0,7.9155711885662745
573,1.5427838145920107,1.0,5.4057935876539
574,-0.8261317087891519,0.0,-2.2694854560780677
575,-0.9216207146478768,1.0,-1.1629469132271884
576,-0.5500558561453949,0.0,1.732780880436735
577,0.244887549297071,1.0,0.13498304464181765
578,1.6426958829287903,0.0,3.815086559815511
579,1.0503948828331295,0.0,2.267417337570485
580,-0.3046929233222754,1.0,-0.1318687416484119
581,0.014615452126461124,1.0,1.5255132423953122
582,-0.5974324414193659,1.0,0.26236765085731717
583,-0.511700330619009,1.0,-1.1662735957679475
584,-0.4358867694124213,1.0,-0.7221411531710112
585,-0.5603120959023475,1.0,-2.9363992494860405
586,-1.0228363876466797,0.0,1.010824862710328
587,0.08821036534954158,0.0,0.04004946355849148
588,-0.9701080158579022,1.0,-2.183219655189525
589,2.4363809835566412,1.0,6.7412120653860015
590,0.004716876177248334,1.0,1.8327928029681408
591,0.6526376804034483,0.0,0.08363413785845507
592,0.6755019807486472,1.0,3.0609628019416064
593,-1.4008298382958502,0.0,-3.75543109684966
594,0.41538968182714764,1.0,2.5369837134098225
595,-1.3947635970714138,0.0,-5.097216753645526
596,1.700334253737435,0.0,5.084530603341287
597,0.49810184106711064,1.0,2.678718157048851
598,-0.7725639572561613,1.0,-0.6949032331735527
599,-0.6938231272396279,1.0,-0.3038550421933567
600,0.5822477185605006,1.0,2.5601769417159956
601,-0.11635562560388935,1.0,-1.7111023735197435
602,-1.0329884415234112,1.0,-0.8719553814904213
603,0.07836153087810971,0.0,-0.3601306575283303
604,-2.1685442775770962,0.0,-3.074474876783759
605,-0.5517937446530609,1.0,-0.05564515908131773
606,0.9543327702562757,1.0,1.3910452005513518
607,2.8050721953258138,1.0,7.137451910219423
608,-0.3260790723122285,0.0,0.29106972079560545
609,0.42375394030156505,1.0,1.63912549274611
610,0.6650313060153105,0.0,2.13728214607306
611,0.4865012832823206,1.0,1.2402286859598703
612,0.3930722674913126,0.0,4.151892974052931
613,1.041651526362833,0.0,1.8551205066991492
614,-1.1133525036412308,1.0,-0.9705002985863708
615,1.0325156446414747,1.0,4.46982003356254
616,-0.7230721261530034,1.0,-1.1514330107654729
617,0.758860930961562,1.0,3.0610172693732087
618,-0.5311452655639812,0.0,0.04614950782070745
619,0.504525681118707,1.0,3.860094889702886
620,-1.1883732369977744,0.0,-2.1237122990925728
621,-0.4570409519956474,1.0,-0.4450112781539429
622,-0.7329831181756647,0.0,-2.0387523404119543
623,-0.26040115257165714,0.0,1.2323971140333945
624,-0.07163638745185742,1.0,0.9400109854944938
625,1.5740975065201603,0.0,5.571848162806807
626,-0.8501402312190612,0.0,-2.159624722328519
627,1.6035551515624988,0.0,4.158394010910308
628,0.7705497498367156,0.0,2.932841198342421
629,0.8165735218808928,1.0,2.624811105861018
630,0.5298192031044091,0.0,2.9797400521760737
631,-0.31216597869189366,0.0,-0.5588445064154468
632,-0.6644154085075431,0.0,-1.4790183736413538
633,-0.6582256580631711,1.0,-1.2210712521603109
634,-0.40550507065999414,1.0,1.2873639356494702
635,1.227226157982275,1.0,3.6344967220783237
636,-0.4200022893786389,0.0,0.643943323943543
637,-0.6623136480067617,0.0,-1.9475650034763312
638,-0.4271384903958546,1.0,-1.936309122892447
639,-0.19475345918738257,1.0,0.27070184721985074
640,-0.0087549468385915,1.0,2.0398017561440387
641,-0.26330630689032647,0.0,0.541174785812711
642,0.024491358908624018,1.0,0.18002272296667254
643,-0.03042629029991436,1.0,0.7723014442369096
644,-0.2380619286658326,1.0,0.26892583599369835
645,-0.04501899272974455,0.0,0.18197453800735428
646,0.15636397456773055,0.0,1.511578415261694
647,1.4012264033278776,1.0,6.823712943190539
648,0.34502573597015085,1.0,0.8830939337579276
649,-2.0111141368656433,0.0,-4.857574264425081
650,0.3719522127995821,1.0,0.5340590825358054
651,-2.853206455076861,0.0,-4.340967302605418
652,-0.6834135122019321,0.0,-1.823817479391201
653,1.1290939692867268,1.0,2.348869722995856
654,-1.172120095479629,1.0,-1.4552347866358053
655,2.4383965506593133,1.0,6.495404453491495
656,0.4658713817962906,0.0,0.9568809310176324
657,2.444570541896742,1.0,5.919540462986537
658,0.9135032802081197,0.0,3.649730612292461
659,1.5169886741138423,0.0,4.51543169508872
660,1.143454220265132,1.0,3.991620877849991
661,-0.8445613857147477,0.0,-1.3076338354127965
662,-0.6743987369991692,1.0,-2.263474154211622
663,-0.39945904649038855,1.0,1.0671251868935852
664,0.7140378751131147,1.0,3.0180647193575223
665,-1.8193345336615077,1.0,-3.135623053856195
666,-0.03767733225607207,0.0,-0.8661904543172141
667,0.46413192747672616,0.0,2.265296677290216
668,1.222931971176844,1.0,4.4984295201446365
669,0.13396476673568514,1.0,4.031379477293878
670,-0.8492256307854841,1.0,-2.5529897662144574
671,-1.5427626914945414,0.0,-2.615249434928108
672,-0.5196045271624623,0.0,-2.1882810189478197
673,0.21883123240913038,0.0,1.5730602828129467
674,-0.17583374220795991,1.0,-0.9747387248401267
675,1.5090514859487196,0.0,4.243806560876462
676,0.8063076737483877,1.0,2.0539927201265615
677,0.23581041136231448,1.0,-0.027877159503968407
678,-0.5351510117662011,1.0,-2.115143048359846
679,0.6579776259136773,1.0,2.1483085906153705
680,-0.4140615968262758,1.0,-0.47384061021079377
681,-0.35442973036400455,1.0,0.4008557160012588
682,0.035829840717629555,1.0,0.48309641532441505
683,-0.23514484921108153,0.0,-1.1960479419458392
684,-0.11912970228760453,1.0,1.053912695963339
685,1.4596847736866252,0.0,4.7276485551312915
686,-0.10734291959116622,0.0,1.3380157367425916
687,3.194800707830915,1.0,9.16065166771831
688,-1.717755573445728,1.0,-2.2869085122300357
689,-0.0032898672183065305,1.0,3.2556336045024645
690,-0.37314172901065745,0.0,-2.329310421664914
691,1.9392044324214321,0.0,6.438005655077395
692,0.4369878961601357,0.0,0.7126819942253942
693,0.841385865997548,1.0,2.0022577130535937
694,0.021697561777665672,0.0,0.7579407908615284
695,-1.1437477604019894,0.0,-3.2021612271733986
696,-2.4742062842583015,1.0,-4.326586188087891
697,1.1558555314448988,1.0,4.544826954953973
698,-0.569554160032405,0.0,-0.5058219153797096
699,0.08997829696318538,0.0,0.48276929583870504
700,0.42571251125521836,1.0,0.4566814325389539
701,0.6615000520102253,1.0,2.2756856850275953
702,-0.3648714274150082,1.0,1.2418468213560696
703,-0.10811582544776266,0.0,-0.25259799345994344
704,0.755974657306556,0.0,3.2780280331715415
705,0.23967258929898358,0.0,0.9904520697408656
706,0.4899995564219026,1.0,2.71315392042747
707,0.5502655772902673,1.0,3.6395838073330653
708,0.6968211797846539,1.0,1.8158284014569446
709,1.397249057629246,1.0,4.180633361531356
710,1.081464980151291,0.0,3.2633273003071115
711,-0.24719966510540053,0.0,-0.5097245997777629
712,-0.10716536178000721,1.0,1.9979437075077766
713,-1.3995830800578029,0.0,-2.4450630655470666
714,-1.30408963887253,0.0,-2.8256990668569517
715,-1.3253175486235427,0.0,-1.201009106032704
716,0.26558037200933704,1.0,4.053869175219276
717,-0.8821123871177653,1.0,-0.27588995047180387
718,-0.11234167628107888,1.0,1.2699139200008025
719,-2.1447366413356788,0.0,-5.58105598023554
720,1.170388704372343,1.0,4.118234541673519
721,0.9250707728544599,0.0,2.917508681834182
722,-1.6637267778783034,1.0,-1.34717483910998
723,-0.03919925082025066,0.0,-1.3957851697456127
724,-0.3939914365551139,0.0,1.4723210955138168
725,-0.7973658835603239,0.0,-1.5825188231629714
726,0.5981316084821473,0.0,1.9619439553050677
727,0.8448034774709707,0.0,2.5019630291534947
728,-0.21164573808101272,1.0,0.7505685822761635
729,0.7691280390463537,1.0,5.164335510707236
730,0.027568469231051086,0.0,1.680708423392651
731,0.03352736412763726,0.0,-0.3930362328176114
732,-0.7933123095201834,0.0,-2.154189292532549
733,0.48361045104396455,1.0,2.242647232846368
734,-0.21516760788804384,1.0,-0.06737803510846047
735,-0.6667801854174925,1.0,-0.5007733817403217
736,0.5451836128654959,0.0,3.1057507214529005
737,-2.430458794324636,0.0,-6.216692001706078
738,0.0008981122357348627,1.0,0.6868931290737071
739,-0.7034285536924088,1.0,-0.418707110302398
740,-0.7338471222286135,1.0,0.11286454449013927
741,-1.1467277551954473,1.0,-2.174480240834464
742,-0.04660948920808679,0.0,0.4564537515626484
743,0.256786258353914,0.0,1.4898044694821169
744,-0.8639240546731893,1.0,-0.6930614802893109
745,-1.7462967461443923,0.0,-5.132502038803574
746,-0.3310236012650015,1.0,1.292833371772409
747,-1.7467901961407664,0.0,-3.984108962492214
748,1.5561410390723927,1.0,1.5235212266119678
749,0.38628797697726674,0.0,-0.14866740026583197
750,-1.1121358500594292,0.0,-2.396802022568961
751,0.1474336431924526,1.0,1.0484651407792822
752,-0.5066931040621367,1.0,1.920480756810167
753,-0.9061698675463744,0.0,-0.12630734818689565
754,0.21015167383432914,1.0,1.1971133152540814
755,1.6690014530761723,0.0,4.86447737074792
756,-0.994692194741394,1.0,-2.109622823116341
757,0.14288598643135253,1.0,-0.524979358503731
758,0.0757314928190047,0.0,0.9227981832476037
759,-0.7047670147537722,0.0,-4.758505952213888
760,1.9434720275797364,0.0,5.418844876710906
761,-1.012311056728435,0.0,-2.9699436394828913
762,-0.7854181835832316,1.0,-0.6518237870823754
763,0.5104034909063916,1.0,3.2248443640490003
764,0.13226865547819863,1.0,3.708028933404779
765,0.6057361805801518,0.0,2.6284622065311867
766,-0.34981801997572864,1.0,1.4641041795405687
767,-0.05298119513383515,1.0,-0.12167733158710992
768,0.65419029469568,0.0,1.0230819148979937
769,1.2360622140610242,0.0,3.4091462178914593
770,0.682426489591125,1.0,1.2263773420746387
771,0.16493736805392759,0.0,1.9824068804603394
772,0.05219763415558166,0.0,0.5159152589969147
773,-0.8222861367158586,1.0,-2.593420196716928
774,-0.05818068013850091,1.0,2.7410937085552
775,1.7707492751310192,1.0,4.718796248891231
776,-0.85722481409028,0.0,-1.4509886682808664
777,0.28206370727475816,0.0,0.41656061601492594
778,0.8123957333960579,1.0,1.7934196211607452
779,-0.18427932817641554,0.0,0.2011034744329797
780,0.5869415014851331,0.0,1.6327652591388673
781,0.13338172215153002,1.0,-0.6078504519737845
782,0.08192421474198781,0.0,0.97778316748698
783,0.3578472804767542,0.0,-0.07322138761866404
784,-2.6095336084351772,1.0,-5.033711852158449
785,-0.5916358488435686,1.0,0.4421175243607477
786,0.2145128731222212,1.0,1.5759174345962215
787,0.996695850906198,0.0,5.365770634596538
788,0.05570472829613725,0.0,-0.7059153700596121
789,-1.0298911871832537,1.0,-2.1505274938569325
790,0.45422051014232184,1.0,2.983439260010404
791,-0.8588275409396767,0.0,-1.755326181196652
792,0.6478122742766221,1.0,3.141612659940191
793,-1.6135246620309116,1.0,-2.7351722571158694
794,0.6822071380106568,1.0,1.8339140982445075
795,0.011008226549826469,0.0,-0.33071942572530827
796,-0.30397389167639804,1.0,-0.23473933301486383
797,-0.2164662049668728,1.0,1.5584199810250559
798,-0.605544059651319,1.0,-1.01996014814241
799,0.5279192287526835,1.0,1.9760249666250593
800,-0.07274970205768971,0.0,-0.17716660932178288
801,-1.387442269634614,0.0,-1.142563886708193
802,0.7586814691596921,0.0,3.6949916124565885
803,-1.0493703102849605,1.0,-2.962559172522245
804,-0.4487132555694322,0.0,-0.46325385782972317
805,-0.20090275039931715,0.0,0.8113912048144701
806,-2.6582995859425216,0.0,-7.537492497102395
807,-0.648865249657054,1.0,-1.2333163843624746
808,-0.7814146327744453,0.0,-3.453403605575863
809,-0.2462595589508852,1.0,1.3171007648370359
810,-0.016082358283793292,1.0,0.3671981817879967
811,-0.23019309049088124,0.0,-0.12327904222333597
812,-0.9257793620108774,1.0,-1.1623481204620496
813,0.4316980030286321,1.0,2.277676281771303
814,-0.8927345868824124,1.0,0.41209152835140045
815,-1.3237548749388068,1.0,-1.8961166388482227
816,-1.896588756345237,1.0,-3.0461514111331893
817,-2.825762352870732,0.0,-5.58771580228
818,-0.5327931726656043,1.0,-0.6719809079728515
819,1.2120052675589537,0.0,5.231211499888406
820,0.6931986159302591,0.0,3.067527490144325
821,-0.4498478103223428,0.0,-1.5811656860585428
822,-0.2972164029491829,1.0,-0.33773523344252526
823,-2.460833308199461,1.0,-6.566042044928438
824,-1.1527027224689914,1.0,-3.4845927943085973
825,0.3063857427037758,0.0,0.5425391760475782
826,1.674027873578634,0.0,4.570201861899899
827,-3.5675365156222942,1.0,-7.706667437286512
828,-0.7743239395749308,1.0,-0.047135704990566296
829,-1.2069560244995505,1.0,-3.1664347307442333
830,0.1005481777689527,1.0,-0.35038021246000883
831,0.7807856125143887,0.0,2.0812413368792813
832,1.901527388816756,1.0,5.236408046732416
833,0.049843240789415925,1.0,1.6854534446462894
834,1.4032517651440335,1.0,3.0539955025956664
835,-0.03726846572635269,0.0,-0.46581151996930337
836,-0.03979785578599682,0.0,2.3528557538003527
837,-1.5262432269949162,0.0,-3.5818946754699965
838,0.6605474731687566,0.0,2.236365859825205
839,-1.3063670140458132,1.0,-3.6327435294038835
840,-0.4893383525252792,1.0,1.2776475658790942
841,-0.06206430071290337,0.0,0.3112511119289147
842,-1.012729748067402,1.0,-2.6898589723334765
843,0.5921990049986614,0.0,1.4483086796503677
844,-0.35225102680646597,1.0,-1.638652974133423
845,-0.6309796001298303,1.0,-0.53767898844629
846,0.3713800056214697,0.0,1.3281477298872608
847,-0.5141502316769029,1.0,-2.2295718312684745
848,0.29655400098920043,0.0,1.941298859987802
849,-1.9433667420137826,0.0,-3.2390756536957364
850,-2.139414838360154,0.0,-4.5530644868335495
851,0.8373174961628039,0.0,1.528364700239751
852,-1.020364128005612,0.0,-0.6682590307546807
853,-0.2883401220630058,1.0,0.14142431427201219
854,1.3165078126230838,1.0,3.4483876553899377
855,-0.31248914603569505,0.0,-1.0732863415779859
856,-0.40570621493671527,1.0,1.4968512324212901
857,-1.7629355878702528,0.0,-5.003507398138702
858,0.6169073295075114,0.0,2.966490048470492
859,-1.3156538291165611,0.0,-2.0285851958244305
860,1.5418466419857157,1.0,3.835036511201
861,-0.3631214314433126,1.0,-0.9235687786012896
862,1.0626239529739856,1.0,3.293153390303289
863,0.10448419918746651,0.0,-0.4522578216241745
864,-0.8538011269617498,1.0,-0.620387370994176
865,0.20096143856572865,0.0,0.3160595628245847
866,0.3040239920810229,0.0,1.9681949490479043
867,-1.6861054026415694,1.0,-4.051653030878819
868,2.335810268355169,0.0,6.557630438386906
869,0.1811251047453512,0.0,0.9145764053332455
870,1.5266014176148563,1.0,4.50034478509106
871,1.3625766042102483,0.0,1.1417668610095213
872,-1.7272483602628648,0.0,-1.0832174564796848
873,-0.32517705540622105,1.0,0.15437360886722606
874,1.2371121628333466,1.0,5.5873399364965195
875,0.27046860009220414,0.0,1.5310387046860654
876,0.1809274476204128,1.0,0.9366483417724334
877,0.4329921043049552,1.0,1.2168328401176014
878,0.7604158447057248,1.0,4.444229510350487
879,-0.22223958004913202,0.0,-1.0266348007922237
880,0.0898851330010086,0.0,0.7598295114410731
881,0.5270198022408792,0.0,1.850375602397898
882,-1.1034863812994893,0.0,-1.7740214763894937
883,1.6143141922721482,0.0,3.9777703328205107
884,-0.43054074855502217,0.0,0.798156352376798
885,-1.0228564570635643,0.0,-3.0534893014096296
886,0.15155695549330536,1.0,1.026381370021017
887,-0.9730742436889606,0.0,-0.1657377532713683
888,0.6216375276133722,0.0,1.400595863358838
889,1.1693394624945146,0.0,2.833946065414514
890,1.078229695753581,1.0,4.431189640763622
891,-0.3599332148272901,1.0,-0.6538639066779861
892,-0.33915870065736725,1.0,0.16095524238637154
893,0.6152962566920628,0.0,1.6927862702183494
894,0.7068249162734436,1.0,1.9596163745983735
895,1.0754864698206765,0.0,3.4218055878680764
896,-1.7294651397008285,0.0,-4.18756149555801
897,0.746606563144321,1.0,4.162616315862388
898,0.010523846337194808,1.0,-0.17779891649667665
899,1.9451726945126655,1.0,6.638608993590375
900,-1.0087409650237116,0.0,-1.048822186990155
901,0.9158200824954548,1.0,2.099898930605037
902,-1.358862397158684,0.0,-2.355767564303507
903,0.016379324480242395,1.0,0.24999244515027064
904,0.08473384497345335,0.0,1.7496989324824497
905,-1.1246730959634692,1.0,-2.5697501635983446
906,-0.8288301685972889,1.0,-1.5489152595937834
907,-0.5949424171203697,0.0,-0.4840197156034014
908,0.1115602896874949,0.0,-0.49938844396198556
909,-0.326153972149121,1.0,-0.13028556995300608
910,-0.5723720488378775,0.0,0.320383829576938
911,-0.796168617720456,1.0,-1.8673323743755859
912,0.32326396265942914,1.0,1.8471354699232154
913,1.5685859289129822,1.0,4.800343526031068
914,-0.8505776881158291,0.0,-2.293981136044534
915,-2.297281435933623,0.0,-5.064560804095833
916,1.011519442624627,1.0,4.674048092417874
917,-0.8464479571124274,0.0,-0.09047919008793137
918,-1.7533323861985075,1.0,-4.897110640830094
919,1.190510237272799,1.0,3.500433995877978
920,-1.367814561121805,1.0,-4.1194178284322165
921,0.7608556994445548,1.0,3.2639027830582235
922,0.6325598256043775,0.0,2.091757981425504
923,0.6812702433826668,1.0,1.3322281707488886
924,1.037458082866467,0.0,1.9405820806746281
925,-0.7404445999289833,1.0,-0.7095118184965585
926,0.4226598208549244,1.0,4.10577599561846
927,0.20700398495567918,0.0,0.8542092205253383
928,1.2159673051666295,1.0,5.051076961309544
929,0.47119894509413685,0.0,1.4467219061795993
930,-0.40157353199004603,1.0,-0.3062515219037029
931,-0.05642729031947431,1.0,1.9236274404773992
932,0.47471506546295283,0.0,1.2892435809591638
933,-0.3485272758971477,1.0,-0.7315814307392707
934,-0.10383842503061012,1.0,0.8734379388980111
935,-0.6997714779485723,1.0,-2.814977424191772
936,0.7569991725235132,1.0,2.377060257548413
937,0.5908520211382576,1.0,3.067483063514423
938,-0.7083560118602148,0.0,-2.481468152237131
939,0.45448735681868163,1.0,3.1415785849187254
940,-0.3828358360663132,1.0,-0.5026821679058302
941,-0.8105942056148296,0.0,-0.9615217568942217
942,-0.0037532032533595413,1.0,-1.200343391442786
943,-0.38824446343300906,0.0,-2.257170425837167
944,0.7225500320461994,1.0,2.3834825248171674
945,-0.04868850282806072,0.0,1.2735508235661803
946,2.079766643873745,0.0,5.409752601047588
947,0.429484281283063,0.0,3.0142618556790635
948,1.3627733956306807,1.0,4.02408524716531
949,0.8072866944172764,1.0,2.0781980438470966
950,-0.6403582070944132,1.0,1.0692020586069089
951,-0.15965099144882383,0.0,-1.1366553052942612
952,-0.024833862981961607,0.0,1.7092464782328363
953,1.3030448259088356,0.0,3.1859025073405522
954,-0.9907294213056995,0.0,-2.1134792448404185
955,-2.448871633462787,1.0,-6.317023398736028
956,-2.0032280257299613,1.0,-4.266954418965736
957,-0.39769290070274466,0.0,1.1573343555634688
958,1.686763473171436,1.0,5.599868701617605
959,0.8962012109816712,1.0,1.809731850470338
960,-0.8794408347823082,1.0,-0.8584349702739389
961,1.3480705453219166,1.0,7.499374107542503
962,0.6201454486383722,1.0,2.863140177520726
963,-0.8495249246054067,1.0,-0.9591125058434391
964,-0.06827544039367404,0.0,0.9294447187681458
965,1.5684068460465745,0.0,4.4165546416177754
966,-2.2429697538532887,1.0,-3.9970900083099323
967,1.1812175106054117,0.0,1.3274773812516636
968,-0.12867293832773805,1.0,1.3948655712205666
969,0.6426177880605046,0.0,1.363508339238305
970,0.14807816176675556,0.0,2.492487256797545
971,-1.6665580097413646,0.0,-4.647068906426174
972,1.3714246875326965,0.0,3.1957854689018967
973,-0.11196846773948219,0.0,1.0638051944793876
974,0.8619080195866122,1.0,2.4641571456927465
975,1.6569277292614255,1.0,6.233477336641221
976,0.7611949155163796,1.0,3.8093710135500607
977,0.22461986322781963,0.0,-0.533366229904802
978,-1.835889890705203,1.0,-4.37523300581372
979,0.4425314043042596,0.0,-0.4976922051231193
980,0.0134364121517039,0.0,-0.4139085156019736
981,-0.8203459158139399,0.0,-1.423050432586515
982,0.9300418811593688,1.0,3.145447349061091
983,0.2639385174836077,0.0,4.645486400965101
984,0.32385150408663427,0.0,0.939015629892511
985,1.122672531018896,1.0,2.8098467488787224
986,-0.3993072144956047,1.0,-1.5811358985901265
987,-0.07622960607250186,1.0,0.7058102625659789
988,1.1657339370176365,1.0,2.269338901189033
989,-0.39966987698434336,0.0,-0.24785050885936083
990,1.2474583928222989,1.0,4.762621702598917
991,1.4262411446725876,0.0,3.17431594373029
992,-0.5519768255225358,1.0,0.2599815336029324
993,1.6305972842890406,1.0,4.291587613481175
994,-0.4676222449315994,1.0,-1.4178427853283748
995,1.4276694966373307,0.0,6.158364704139806
996,-1.6271035338332016,0.0,-1.9970668325967111
997,-0.2800317142740978,1.0,1.6308618861551225
998,1.0422343178742246,1.0,3.6969616066119775
999,-0.5376359209335435,1.0,-1.3641395915703933
