,x,treatment,y
0,-0.3447749986978202,0.0,-0.004447569707397014
1,-0.48474937760942327,0.0,-0.1789698176269892
2,-0.7954606949405099,0.0,-0.48009901469568783
3,1.326540475708436,1.0,3.718208030353186
4,2.1945270507121695,1.0,4.73099336855902
5,0.24890028492371402,1.0,2.3732053697978976
6,0.5371330552154036,1.0,2.6613646143834644
7,-3.2457024452703678,0.0,-3.388493443495244
8,-0.6620969763504827,0.0,-0.26798472677850715
9,-0.4278955067877531,0.0,0.07445744446077071
10,-1.5436494101209388,0.0,-1.3244496806247683
11,0.46238555357744726,1.0,2.6481049864494444
12,0.6540018592508696,1.0,2.706526632524935
13,1.3203411289007583,1.0,3.6047888140469997
14,-0.1288998872289818,0.0,0.2112940573538016
15,-1.0312228097466989,0.0,-0.6829866039713333
16,0.8992522713218838,1.0,3.0973488441036503
17,0.021741531274048556,1.0,2.017991949345661
18,0.8036895545611717,1.0,2.8785055969385276
19,-0.2755079309608903,0.0,0.07923033146464298
20,0.5882910408031359,1.0,2.6268826559723757
21,2.380727124888453,1.0,4.717009258960076
22,-0.5368295080953023,0.0,-0.16938011293949728
23,1.2855869803715327,1.0,3.5730233453148554
24,-0.8557643507749942,0.0,-0.6358933698131202
25,0.41341821843851395,1.0,2.59525144455438
26,0.1116914815301329,1.0,2.163756473971848
27,-1.796104319010313,0.0,-1.7672859721483292
28,-1.2092918359730032,0.0,-0.6031790618720851
29,-0.20976387522746076,0.0,0.277364871349907
30,0.41128706662974535,1.0,2.450874569951649
31,-0.08236225417942052,0.0,0.47487122522490627
32,1.0834861450941244,1.0,3.3435211181965028
33,-0.605082748056573,0.0,-0.19739689825121964
34,2.4692790423024253,1.0,5.07731319025109
35,1.181620966208208,1.0,3.4622186639388772
36,-1.9465018851230287,0.0,-1.781462621760291
37,0.5518410518375171,1.0,2.660119514280149
38,0.8401787127913247,1.0,2.976510502976828
39,1.314009746353516,1.0,3.5921499703544724
40,-0.5903893940512671,0.0,-0.13940893852589298
41,-1.5758596337080977,0.0,-1.309062763363355
42,0.047200891881588596,1.0,1.9954321500227727
43,0.5164150327784831,1.0,2.756141340499149
44,0.482165850962209,1.0,2.3418074251635788
45,0.7361885766990146,1.0,2.681143224743054
46,-0.6969177106448519,0.0,-0.2819425644116863
47,0.3878152556917705,1.0,2.444961968838847
48,-1.594951139684729,0.0,-1.450445302083615
49,-2.024399915424346,0.0,-1.8288672958134025
50,0.6730621789158406,1.0,2.7874670184408825
51,-0.7629796478656186,0.0,-0.6470277049298185
52,-2.2447433041874585,0.0,-2.1977108446302225
53,-0.4116050934787109,0.0,0.0024670442828568385
54,0.5623774883533221,1.0,2.5838125827832332
55,0.47817706318926845,1.0,2.6247275555302614
56,-0.01005390352014886,0.0,0.5405904748331589
57,-0.2626965611619211,0.0,0.14149888877520256
58,-1.1031312621615608,0.0,-0.7149358417295355
59,-3.201862756114835,0.0,-3.275584622956484
60,1.2025441303341948,1.0,3.4117994418267337
61,-0.9335235944594915,0.0,-0.648864343391104
62,1.9577379928902963,1.0,4.349943891897988
63,-0.43988282492972364,0.0,-0.044565920846342116
64,0.941820949439303,1.0,3.111238018781876
65,-1.4857634619852484,0.0,-1.2553625987574395
66,1.1339951705224756,1.0,3.34218052328424
67,1.2653698411678467,1.0,3.459628503980971
68,-1.226920441538041,0.0,-0.85689623075898
69,0.9312757913398575,1.0,3.040309620458825
70,1.065163226008373,1.0,3.3716082158369365
71,-0.2527523763534515,0.0,0.2063742195651651
72,-0.20136110874791055,0.0,0.15294410997059532
73,0.15511497579000447,1.0,2.2315234253050535
74,1.335148576840099,1.0,3.6909482313932025
75,-0.4746664204440003,0.0,-0.06797259495489757
76,-0.8915463478081365,0.0,-0.5692356077346267
77,-0.16921307917291897,0.0,0.2717894622982003
78,0.9409268213880551,1.0,3.310060523031242
79,0.5272913075831415,1.0,2.6563862304866674
80,1.214795343462143,1.0,3.4412968248969915
81,-0.7591678615092649,0.0,-0.47549339893993864
82,0.0817696681698484,1.0,2.0238133682911283
83,-1.0260083877448158,0.0,-0.7284903461127926
84,-1.1542572266594142,0.0,-0.967210496247581
85,-0.7724060776638062,0.0,-0.3864855048082745
86,0.6375099413420998,1.0,2.770315979820462
87,-2.056591789435939,0.0,-1.8828162530561352
88,-1.004857207474112,0.0,-0.6833099491153289
89,-0.21708999397012504,0.0,0.16541974904373935
90,0.26920148535893357,1.0,2.3486902368701337
91,0.7772483305637851,1.0,2.9988594253608603
92,0.1467002591650179,1.0,2.240803959544662
93,-0.7760131692758706,0.0,-0.46362899983780365
94,-0.4311183480572215,0.0,0.07539256361557654
95,-0.44700709908088976,0.0,-0.24729509638598385
96,-1.120576375929156,0.0,-0.7392675146273456
97,1.1887154373801945,1.0,3.467520653045122
98,-0.04383099271804058,0.0,0.501960335460642
99,0.03693428681221294,1.0,2.1397808394514857
100,1.2853839536173859,1.0,3.5668528016657266
101,-1.2714033566087624,0.0,-1.1069445370830702
102,0.36386881997119813,1.0,2.34611797026989
103,2.0210383313312272,1.0,4.423038173476773
104,-0.8342429776963293,0.0,-0.47991175310246226
105,0.2930123696218679,1.0,2.452464533334163
106,-1.173772595280626,0.0,-0.7582028458419501
107,1.6687760224908894,1.0,4.1447227617871
108,-1.0792010745479679,0.0,-0.8990479743310594
109,-0.32223752658030225,0.0,0.12852233262857488
110,0.3355540726114154,1.0,2.5527752266476695
111,0.4432996702147363,1.0,2.4482344061348518
112,0.17023610134400524,1.0,2.2633319438978963
113,0.631171572433282,1.0,2.7400243722269098
114,-0.29941990452576145,0.0,-0.009842573410145716
115,1.8549108764439761,1.0,4.029351148803852
116,-0.5059514600541661,0.0,-0.01860292460623969
117,0.016418401097364064,1.0,2.1654917067334303
118,-0.6599452225586616,0.0,-0.3017727566032684
119,-2.375594192075006,0.0,-2.369056963110915
120,0.7645331529636229,1.0,3.034907832264252
121,0.47006846824786913,1.0,2.6818880269854657
122,0.4627781161335746,1.0,2.639514471834763
123,0.38349990076884277,1.0,2.4642039263111015
124,1.3537473947629062,1.0,3.734452739639009
125,1.466371460332727,1.0,3.7735773393461214
126,-0.7342375623519605,0.0,-0.18613018861335995
127,0.3075671455873728,1.0,2.5300432591230875
128,0.9425202173366048,1.0,3.025665558927115
129,0.1932449941537567,1.0,2.430966939402134
130,0.6094322233533553,1.0,2.6071189814013644
131,-1.1786023206791763,0.0,-1.047593215698402
132,1.0668096926926987,1.0,3.214372745403766
133,-0.7317355289266536,0.0,-0.349108588672106
134,0.6165806720994835,1.0,2.7005165630690477
135,-1.3629583267909138,0.0,-1.1754355956745963
136,0.7922929677642929,1.0,2.9570686390481327
137,1.208289812193891,1.0,3.391629687973168
138,-0.9129271389437187,0.0,-0.5459945837035618
139,0.8004527398614673,1.0,2.7834891992036113
140,-0.0013653755316448122,0.0,0.37805673762109676
141,0.5724054117634425,1.0,2.673417267117799
142,-0.6286425032582307,0.0,-0.3076157312624994
143,0.2501072570166611,1.0,2.3325008759759727
144,0.5045070482803548,1.0,2.6398695095285647
145,-1.1253294410891397,0.0,-1.0449465173916646
146,0.587939508009496,1.0,2.7316347223427617
147,0.1345983708662258,1.0,2.113382430636947
148,1.0504593020969295,1.0,3.1630262094985184
149,0.5444075579315452,1.0,2.771051334035948
150,-1.1966006814917067,0.0,-0.8423910521858272
151,-0.9068556241512419,0.0,-0.5557554709270591
152,0.12809454193867328,1.0,2.212115658242466
153,-0.38133611172882764,0.0,-0.11283951538712217
154,0.6291183289569141,1.0,2.7780879056776944
155,-1.2047369315963028,0.0,-0.946509559702706
156,0.26086903918491255,1.0,2.2845166062349254
157,0.010974140727232374,1.0,1.967373925202243
158,1.3442270760457888,1.0,3.698196304309277
159,0.014931554134837821,1.0,1.9939049867490566
160,1.173868538123199,1.0,3.469674574043254
161,0.5890084605196008,1.0,2.647397201311486
162,-1.7661479667356716,0.0,-1.659830753489294
163,-2.277462923397371,0.0,-2.1000092680282405
164,1.3706782850736452,1.0,3.7157352758692634
165,-1.6743145029666004,0.0,-1.3426779028646076
166,-1.0701889172462482,0.0,-0.6639469476090218
167,0.4541770932502035,1.0,2.574152118033117
168,0.2338904774126714,1.0,2.1588971177842113
169,-0.5698449550381227,0.0,-0.3866178495871141
170,0.3779234591346087,1.0,2.314199411160873
171,0.9913775487503507,1.0,3.2599351457106085
172,0.37932507950244115,1.0,2.422350941514869
173,0.8595197970941406,1.0,3.077692770271486
174,0.23197765583160082,1.0,2.3246837544265926
175,-1.0631402531672096,0.0,-0.681507785346395
176,-0.02391985108991889,0.0,0.38445787278091903
177,0.3046493134920411,1.0,2.3568526588629086
178,1.063743280550194,1.0,3.3212637313893816
179,0.6074735075342892,1.0,2.8468074221322546
180,-0.1466247869802141,0.0,0.10614107797838374
181,-0.27442022829800605,0.0,0.2573422249025665
182,0.0911222279076691,1.0,1.9766985613883965
183,-0.1062453721256358,0.0,0.4414937455138933
184,-0.537371706189361,0.0,-0.16029414324295246
185,-1.5537808369086246,0.0,-1.2621877152934333
186,-0.0006460599127905837,0.0,0.4326912446289592
187,-0.11956987000638128,0.0,0.11767489611291196
188,0.872468206090302,1.0,2.9682647681870282
189,0.961570327468982,1.0,3.0168332783022693
190,0.015307824865944793,1.0,2.083196855094816
191,0.4338356860480558,1.0,2.4760161779656222
192,1.971324494418617,1.0,4.3563722769648905
193,-0.3703194504339507,0.0,0.14691412774335932
194,-0.32416439186245005,0.0,0.15866885826893806
195,0.9006457203974083,1.0,3.180072468545714
196,0.3400540494039745,1.0,2.3059560942621804
197,1.2634518552315432,1.0,3.3867072610037057
198,0.7630707249693014,1.0,2.877323407759744
199,2.2374439020904204,1.0,4.608262660168118
200,-1.983889827766661,0.0,-1.846697786980971
201,0.8274045935151499,1.0,2.955261359648267
202,-0.5077487367085345,0.0,-0.13891179943043241
203,-0.6425733489896248,0.0,-0.3054936676500142
204,-1.469163720960205,0.0,-1.1328096034741855
205,-1.0329555165556035,0.0,-0.6831135153827654
206,-0.7470299163829921,0.0,-0.24774131122075924
207,-0.9338741717793826,0.0,-0.7113253245928429
208,-0.2696719271032428,0.0,0.1356559898420741
209,1.2826148498718977,1.0,3.3935734351060143
210,0.18593270841450604,1.0,2.2081405223873602
211,0.5779736572994078,1.0,2.620162386123078
212,-3.1798989498167876,0.0,-3.16616818786849
213,1.2728204283508944,1.0,3.4235618741402103
214,-0.3981403420663798,0.0,-0.0649899964388964
215,-0.37011757892638636,0.0,0.01784324117216666
216,0.46425677650692426,1.0,2.418320092825591
217,-0.5823324212369669,0.0,-0.19479234649232927
218,-0.5481803992703174,0.0,-0.16806204554396426
219,-0.46426024437427954,0.0,-0.09563666772727047
220,-1.964579080316113,0.0,-1.8195760068385656
221,-1.2068206418433245,0.0,-0.8672233462158708
222,0.36163609105279587,1.0,2.4679638516622733
223,-1.6908429365374018,0.0,-1.4467022580553865
224,-0.34865072947818104,0.0,0.16630547123478073
225,0.07422454545301872,1.0,2.1581060715891036
226,0.35260557911144713,1.0,2.297141544747646
227,0.25837974865890356,1.0,2.3838327767810803
228,1.5148037270768513,1.0,3.9988605846580914
229,2.135885810719727,1.0,4.673047873436625
230,-2.2204622613278397,0.0,-2.1076251794320746
231,0.4503153133598726,1.0,2.7174812153973065
232,-0.6506526589024169,0.0,-0.29876252656368907
233,-0.14241082765453286,0.0,0.3462857505159933
234,0.8993485505464528,1.0,2.920426730574856
235,-1.858071813912377,0.0,-1.9761065889112157
236,-0.6060504057750471,0.0,-0.23797893543031573
237,-0.2270540147332809,0.0,0.0091603727982002
238,1.8688312618860652,1.0,4.1474753327009335
239,-0.09079972357954608,0.0,0.54675173807772
240,0.10775873178794622,1.0,2.293140353640158
241,-1.2282804747761236,0.0,-1.0042064032681148
242,-0.29335843441000065,0.0,0.0547311369586056
243,-0.6167596825804136,0.0,-0.20790669362435635
244,-1.6187965233368335,0.0,-1.471979212665377
245,-0.32584935852451247,0.0,0.05724919895871999
246,1.7290060594620489,1.0,4.00174842637191
247,0.12876419495077937,1.0,2.1651017508535415
248,-0.22039579223537387,0.0,0.47926420517947493
249,0.39717559037475897,1.0,2.4616105619282265
250,-0.3099011795230361,0.0,0.08854798498480626
251,0.1224712389170572,1.0,1.9984310435417167
252,0.11882240733733683,1.0,2.198118259153164
253,0.028080645277000615,1.0,1.9708858335639392
254,0.3223408947269931,1.0,2.4272077520328943
255,-0.6954040180003036,0.0,-0.2577133091950033
256,-1.9551227968185132,0.0,-1.847191082739226
257,1.0290767802098522,1.0,3.1907437540473156
258,-0.6716826281679339,0.0,-0.20972711642283332
259,0.2976038496732881,1.0,2.30729440824212
260,0.4573259382257644,1.0,2.5286311025857504
261,0.4313367576305679,1.0,2.522461554863488
262,-0.8618220567916037,0.0,-0.5568880746248014
263,-1.7536775420697917,0.0,-1.570900421037456
264,0.13438650433331586,1.0,2.1153083663597965
265,-1.0983287090757248,0.0,-0.7559176343697929
266,-0.09302826287178473,0.0,0.20715428121858018
267,-1.9251060593838074,0.0,-1.8458062288756203
268,-0.17425389375415282,0.0,0.3813886256689385
269,-1.0209295096208288,0.0,-0.7910386468390807
270,-1.378685315352477,0.0,-1.0143141916260858
271,-0.7528582366296235,0.0,-0.283856066831486
272,0.08586639510285192,1.0,1.9958728361940234
273,1.350691036206219,1.0,3.5335639075803282
274,-1.354115237023401,0.0,-0.9667977075567517
275,1.0869058198522807,1.0,3.343506809042754
276,1.3137910461422913,1.0,3.6423834903783447
277,-0.7616477601379454,0.0,-0.44611252370543814
278,0.4490668566987578,1.0,2.4594897243664113
279,0.928942724126511,1.0,3.318378185633272
280,1.4641210478284608,1.0,3.829203034762232
281,-1.3763500055959894,0.0,-1.2143619498775127
282,-1.7045244227209246,0.0,-1.5143297386926031
283,1.437343228736479,1.0,3.787576079284036
284,0.5914589098857757,1.0,2.4939576924463775
285,-0.8470013510143564,0.0,-0.7995085278496676
286,-0.5006484074334003,0.0,-0.008097729469638437
287,0.8496891518397255,1.0,3.0236005860120274
288,-2.078890505491928,0.0,-1.7882528819419201
289,0.2837458900430244,1.0,2.390020329911296
290,-0.7557647391369707,0.0,-0.2933659011590238
291,0.7427207677073153,1.0,2.7536055981454672
292,-0.9902926707246829,0.0,-0.5704089928008199
293,1.883188711562632,1.0,4.290630916271124
294,-0.410107462243133,0.0,0.06218773997822189
295,0.780919857616705,1.0,2.976964805077717
296,0.3870156498258739,1.0,2.64995761781899
297,0.8730227170922071,1.0,3.071070458866207
298,1.7961028061474447,1.0,4.116800494605375
299,-0.03750398380323313,0.0,0.41791727331937784
300,1.39076425375373,1.0,3.738480403236763
301,-0.3156061735222573,0.0,0.06718124211573806
302,0.7643511373895273,1.0,2.9589049136632064
303,0.2476441044415015,1.0,2.209212744094298
304,1.991886116846662,1.0,4.477566269955822
305,0.23688961200856737,1.0,2.2657761371891794
306,0.49968692190519687,1.0,2.655907924921453
307,1.3815899353858612,1.0,3.7154200147605727
308,0.13698758097361907,1.0,2.2327602421398174
309,1.8394563033651066,1.0,4.15319317708275
310,-0.8739152820511451,0.0,-0.5338841249083137
311,0.9386245352907497,1.0,3.1304945225305385
312,0.6822214871648475,1.0,2.699470607594564
313,-1.5699183147013167,0.0,-1.3960887840296725
314,0.6690724081424222,1.0,2.735280307622138
315,-1.0205948730176082,0.0,-0.7881164691682314
316,0.1899219156985807,1.0,2.152175112998658
317,0.16919015447908634,1.0,2.1667231048218936
318,0.46312101111836773,1.0,2.5534996219074393
319,0.6756783841906575,1.0,2.762568167617526
320,0.9116185901055508,1.0,3.0445594216008547
321,-0.03452709670278063,0.0,0.6367765409204458
322,-0.9962863679016836,0.0,-0.6282175611507781
323,0.41139134154338247,1.0,2.543630543482682
324,1.662396896520225,1.0,3.965972715138393
325,-0.7690403716931732,0.0,-0.41823879484736526
326,-1.3394180635953552,0.0,-1.112966476023323
327,0.45489952325060695,1.0,2.5127770761020654
328,-0.95497990205469,0.0,-0.5260699474202737
329,-1.228943295351049,0.0,-0.9824174441456364
330,1.4816526777052865,1.0,3.9229959443617575
331,-0.017839790243810463,0.0,0.37346582155364266
332,-0.09517777519264493,0.0,0.4184298765451657
333,0.694984766646083,1.0,2.7403496877875484
334,0.5932588073356139,1.0,2.5238303783752123
335,0.4954660898791759,1.0,2.6927494213568677
336,-0.06957355377225613,0.0,0.26217414635090885
337,0.08748862714153247,1.0,2.0635575064353393
338,0.7033948519347293,1.0,2.737176351976418
339,-0.08253377416018386,0.0,0.5867842711236951
340,-0.4554555761567132,0.0,0.028370718922756194
341,1.4397930488108925,1.0,3.6561873198624872
342,-0.7044534571628464,0.0,-0.3686771904474435
343,0.10115893981881457,1.0,2.000700793192826
344,0.8982313630154755,1.0,3.173283229443712
345,0.48880358801574225,1.0,2.63979639444823
346,0.03452725874939085,1.0,1.9956081426862864
347,0.14341624643194037,1.0,2.0589382673412775
348,0.3726364773664619,1.0,2.458809224211973
349,0.18220740342130634,1.0,2.1856779504446857
350,-0.6433881187805692,0.0,-0.25861282402923674
351,0.1662050848870184,1.0,2.2006589006424444
352,-0.24141429854406446,0.0,-0.026900370622984338
353,0.26833698055857735,1.0,2.137660162209535
354,-0.3965892140238936,0.0,-0.03678678938409489
355,1.530789457266194,1.0,3.5973970913941837
356,-0.2775495164340004,0.0,0.33916186233458945
357,-0.7269378379386531,0.0,-0.41748446683935964
358,-1.6643347047244708,0.0,-1.3366562984209294
359,-0.7149937941583232,0.0,-0.36143253822119203
360,1.6069977030204918,1.0,3.8401620632877367
361,-0.4705238335024589,0.0,-0.22231391543711637
362,-1.180237393790541,0.0,-0.9515045159999301
363,-0.8660011220670336,0.0,-0.4725781769587655
364,0.022071622989139318,1.0,2.14262391996267
365,0.04496622683904129,1.0,1.9394223603528988
366,0.43633097892458,1.0,2.508030060492269
367,0.8054474300119576,1.0,3.01604542269611
368,-0.46567005651867316,0.0,-0.05889215052507868
369,-0.6597045270630497,0.0,-0.18737505866220006
370,-0.24139762472393508,0.0,0.13332834459002502
371,0.14862318933629484,1.0,2.275912656840516
372,-1.382099313334274,0.0,-1.1805226783119254
373,-0.5695825882779999,0.0,-0.3145768063900782
374,-0.1773299337593741,0.0,0.2079150732826043
375,0.3496167318188816,1.0,2.4469440489117273
376,-1.2348237329761824,0.0,-0.9962559006362157
377,0.0191972522175517,1.0,1.8780843620249001
378,0.4797531208390853,1.0,2.4410118142187276
379,-0.5398134423859282,0.0,-0.23225966305466372
380,-0.1495871636213944,0.0,0.4787336907810571
381,1.616336485701105,1.0,3.9397237766220647
382,0.14533733699121407,1.0,2.1006915637211128
383,-0.8979643682031417,0.0,-0.46761710076236956
384,0.29955988960681784,1.0,2.4507480057385265
385,0.5144143706488618,1.0,2.531692934545958
386,-0.07979119872373905,0.0,0.511868604013894
387,-0.23925836228758707,0.0,0.23738209789568246
388,0.12087416324517194,1.0,1.9990751814687344
389,0.031131384899858085,1.0,2.1134854919944224
390,-0.3938370639001483,0.0,0.136846702974475
391,0.9670696330666834,1.0,3.1928167784698056
392,-0.33672669340903094,0.0,0.30031266633283094
393,-0.6465424204025768,0.0,-0.2223122370357881
394,1.0107434250804492,1.0,3.114948778503551
395,-2.1717850564438548,0.0,-2.2255433830146227
396,1.33767217983907,1.0,3.6702835519376977
397,0.43745898653996035,1.0,2.3954441888131317
398,2.088747724623999,1.0,4.551313457786884
399,-0.1643023667813413,0.0,0.26354162369917883
400,-2.0163471215193574,0.0,-1.9750740283967358
401,-0.1689718319119743,0.0,0.3240634601708345
402,-0.7335513876003915,0.0,-0.4376949860662301
403,0.31059311279995233,1.0,2.303424191663577
404,-1.4285840989363503,0.0,-1.021901340415637
405,0.6646742434331456,1.0,2.7553177862384084
406,-1.2555576135851803,0.0,-1.0580225777205257
407,-1.1029570364844588,0.0,-0.592058376541759
408,-0.6809926131670138,0.0,-0.4504493770291107
409,-1.7776086913373466,0.0,-1.70413103550189
410,0.7059312923104475,1.0,2.820836530148371
411,0.29200853097067325,1.0,2.5002207372897196
412,1.9796233274209831,1.0,4.263584437384388
413,0.6057640698120142,1.0,2.757632418779501
414,1.8950961832822832,1.0,4.1490127340656
415,1.9608703313545643,1.0,4.381208344345486
416,1.3881218795771182,1.0,3.7221908358672113
417,-0.6489684366499338,0.0,-0.2161204459674061
418,1.1602375504309508,1.0,3.4174487896453214
419,-0.05455615567051407,0.0,0.48846795288373224
420,0.23256582903719988,1.0,2.1788787276290846
421,-1.0051896106347982,0.0,-0.5462559608342562
422,-0.6886982590513685,0.0,-0.26614254716370966
423,1.4250568372573347,1.0,3.589718309709531
424,-1.8985168513360386,0.0,-1.6939728702977939
425,1.7495201978826587,1.0,4.024681589141507
426,-0.7223150904502671,0.0,-0.29528030683163464
427,-0.3712551374526575,0.0,0.004737459780053459
428,-1.0532567728221311,0.0,-0.5505831923618904
429,-0.6756801878503214,0.0,-0.3221162624073588
430,-0.7499176873585524,0.0,-0.2627706539552726
431,-0.04005993032712977,0.0,0.3148047864282303
432,-0.7613130319317679,0.0,-0.3404834570989266
433,2.0220920402641567,1.0,4.376225365091265
434,0.6288726626535966,1.0,2.773704426413981
435,1.04924287263387,1.0,3.344218790633494
436,-0.045633400825562526,0.0,0.46551326570661455
437,0.5266111018438971,1.0,2.678943114336872
438,0.1687302486810781,1.0,2.1109196627885956
439,0.2806450751833775,1.0,2.4378722927633114
440,1.5091818466375222,1.0,3.8410648533925342
441,-1.4999396102251648,0.0,-1.4004635176846771
442,0.9276674645101903,1.0,3.1918001198526884
443,-1.3480052042599802,0.0,-1.1988670418053633
444,1.8942628081779598,1.0,4.342360488751165
445,2.5604618485164767,1.0,5.125614281366518
446,-0.5567891577216744,0.0,-0.19504994036893272
447,-0.010786457903841947,0.0,0.5024436329478601
448,2.40774878847498,1.0,4.673037924804666
449,-0.24929477315307536,0.0,0.011274250870243918
450,-1.1515257834375994,0.0,-0.9443361050813966
451,1.9288851750008749,1.0,4.26496728719991
452,-0.21586791898898033,0.0,0.2804061087125574
453,-0.45739486868418155,0.0,-0.15583079767779953
454,-0.7153642813683919,0.0,-0.36082462444542646
455,0.19319364111214668,1.0,2.308244206533814
456,-2.284841046805623,0.0,-2.134627569395734
457,0.4912986063010682,1.0,2.6400999875725035
458,0.4282168139005059,1.0,2.513371310728649
459,-0.024337857213275447,0.0,0.5461770291421417
460,-0.48250268838657306,0.0,-0.2685800117815874
461,-2.2499033483441013,0.0,-2.2086032025962083
462,1.1698495075912474,1.0,3.458381069482192
463,-1.0084069604032453,0.0,-0.778241870706516
464,-1.0448918528383844,0.0,-0.7467185042491227
465,-1.1144743181014725,0.0,-0.9677356047560998
466,-0.5263084984746911,0.0,-0.044381039468180825
467,0.20752765615729843,1.0,2.318161666918792
468,1.3589476644936394,1.0,3.692972506906935
469,-0.4006599378236999,0.0,0.12408182552049363
470,-0.9638784398888733,0.0,-0.5374979266181923
471,0.32950058031877705,1.0,2.404634037974082
472,0.7362846626876085,1.0,2.813098894113042
473,0.4609711399442482,1.0,2.554945904906678
474,-0.9789763360671425,0.0,-0.4716254111964073
475,-0.5087878634889402,0.0,-0.14540084725848162
476,-0.4364939384921997,0.0,0.0446532676350711
477,1.0122429272278919,1.0,3.1641413288745244
478,1.1298180266792113,1.0,3.497275918259213
479,0.2953570012977299,1.0,2.4908215870930093
480,-1.2096449204704383,0.0,-0.8924277403982568
481,0.0639211014868487,1.0,1.887439738366804
482,-0.8487755242095095,0.0,-0.5444756398306497
483,-0.019439832268885394,0.0,0.4921312019204732
484,1.2848387678011537,1.0,3.3457613311946375
485,-1.528942618672488,0.0,-1.2627304409841587
486,-0.007827484066257401,0.0,0.3081325017818973
487,1.3468083582686263,1.0,3.521974410033363
488,-0.5281755938223068,0.0,-0.011741884430139682
489,1.3117663256404826,1.0,3.6166967159550536
490,-1.490577225012407,0.0,-1.3175275634319996
491,-0.663943532541124,0.0,-0.2119544820529053
492,-0.996526614779956,0.0,-0.8094628184538686
493,1.0596311460858876,1.0,3.178578801315438
494,1.1053701602262895,1.0,3.402938145375116
495,0.6618989401872195,1.0,2.813217533825054
496,0.7384209649174361,1.0,2.923396433575684
497,1.5803434325723678,1.0,3.8186025592534567
498,-1.643487166575131,0.0,-1.476068907192554
499,-1.2472909269008603,0.0,-0.7504548185729668
500,-0.21563982957310138,0.0,0.32075888791209367
501,-1.3734186893732026,0.0,-0.9974223079146461
502,-0.132088814856241,0.0,0.3860224374813718
503,1.3352865735016397,1.0,3.5211754262890786
504,-0.2993382354244104,0.0,0.10955539861766836
505,-0.5466777240586046,0.0,-0.010885143439925138
506,-0.9150712640265601,0.0,-0.7923334600205918
507,-1.3103394963440587,0.0,-1.119437190046819
508,0.6034861740435679,1.0,2.7445547428719923
509,1.5468052416325841,1.0,3.8659738391367653
510,-1.4810193251808776,0.0,-1.318206372644338
511,-0.3720657756177922,0.0,0.015785874451442215
512,-0.5589006097349505,0.0,-0.391497217132072
513,-1.4976095362575146,0.0,-1.335840793315037
514,0.44990034708498206,1.0,2.4746457778482855
515,-0.4470375641716859,0.0,-0.21186685971660915
516,1.1375860093270995,1.0,3.2953911310767445
517,-0.9717137942496509,0.0,-0.7116131469272251
518,0.31600975609983,1.0,2.4248923169270267
519,0.23586444263772433,1.0,2.257837370826042
520,1.112741157517791,1.0,3.128924020661141
521,-0.40546676250245534,0.0,0.02548276418810568
522,-0.7851783639246536,0.0,-0.4546590071106298
523,-0.07571599836551532,0.0,0.35325632578849364
524,1.9054725960174888,1.0,4.421662207717332
525,-0.7082369805006713,0.0,-0.3823964457868142
526,-0.33163423256086244,0.0,-0.16946928175634807
527,1.9180194376584232,1.0,4.245580111567037
528,-0.44444962956615097,0.0,-0.07030405971057307
529,0.6238165029845861,1.0,2.761762734517822
530,-0.18269568081549123,0.0,0.35543886391704727
531,0.27612761782475165,1.0,2.3937811842242263
532,-0.8576121004514708,0.0,-0.49378786175457645
533,0.19632113715032126,1.0,2.1095384161790878
534,1.4582769450867317,1.0,3.5444817792647827
535,2.3258970926812013,1.0,4.5980529615887
536,-0.4561949526421454,0.0,0.056428524962474635
537,0.5588524001875197,1.0,2.6749722297043403
538,0.7126063034285801,1.0,2.973162935593627
539,1.1203992681780885,1.0,3.4682771612137993
540,-1.3475694956792295,0.0,-1.0074771656773323
541,1.9358680053262447,1.0,4.22392876938557
542,-0.15010741437041528,0.0,0.26759361279701727
543,-0.09555171464463157,0.0,0.38843052742146134
544,-1.5931201434125952,0.0,-1.2872991188063128
545,0.6895857198737947,1.0,2.8668997456901537
546,0.6795473895289449,1.0,2.928719696056508
547,1.9778944628230564,1.0,4.30291869475376
548,1.1408202512043766,1.0,3.167909225261697
549,-0.3200814898468444,0.0,0.17663338232163042
550,1.1150866398617971,1.0,3.264125089370367
551,-0.5156307758030694,0.0,-0.09419259486584268
552,1.195759771655882,1.0,3.5373299120596493
553,-1.3079979326734825,0.0,-1.1687104653322007
554,-0.0023048143466496158,0.0,0.5106093723722532
555,-0.053325072403603416,0.0,0.32224468632487463
556,-2.1817847169647586,0.0,-2.1435474681836837
557,-0.9952422479746424,0.0,-0.7739124181155174
558,0.48709529211850217,1.0,2.6345921971406097
559,0.7064548938922279,1.0,3.0745669228237755
560,1.9134565567031687,1.0,4.394135737158261
561,-0.8385891771391061,0.0,-0.43318222712738025
562,-0.47020919057752164,0.0,-0.02537464906786044
563,0.6241556405618073,1.0,2.631804539387597
564,-0.06929479927036879,0.0,0.33425992930503995
565,-0.8609682612928206,0.0,-0.5314977988308187
566,0.4720394421498662,1.0,2.431367289830955
567,2.462886011129685,1.0,5.178556084600461
568,-1.5609251521946594,0.0,-1.2311999410161019
569,1.9714299561354123,1.0,4.31426464696292
570,-0.12552210625240315,0.0,0.2540248819039159
571,-1.47630522895153,0.0,-1.1488689374500878
572,1.7775496118782508,1.0,4.114112230824836
573,0.976912250196524,1.0,3.047907532611779
574,-0.9492233983060291,0.0,-0.6312733107947943
575,-0.9253906276533158,0.0,-0.7052366373261612
576,0.5394014269552111,1.0,2.5056551338287494
577,0.16926670788076129,1.0,2.247851207522885
578,-0.4398282970427888,0.0,-0.08317748564778493
579,0.5643037697847185,1.0,2.515288657458431
580,0.4693220066125509,1.0,2.531676012565315
581,1.3433368316661796,1.0,3.521262913228474
582,0.17869467036466471,1.0,2.2574606657143823
583,1.3986904937455151,1.0,3.7691076922071534
584,0.6533061479900384,1.0,2.7335895622217397
585,1.0451139135988223,1.0,3.1658029346853573
586,0.004712966955430783,1.0,1.8967936428036292
587,0.10240383389022135,1.0,2.2835691729428067
588,0.6221217696811944,1.0,2.7706611347414447
589,1.0560192168542362,1.0,3.3232623443148337
590,-0.1934675149200341,0.0,0.32300555169531153
591,-0.6250918527050685,0.0,-0.13444682090843857
592,0.038386382077007966,1.0,2.0653352057365137
593,-0.3628822470504326,0.0,0.09991715722546676
594,-0.3675136865316022,0.0,0.015650727452998066
595,-0.0018078844797615875,0.0,0.6007121364935462
596,0.9835503359972801,1.0,3.2369682656547822
597,2.0353816740820285,1.0,4.4811836067083135
598,1.6159385063703053,1.0,4.003632042976175
599,-0.718419727254343,0.0,-0.3283253766405751
600,0.4537475637480418,1.0,2.5280437666776088
601,0.31826346573207015,1.0,2.498807972106662
602,-0.31959857937122393,0.0,0.06821500804104008
603,-1.9805206814006213,0.0,-1.886618469919517
604,0.32080701334025247,1.0,2.4849812517235885
605,0.38944356820531767,1.0,2.3914745794280168
606,-0.47138377479639537,0.0,-0.18796621724293205
607,1.1159206854384494,1.0,3.53183664424508
608,1.673434346204692,1.0,4.110094485204177
609,0.6591990184533871,1.0,2.925974210237833
610,-0.22548154718113325,0.0,0.26345199182767387
611,0.17682144438762373,1.0,2.1584143217805742
612,0.11231846859722663,1.0,2.0933931513698094
613,-0.3225158285593362,0.0,0.09022853192051916
614,-0.30346490829559475,0.0,-0.01663699523022802
615,0.16099892565826932,1.0,2.2903842198046167
616,1.9708241290814432,1.0,4.179793983004291
617,1.587148283499577,1.0,4.0658022736785995
618,-0.03163852915356724,0.0,0.365369194776181
619,0.41757794309450025,1.0,2.4610728113687306
620,-0.9603347960247842,0.0,-0.708126464699169
621,1.0240815034760649,1.0,3.241347780827162
622,-1.078859646454048,0.0,-0.6918839945590334
623,-0.7176705856344126,0.0,-0.21511363029330835
624,1.19171702813192,1.0,3.4167572167106712
625,-0.1301944667895651,0.0,0.2983885957725703
626,0.36782770779268015,1.0,2.7803980744734886
627,0.6587284395814891,1.0,2.7270605264476493
628,-0.03703058455668783,0.0,0.5391327000669177
629,1.0385428263970442,1.0,3.1576051157389626
630,-1.2576211410416407,0.0,-1.0415096786442104
631,-0.034100203909747155,0.0,0.5071265062959575
632,1.156450599074081,1.0,3.392117125649291
633,0.2925427976599821,1.0,2.332458743977654
634,0.5666158518164344,1.0,2.6072163817355856
635,1.0439981938071103,1.0,3.3266677527492794
636,-0.19316477295774806,0.0,0.20144616154832817
637,-0.6168212598845987,0.0,-0.33830484505549246
638,-0.012043558477221467,0.0,0.4538865164639673
639,-0.03477470481382938,0.0,0.2750588533262962
640,-0.6482415529530737,0.0,-0.22004039729663552
641,-0.10867630485724857,0.0,0.44339952261559346
642,0.5404184055943192,1.0,2.679835247698436
643,-0.6796684809891903,0.0,-0.4666422732399953
644,0.3879655586875766,1.0,2.452407911807321
645,1.535773642613073,1.0,3.834459792051318
646,1.065491370209036,1.0,3.347241527674704
647,-0.5786955378343829,0.0,-0.24252380876520202
648,-0.4094514233908706,0.0,0.11097750824354208
649,-1.1914537002425682,0.0,-1.0033151542868015
650,-0.24628132253544885,0.0,0.2750729235163721
651,0.07602869016568242,1.0,2.1484321631138688
652,-0.6844488546450254,0.0,-0.3309571628857177
653,0.16353278220927528,1.0,2.176264770005928
654,1.3540017426491742,1.0,3.6741589154743006
655,2.1404667271709323,1.0,4.538638862273568
656,-1.162204961099639,0.0,-0.9617349798023425
657,0.8184360600878696,1.0,2.957636126020595
658,-0.3877807831365416,0.0,0.21699586147880073
659,-2.250946398652886,0.0,-2.180510810854549
660,0.7791245304417205,1.0,3.026943432244296
661,-0.8663970195368852,0.0,-0.6090500958155413
662,1.075853514031162,1.0,3.318369092362794
663,-0.8114055636236951,0.0,-0.6185974241838463
664,1.4053713510258699,1.0,3.606156191674512
665,2.481295566892274,1.0,5.006598016789972
666,0.8350882612139783,1.0,2.9519962736695797
667,-0.6379568320577241,0.0,-0.3188344562764061
668,0.14868460271052364,1.0,2.145404198402782
669,-0.4999402965230145,0.0,-0.053542988625407545
670,-0.30381775835440655,0.0,0.2566101412423146
671,-0.2406569492124939,0.0,0.25268378729556784
672,0.026732170207328824,1.0,1.8832844904076969
673,-0.7475537083718294,0.0,-0.46013633694516043
674,1.2743518794554762,1.0,3.414812180333233
675,0.8975154651130576,1.0,3.0744170879444037
676,-1.060551123876127,0.0,-0.9439427347299213
677,1.078532955576191,1.0,3.228737779517943
678,-0.5303004203130932,0.0,0.007079915189870195
679,0.03248370155040651,1.0,2.0790834033901677
680,-0.03547897091803568,0.0,0.4005740641105206
681,0.3010119521584243,1.0,2.3095535942111813
682,-0.6254807924306389,0.0,-0.5563464098182496
683,1.403528138373116,1.0,3.6104844458665575
684,-0.3384975896426611,0.0,0.13236197338081676
685,-1.5799702197907168,0.0,-1.4729986274910616
686,0.535554572332968,1.0,2.567055558267372
687,-0.6019343517376644,0.0,-0.11821478151543864
688,-0.19064579398702425,0.0,0.2261356432064743
689,1.5599425788247832,1.0,3.863566671200937
690,-1.3486806819038408,0.0,-1.0865187366722027
691,1.3862304029257349,1.0,3.6684650513013923
692,-0.28755826120567585,0.0,0.15748140215766257
693,-1.6092981871442473,0.0,-1.3755465619138902
694,0.6817528721459241,1.0,2.760348917263645
695,-1.317472636250616,0.0,-1.116626265454465
696,-0.4882511498032266,0.0,0.02631781939093905
697,-0.5134595375127404,0.0,-0.23027168948392623
698,1.2427947517066744,1.0,3.288160239376862
699,-0.17886656085671107,0.0,0.31930304926285297
700,-0.5618896572820749,0.0,-0.13447812936307074
701,1.0906894168205252,1.0,3.4223590688801506
702,-0.704689581256501,0.0,-0.3930374662920827
703,1.2110746569369755,1.0,3.5914331468321046
704,-0.5427164122163852,0.0,-0.0764717940981827
705,0.5538998751961682,1.0,2.569151330402526
706,-0.7433334545917137,0.0,-0.14491604462698834
707,-0.25423003639981284,0.0,0.19953214968523417
708,1.7418187807697603,1.0,3.9897226112166604
709,-0.02216114734821467,0.0,0.6262202768902632
710,0.18939478422772715,1.0,2.3046025299605386
711,1.025392678546381,1.0,3.2441168919037304
712,-1.0900869750286313,0.0,-0.6650816745284107
713,-1.026210730532909,0.0,-0.7379145173471049
714,0.7491636991889822,1.0,2.709774048560423
715,-1.7080961630711005,0.0,-1.695181735900281
716,1.0944586829087617,1.0,3.2949475244227044
717,-1.0684825948336107,0.0,-0.8004209211611284
718,1.455957484852702,1.0,3.6151643426629985
719,-0.6128107491645451,0.0,-0.2586326507228034
720,0.7568575245027905,1.0,3.0615593715869185
721,-0.5543895240100839,0.0,-0.13554729888822803
722,1.7215001620641721,1.0,4.176481182322826
723,-1.3265545233722047,0.0,-1.2646213589949011
724,0.2979276224032231,1.0,2.413553449865551
725,-1.1218560841348872,0.0,-0.9108070395078852
726,0.7845747022975126,1.0,3.012617868265715
727,0.5259352632194069,1.0,2.8530684186309307
728,-0.16413774733562947,0.0,0.27539369688107757
729,0.6771964112293534,1.0,2.8344011044229798
730,-1.1469115409583739,0.0,-0.9663992656445919
731,-0.7285563206479811,0.0,-0.39917306680873976
732,-0.01979389325013935,0.0,0.5613623297486535
733,-0.04386518512153689,0.0,0.5173607889319893
734,-0.1459516352757352,0.0,0.30362692721486584
735,-0.2728902917195242,0.0,-0.10065777896723144
736,1.8967778112982252,1.0,4.391835930907439
737,-0.45751817786578275,0.0,-0.04736578153360517
738,1.034496067025915,1.0,3.1347241059644113
739,0.26192013012693616,1.0,2.336538428125927
740,0.20420736696475308,1.0,2.0603297678684154
741,-0.9511298899757515,0.0,-0.606094530049111
742,1.1367752223050784,1.0,3.3397787930804013
743,-0.6732130351736426,0.0,-0.36547221372058014
744,0.34776256297441877,1.0,2.404489101248048
745,-1.3501851947051804,0.0,-0.9131499514014516
746,-0.42641350179280185,0.0,0.015565446047089156
747,0.6150273704825121,1.0,2.7999061704159343
748,-0.9561937546136152,0.0,-0.6832810329057871
749,-0.26120188896885205,0.0,0.2959195845750776
750,0.29845498526734054,1.0,2.4019162969119594
751,1.1406272027614313,1.0,3.5941855717521696
752,0.9553671202308901,1.0,3.232647242596709
753,-0.6307923594828279,0.0,-0.486774375113879
754,0.6836486332469043,1.0,2.746559160731917
755,-2.496617415436395,0.0,-2.6015361582329546
756,0.7556646844021758,1.0,2.84694798590423
757,-0.4937918809461711,0.0,-0.03408797939068311
758,-0.6508126871915013,0.0,-0.4038142007487786
759,-0.27031621029293135,0.0,0.21454623346711174
760,-0.9202421868776068,0.0,-0.7314166705797491
761,-0.6889784644696763,0.0,-0.23383986427740094
762,0.6142580184065146,1.0,2.8957778826996345
763,0.42439273339698497,1.0,2.522343259951901
764,2.232417698282427,1.0,4.723125556340329
765,-0.3464250276746808,0.0,0.11119107809785267
766,1.177114555356849,1.0,3.382992653868778
767,0.021641172917318267,1.0,2.074461879467788
768,-1.9944355549115882,0.0,-2.0050219298493825
769,0.5449397964732815,1.0,2.70283261400933
770,1.2559991563327455,1.0,3.611855807930622
771,0.4024668048780438,1.0,2.7316644198450817
772,-0.4106958758931475,0.0,0.1341948972178086
773,-2.3677722800199272,0.0,-2.3028257427379057
774,0.8858629362254041,1.0,3.0092616725109753
775,1.1062324664021277,1.0,3.3345406313871324
776,1.7349404489457518,1.0,4.2804740593024055
777,-0.9533191472959874,0.0,-0.6520398282841783
778,1.1817853960553164,1.0,3.5768225693547233
779,-0.575216183523765,0.0,-0.37736759925413754
780,-0.4895272797700496,0.0,-0.09142021847440113
781,0.6088477002509654,1.0,2.9916677863270276
782,1.0528491332395702,1.0,3.233007548709431
783,0.30600405676486325,1.0,2.355055544739192
784,-0.6464376366295247,0.0,-0.2602664807079831
785,-0.057442583263263396,0.0,0.3430445633334897
786,0.42566997085866176,1.0,2.4918889068774153
787,-0.7926571417051268,0.0,-0.5176547757651551
788,-1.7171270222917039,0.0,-1.8654864223719139
789,0.286967225483993,1.0,2.2656991386659073
790,0.36288109420750897,1.0,2.483794184126167
791,-0.7696071954999546,0.0,-0.4436083073327175
792,0.40161436249638,1.0,2.5453370907502353
793,0.31874379478158876,1.0,2.231992362714794
794,1.69807512950189,1.0,3.896902904634976
795,-2.724727189774587,0.0,-2.8604204229144194
796,-1.2585255016330021,0.0,-1.1165121442213906
797,-1.9405267176963599,0.0,-1.6465855053678158
798,0.02983460107387926,1.0,2.1411113197803386
799,0.08906111046093561,1.0,2.25962480488046
800,-0.23353178904306968,0.0,0.3808782737368014
801,-1.2461404448572686,0.0,-1.151612821498753
802,1.2356272456755364,1.0,3.3288720793018287
803,-1.1968446415170269,0.0,-0.8880461172559242
804,0.9122787547446046,1.0,3.0898138812172657
805,-0.09919911829272184,0.0,0.2184029372762606
806,0.9572387453153134,1.0,3.2890663124017694
807,0.7926234618379563,1.0,3.043069040511527
808,-0.870991644589977,0.0,-0.7575274129703023
809,-1.9716509061958227,0.0,-1.7549163292430148
810,-1.9376697051326957,0.0,-1.8115888372922706
811,0.27257309084837844,1.0,2.3595640657361168
812,0.869644050249109,1.0,2.988790989798813
813,-0.5949168600620168,0.0,-0.18471875439789615
814,0.3740050385577251,1.0,2.460329501125195
815,-0.8865910030696071,0.0,-0.3993422065896106
816,-1.3795715812390394,0.0,-1.4071657813395595
817,0.2673751669027774,1.0,2.145682472072253
818,-0.6197918451125017,0.0,-0.14537999815015462
819,-0.7746981149834012,0.0,-0.5414953922549225
820,1.16927879673443,1.0,3.5543595475824854
821,0.6700720728598484,1.0,2.819131319340521
822,0.041065336711299374,1.0,1.949161070734453
823,-1.0923384818090547,0.0,-0.9558638476664287
824,0.37440473898784077,1.0,2.4558631961371473
825,-0.893566736184559,0.0,-0.6533502188720444
826,-0.30639201706085356,0.0,0.10648401017064164
827,-0.10930830695378149,0.0,0.10124504117346528
828,-0.7684889268539209,0.0,-0.5099999636894994
829,0.3811920230512054,1.0,2.4231766315367964
830,-0.5653441177602982,0.0,-0.021073158830733546
831,-0.779444434371329,0.0,-0.34993088123823535
832,1.3438076384300066,1.0,3.6477375858748102
833,0.8234497409662282,1.0,2.9691955540145107
834,-0.09250375244311186,0.0,0.3942753570579994
835,-2.412609466303103,0.0,-2.5180023611638576
836,-0.2696998164011469,0.0,-0.023549177817376088
837,-2.244301155045453,0.0,-2.125875515285352
838,1.0620393400097756,1.0,3.2551992229340363
839,0.8447249507101273,1.0,2.8899600018886016
840,0.1955404355756305,1.0,2.1456809013689075
841,-0.6994431412840854,0.0,-0.4481730125932921
842,0.4381063606885195,1.0,2.560250753560468
843,-0.15568423038453183,0.0,0.04515638072665601
844,0.13302405122432723,1.0,2.196993030361718
845,-0.8124922109051591,0.0,-0.38867802455793465
846,-1.1837103264661828,0.0,-0.9651233596492796
847,-0.01824116666324271,0.0,0.5316213756082271
848,-0.1862394624571015,0.0,0.15936313763157567
849,0.4738149550882685,1.0,2.6284495132688783
850,0.604506288163348,1.0,2.725486622981052
851,-0.23873820780677743,0.0,0.2648298948562108
852,-0.5808085717169317,0.0,-0.19892358328858492
853,-1.8134014881474287,0.0,-1.6406850742352175
854,1.3545073592070112,1.0,3.4819918408337736
855,0.8616129469833222,1.0,3.0531923431829435
856,1.275952697669014,1.0,3.4287918881448993
857,-1.2034166371627282,0.0,-0.9648657664927188
858,0.7898310977120693,1.0,2.7102947019505836
859,1.173361029246658,1.0,3.480949542670942
860,0.3433900983367309,1.0,2.401982069360049
861,-0.43856627543635396,0.0,-0.10252174813556614
862,0.5835481055733467,1.0,2.614970165221267
863,-0.11768267308410006,0.0,0.24710179237438856
864,1.4633262001550504,1.0,3.83931751181832
865,1.093950792587992,1.0,3.1806614391491532
866,0.006307922748938445,1.0,1.9787452755008206
867,-0.007822311244326014,0.0,0.448848309227447
868,-1.6209514858856502,0.0,-1.436497111549335
869,-1.2481063541111752,0.0,-0.9524064076319522
870,-0.628505581866111,0.0,-0.32250148885810137
871,0.355778191812215,1.0,2.6398001513923153
872,-0.9983010144958218,0.0,-0.6625117071193072
873,-1.1498000036482274,0.0,-0.7101542239380767
874,-2.281270291735038,0.0,-2.204914190819147
875,-0.3729245871154501,0.0,0.1068958507933513
876,0.9818510246006162,1.0,3.033895114741597
877,0.6297084289053352,1.0,2.7792552302877302
878,-1.0898038536622938,0.0,-0.8317946164597617
879,-1.9537415697550764,0.0,-1.8868273468125256
880,0.4729028958927919,1.0,2.6702706615089076
881,-0.3425407653302815,0.0,0.0725230840853612
882,-0.553762935287896,0.0,-0.11070165984880875
883,2.3757878804856083,1.0,4.8975568015542805
884,-0.16080214429438713,0.0,0.34496842666985045
885,-0.22018089662538612,0.0,0.33223064247880935
886,-0.4020205680588548,0.0,-0.22706039547695825
887,-0.9748701855452179,0.0,-0.6439210547393605
888,-1.1300912485244798,0.0,-0.9087700436922537
889,-0.705506344337626,0.0,-0.39689589207479065
890,2.0278108208464025,1.0,4.559227425159339
891,0.41741251676838126,1.0,2.4751065038903004
892,-0.006282292998310792,0.0,0.5867079272405993
893,-1.2100160825051438,0.0,-0.9139608334371273
894,-1.2357780850111484,0.0,-0.9291265655355373
895,0.3655021947881077,1.0,2.6641567389976886
896,-0.6898919747930307,0.0,-0.2365477721289058
897,1.0296021809185616,1.0,3.2284115973634364
898,0.678132422630198,1.0,2.9151891782501758
899,1.1356879867593004,1.0,3.5999550594207688
900,-0.834443974478691,0.0,-0.3922687065510246
901,-0.2395579804671223,0.0,0.3683541105969455
902,-1.7662557083510253,0.0,-1.5839123152521024
903,0.24860061074112277,1.0,2.2969628207222246
904,2.2145983864158327,1.0,4.761420228846708
905,-0.11960810900210415,0.0,0.32709842385124005
906,-2.177193051023512,0.0,-2.0650307198829183
907,-0.4740342233705636,0.0,-0.04008280694169401
908,0.3426374849505393,1.0,2.236502014976877
909,-0.1419565007723759,0.0,0.2901193651879815
910,-1.281764846712722,0.0,-1.0892894889751994
911,1.3110668099920595,1.0,3.527957439781346
912,1.2136893826117567,1.0,3.288538308391657
913,0.9906136027260728,1.0,3.2709698434234524
914,-0.28318343307178184,0.0,0.24376862470620375
915,1.0895452622134745,1.0,3.172431667193926
916,-0.43365389484305633,0.0,0.07619862861226068
917,-3.258261515903247,0.0,-3.2992033263107508
918,1.0530947434120692,1.0,3.229204442059184
919,1.8604452682732602,1.0,4.251435634173912
920,2.062326168781802,1.0,4.441281172311227
921,1.6458924316944057,1.0,4.150925619166499
922,-0.5947199551007092,0.0,0.013309025364672544
923,0.2686431013161344,1.0,2.4196278163441844
924,-1.062119673223059,0.0,-0.6698781099417073
925,0.13240242849591488,1.0,1.939851993044041
926,-0.7839207958105733,0.0,-0.4396143295655746
927,-1.0117237822946468,0.0,-0.8169547458982188
928,-1.4882655336355912,0.0,-1.2857487979690143
929,-0.14970092504997323,0.0,0.328541313684388
930,-1.3092039546954293,0.0,-1.0594906107375561
931,-0.6392798595718254,0.0,-0.2151719836293735
932,-0.3596306089213159,0.0,-0.05324146421653575
933,-0.18568357391096685,0.0,0.1769733945235471
934,1.6099974508026886,1.0,3.9067973606636532
935,2.4094941606785403,1.0,4.997569325472857
936,1.4272175859226066,1.0,3.843674109740275
937,-0.46103638731005575,0.0,-0.14995841395269313
938,-0.1571470818876211,0.0,0.5890435337167814
939,0.10088353459184599,1.0,2.023948298693457
940,0.4962630058284578,1.0,2.386666042307005
941,0.2058546719592566,1.0,2.2747911258992106
942,-1.22774591863325,0.0,-1.0268117472308096
943,-0.6834399805031317,0.0,-0.29275744531491577
944,1.336232009259881,1.0,3.4868180868579923
945,0.5737411595755565,1.0,2.623862251250799
946,1.6083695281673396,1.0,3.837307340009175
947,0.592697353381884,1.0,2.611283067237448
948,-1.1986976197133006,0.0,-0.9931275527754494
949,-0.14612777580661798,0.0,0.3237657670193288
950,-0.6560630317635047,0.0,-0.2655926213873821
951,-0.8339026661063615,0.0,-0.47995593772003636
952,-0.0911495970796241,0.0,0.3701959810537581
953,1.1252305651000007,1.0,3.3085188528294505
954,-0.033610649428355004,0.0,0.304325732701125
955,1.8618920444329983,1.0,4.3124052360762954
956,0.02350070099072553,1.0,2.090415092475454
957,0.9430787653405092,1.0,2.9706934003393566
958,0.44415355446138816,1.0,2.3886578924408153
959,-0.1103432176670927,0.0,0.3725855902011734
960,-0.7135725019396586,0.0,-0.569625845617155
961,-1.2817890624925243,0.0,-0.954623005808904
962,-1.5983743753184838,0.0,-1.38560459170887
963,0.47276293962405547,1.0,2.639825282361156
964,1.2325512778384424,1.0,3.554951984870502
965,0.8208846185911379,1.0,2.9301449566274003
966,-0.4122601959710689,0.0,-0.05700717283031126
967,-0.5018394051492786,0.0,-0.12873205382719882
968,-0.6739450968206728,0.0,-0.28069461129601475
969,-0.9561051728902437,0.0,-0.698847162751493
970,-1.1947971491399776,0.0,-1.0181731874761193
971,-0.20134556819000707,0.0,0.2692096183863397
972,1.3631365602633467,1.0,3.5617082064742114
973,-1.2074333657945584,0.0,-0.8835254145704209
974,0.9860985025365376,1.0,3.2521606755690704
975,0.7511186076645059,1.0,2.7834940052761863
976,0.2521205863620027,1.0,2.2771356013528687
977,-1.04949434560478,0.0,-0.7480697705919358
978,-1.5053733002456646,0.0,-1.3249600112353181
979,-1.1698000131205184,0.0,-1.2009295368734816
980,0.9501445728578239,1.0,3.3712902023527778
981,0.21972094437532919,1.0,2.2994188013370676
982,1.0489576332352024,1.0,3.1676436029736266
983,0.745007573539298,1.0,2.8358054067428564
984,-0.9198782722587007,0.0,-0.506950182145258
985,-0.42706776489452153,0.0,-0.0021116975377375516
986,-0.3814971966114548,0.0,-0.07337640791485428
987,-0.7896609136276234,0.0,-0.4188474054135264
988,0.656055699752388,1.0,2.7704858467350086
989,-2.103681879532884,0.0,-2.103748265208942
990,1.8337896545265464,1.0,4.292467354144437
991,2.206043931750794,1.0,4.5850812957393465
992,0.20522319165006606,1.0,2.2507029485557535
993,0.18011205765445984,1.0,2.1716677171953367
994,-1.980166151974077,0.0,-1.87975394854185
995,-0.2649103143249329,0.0,0.13778839843846483
996,-1.9591285234820717,0.0,-1.7434043277649014
997,1.2293135198800067,1.0,3.5110405769301516
998,-1.1761300469844478,0.0,-0.871825871725908
999,-0.518719452928888,0.0,0.15716065346062474
