,x,treatment,y
0,-1.4173469755245303,0.0,-2.6049097620433717
1,-0.3326688899076003,0.0,-0.1398951479481169
2,1.4140204279416968,1.0,4.192184693680318
3,0.88612124109606,1.0,4.202893679890596
4,-1.2554502730575388,0.0,-2.619713418804489
5,0.20816088213954542,1.0,1.29888094282399
6,0.7671552441377069,1.0,4.527537348250037
7,0.42325758927312535,1.0,3.517879128801973
8,-1.9402990716481003,0.0,-0.2013485455637798
9,0.22939895617939773,1.0,1.4571950031784011
10,1.950102609027657,1.0,2.783645050244151
11,-0.7472452925927547,0.0,-0.2700847485552501
12,0.552314090210639,1.0,3.2666089483405805
13,-1.6041338600038857,0.0,-1.9020200020436626
14,0.12278059457629398,1.0,2.1816835664847214
15,0.42031447470067496,1.0,1.340287839182306
16,-0.6922912947373657,0.0,0.10539417628984143
17,-1.3782143788156245,0.0,0.3364114943264389
18,0.5142485043932783,1.0,4.003163950378283
19,-0.3716308278950465,0.0,0.21718392285535112
20,-0.4831788087451845,0.0,0.6177470774100723
21,-0.42959467310529026,0.0,0.6630797287432216
22,-0.28691653365020037,0.0,-0.03374061282563859
23,0.14334150634306744,1.0,2.2219827896470807
24,-0.5336917851456303,0.0,0.06443230163183916
25,0.9716957544156754,1.0,5.315484203327713
26,1.1051475397164918,1.0,3.0546356168142563
27,-1.662907811111453,0.0,-1.4105505925511046
28,1.2013109049521364,1.0,1.612827079279045
29,-0.8746735245732108,0.0,-0.2786958040994849
30,-0.9609853282214645,0.0,0.23057029608964186
31,-0.4112364287652314,0.0,0.3500799484888728
32,0.3466095539968948,1.0,2.9835202009465696
33,-1.2305163634776197,0.0,0.666391212887093
34,0.29955844410387084,1.0,2.9511217310279556
35,1.564975646675262,1.0,3.8586122873107622
36,0.6253922487831441,1.0,2.418080039291916
37,-1.7049541544413689,0.0,-1.7025562708427078
38,-0.56387534632207,0.0,-0.8264713377896765
39,-1.0924717091421587,0.0,-0.9156083336157835
40,-0.3235962665780749,0.0,-0.5519872144307761
41,-1.85748520781711,0.0,-2.724746907026889
42,0.5561778753790511,1.0,1.4455765088108932
43,-1.9265719689380325,0.0,-2.231637058510512
44,0.979886765637883,1.0,3.2527431255011816
45,0.5344667689449967,1.0,2.3858364756090036
46,1.5632873698119902,1.0,4.35827715813239
47,-0.6121673035979558,0.0,0.718508727211898
48,1.586571710620561,1.0,3.209411404861603
49,-0.32872968685687043,0.0,0.8922258350686991
50,0.3680317615429646,1.0,4.7136481688174205
51,0.27081262798664707,1.0,2.649398568246961
52,0.7582635836775751,1.0,4.961426826552187
53,0.8585396299657833,1.0,2.3146050218246863
54,-1.0703919626864926,0.0,-2.8678017140388437
55,0.9644580064620419,1.0,3.8265222288788974
56,1.7333763621239953,1.0,6.677640089698771
57,0.9017698473108954,1.0,3.3348924369954256
58,1.720422755945179,1.0,3.819453861218442
59,1.909836978492452,1.0,2.672805958510043
60,-1.6090600016766032,0.0,-1.5601530766080687
61,0.019493998489737305,1.0,1.812891775589407
62,-0.03317537147067938,0.0,0.3409429282691602
63,-0.5725814688814296,0.0,-0.4379840540313154
64,1.9270592135407754,1.0,4.0006627665278724
65,0.16014916832914286,1.0,2.59035777513847
66,-0.9943915191229187,0.0,0.0802034684219991
67,-1.1576093498218218,0.0,-0.7097106821948702
68,-0.5211455300155524,0.0,0.6014562715663203
69,-1.3212127092508616,0.0,-2.9114303373413972
70,-1.1904172139705886,0.0,-1.4726412991644287
71,-0.32774034465242324,0.0,0.34434196034271025
72,0.2903296212336649,1.0,3.9289686551230125
73,0.34500434907260163,1.0,1.4327188233762418
74,0.8203084558953985,1.0,2.521386371720238
75,0.5940445134627808,1.0,2.319443732736749
76,0.5006886591881516,1.0,5.343443093643991
77,0.1623172209176736,1.0,1.9357769550358968
78,0.009360756413720622,1.0,1.8767761533344907
79,0.2350980939446082,1.0,1.7086919116514392
80,0.40752084038851055,1.0,3.3668488934709253
81,1.3869065413269908,1.0,3.1970226356714813
82,0.3513476688529946,1.0,2.4648162336662716
83,0.5202235411279648,1.0,2.767070060418167
84,0.7735746572338147,1.0,3.615589843236507
85,1.3500805560031797,1.0,2.9966268832770155
86,0.974406514243332,1.0,1.4444004367450227
87,0.6943541369398266,1.0,4.194758914338692
88,-1.9071316058399816,0.0,-1.9286075884509994
89,-0.19765849416762668,0.0,-0.33889313115208947
90,0.665707403706686,1.0,1.5096380945437502
91,0.14314541640483533,1.0,-0.24983620417138663
92,0.9060712519813122,1.0,1.6723626589945242
93,1.0034658625736557,1.0,4.502288698245676
94,0.20046925822982578,1.0,0.7288323514738686
95,1.7179111406427285,1.0,2.508329382345084
96,1.1224491106043533,1.0,3.2209207337340646
97,-0.20946267052149534,0.0,-0.13263150388958134
98,2.0311359109945095,1.0,5.139001951071956
99,-0.07402194950314761,0.0,0.33252456998425006
100,-0.02778696268879733,0.0,-0.11944073229027696
101,1.343956962214755,1.0,2.13915527744883
102,-0.7640486975320673,0.0,-1.0513492369387658
103,1.4683832105832755,1.0,2.751807376603823
104,0.5236222957943044,1.0,3.860490804461298
105,-0.573738987407207,0.0,-1.6523236312626732
106,0.05114230080317994,1.0,1.451693888765675
107,1.5319573413245031,1.0,4.583229311801748
108,-0.6254955519504044,0.0,-1.0484468423333295
109,-0.015704162031977775,0.0,-0.9281528316501759
110,1.4027105737363328,1.0,4.0292518540008455
111,0.06363292664896635,1.0,1.587819861455907
112,-0.25204498018329996,0.0,-0.8421223495773845
113,-1.3778377931893349,0.0,-0.987135963393875
114,-0.9921584084580295,0.0,-2.6001891324813604
115,-1.1016911516327403,0.0,-1.4654681373954621
116,-0.3095482752330279,0.0,0.3557415698373554
117,-0.13877767389556606,0.0,-0.15348593374012648
118,1.4657424393547425,1.0,2.6328211447880117
119,-0.7348714175076555,0.0,1.8799639010098685
120,0.35949663165688434,1.0,3.307183669306966
121,-3.3203861175207456,0.0,-3.755153995196895
122,1.4273662916325607,1.0,7.1010663654003405
123,-0.6460560669778523,0.0,-1.4423390470744026
124,-1.05548131581174,0.0,-1.8013016595400533
125,0.7841253059374579,1.0,1.2296480457485586
126,-1.3296165415943357,0.0,0.5433992702122374
127,-0.171153111565328,0.0,0.1532524222599954
128,-1.1058391488665402,0.0,-1.2392484443184992
129,-0.15230288700786665,0.0,-0.4880944060557663
130,-0.06547650748049343,0.0,2.551674864059474
131,-0.9472450433763584,0.0,-0.18898773034010435
132,-0.3987796340971112,0.0,0.547456289298722
133,0.1154677356598839,1.0,2.0352845016815686
134,0.9268605548945014,1.0,2.1659013307549317
135,0.9262554746792454,1.0,3.787317687384985
136,0.6170629356875624,1.0,1.2291723825306846
137,-2.0900480048540597,0.0,-0.4715994839924842
138,-1.4189105366233083,0.0,-0.7997906738422133
139,2.105438717403784,1.0,3.863466828514578
140,0.4928108732637756,1.0,2.922939226099656
141,-0.03350136707547122,0.0,0.8542815363788644
142,-0.7327410748492067,0.0,-1.1678080602723298
143,0.663729229578755,1.0,4.66068748587819
144,-0.13623627226961788,0.0,1.13235574272256
145,-0.1078905269148034,0.0,1.3125180870175766
146,0.056877686533342235,1.0,2.1180055939931135
147,-0.5739134481699504,0.0,0.11836797776067176
148,-0.6603791925630541,0.0,-1.0591513169855606
149,0.0002775374640994512,1.0,1.6189150078926358
150,0.9825689848027176,1.0,2.8974762463692834
151,-0.04947363592163023,0.0,1.1387869084358508
152,-0.7277899882134595,0.0,-0.34234700009643737
153,-2.0673571414951573,0.0,-1.0511207413467747
154,0.7017918011987178,1.0,3.564850643913587
155,1.4335405990761785,1.0,1.4023028799369799
156,-1.1928862440729604,0.0,-1.0388286895524872
157,0.019701008745054416,1.0,1.9663657328886208
158,1.0770853655237909,1.0,3.9067702739506363
159,-1.6803519341202817,0.0,-1.1686277720573828
160,-0.0685717097197052,0.0,0.26356237757313516
161,-0.231564611943538,0.0,1.490468445480131
162,-1.1517054261111275,0.0,-1.8335737938760082
163,0.36853932886190655,1.0,2.06580018496762
164,-0.3299556051875825,0.0,-0.4532690277962276
165,1.2389296246604171,1.0,2.4699722886936177
166,1.4102931319755048,1.0,3.8573345840433273
167,0.06172390984743668,1.0,3.1294172003095024
168,0.4862286937807726,1.0,2.375326807482212
169,0.1241727268382277,1.0,1.9248754906630037
170,-0.7606689254954445,0.0,-1.2756156225224213
171,0.3497530176771313,1.0,2.299765608465425
172,-0.5318258954477266,0.0,-0.664514158280742
173,0.8254084043312827,1.0,2.905834039930137
174,0.44345101408143134,1.0,1.3596495675019957
175,-1.3626914279674007,0.0,-1.1970259348279373
176,1.3095870364383844,1.0,3.5579903842431873
177,-0.09082502945106218,0.0,-1.995940315701903
178,0.3441700210244269,1.0,0.37714515433578244
179,-0.20020528691495296,0.0,-0.3285292886051898
180,-1.3831296896546312,0.0,-0.19960734779660338
181,-1.684786073554815,0.0,-0.24184215992044789
182,-1.0405105162223982,0.0,-1.1751252037352422
183,-1.0620650441692894,0.0,-0.7642930241520473
184,0.9715717543585856,1.0,3.5579245086339273
185,-0.4431942954481941,0.0,1.9220949678809478
186,0.5351711330566085,1.0,1.5655732916349567
187,-0.25254212546021376,0.0,0.15761315585434743
188,-2.463850984915239,0.0,-2.267598095032574
189,-0.7565452017124977,0.0,-0.3553196029622321
190,0.18566830842177326,1.0,1.9133416722395342
191,-0.6077144810890057,0.0,-2.934084972841075
192,-0.9646773961095688,0.0,1.230233424099266
193,-0.3880984314679373,0.0,-0.7548381800490291
194,1.3633662797965904,1.0,3.580996847456268
195,-0.25831121022156917,0.0,-0.347948732301577
196,-1.0399783443239787,0.0,0.477883840662753
197,-0.16009689003519997,0.0,-1.955066242328999
198,0.032839708772976976,1.0,2.511724384632763
199,-0.11054314433808671,0.0,0.35272697318094365
200,-0.3586672284271833,0.0,-1.549696984993159
201,1.1327464608241182,1.0,3.959663525971161
202,0.8982518121843869,1.0,2.9143820432865866
203,-0.5590323257771049,0.0,-0.7881972331430693
204,1.4111433728008869,1.0,2.3723381286468865
205,-0.7459813776049109,0.0,-1.1133242682361515
206,-0.09631999645585086,0.0,-1.6762636271028397
207,0.05674020144834098,1.0,1.448231248486779
208,-1.37811689893637,0.0,-3.340819968825082
209,1.1282607125666795,1.0,4.6189516480016675
210,-1.2472795132786374,0.0,-0.34594974768975584
211,-1.114661163250222,0.0,-0.581051347561807
212,-0.3495321694005039,0.0,-0.06821760960753231
213,-2.840698365654637,0.0,-1.5147107827874693
214,-1.6614063031476454,0.0,-1.5066693176548775
215,-0.6391537199366948,0.0,-0.22108369582202161
216,0.4329108063103393,1.0,3.3358234449367665
217,2.68805382020321,1.0,5.790430076820838
218,0.5081950056686645,1.0,3.6901029928179594
219,0.594573151065824,1.0,2.529972203560274
220,-0.47040458596001244,0.0,-0.49915436089003956
221,0.3298452859636848,1.0,4.239291006711986
222,-2.57099246473383,0.0,-2.422445663444751
223,-0.03177581985656996,0.0,-0.8748960234489348
224,-0.3110140346158686,0.0,-0.3546202577807853
225,-1.0469047278315091,0.0,-0.059537237058332804
226,1.3679661447236804,1.0,3.987398196934068
227,-0.050071443450013756,0.0,-0.15126816583600716
228,-1.054359026312245,0.0,-1.4458330826275496
229,0.2689097960425611,1.0,3.2591360748590437
230,-0.5695491283542741,0.0,-0.028603169642109544
231,-0.09822094934125293,0.0,2.1563257775731497
232,-1.222566254423685,0.0,-0.7901132870571959
233,-0.31607826039063913,0.0,1.6016075353226555
234,-0.01791191402871265,0.0,0.02983998294625423
235,-1.0841596017634594,0.0,0.7416275714014795
236,1.2806736668154073,1.0,2.824892429203204
237,0.3036044800698,1.0,1.1967559138620838
238,-0.2804328836391922,0.0,-1.4429656940627689
239,-1.9916118058241776,0.0,-1.2763807800225382
240,0.943296292661552,1.0,1.1971906890912951
241,1.2837164151744498,1.0,1.2755496035154557
242,0.10762377433457701,1.0,2.7526740049689
243,-0.42412046711657503,0.0,-0.17865182985433303
244,1.177237455646595,1.0,4.705983114443924
245,-0.4200640606918499,0.0,-1.3450823642953604
246,-0.49889589525540795,0.0,-0.2626397864944523
247,-0.2901907184462377,0.0,-1.2872643334757845
248,0.9725487900454414,1.0,2.625987720761994
249,1.3371827219772765,1.0,5.4239195404329985
250,2.513160413099235,1.0,5.3564448424228015
251,0.6210285828504517,1.0,3.9597767053871293
252,0.05873097639760239,1.0,1.6085464119111106
253,0.46296225747791386,1.0,3.325900582746879
254,0.20007365620804402,1.0,1.058838325124601
255,-0.6445419753452818,0.0,-0.9609807628673721
256,-0.07254087509722594,0.0,2.21833198110997
257,-1.1798076081981583,0.0,-1.6047251376262253
258,0.8483775100234642,1.0,3.2207597472286156
259,0.07088826633798835,1.0,0.9044328596262248
260,-0.7286925357285989,0.0,-0.24779128687357035
261,1.2812753460279125,1.0,4.115567538734536
262,-0.9926488439623691,0.0,-1.9598034389690127
263,-0.9802187273912287,0.0,-0.2875787128810907
264,-1.6600657503596794,0.0,-0.6726046573317896
265,-0.6154548220938247,0.0,0.6433699988970726
266,0.09763497262797284,1.0,0.9459593840764215
267,-1.596081640523093,0.0,-1.1724364542005328
268,-1.3419237481532917,0.0,-1.5280088936950709
269,0.2562527829017316,1.0,3.1011786195921687
270,1.8627955839106607,1.0,4.595456875419101
271,0.6079408723079492,1.0,2.578351872665261
272,-0.2649956393679354,0.0,0.8470469394493518
273,-0.9774581885490919,0.0,-1.8578557209572195
274,-1.1648446404671065,0.0,-1.2062671791413901
275,1.3125225737464403,1.0,2.569952297370672
276,-1.0754223526346138,0.0,-1.6144027299550459
277,0.8764917018033853,1.0,4.890272831305918
278,1.3135360811209382,1.0,2.641690542343549
279,-0.37135153259673626,0.0,1.3135280088326502
280,-0.22041030428402525,0.0,-0.5979274844752187
281,0.1371402678068134,1.0,2.82020028680501
282,2.0169271210610966,1.0,5.046756541263973
283,1.468672675185551,1.0,5.607698399640329
284,-1.0597118861827264,0.0,-2.2562495281614834
285,2.3165287717943044,1.0,6.682160545043833
286,-0.18234696765765937,0.0,0.7632781558023899
287,2.253853273231296,1.0,5.822498619916389
288,-0.2778785697061578,0.0,-1.7072356695012054
289,-1.2008808996744105,0.0,-2.5530979657692576
290,-1.5428576006305137,0.0,-1.4073505933763488
291,-0.7879133934659018,0.0,0.5492226610416728
292,-0.8263867601617944,0.0,0.9157085285422855
293,0.2126574186408,1.0,1.1982663584485513
294,-0.2294930117235638,0.0,0.7334387072576454
295,-0.36398280647285686,0.0,1.7457990140491106
296,-0.23657654555977417,0.0,1.6884283958872712
297,-0.28583889554312897,0.0,-0.19726762251249358
298,0.8670753780237727,1.0,2.450671556777255
299,0.7049512650835988,1.0,4.699298778983425
300,0.3109312711835871,1.0,2.783786456103507
301,0.25221814721419145,1.0,2.340414711320896
302,0.0051594202401976106,1.0,1.3417785559836113
303,-0.4546103389910993,0.0,-0.662953321733666
304,1.6737468067843195,1.0,4.0631256068687245
305,-0.43189614501856943,0.0,-1.6758570618608495
306,-0.9511001901374307,0.0,-0.5023319132103649
307,-1.2486523390093185,0.0,0.09369667566505702
308,-0.03908468286069667,0.0,0.6712740775791776
309,0.3186185465609982,1.0,2.7491788845572827
310,-0.7489685723697007,0.0,-1.622334364710985
311,-0.02578307853435418,0.0,-0.6468948066757798
312,-1.9688726966057901,0.0,-1.255352181192377
313,-0.2469990556270956,0.0,0.7948673643636508
314,0.15947008757350897,1.0,1.0617999059288614
315,-1.0101359247519168,0.0,-0.940562988202351
316,-0.6279427561098792,0.0,0.4986721366035738
317,-1.1391787851394477,0.0,-0.7601755324055847
318,0.18915155371525988,1.0,2.0979206528492362
319,-0.7479342580522863,0.0,-1.3021202421188518
320,0.496322125247113,1.0,1.9360599689805018
321,0.28206366073361355,1.0,0.048572048927048694
322,1.928700561214018,1.0,4.2478429669936535
323,-0.011663866500972984,0.0,1.1849090169478704
324,-0.9245735139026322,0.0,0.17600906013224937
325,-0.9274239409310611,0.0,0.21902771037729207
326,-1.4993017672341817,0.0,-2.5174026237238762
327,-0.6679666140056562,0.0,-0.9943568559395675
328,0.9843083375211038,1.0,2.033565344387304
329,-0.17565698711507927,0.0,-0.9606735772167976
330,0.3406200993570559,1.0,2.19511318143576
331,-0.7846093186595132,0.0,-1.6558619431060242
332,0.8868764214459266,1.0,4.1752366223471125
333,0.693777040827677,1.0,3.054350615007076
334,-1.4378288955403922,0.0,-0.7093828215101193
335,1.3502648193846016,1.0,3.3327074606356626
336,0.5967513637472277,1.0,1.7882547284472854
337,-1.6964762219714593,0.0,-0.37551368598650847
338,0.2754569890754994,1.0,2.1296306856655396
339,0.3726118457277734,1.0,1.4638600768515544
340,-1.1553110631177792,0.0,-2.3936675445490483
341,-0.20291973652495363,0.0,1.5350612676540436
342,-0.26917725094107414,0.0,1.156849341201319
343,-0.4638845181223676,0.0,-0.3845162363460692
344,1.126127304862116,1.0,5.540804256664277
345,0.5768301650805845,1.0,1.1272317855439118
346,0.5996923546564835,1.0,1.8049141462225056
347,0.5423727344414954,1.0,3.1170383213828634
348,-0.4442601973526632,0.0,0.27622108380801313
349,-1.67872977432427,0.0,-1.3932702811794995
350,0.686432914469846,1.0,1.4842057033781306
351,0.11577215207774684,1.0,0.46523214359006104
352,-0.07328964339291814,0.0,-0.07627214775652863
353,0.3070345487905999,1.0,2.6162863705004584
354,-0.5358346831772797,0.0,0.9792012289083257
355,-0.44786465988566515,0.0,0.21100596065845167
356,0.8396601377622738,1.0,1.5951686761769654
357,-1.1507439929587944,0.0,-1.7762457095779296
358,-0.3079761087097866,0.0,1.100465355605251
359,0.8380907743924788,1.0,2.904693563100886
360,-0.505315516559873,0.0,-1.4754534565370556
361,0.07361269213068679,1.0,1.7948356607797282
362,0.5264186445562232,1.0,2.918707532707276
363,0.8827822706776223,1.0,3.8260584292524955
364,-0.44833966785349993,0.0,0.3333818178584759
365,-1.627827912192089,0.0,-1.887234530882852
366,1.087510383284747,1.0,2.3226184390737
367,-1.1504755099333739,0.0,0.8230831800833802
368,0.869083980610607,1.0,3.38634139213707
369,-0.579178603253861,0.0,-0.13468990344528836
370,0.7422625083913058,1.0,4.594914550669973
371,0.17076450722861086,1.0,3.3438883454898067
372,1.5543339952800916,1.0,5.239444266165384
373,2.6208813224245677,1.0,6.559856389092458
374,-0.5423521444101481,0.0,-1.3337018377530545
375,-0.7903928197486498,0.0,-1.1659743992679141
376,0.21671603770461148,1.0,2.928569754573268
377,-0.5519483332012748,0.0,0.08924833289448902
378,0.3458556906338318,1.0,1.2742943128876691
379,0.5137232602736301,1.0,2.4373437215254308
380,0.16499400044458523,1.0,1.55157546672535
381,1.6801211662304913,1.0,3.7832184226800925
382,-0.17209735892254882,0.0,1.6213217398279987
383,0.4355708924893487,1.0,4.085889384916295
384,2.4326060374100105,1.0,4.36772111725808
385,-1.5212201456861458,0.0,-0.9212488685548078
386,-1.4531143011862098,0.0,0.643003691424576
387,-2.6415185992795593,0.0,-3.938377246959835
388,0.07271214411290468,1.0,1.4691283813362537
389,-0.5809877008807647,0.0,-0.9416158017326139
390,0.20093020185767566,1.0,2.465280996668906
391,0.7991173456769851,1.0,1.3731612258474262
392,-0.7637905333063469,0.0,-0.12988588241883847
393,2.3111214173087786,1.0,5.442485375739407
394,-0.3659420032263576,0.0,1.268302102438174
395,0.5466150643725581,1.0,2.5105862359594773
396,-0.43272924201600016,0.0,-0.7070357921375836
397,0.6436839056576598,1.0,1.6278953842620274
398,-1.3165279914341974,0.0,-2.382789054872622
399,0.44561693242063133,1.0,-0.7476403384599206
400,-2.483728844673659,0.0,-2.53364697141276
401,-0.8322824364158261,0.0,-0.11269509116484244
402,-0.8155658611951485,0.0,-2.0123840772426718
403,-1.5546074126009732,0.0,-2.308893196613361
404,-1.4260188574720447,0.0,-1.9627971044915413
405,0.1447602567240466,1.0,1.3570785706894029
406,0.1831693578486085,1.0,1.9971529146680693
407,0.9067756847925657,1.0,3.5624198788696995
408,-0.5895210804778583,0.0,0.7798028776712466
409,1.0242899544253756,1.0,2.542428558591749
410,-0.44917363662320403,0.0,0.26846043532076275
411,0.037010907738926756,1.0,0.7344811275544596
412,0.13163697809122774,1.0,2.7488125077928127
413,0.21152635144265802,1.0,4.215373069494735
414,-1.715411871153289,0.0,-1.6891423453440673
415,0.21263536329959815,1.0,1.2877835072271446
416,-1.604041963892583,0.0,-1.9525587796647437
417,0.5401118794353814,1.0,1.5817524997809822
418,0.06612119274512634,1.0,2.2811236031392346
419,-0.2800223814009434,0.0,0.17577334399927763
420,0.7221963075146475,1.0,3.2425044433715864
421,0.34424438859919293,1.0,2.7366653885115486
422,0.9177005890865266,1.0,3.186967875306629
423,0.5617241132286449,1.0,2.5502991353673634
424,0.8682638980751411,1.0,4.051156273455152
425,-0.7067979323956529,0.0,0.692232558841143
426,0.526232797794326,1.0,1.5699136682586263
427,0.09405065700416905,1.0,2.9297942598733906
428,-0.15472164064837937,0.0,2.024187131615866
429,0.8453386417477042,1.0,4.069525612754912
430,-0.8554624799611913,0.0,0.022988939140626274
431,1.703054355089736,1.0,4.812480814182417
432,-0.27151757723531833,0.0,-0.47523143330058254
433,-0.22883388311507716,0.0,-1.0279695269406015
434,-1.2918895275490834,0.0,-0.8945259521276164
435,1.0610796476022404,1.0,0.8713273081420181
436,-0.2228248160093065,0.0,0.06703654005775617
437,-0.022165598635133694,0.0,1.9071561234111591
438,0.8835771264427172,1.0,2.3923405397006974
439,-0.33414119470081505,0.0,-1.1360162941177472
440,-1.2234576456827013,0.0,-1.8103354595972079
441,-0.08944871119548332,0.0,3.0279934174582954
442,0.4357268405053865,1.0,3.775910775840761
443,-0.4259227825599061,0.0,-0.5970292450413837
444,1.1397281866773934,1.0,1.746852521615513
445,0.6227815596863221,1.0,2.6254401539321153
446,1.2879875200458044,1.0,4.618013596786508
447,0.7495188663554803,1.0,3.789791800782701
448,0.033384801828597835,1.0,2.3995762659262576
449,0.10705473091533523,1.0,3.2344943837713593
450,0.7567884533492126,1.0,2.6739788501937776
451,-1.1955365830417535,0.0,-0.9176409875244469
452,-0.22829972624620914,0.0,1.4837554604553254
453,-0.649406759527048,0.0,-0.5018423816367692
454,0.45836351043415025,1.0,2.402614788850325
455,0.580686701099865,1.0,2.045974576034477
456,0.797585107534399,1.0,3.498028951367981
457,0.7503357551088227,1.0,1.2948701086390864
458,0.08463168526296089,1.0,-0.057001683276650894
459,1.2484194982836698,1.0,4.051766694139263
460,-0.09542473656396684,0.0,0.0538868812143356
461,-0.759764527817773,0.0,-0.41798906714421236
462,-0.8893805019777338,0.0,0.38093632589617965
463,1.8284957212850659,1.0,4.829939762263692
464,-0.6873305135322053,0.0,-1.0771471489357909
465,1.078544800887735,1.0,1.987792685741435
466,-0.6197497823872253,0.0,1.472370670431665
467,0.8501151083320975,1.0,3.138039785584403
468,0.13967392387176114,1.0,2.348725759276501
469,0.23330246488733025,1.0,1.1616813847680447
470,0.32585396512717696,1.0,3.2474834982191405
471,0.20417905415412288,1.0,2.4443935855131724
472,1.8326874544987168,1.0,6.663019757633659
473,-0.6430030662970345,0.0,-0.9653689299850753
474,-0.2798151895850488,0.0,0.9179625179608498
475,1.3945180700944237,1.0,3.27254075254125
476,-0.4354691332673989,0.0,0.5941343833639701
477,0.4337892372944429,1.0,0.975363660410193
478,-1.6534076811383716,0.0,-2.3838358493539364
479,0.5466409502427176,1.0,2.470227139023956
480,-0.33176077264471915,0.0,-1.7324784472949315
481,-0.2527275677679399,0.0,-1.230121338835414
482,0.3719850046347091,1.0,4.453144606033867
483,1.3025904366043528,1.0,2.2976417803644624
484,0.6317815906363264,1.0,3.6879207990799805
485,-0.5846430971476454,0.0,-1.3993618250044948
486,-1.4569027892604443,0.0,-0.42689782306314183
487,1.078389424303774,1.0,4.782096180811251
488,-0.2733271364429988,0.0,-0.027107947695241913
489,0.8319994636995458,1.0,2.2873643136839834
490,-0.20073261258465142,0.0,0.7460375822870842
491,-0.07348527540450335,0.0,1.1648607829368998
492,-0.1647144094711277,0.0,0.17485288703761556
493,-1.2327162249870753,0.0,-0.45468762888675773
494,1.3622734877136178,1.0,4.570041341241678
495,0.3302962744413175,1.0,2.4258496253879063
496,-0.038159901595816476,0.0,1.7501150062345938
497,-0.4331043506011427,0.0,-0.5408064700479519
498,-0.5798761238967368,0.0,-0.6097462303632191
499,-0.5558346068292201,0.0,2.9875044389997933
500,0.8341952865118675,1.0,2.2437836300072997
501,0.10538772645099809,1.0,1.785346276660257
502,0.3772229289145544,1.0,2.3993525585792317
503,-1.1161365287389289,0.0,1.7663978099422344
504,-1.2660844601140397,0.0,-0.8297450980259264
505,0.11953059033699008,1.0,2.3860694395981934
506,2.1303031332387476,1.0,5.5802401193090265
507,-0.04516174582715371,0.0,-0.015663361502924356
508,1.2537131911498065,1.0,2.590299557615719
509,0.7829912101360927,1.0,2.7707068005594726
510,0.7564107254810478,1.0,4.522021125759791
511,-1.8872584720593053,0.0,-2.646402077093627
512,0.8256494522275818,1.0,2.4186530332915357
513,1.0795488132600006,1.0,4.303371519588154
514,-0.7733462762936824,0.0,-0.9784466155779896
515,0.2688087841330873,1.0,0.793507054667185
516,0.5656753071001315,1.0,2.5756713198819114
517,1.1044705809319957,1.0,4.481047931570821
518,-1.5102052108520616,0.0,-0.40670461455447426
519,-0.019993596369067834,0.0,-0.3620779258117818
520,1.3343044445517245,1.0,3.52017709132471
521,-0.28030703729985657,0.0,0.6518688172934077
522,1.6284511599329439,1.0,4.150336803309318
523,0.13919433589694508,1.0,1.632869379496889
524,2.486907381460231,1.0,5.650223749367914
525,-1.5192836148814517,0.0,-3.0319282918059773
526,-0.9362811372034058,0.0,-1.3915500993651904
527,2.6975229089907033,1.0,4.498867855144317
528,-0.4020466085079919,0.0,-1.7250001600653173
529,0.9462239646521956,1.0,3.575553306943955
530,-1.4910391460608787,0.0,-2.0325396145636465
531,-0.9918026447405544,0.0,-1.0141937972718795
532,0.9402700141984718,1.0,4.2315249248798805
533,-0.04943392864241771,0.0,0.7636796945164446
534,0.6455027625419323,1.0,3.1949950431217418
535,-1.1833236892030567,0.0,-0.923645950169036
536,0.46617327522234697,1.0,1.519722772536943
537,-1.0184032146517317,0.0,-0.665232619844169
538,0.313780176860079,1.0,2.718826660869472
539,-0.06325949330057345,0.0,0.48619575881585186
540,-0.5018150062482727,0.0,1.1272755905902754
541,0.5901557630761827,1.0,3.463908443187372
542,0.44472021692669483,1.0,2.0300293175694546
543,-0.7767658979978069,0.0,-0.06980789424478989
544,-0.8642174851644775,0.0,0.8925817871404471
545,-0.09611111490695562,0.0,-0.8593686607990536
546,-0.40445101591851,0.0,1.3348543992882411
547,0.16354270979073227,1.0,2.650254866685193
548,1.0545868419846436,1.0,3.261983417898885
549,-1.2621163571916345,0.0,0.042619895351222015
550,-1.5730313193065668,0.0,-0.6106268375175528
551,-0.3068955075334782,0.0,0.14004870331205913
552,-0.8029633165384957,0.0,0.31526121814937225
553,0.4291931581671643,1.0,1.811018405225917
554,0.3389764730981698,1.0,1.7676901065534207
555,0.6052993325869321,1.0,3.150952490151313
556,0.09678331814968893,1.0,2.45675468583589
557,-0.784575155250805,0.0,0.09270141940991983
558,-0.9290927466587714,0.0,-0.7439402658413042
559,1.221380019120532,1.0,0.6035044603533963
560,0.8512779023717543,1.0,4.942860643438116
561,0.488433165219033,1.0,2.148549306715408
562,0.8668842904339357,1.0,1.7485927448526177
563,2.034073620352435,1.0,5.335555676761336
564,-0.14598962604439958,0.0,-0.5072229258423895
565,2.0529093844222928,1.0,3.6836801891639075
566,1.1924509846961786,1.0,2.4721811654628905
567,0.14370191977732932,1.0,3.2812794164414405
568,-1.0200529301077967,0.0,-0.26127430811614977
569,0.04788377109506821,1.0,0.7595175047845253
570,1.5180515848050042,1.0,3.923254770895598
571,0.5568836630304241,1.0,1.9056876285363926
572,0.20532512498039887,1.0,4.046285427318898
573,0.7250296050507111,1.0,1.7888545276481438
574,-0.6017139289557374,0.0,0.8633620611371238
575,-0.621146040481149,0.0,0.21204177166008725
576,-1.0916377084495392,0.0,0.21562442033059281
577,0.6440536538355146,1.0,2.324729540473156
578,0.7886124720702532,1.0,3.5742103952792896
579,-0.260719684007001,0.0,2.010265039706653
580,-0.5468068413847625,0.0,1.3148141437109495
581,0.9483162423350848,1.0,2.268408689298795
582,0.776577283243279,1.0,1.799286638081555
583,-0.18606015898522552,0.0,0.9986579213707905
584,-0.5203184730065491,0.0,0.11371582729517818
585,-0.5145202456525974,0.0,0.2969458730738199
586,-0.9050909847419021,0.0,-2.385521607120247
587,-1.0044494510711741,0.0,-0.9770776699600434
588,-0.46151851776554315,0.0,0.3638438134460656
589,0.2895249036267882,1.0,2.4171415523513216
590,-0.930464072020316,0.0,-2.4063256580433894
591,-0.15171244159285519,0.0,0.4027135992976931
592,0.03944905252606905,1.0,-0.4373755979099334
593,-0.6307061482410994,0.0,-0.2867354412956561
594,-0.11576785257670193,0.0,1.509424864435897
595,-0.3696996148873269,0.0,0.02689414507057281
596,1.6559932562661495,1.0,4.281623487012885
597,0.35416339587323215,1.0,2.893364122058762
598,-0.17178121763830914,0.0,0.14463342403649262
599,0.8276815592700658,1.0,1.635239509492378
600,-0.1396477984576713,0.0,-0.4490210737802739
601,-0.9119719153093269,0.0,1.2271665868692776
602,-0.24881845086278045,0.0,0.4992543229203637
603,1.5976987377838363,1.0,5.433135018200988
604,1.9969392764390028,1.0,4.186595199418409
605,0.5142416477318668,1.0,3.156967631918326
606,0.07217197780738095,1.0,1.3707857855217684
607,-0.7852790772360256,0.0,0.0783943375862518
608,1.943518751732297,1.0,3.7054840961679973
609,-2.214169482654749,0.0,-1.1549968898978242
610,-0.9409901342889755,0.0,0.48606787190217027
611,-0.46716738581984785,0.0,-0.4665559527688067
612,0.1763124614014922,1.0,1.6070611287501162
613,0.07973095172841493,1.0,3.10763104001862
614,0.9636992743302216,1.0,2.60378210910899
615,0.17774228121958716,1.0,2.654557084104988
616,-1.0507370038629724,0.0,-0.7838675258373653
617,-0.6939459409935456,0.0,-0.21277314647385626
618,1.9687926498633264,1.0,4.371198498434553
619,0.3766303744029812,1.0,1.190782572295647
620,-0.7613017439687911,0.0,-0.5345103539647347
621,-2.2239223463098905,0.0,-1.1402247662746967
622,0.9109675882991757,1.0,3.7071520811014254
623,0.8860352650888971,1.0,3.17910568306491
624,0.47478917992253605,1.0,2.5035788433724986
625,0.2558467008979181,1.0,2.7534053349868994
626,-0.9280767995505836,0.0,-1.4055294592849013
627,-1.8522476893197555,0.0,-1.8612891097790023
628,-1.4058370200153136,0.0,-2.5361943677645113
629,0.6928486343456024,1.0,4.490762551680599
630,-0.48227422956285027,0.0,-0.6513960859212137
631,1.7972285348540098,1.0,4.67646543715926
632,0.7023623981958357,1.0,2.10180013833436
633,0.2333042456715923,1.0,0.8583799662325573
634,-0.2537248126302767,0.0,-0.777126919837881
635,0.3015168088814837,1.0,1.8503406425520272
636,-0.28763615918250934,0.0,-0.2604723617163945
637,-2.291288115249516,0.0,-0.440827413276659
638,-0.45267684815799036,0.0,-0.05326008297215102
639,1.5338869411282636,1.0,3.568433766140554
640,0.019217819370221472,1.0,2.385479723594116
641,0.8212139742353753,1.0,2.6662768238029932
642,-0.6257844655884653,0.0,0.1568902680340874
643,-0.5293009634460166,0.0,2.541165770893604
644,0.8914642382622039,1.0,2.4987049260260754
645,0.7055241366308886,1.0,2.070715238214336
646,0.24342431401060158,1.0,2.45182232758782
647,0.2919748650143636,1.0,0.33254149721880566
648,0.2989808968846876,1.0,2.336288079333878
649,1.7919290563683503,1.0,4.4170450507606365
650,1.5487691757016606,1.0,2.1857087124850665
651,-0.6466293268778075,0.0,-0.8343395383787048
652,1.3494170103641214,1.0,3.417693994474309
653,1.7647773862480396,1.0,3.6840676032027515
654,0.0628686762166567,1.0,1.6928512701807916
655,-0.1976980471609194,0.0,0.4985630472144964
656,-2.671104130210729,0.0,-3.290304258693432
657,-0.681177440006465,0.0,-0.31026201014512106
658,-1.9054133371143875,0.0,-1.6752675835644497
659,0.31998859145224195,1.0,2.024519640672667
660,-1.4540575503115807,0.0,-1.373050818802676
661,-0.04274780362207102,0.0,0.562576029587133
662,-0.7410477666663383,0.0,1.3161787991142537
663,0.47507385830362037,1.0,2.6509982068152955
664,0.8557100862219641,1.0,3.2142861142570602
665,0.6179747029870846,1.0,1.9895460263400828
666,1.7027711277999749,1.0,5.860381520613273
667,-0.20765562131553986,0.0,-0.6128418617968071
668,1.6087224970643863,1.0,4.089518454538851
669,-0.4601319715493286,0.0,1.3396417168392287
670,-0.7943742160107895,0.0,-0.36065613288371906
671,-0.8163201239202601,0.0,-1.5558325947470153
672,-1.2788329397557687,0.0,0.2485378200290358
673,1.5221423838866912,1.0,2.891798351721964
674,1.1668958129369413,1.0,3.735027987678861
675,-0.6141552129188755,0.0,0.0063065481070865015
676,-0.39105458635557566,0.0,0.48673656055082204
677,0.263146198179493,1.0,0.6342377489031414
678,1.106766580847017,1.0,3.055542656374178
679,0.7512009716347311,1.0,3.4720994681772535
680,1.6145397149971688,1.0,3.346364590574774
681,0.472486430528891,1.0,0.6024257939182747
682,1.5482173406254616,1.0,4.901489954493276
683,1.5559507308065856,1.0,2.1116291875333864
684,-0.06885853613168724,0.0,1.4531831652082197
685,-1.2647750407594338,0.0,-1.2943000351436584
686,-0.3864597653006829,0.0,2.337339149060832
687,0.022147875132909865,1.0,2.140072346640614
688,-1.8015650870158353,0.0,-2.6004562707551937
689,-1.462379173718966,0.0,-1.7934658241938914
690,-0.5266476417668877,0.0,-1.2065725642565865
691,0.39629624224903387,1.0,3.283374392398355
692,0.09348902270440299,1.0,0.5610014917927972
693,0.4100565622774738,1.0,2.620110362014171
694,0.3698238591903498,1.0,3.475758021301402
695,-0.6883617069757024,0.0,-0.10738868937919863
696,1.3558696702869093,1.0,3.310213163378117
697,1.0849245164878787,1.0,4.034981311358441
698,-1.3028516533777692,0.0,0.2694662959869938
699,0.7853461982649935,1.0,3.289818705326619
700,-0.0842839816465651,0.0,-2.005474216273112
701,0.5178854096628044,1.0,3.2676406425615165
702,1.0925692944750918,1.0,3.509444151639961
703,0.03093511242770558,1.0,1.634406919064618
704,0.15326586606947545,1.0,2.873799990688556
705,-0.819404733708066,0.0,-1.6431688590048115
706,-1.1835222988376992,0.0,1.0502180600720856
707,-1.5559506134225563,0.0,-0.4078039023590516
708,1.0633315789762894,1.0,3.5701598053879806
709,0.6374331902389915,1.0,2.6663065702854225
710,0.393412818452258,1.0,3.2008893377459438
711,-1.3492680418546288,0.0,-0.5309926141323144
712,1.015512414470206,1.0,3.156244646125115
713,0.5281836997128354,1.0,3.635692451815653
714,0.09600764497862657,1.0,1.545900743854915
715,1.321451590564066,1.0,3.9707248234589603
716,0.8313746102370696,1.0,3.5476142861915916
717,0.6495658027649043,1.0,1.6266957748347026
718,-1.0220689767784783,0.0,-1.0770239687566818
719,-1.7999442434613515,0.0,-3.057173584023354
720,0.9006902124444048,1.0,3.813701653825767
721,-1.0178022447689323,0.0,-1.408520551628433
722,0.16475527716069216,1.0,2.1929267437360553
723,0.7824649036944205,1.0,4.186849185809699
724,2.6117053390377563,1.0,4.583488493339707
725,1.2988558668117103,1.0,3.776230922261872
726,-0.40982519182873434,0.0,0.28498107890476204
727,-0.20772462161398644,0.0,0.5733854933198482
728,2.1245118224847803,1.0,5.821799332383
729,0.8238936780980682,1.0,1.5937064602601063
730,0.36798851053498843,1.0,1.2719483985274025
731,0.2717104583913535,1.0,2.1598415209356516
732,-0.615906850392053,0.0,-0.5535222181051374
733,-0.6129702299103038,0.0,1.057116206746202
734,0.26517365397297815,1.0,0.06697305575739376
735,0.742882712114174,1.0,2.485154184889772
736,1.1031943939148199,1.0,1.6135558487504604
737,0.5972536598058585,1.0,4.218737117412921
738,0.36539008957436087,1.0,3.2186552910232464
739,0.47611121045135724,1.0,2.061183445234375
740,-1.6912982382781172,0.0,-1.0171823456123426
741,0.19567862047850598,1.0,3.683110046338152
742,0.12071782440704927,1.0,2.851200002513157
743,0.32695898018988245,1.0,1.7307109281156787
744,-0.39618846879407466,0.0,-0.1632984020926316
745,0.5988043041468581,1.0,3.477454771220405
746,-0.3670066403323685,0.0,-0.0600154346888824
747,0.10904998480559502,1.0,3.411595282709618
748,-0.45978819992531383,0.0,2.713817474856514
749,0.8972399593607897,1.0,3.0480617923484217
750,0.21352476849473784,1.0,2.8291636351585483
751,1.4961052093034841,1.0,3.7289874210158653
752,0.37575545959572665,1.0,1.8161825923622001
753,0.7499207917427739,1.0,2.4111048050302215
754,-0.5473602421540594,0.0,0.985336752671455
755,1.2845489276187032,1.0,5.5122182110852815
756,-0.4516000858040243,0.0,-1.0151165452416784
757,1.938023745958612,1.0,4.381483273942665
758,-0.9902015153238667,0.0,0.5427322910960448
759,0.6336249511888858,1.0,1.9759883848948048
760,1.173041025899095,1.0,2.521218628005756
761,0.4493140093402493,1.0,2.0908865004877564
762,-0.8745994714075388,0.0,-0.37850687676186534
763,-0.02348498017707495,0.0,0.7848457559437833
764,0.4189635484791646,1.0,3.6299205949051414
765,1.261486562452081,1.0,4.537520138553084
766,1.666084067542675,1.0,3.5947662564532328
767,-1.3831688108100062,0.0,-0.7353451078826198
768,-1.5924165654098845,0.0,-3.02513514744403
769,0.016211050371520416,1.0,1.429640243525801
770,-0.7261687794443128,0.0,1.0057772679755832
771,0.6560690542132792,1.0,3.8216734676237336
772,-0.21517317698080948,0.0,-2.1610989366240396
773,0.07602210929692127,1.0,0.5629142139464807
774,0.2020051154209652,1.0,1.3254511003399212
775,1.220688409707487,1.0,3.4080750478448767
776,-1.579822961448262,0.0,-1.3285348826038417
777,-0.7028918697676056,0.0,-0.7209950069204945
778,-0.8397540033288057,0.0,-0.6520498810307718
779,0.5231695993589296,1.0,4.234533498566822
780,-0.35953222070087465,0.0,0.9207696592187931
781,0.8214321634320889,1.0,2.0944762605960534
782,2.6000267528507197,1.0,4.448418205540035
783,-0.2186199066341595,0.0,1.9823808504122185
784,1.0730916530733619,1.0,5.107109951631899
785,0.8981237547643797,1.0,2.927070649722805
786,1.5674678015707761,1.0,2.491533095479453
787,0.6606857688512741,1.0,2.1558227216205426
788,-1.925575087623482,0.0,-1.2735986360154927
789,1.1037740772414604,1.0,4.276659044441847
790,0.5681332841719308,1.0,2.0689735647105243
791,1.498540005635848,1.0,5.026764496883995
792,1.1981481239100107,1.0,4.294634039416019
793,-0.7951351844732348,0.0,-0.1597081717082119
794,2.072415570418609,1.0,4.307668040173806
795,-0.42744112282870356,0.0,1.5398382301139995
796,0.5708167413119754,1.0,1.7884839462998516
797,0.3787684803512094,1.0,2.543343771580884
798,0.09903891327992913,1.0,2.3691314013616576
799,0.5063920876559816,1.0,3.0598578778842462
800,-2.638397059350431,0.0,-1.950951636166809
801,-0.4481777236363756,0.0,-0.8260629159071899
802,0.7029943640363765,1.0,4.045231890860868
803,0.5465395008526948,1.0,2.1214543152309004
804,0.47876369992020873,1.0,2.224612045516351
805,-0.09336049937415801,0.0,-0.03379044817187493
806,-0.016460242050799326,0.0,-0.6809863632362064
807,0.4636409558290863,1.0,2.7021789781367738
808,-0.7464677985117741,0.0,-2.1712735589059697
809,-0.977382450779768,0.0,-1.8937732531567646
810,-0.1917385892749539,0.0,1.7116056807582596
811,-0.04921230299821491,0.0,0.3472807260676101
812,-0.03509942128184017,0.0,-1.3343270534434235
813,-2.044624121342782,0.0,-1.6970534963774622
814,-1.5076321042493206,0.0,0.1305695965064173
815,0.5074940415429932,1.0,3.038363492812117
816,-0.8533902675409965,0.0,0.5938590409173898
817,-0.493231417514565,0.0,-2.281710419385346
818,0.48118630539223045,1.0,1.684574449797315
819,-0.45028417057543424,0.0,0.12025093063862288
820,0.8779144259673043,1.0,2.0813884614889155
821,0.33236832354944607,1.0,2.5016421690327557
822,1.5432392306370393,1.0,4.218522429163173
823,-0.15541201216608908,0.0,0.5069133507167036
824,-1.0453491515158686,0.0,-1.3784929707014362
825,-0.3701573296379554,0.0,-0.854157737817552
826,-1.2256425246248648,0.0,-2.8101175757167045
827,-0.23281295023528192,0.0,-2.1731750065836772
828,0.7004795684696145,1.0,4.369984262966729
829,-1.4628719695345167,0.0,-0.32420688945636245
830,1.3500149030910513,1.0,4.721437490521762
831,-0.566627806084284,0.0,0.8371039227866809
832,-0.42904303170057295,0.0,0.23824280469862802
833,-1.646271060127919,0.0,1.0862155064749426
834,0.40610483989683915,1.0,2.4859089454450407
835,0.5113081222235573,1.0,0.6934330323359152
836,1.6640521262751033,1.0,3.7934605710899367
837,0.33187456856532643,1.0,2.757845173338913
838,-0.7524038640056575,0.0,0.5210498563454813
839,1.1211535907446237,1.0,3.819045413050075
840,-1.0522796049620038,0.0,-1.515497379512214
841,-0.43304488437263744,0.0,-0.7490437415698574
842,-1.4519872024448224,0.0,-1.3103068816684946
843,-0.06037482236494155,0.0,-0.913506154667461
844,0.7830883740441198,1.0,3.3058662668499808
845,1.1539761711724932,1.0,3.034947969557883
846,-2.308474474802293,0.0,-2.9602026460980326
847,-2.4796861793393346,0.0,-2.2280468907300226
848,1.283974369899063,1.0,4.991524891873006
849,0.9991327157317519,1.0,2.977739106530075
850,0.8437089754448063,1.0,3.866272731174866
851,-1.7405610854094513,0.0,-0.4148665258032953
852,-0.22072862090780174,0.0,0.5904958396651887
853,0.36095278705224754,1.0,1.467193631436566
854,-0.4376909668315973,0.0,-1.6309018999331055
855,-0.6603082137624507,0.0,-0.5769004259939384
856,-0.23430518151526475,0.0,0.719056582076588
857,0.4437396023167916,1.0,1.860228520130219
858,-0.29817249022358483,0.0,0.7105651830735824
859,0.128175190708498,1.0,2.5580760778552634
860,0.8447210237434978,1.0,3.2500447975007356
861,-0.7523673833413308,0.0,0.2728828562570055
862,0.8768806981663968,1.0,3.5633945785462973
863,-0.2682034623615013,0.0,-0.7599504354220583
864,-0.1284908528798031,0.0,0.05211201241939467
865,-3.3121484194491364,0.0,-4.164116719707055
866,-0.8277182551803359,0.0,0.6298518664673048
867,1.136178063440476,1.0,2.401215942929916
868,1.962185077522613,1.0,4.1543662266758545
869,0.2323809230373637,1.0,1.4365459540714318
870,0.10831098166954425,1.0,-0.23703847929842992
871,1.6883169404968656,1.0,4.563691422351273
872,0.4108328763156965,1.0,1.1732631020660962
873,-0.24295662228953888,0.0,1.7608166823429867
874,-1.014333270112535,0.0,0.5793146700444738
875,-1.2126685097064052,0.0,-0.5562983684225553
876,0.018389396631020974,1.0,1.2453074481146627
877,0.5866047894380423,1.0,3.327168424884099
878,0.10237445052623056,1.0,2.65840545130546
879,-1.1515032552935986,0.0,-1.9216795141160452
880,-0.4047842998766835,0.0,2.449713440092829
881,-0.7034869021981719,0.0,0.038107998230181184
882,0.2710864059195138,1.0,2.4608704758419675
883,-0.04433576624992985,0.0,-1.1678552436143619
884,-0.2889409538258671,0.0,0.49491189334866564
885,0.1604795076184398,1.0,2.497375538365627
886,0.16789726089942483,1.0,1.5503320732359436
887,-0.5999641854907981,0.0,0.15622526188424074
888,-0.20139937517559792,0.0,-0.3005661642486426
889,-0.6874825318621851,0.0,-3.80645076927061
890,0.09913220513771381,1.0,1.47984563320784
891,0.13575823222626562,1.0,1.5954422937393353
892,0.1377748618369227,1.0,1.8010254710359372
893,-1.0549492216918066,0.0,-0.23404793210156905
894,0.30283087844419626,1.0,1.6658451070810687
895,-0.3284618822620039,0.0,0.11097623559466152
896,0.2281286990538611,1.0,2.7194272245209863
897,1.0390539960222254,1.0,3.3717982321225826
898,-0.9379433391554093,0.0,1.2570913685080236
899,-0.3504210028036352,0.0,0.28506582789255147
900,1.0115506293990868,1.0,2.5670705477734486
901,0.9537760803103995,1.0,2.249925712982283
902,2.021693703190204,1.0,4.022692422260204
903,-0.11911630160454731,0.0,-0.6117171532572846
904,0.8441381001546269,1.0,2.1706225153930827
905,-0.09949725439262551,0.0,1.5514764478558645
906,-0.15750873708307914,0.0,1.6318177101769173
907,0.1321359703633694,1.0,4.245274869655624
908,-1.8685407671613532,0.0,-1.016766578694948
909,-0.14026831234816145,0.0,0.3397502745372316
910,-0.7568906517694703,0.0,-0.16891153866398081
911,0.09766105404139475,1.0,0.8523805126427209
912,-0.497944296884635,0.0,-0.1160702552574667
913,0.7515236681438104,1.0,2.6155105465919455
914,-0.09853730643768933,0.0,-0.3484800483123961
915,-0.19218290571684854,0.0,0.45067948784580747
916,-1.0112229254675336,0.0,-1.5425730668784996
917,3.6068459727013487,1.0,5.156560394515466
918,0.9084640084642419,1.0,2.6100962983981884
919,1.915467428583128,1.0,4.99839296618538
920,0.25154467884458953,1.0,3.016833415515731
921,-0.2941299069842549,0.0,-0.7161110741421679
922,1.184380810761826,1.0,3.954642699966889
923,0.3743067942060744,1.0,4.7424699597231506
924,-0.3507250124001771,0.0,-0.2393883071378891
925,1.1904295448619076,1.0,3.27739806948931
926,-0.7083184754463964,0.0,-1.407143134303187
927,1.6816932898199832,1.0,1.61456182108008
928,-1.5466356063155549,0.0,-1.2576271136181714
929,-0.27553175607407676,0.0,1.1879013738630784
930,1.1213923644723853,1.0,3.0486592931703553
931,0.9564938337375507,1.0,1.6476790771449215
932,1.2641155659753822,1.0,3.9350299544835137
933,-0.054832525168694954,0.0,1.026350843962583
934,-0.9607838828194101,0.0,-1.8194461301939546
935,0.7380924053204173,1.0,2.6683449304918354
936,-1.7882374265781074,0.0,-1.7176589340069428
937,1.474378103106956,1.0,3.27247473000649
938,0.31684295710223415,1.0,0.4415107761798509
939,0.7537044256322061,1.0,4.9458773575338935
940,-1.7291588732188257,0.0,-1.058924571382176
941,0.33412321859064276,1.0,1.0693278989640875
942,0.16664299152969375,1.0,1.9589731777537254
943,0.5013096470481656,1.0,4.301053249681031
944,0.6936401174408097,1.0,3.528028522142729
945,-0.5564027440231732,0.0,-0.2483170586505441
946,1.5649469874344806,1.0,5.299518678652147
947,-0.5153085047734187,0.0,-0.7080190694745333
948,0.8836407695299686,1.0,2.228060120100562
949,0.09796277712875358,1.0,1.7069411601708273
950,-2.0241576719261065,0.0,-2.1912519243504875
951,2.015833857899316,1.0,3.7077180028378276
952,0.11223234185708433,1.0,2.710298957060078
953,0.1290341661767127,1.0,0.3399588088690604
954,-0.10792188817199201,0.0,-0.8834336864236578
955,-0.7716326511780941,0.0,0.2631032418750465
956,0.14159615291319358,1.0,1.5735487933060237
957,-0.1990406402094317,0.0,-1.5055003720457332
958,-0.46418730344980985,0.0,0.044547842348443153
959,-0.6201860370804475,0.0,-0.45301771336065916
960,0.30880868963401414,1.0,5.327517236956631
961,0.37892995405688457,1.0,4.998649604433139
962,1.2942408826378935,1.0,3.494211312311969
963,-0.20608965684480254,0.0,-1.603642898624014
964,-1.4370143602934338,0.0,-1.596591191041521
965,-0.4370849611879821,0.0,-1.0620449177303617
966,-0.38288516625930785,0.0,-0.2916033198596142
967,0.716972957614318,1.0,3.193359063916081
968,0.6999472756769965,1.0,0.41757982668718174
969,-2.583471584585928,0.0,-3.523921713163365
970,1.512462114891152,1.0,4.406325974155598
971,0.6415250497793162,1.0,2.030171070154596
972,1.0112161375835254,1.0,3.5777601275659543
973,-0.8992201241391264,0.0,-0.9876061667281115
974,-0.507510544715914,0.0,-0.774636144358313
975,-0.56371653204045,0.0,-1.0084632185441493
976,-0.9562118611180555,0.0,-0.8863791488709504
977,1.8468527078365,1.0,4.106694406200519
978,-0.16100571118132156,0.0,1.5587035066388484
979,-1.254439238949808,0.0,-0.3832309362464775
980,-0.9132944073752882,0.0,-3.697830583515919
981,0.07288486619683208,1.0,2.405583677083866
982,1.016886666492393,1.0,3.345513697851937
983,0.6153611336837789,1.0,3.366556839526287
984,-2.065373321463951,0.0,-1.6976383179897747
985,-1.639833741605232,0.0,-0.6427534290292519
986,0.4741208702058398,1.0,2.2267938429205465
987,-1.217064941176978,0.0,-0.05503728818080966
988,-1.5025126814431917,0.0,-1.265537339029926
989,1.1645341740605897,1.0,1.8864819598019842
990,-0.8951947006829792,0.0,0.4153917798590562
991,0.7788310029618081,1.0,3.304207646339515
992,1.6693122258052508,1.0,4.313956770951319
993,0.3355416270552959,1.0,1.6902386077133946
994,1.1934152824751245,1.0,2.9006296057187644
995,-1.2319218907262477,0.0,-1.6561239377319295
996,-0.5420514927829597,0.0,0.10950142616883274
997,0.9812228132047763,1.0,3.3115107167810676
998,-1.286688119928963,0.0,-0.4475929741396435
999,-0.9890269568280188,0.0,-0.9344057369396717
