,x,confonder,y
0,1.567127049149363,0.33793995382894604,2.637039308910754
1,0.9625390088938003,-0.016455178722178585,-0.039863541512147105
2,0.1926090819453341,-0.06836534947874465,0.2614810169855959
3,-0.38011348531558564,-0.5442348332147253,1.1184840447209545
4,2.6703707795188603,1.0586914375676093,1.9524068277678435
5,1.6707846176162104,0.023069130841621672,2.64764868869422
6,0.8666736475642897,-0.11020234885519699,2.571373452454293
7,0.9478344978641813,-0.8465516582596616,0.7077646678005717
8,1.2418848024921918,-0.8992573564295384,3.7137272574766707
9,-1.0515391261326354,0.7936310179567466,0.841787165487828
10,-0.8217459153528617,-0.9666755685580233,0.677985202236447
11,2.3384150133321837,0.42111665413636507,1.4949624538294168
12,1.6948342128771183,1.8744247977564041,3.0290072891057425
13,-0.03139014024788589,0.3373516152263869,1.6613113007452225
14,1.3280208104363531,0.1530821296454935,0.4941196735150272
15,-0.651506329315492,-0.4425788578959442,1.8090053008947957
16,0.4244306966676731,-1.4475861989927792,-0.37902775410460804
17,-0.10303681461271097,-0.11115131233837473,1.8018138384872602
18,-1.5243602267660683,-1.5504994881902203,-1.763963196684709
19,-0.16477764154787639,-0.7049992077245034,1.7168646289784892
20,0.023866952891815923,-0.9273776039082349,0.9024221838163725
21,1.1845246460455892,1.066600185648864,2.021196279373935
22,2.6351754435990555,0.6255759275653439,2.202702185144079
23,1.3698338636201965,0.29033790578600444,3.81097298811169
24,0.3115401829942039,-1.1957603673981132,0.47877253263743036
25,0.6259431086175248,0.3878090096902092,1.6215110167103925
26,1.7917693413887545,0.303612850184681,2.379170181644655
27,-0.496381308523772,-1.218851961311129,-1.8896544009578864
28,1.6343080749588563,0.15086947860954075,1.9710461949832458
29,1.1086305901767453,1.106315636768424,2.003945269999088
30,0.9341309647099788,1.1972617642730494,2.062162663085682
31,-1.3771218396604314,-0.5890492671950026,0.7759473938073227
32,1.2591477367407353,1.1314959037994976,1.9667362192958868
33,-0.8246939220235989,-1.6463216196703274,-1.3217225212356598
34,1.293561191633958,0.449451748084065,1.8362359638308183
35,1.2805215198844544,-0.22890504970803732,1.5304754449512121
36,1.7299614669331538,1.2869976907443808,0.7450554002689054
37,0.8280781203417655,0.4951717450166676,0.3103799852800061
38,0.17540744762216187,0.03312619924173556,0.6934382726317865
39,0.987279993169747,-0.08270708671632063,3.2981710418956043
40,0.30138259364194125,-0.5985467184041164,1.3221537469984201
41,0.991551235881209,-0.3634003969586692,3.0774159366486424
42,-0.5180855363907929,-0.39775823797822635,-0.2332984286365363
43,1.2436458206247347,0.013991654340370866,1.2191498765532964
44,0.4778573255899793,-0.16696543641513834,0.5087552198970287
45,0.638906914127275,1.3710438386917536,0.9359215764776185
46,0.41162098628738814,0.7863821974769354,2.5646459256885237
47,-1.8005720678531913,-1.2217507909732823,0.42231384251802984
48,-1.2930395296540091,-0.02150838675600387,-0.3884100262442245
49,2.711507545201624,-0.1341935832432577,4.127830524648019
50,0.33752801241510544,-0.5386528873644928,0.24234977912054928
51,0.27450434111005884,0.7894719834773335,-0.5115569823642393
52,2.006825693891149,0.5069991027470792,4.391091583875965
53,1.013080264911488,1.4142362141986662,2.4169809922451355
54,-1.048721457389402,-0.7578904000442682,-0.39446470911228293
55,0.6671781616569276,-0.04738819454066046,-0.12064124082675343
56,0.7328628639648818,-0.8362258731505346,-0.1325158783523881
57,0.8716787435552107,0.30939047880834536,2.2059565241460857
58,-0.6108451699271185,-1.3339504782270009,0.32468131216597207
59,0.4052675585652067,1.5489387079623231,2.077238680732371
60,1.9490332316234171,-0.9811649617352599,1.822494294495929
61,0.38577222544820766,1.3113649945884498,3.3419836215895904
62,1.595938842221566,1.0322718143584313,-0.348193166889797
63,-0.04094417185479621,-1.8589590788216055,0.5780890415021276
64,1.7525690035150134,-0.527455978939003,1.2912339569260718
65,-0.9994273714148747,-0.12265285095155595,-1.4832720102398418
66,-0.0400489416778933,1.017621783276892,-0.5456600595523379
67,0.336872823715119,0.4039575101821909,2.445144299980444
68,-0.19236165738550653,-0.029119435935885438,2.5172126671259165
69,-0.17579252409359503,-2.619034634418847,1.2289111113047613
70,0.6200855708838073,0.13678783927592625,1.7491993361421394
71,1.4849974699213138,-0.3606085804776058,2.5840264445400694
72,1.2138921315888633,0.2500464540526948,1.9703416165671277
73,-0.3251389594417363,0.06827694504465177,0.9772626158553237
74,-0.7697520159994494,-0.6285499840392235,-2.6687631328791217
75,1.9996567542963477,1.030093572971599,3.426124828902802
76,1.949708763733546,1.0853074520273873,4.343124335328522
77,-1.5640178035446874,-0.662709210503099,-1.4140244751723672
78,-1.3566948234791805,-1.1427422534643357,0.3352185052774206
79,-1.2256189078013946,0.5710105984537699,1.2616765928228304
80,0.014398593064529841,-2.2842297204583417,-0.5730662609812011
81,0.7924470420393026,0.4628819861375292,1.0708086288909295
82,0.3197517687261203,1.0952148833982533,3.7645438923436645
83,-0.24167325317119076,-1.0183203289691336,1.0572301439096552
84,1.0419351641745538,1.1113017806802268,0.27170635080481176
85,1.1126918356101814,-0.8659334479860303,-0.9398246882412614
86,0.19936514897098334,1.368369600772648,1.1930248675121575
87,0.8794190412987795,1.1202133332215691,2.82269322301977
88,-1.8456692410233992,-0.729629509972463,1.7347086530141995
89,2.327066290248772,0.1299478582775553,1.1277377825781612
90,-0.1027091868600675,-0.8743185269076021,2.0792538045237094
91,0.03388105849774126,-0.13857374227792674,1.477074964755024
92,0.4952954494443881,1.2588856156326287,3.482406038875296
93,1.0573764099456677,-0.37460464926113296,0.27679971640886725
94,0.7458463771001937,-0.1046563089223735,1.467167503912606
95,0.20916032674538007,-0.6658515350108909,1.7318173087806523
96,2.0133714954426583,1.6427691460550764,4.19677388179176
97,-0.7650373329070843,-1.679865267939428,0.03133583129005535
98,-0.07232511499510252,-0.20801487875926097,0.8718210299578769
99,-1.083619798264023,-0.9837850871184135,0.9979340499573185
100,1.7291437083020613,2.0612068864442286,0.7301985670115813
101,0.3272656434214032,0.5046642769327253,1.2107018726900791
102,0.7783032427863039,-0.7035821596510967,1.346495212679422
103,1.244747130012558,1.565349050205521,3.2624806551676073
104,2.132504126973121,0.7583243502900973,3.850607268925577
105,1.2982053882951434,2.3073236262444023,2.0094108063866605
106,1.1724822613749168,-0.10476915967378089,2.2880174053376803
107,-0.43894343146407044,-0.32616730901556595,-0.10932723612654738
108,0.058880871905509946,0.18206303549461453,-1.0028692907056478
109,0.32165128212495225,-0.5361900788752737,-1.019085119387516
110,0.17988368614260364,-1.749938728337675,0.6673613259519675
111,-0.825914693221673,-0.18491216521818782,-0.590929315959186
112,2.43060509526691,0.37340298074815637,2.2005553051417994
113,-2.0915661393695717,-1.4391725377755,-1.0063548447694874
114,1.3239447930589123,0.20864445090892647,2.32538773291157
115,0.4879226196124654,0.2930020790963856,0.8877456968458891
116,1.4102810148175886,-0.21563578178673193,0.10031764757499007
117,-0.6609711760209014,-0.16149105849729573,1.2880241944849034
118,2.8304887734743236,1.8253118791158065,4.243433490954023
119,1.9415485694002985,1.1539210300308493,2.514631144531925
120,2.304775568580467,-0.7092028980655234,-0.5231205931632565
121,0.1831242405195167,-2.568519782309846,-0.06046470242799161
122,0.2903155054445233,-1.0305888812254154,-0.5920121478941311
123,-0.533817320262008,-1.767944789559388,0.23174611219642605
124,1.3130835592512415,0.11706998145829337,-0.16324408082729436
125,-1.0262127656621287,-1.243341559932882,-0.19307655506013843
126,0.5555256021186834,0.254675630604378,1.9538093954787117
127,1.1286144012717683,-0.37788159671234633,1.6028313017199884
128,0.5149960234352084,0.597362783738164,0.12645809819089449
129,0.4482539421798475,-2.176255084199963,0.09732544239209084
130,2.3923048270640486,1.5364426347044768,3.3807867205595064
131,1.9663890533121102,1.6694447067038722,1.2403165247590153
132,-0.8321065223558987,-1.548706992150137,0.636178287105847
133,-0.8923650326600835,0.34515610677219816,-0.38533228677012255
134,0.2108974418784003,-0.6813272486904186,-0.22916419190557807
135,0.7182943722124565,-0.2462629122423905,1.4525321608654562
136,0.5983426079739694,0.316026930091918,0.9077199137174521
137,-0.35356269942123997,-1.886601354687891,-1.664352582883395
138,0.6077202367489778,-0.8016832583963452,1.4551105753253148
139,-0.6274388284454994,-2.271064619646714,-0.08997460930496054
140,0.3226627626714922,0.6632874132719347,0.02059733935250377
141,0.4367763813731212,-0.7400151132848913,0.8769057743824861
142,-0.4087838812650153,1.5602037668077235,0.6541527511195944
143,-0.21378145349512956,-0.6782824853501986,-0.6704467859095442
144,0.5131721256249534,-0.8695939784824144,1.138575440837783
145,1.843806868598187,-0.23785724807930528,1.3373525412219436
146,0.2420089038407245,-0.7364792492427705,0.9976874629460882
147,-1.0565155914991982,-0.28945629929714556,1.2781803599350452
148,-0.8162226789012846,0.44902271643551095,-0.39383745750544163
149,0.4174413656269936,0.5165911838991296,1.008044940302761
150,-1.1459127992660632,-0.45056816346298745,0.2642647933507217
151,2.42567033357996,1.6444165928097763,3.6119129178857947
152,0.19081343557104002,-1.327670855375901,0.6739156312360872
153,-1.3032956555971023,-1.3200775884554947,0.12425435469769625
154,-0.9934435283611334,-0.9335964314808187,-0.2666007904712793
155,-0.4068745374334626,0.39186747311952347,-1.630737291971161
156,0.3434147465703734,1.6476759133085521,0.6099246114702309
157,1.5895696769789958,1.6007467312786887,3.1692720798666123
158,1.013455512957852,1.1022554671153084,4.724999017502451
159,0.4770798343544327,-0.3978825195803865,1.4253983072568024
160,-1.7319349348959148,-1.433630688978139,-2.442911218303861
161,0.46983524654767345,-0.4734213290102649,1.0243424535896215
162,0.7386549234166024,0.27729383748297515,2.1630391764451007
163,0.4302266568616554,-0.18621843806759591,1.2282861455179497
164,0.983731349185857,-0.7060919599635279,2.9536250536052253
165,-1.2691675393212507,-0.824307108817202,0.17080934103522027
166,1.3569272208803307,0.4790693189476192,1.831234436167551
167,1.6777450814765402,2.2797533472166034,4.976330363924462
168,-0.6514712943590886,0.9115920473250255,0.475991786799025
169,1.849264803812444,0.04674145583660407,-0.7953391645676925
170,1.0101933507113965,-0.7953127718448122,2.8821277935074696
171,-0.5410998436350848,-0.39841297727899044,-0.94035808181773
172,2.1899053875706778,-0.6097722730400419,1.4756224389083505
173,-0.18852073219044652,0.6628311118096323,0.7960120019840538
174,0.4335458642829851,-0.9059951074735733,1.3919122508954707
175,0.038497484410012675,-0.7299606516517242,0.8853445810547957
176,-0.6807501529003841,0.6028827879603466,1.6695296578182768
177,0.36693303545130596,0.8422854956869018,-0.12366899024921885
178,1.2977960491574374,0.8132000610716243,2.2244956031548635
179,1.5947538638690717,1.5390445138140354,4.310257731597267
180,-0.4880429317575831,-1.3001311436711993,0.5509735129836494
181,-1.8885387443302661,-0.6163115795313873,-0.5785436796237817
182,0.046644906603915445,-0.7662458140799527,-0.5807906935920834
183,0.22344264312175838,0.37108326898181526,-0.48204192518038136
184,0.07453483821225804,0.43015621705046353,1.1108838440215718
185,1.7899188713626262,1.6117388673900137,1.6736325815271076
186,-0.4572729974146451,0.2913591571916363,1.629043471666777
187,0.6959839687715069,0.5150772218757449,1.8441174264540898
188,0.05066741067724559,-0.7412999003349589,2.724141978869839
189,1.5165439283678745,0.4576573437095294,0.6121146212447524
190,0.38932627016377086,0.2518858021455238,2.114925381535765
191,1.1433188573283004,2.2829092446740167,2.72574825275014
192,0.4867319059980226,-0.2038514791084973,1.6813107607199633
193,-0.8931233413462394,-0.7853301352176296,1.1251772885938902
194,1.0607704244391005,0.3470590254224317,2.6976569215151436
195,2.0883066578156377,1.3432075697126094,2.343672299881931
196,1.729254133491665,1.0708414318968071,1.3824504909660171
197,0.5732518320778468,-1.0182222613193534,1.3559904670812415
198,0.9291571007326681,-0.652712860358996,2.0790990103422455
199,1.5237638889233578,-1.7030220840896877,2.4332333708063496
200,-0.8266828382840994,-0.11153059868191982,1.56211365484522
201,0.3689778144538426,-1.8534542025206762,-0.5753340495290589
202,2.202533651506871,0.942279850392467,3.6454288308540996
203,-0.2968047885864338,-1.1864637125309652,1.1050714074505046
204,-0.866306788184276,-0.6157589468478128,0.968663320622099
205,3.751606680081691,1.1667028636093386,2.8418221034313147
206,0.7361059789704596,0.9506368068348584,1.2254919860564055
207,0.541000827341544,-1.6167257285939411,0.6969640528260659
208,0.8514200666957624,2.3341867909648193,2.761252359264698
209,0.5518293461574744,0.7788068641324649,1.9141744064235073
210,1.2555280781649067,0.8142100958249012,3.00633344263255
211,-0.6445727583782025,-0.8387747259159521,1.021829759958483
212,0.29765786838585073,0.917749941263032,1.7555330272507939
213,1.0332475663696163,1.0876027156707464,0.7275414467534039
214,-1.8674047809703855,-0.36442162009901524,-2.681317524913961
215,-0.7202777138994214,-0.5995124804291819,0.881518087214709
216,1.1860418983899133,0.9117338498704137,2.8425520192210216
217,1.1251367304979105,0.3080004384661455,0.8651363105037871
218,1.7815030906169609,0.1869973303732948,0.6277194630077937
219,1.6826714513929217,1.0928369102975997,3.0390106523008575
220,-1.9807430101262598,-1.538297829139139,-0.040214973779083285
221,0.08720799894916398,-1.9510534074201686,-1.279617282119382
222,0.41523736143513124,1.750779696752896,3.706507525269796
223,-0.3638191698522112,-1.030472735922808,2.9145990448911556
224,0.3570831226584813,-2.1226314377015787,-0.9276671277262293
225,1.662647632478802,-0.7685708539235289,2.3862209073859626
226,-0.33243582114408854,-0.4175185642960276,2.1421303636369458
227,0.6951999226880036,1.2909161192768697,0.4845420857685443
228,-1.4025777673876896,-1.302056264972832,-0.061062060152550335
229,1.9104696819979217,1.38440375687319,2.9720526998692787
230,1.8645432630571037,0.38451716569800093,2.7737826804227312
231,-0.5423132805962337,-1.4590668025784368,1.914101310096087
232,0.8570815105632652,-0.6839435437970474,0.5707171264968236
233,1.368102873012838,-0.3325566336373032,2.5457836535306675
234,0.0695233081419537,-1.1277018334469178,1.6630172341291487
235,2.9321363765463966,0.7249662684833282,2.4921671988660177
236,-0.011583919030648662,-0.8988167669591085,0.6918356004430348
237,-1.6693968244566115,-0.41139557332772636,-0.03900669621061237
238,1.1996911643023997,-0.04948572550217822,-0.5232830564682506
239,1.4341800936561264,-0.5231043549430571,1.1621026700427912
240,0.4798995028713713,-1.1774411720853397,0.18379405164080487
241,0.32457434054512485,-0.024822955405845833,0.30368620054237655
242,1.4444534337643482,-0.7980947625694006,1.3647767495249874
243,1.9312097650404092,1.0403268402866683,3.5062223272886635
244,0.26051018682727234,0.9981466503681694,5.195501598947514
245,1.7872227742461075,-0.7360966305220217,3.1345498903087012
246,-0.5378888202849336,-0.8092375714236419,0.6960319605459806
247,0.23425355546601992,-0.598799583663,1.4261559219240667
248,1.2055739560258816,0.6142894111784738,3.0083996031946394
249,1.2181980468931468,0.4912732147902655,1.2545124415167976
250,0.48195619607860296,1.3540064545180823,1.5248806246975422
251,-1.9004911039365622,-1.574475967012569,-0.7430116803990379
252,2.5085592249917483,0.6105300910787337,1.8707440162950288
253,0.9864603759858165,1.02269181887593,0.6754092783015709
254,-2.91020058343973,-2.6550719926459485,-1.9473296038887187
255,-0.10152569916195481,-1.418100397723133,1.2727740796880362
256,1.1759884826134919,1.149720125053576,2.391707788845447
257,-1.1400539641049445,-0.9347424520698434,0.5854171271662096
258,0.11238894034107161,2.244386183410717,0.30791626057619503
259,0.8543031361474583,-0.005363705549151406,2.068789495765294
260,-0.08342215461461967,-1.2450136230894733,2.2155599986519445
261,-0.16743678389695105,1.1297319357901967,2.2267611554331226
262,-0.4123666236352027,-1.3864459577851176,2.6106165452229204
263,-2.1433733032152373,-1.568561581845662,-0.9979407443267583
264,0.889897249910863,-0.7958350460141462,-0.2713786719918137
265,-0.2514971639418905,0.03608908530968081,1.4970019619975574
266,2.065443815446257,0.4271022768854037,2.4112531218289366
267,0.8235568429173106,0.9832717628017525,-0.40848153417112226
268,0.5110692660226237,-0.8337570973710365,1.3368348651619169
269,-0.9480571872028662,-0.9619117179202482,1.2516042737471182
270,1.4200139226578177,-0.29267146102057734,-0.48314596327365655
271,1.7650783025360766,0.7498426357737745,1.9444200417836124
272,-1.6053616930188463,-1.3574626209616816,-1.5448074847630002
273,-1.205135498862071,-1.7056559712031296,-0.8512769224819223
274,1.1904581964760013,-0.882232081730692,2.657410355934059
275,0.40195692247008696,0.0676274539824954,2.5514046154933028
276,2.882667631955705,2.041714398974306,4.427321934835427
277,0.13053302257893548,-0.8113151405866448,2.4151912919861878
278,0.6953215328279181,-0.28495806965045195,1.7910516589536447
279,1.7294685354717831,1.3218276812077205,3.263290179697205
280,1.8254185043036428,-0.07729787190164213,2.5347128651823283
281,3.0379324491685176,0.9330877845732941,3.6682633150511634
282,-0.49491850791724457,-1.5590922654001296,-0.967863303049974
283,-0.03588862369984969,0.6713573308639935,1.5014296046825375
284,-0.8815339651606682,-0.8154324297628681,1.8250992167356515
285,0.5721768374690341,0.21327424375425813,3.018760166585332
286,0.002296612525717334,1.2977801848165735,3.7520804964630208
287,0.8872273394992729,0.7088806702268238,1.303713681417677
288,0.22424992303917568,-2.274435035666351,0.07270070574403054
289,-1.0915171437230058,-2.20538759652729,0.30959641932777904
290,-0.32325225778676575,-0.3905197843958653,1.6587412117411038
291,-0.8500268216596654,-0.8302423861154129,1.898784692453444
292,-0.46693700682473194,-0.42341322982125756,0.5523905247560905
293,1.045103000025841,-1.0023163024878046,2.2263498228582157
294,1.2779663704692237,-0.5332246391711774,2.483047903450315
295,0.933906871008158,-1.2658309171052609,-0.3208258981098118
296,-0.10676464607282155,0.7563224822069227,2.0765304877478883
297,-1.772029907276748,-1.1490650558058277,0.07473805546737883
298,0.04502437614614063,0.3613812593939777,1.4155539398191734
299,0.8481277618408312,-0.4685613850636175,-0.6994783319218636
300,2.286057389802021,0.8028312359234285,1.459304544681621
301,0.4462105096140759,-0.6948775392313701,1.1006151360656824
302,0.16608817566396272,0.00011507167137216893,-2.007393631386938
303,0.1364671088243513,-1.5250783197077638,0.9088622473771995
304,0.03484017977833471,-1.0227267472420793,-0.008028960289556583
305,1.506461983657502,1.2209740095786088,3.05433691873331
306,-0.10737816184107607,0.5990543911051865,0.171081885168936
307,0.6066372275953098,0.3970780782254457,2.0472426000299606
308,2.4293684252324033,1.058386094256967,2.4868836217978334
309,1.7445233877699677,-0.3399228252582837,1.6911401366084153
310,1.1241759867457966,0.7166752170344498,2.023028615951496
311,0.45525153629245463,1.2980278812234856,2.1685564160963846
312,-0.5958244790007257,1.3639126756423683,-0.8407907721998608
313,1.6646435492380598,-0.33613203062449926,1.1454821661272094
314,1.458973104653837,0.5763173346040669,2.747059838471652
315,1.9238908475900653,0.8633004208815469,2.787006330305702
316,1.594400015224744,0.14133421076828578,0.3222375244634259
317,-0.9532996004235297,-1.5607133663004402,0.14258031933909665
318,0.586542327650886,-1.7352543660530586,1.5840537611258747
319,-0.42670038446131164,-0.8934125760815841,0.5751063780197587
320,-0.2919666607930167,-0.2547502276395692,0.262948860799963
321,1.3153495719782156,1.8706337996682618,4.366639935843821
322,0.24287378589723418,0.9062541650765258,0.8291980234795251
323,2.860990520898188,0.46347602523100684,3.1656526496395583
324,1.3289277723707986,1.343708361179556,1.4624434058332576
325,2.486136611396166,-0.052334136079124904,1.5200188683778344
326,0.03452795357446059,0.5712821301791944,2.940108892435386
327,-2.32075632343953,-0.57682719400715,0.4089992105972031
328,0.19297848176130306,-1.7851583315657995,0.5149689891243875
329,2.533722064991238,1.1931764954490414,1.3442374674211275
330,-0.8437233772507369,-0.6822995808821678,2.465075845019856
331,0.9219780567818101,-0.941370922225585,0.8656267574630432
332,0.7450419864408084,0.6375136998806494,0.2798614697502988
333,0.1607573581779559,1.1887061920529762,1.9208530903792898
334,1.4033712392525295,1.611092702644631,4.557902280896105
335,0.35694297985713813,-0.6599398057494826,-0.27372770205732333
336,0.46929731807365616,-0.14058259400170242,0.0766240050742585
337,2.465084064041611,-0.2704579634100815,2.3455155526765434
338,0.35223420746299317,0.4313486412406683,1.7916915397208866
339,-0.34184076138151803,-1.6286611133330116,0.4469821370061867
340,1.6126431359947624,0.8169162590492478,3.3464245284119776
341,-1.6994226273711353,-1.2921253402036628,-1.2217069775311848
342,1.7247589471630602,0.8569470467585932,2.5325235528226533
343,1.348443767182976,-0.6992592493916487,0.7656113753607857
344,2.1617696971769838,-0.528819487881995,1.99037254177338
345,0.15977479805814188,0.9182605661361195,2.91996793107396
346,1.0990935439279976,2.0807087341112434,3.7507607983903215
347,-1.0943365103628746,-1.7547739766365975,0.3587879411889464
348,0.6396469771781885,0.670098308886848,2.3710434998976013
349,0.7812032578467356,-0.6414889748334723,2.282562543440493
350,1.7631991720576612,2.717729951187583,4.3758832126873575
351,0.7214793489888887,0.01723621743970237,1.8130578626954101
352,0.877164600166256,-1.7661153575744948,-0.37181575976095527
353,-0.5284959276495044,-0.06404965638504856,1.0582536766594235
354,0.2385391385310236,0.8605090651885032,1.040976249300625
355,0.19072836971916285,-0.45097211961123107,0.9978382224398865
356,1.2407767918564032,2.1209749729015774,3.8949821145000114
357,1.3498399762316515,0.9831139823983793,4.0726770672440376
358,1.1811935508470977,0.6145983121624915,1.933537373131606
359,-1.7973024155964443,1.0378845889804365,0.8575796901652921
360,-1.053212878222451,-0.38538092474697094,0.07485202184665818
361,0.371173330610721,-1.4168583466198754,-1.133559871287321
362,1.2945575178426019,-0.051879904038979636,1.2533822271335815
363,-1.009203839680066,-0.3794742709795003,0.33782932263588134
364,0.8008508146089491,-1.819054146157886,-0.05275618642519597
365,-1.0111291895884291,0.2091307042121052,1.5634910580677204
366,-1.0521646218490008,-1.4003725042923667,-2.0227894085924936
367,-2.0999753340176692,-1.8651853960031892,-0.06310212760739331
368,0.1365184939833438,0.7311886517871946,0.11629486058815162
369,-0.44223753962405815,-0.6869888759720194,0.24632716799118326
370,-0.4726100325783653,0.9680557475031198,2.727803978090367
371,1.8587413415454168,0.5435107759050198,1.011948423966877
372,0.9191567469977614,0.28281303988140927,1.6521490372778997
373,0.7585665627876026,-0.42534853362545,2.2572991147147987
374,0.7971073530981113,-0.20072320225726942,-0.5641318689362961
375,0.41363750880416195,-0.5335400688525866,1.1969933350478836
376,-0.44723306326985474,-1.23991721186498,-0.889792085758541
377,1.0592243580452694,0.8098243158749179,0.8812511307635853
378,1.7386590427578643,-0.6712634093941449,2.1189298276760105
379,1.2747634475587244,2.1100523648500387,2.9268833148367164
380,0.1219618787314678,-0.01820381910716122,0.02490023194962654
381,0.22484396895261394,0.2928489872898258,0.5195226997921936
382,0.04596349917487852,-1.9606003023814929,1.048557724079416
383,-0.1704037986917012,-0.4693869357946663,-0.48345022797861936
384,0.6315305674901391,1.0734801879617473,3.736808105723528
385,0.8379599222956706,1.107002009985523,4.170244970702393
386,-0.6568869327186224,-1.076883830670943,0.03073089842611787
387,1.1719778664966203,1.0456941746755624,1.0363000761414356
388,0.794364128889,0.04221800601132716,1.4886376695746435
389,1.519070728762668,-0.3699315625697413,-0.03408038220321513
390,-0.789494498666402,-0.5943910361438525,0.09160683601171582
391,-0.8070978735324013,-0.6513374384574626,0.5152882064088251
392,1.4070716072432963,0.7802144182761747,3.7055198609471676
393,1.1024637633594017,0.9258046200703213,2.1771084245242167
394,-0.8914034915322824,0.16569019772990334,2.233014432543634
395,0.35158405897420286,-0.6000017284217904,0.8056167461868464
396,1.4872432211119873,1.0057659870013573,1.5363773829168954
397,-0.2856312757114386,-0.866484767894972,1.3892077738286595
398,-0.2007696974639408,0.8201725908123015,3.1009721617383503
399,-1.5977762718100856,-1.1698409235485008,0.4071718174989796
400,1.1482738909717094,-0.33665256298816343,0.8825728334337749
401,-0.7916891575993721,-0.9524936725477826,0.6077741278725006
402,0.7020704322974927,-0.7800850891234149,2.1665533805822434
403,-0.040311968962522315,-1.7194115175119389,0.29342124291942756
404,0.3101770710408651,1.0495009779337043,2.9182377153645778
405,0.2732471524907205,0.5172953195141758,3.016395837021359
406,-0.8254113212246825,-0.30165178727481207,0.7177056212519017
407,-0.33993969729902196,0.013486815374070213,-0.9061126809276412
408,0.06938170187573561,-1.2495565954643448,0.889618028775093
409,1.202355061627553,1.0522154901140288,0.7945795899745747
410,1.6505878107827567,0.21871573981497552,0.6376174810785811
411,1.1552310474846987,0.40743097666904887,2.6410731633455
412,0.10659222165269056,0.3720948126608895,2.4881337225874742
413,2.1853340565856225,-0.2764119636038954,1.868648788302925
414,1.6018553794673613,-0.2604481812700702,2.193019286236775
415,-0.9269870608186657,-0.0113824816560707,-0.4624152981273829
416,1.6154201838289228,-1.192858166682794,1.7700386628630096
417,1.0824853164855204,1.5540074180671684,0.8651552477354544
418,0.04215221839702121,1.0777742458093635,1.1529526816118312
419,1.1210732327394946,-0.12863579352793333,2.3036422031095243
420,2.2506244995271967,-0.8402567391129067,1.3264226070059746
421,0.8768126026604841,-1.091935162809775,1.8004858724357877
422,0.5161550161643946,-0.12563999407391652,1.69647457279424
423,-1.4246162478002793,-1.9971949390526549,0.017667556155991637
424,0.6032824148130015,1.5021165561420728,2.0586481952832463
425,-1.3121318536295055,-1.0589443057521786,0.932265441904452
426,0.23815802084805326,1.2252384583882645,2.4069613649622505
427,0.893810225282939,-0.022339263448489778,2.8232948279962398
428,2.2181162974910977,0.396569540294844,2.6766987127301833
429,1.2985536006146106,0.6589048040498756,0.8959979276098329
430,-0.9916231429989077,-0.7089268832259213,1.3015027617201842
431,0.008869796671415964,0.6829357502649842,1.4389151449851436
432,-1.0160921831977807,-1.2803455764325196,-2.261986156977514
433,-1.815756520454227,-1.3321621533693788,0.04724630355828199
434,0.5507961267388577,-0.5947521160145789,2.244598504451983
435,1.791277274882629,-0.5838011363322901,4.190309860875703
436,0.7904509219581091,0.4752800796228293,1.700632190817613
437,1.68703092393737,0.2453310762030672,1.8678401514803855
438,-0.25984406188170406,0.8877866691813436,2.314047148261797
439,-0.7463935989526969,-0.35632489492044706,-0.8537362206993278
440,1.6653499360585666,-0.39765070367681304,2.5626683634274823
441,0.6830144026756448,1.9651200481701332,3.3282297084516457
442,-0.4162349030645331,-2.033753352437697,-0.32506032515405087
443,0.053455488163592246,0.534298175410029,3.082244879387162
444,2.471523124154165,2.5436652705860685,7.075742562648153
445,-0.12915259703944193,-1.1054784994966058,0.37018983948129497
446,0.5506719371314981,-0.6215957884462954,1.979304431056096
447,0.7853338023299496,-0.36320497795748197,1.3997553265198732
448,0.5659913476302613,-1.2397711454371754,2.1416580652696737
449,-0.7053295754970612,-0.5488187570278464,-1.1011076694679
450,0.532758540797838,0.4312203646419622,1.7590008252937102
451,1.728116064531907,0.9890590526924428,2.5671403250479217
452,-0.009823946801327088,-0.5148515556011548,-1.1774851624358385
453,-1.2211198039097777,1.1273129688017336,1.110444667559993
454,0.5287734746750619,0.02008324949456865,0.5827361579216934
455,-0.4272436237233986,-1.9721917213396192,0.16050110267556356
456,-1.0671202771304542,0.42634451119836864,2.427023866061792
457,0.5460762044404314,0.28767076847767953,1.4935647950287052
458,-0.6784905758953981,-0.2890329480875814,1.274014689997206
459,1.4022857917759246,-1.0496167829358827,3.133849370420406
460,3.780491459880009,1.0191926430639675,3.718628092922626
461,-1.5184159067645788,-1.4246804040720038,1.1297419070641062
462,-0.07596223023905879,1.7013958950669275,1.430721175578835
463,1.6460439232868567,0.17165032453732476,2.826984337066439
464,-0.5005699580748428,0.07642047366058109,2.236878127144972
465,1.5948647029702228,1.2784189851374452,1.0875795617409327
466,1.2517002082911093,0.9215478161135462,1.7384267219725673
467,2.3189379712968226,0.6179291309356736,2.367562574692241
468,-1.5248299492733601,-0.4245720688157842,-0.15985820561309405
469,1.6043462785805684,0.43612316430241854,2.0200386245857107
470,0.8052731500514835,0.7950634979501637,0.3543500701744785
471,-1.2310391248534802,-0.9913874686484349,-2.077888090731201
472,-2.0903595961241415,-0.7035770256823666,-0.6399577938375536
473,0.7331946569190899,-0.10353280866867876,2.268451825670755
474,1.0649874474832504,0.1907225994584254,-0.4933718059141249
475,0.9668057873876057,1.1081459006029266,1.3498160188054038
476,0.9417050913048917,-0.07989957170690579,1.337785744987016
477,-0.07991002488910481,0.21715077868734792,2.1019843874747344
478,0.39053980745470734,-0.34503321341560333,3.010841196770354
479,1.5451629002261773,1.4851574358153052,4.869924098709853
480,1.1028685832231448,-0.9095595958998124,1.3664769169598532
481,-0.36429357966144826,0.8832349232837717,2.3399706509746263
482,-1.14642369626728,0.842030292110104,2.7191030645797785
483,-1.2399530483422732,-1.2590426298543524,-0.34375683091076453
484,0.752488577558897,0.4727387384608421,1.0760923548216574
485,0.5909886905229222,-0.11077845653970553,1.9591903498214995
486,-1.5793588426743326,-1.4593868855604248,-0.2283363966569589
487,-1.1070073471447321,0.07379216912507851,1.0964213705276928
488,0.6949303942756614,1.8248793197392703,4.4647071614857206
489,1.3659454291413118,0.9959684076379294,0.22638849801389155
490,1.274416169949893,0.6098714501705212,1.745816589323367
491,1.545382059887051,0.6109556511846185,1.6870541704023616
492,0.28621301616287576,1.196754217912753,2.2840374527288976
493,-1.1138084403778743,0.4811821585131785,-0.030490536093384257
494,1.5358571086284076,1.1554064805660944,3.4434311744949473
495,2.931923764953492,1.042340130799988,3.755326506195421
496,-0.7111827020979421,0.837261595097895,3.127807831861814
497,0.692010009664614,-0.59625851799588,2.6050609503758237
498,0.43048218648085324,1.132295753230162,1.6842535150802513
499,0.673141147526553,-0.4216892107684098,0.7831314662557326
500,-0.15671279887316125,0.19428642479568492,1.439788277460432
501,-0.0499366014731335,1.0904426830924967,3.0109795249057854
502,-1.4800586834052547,-0.5351518391515538,-1.785776120009431
503,-0.8880115932847558,0.6094819545560941,-0.06985054959865265
504,-0.29300042267379844,-1.247021673161266,-0.4200188815366034
505,1.3580831581190582,0.547779445107246,2.971330748358326
506,-0.8896507215128338,-0.9616249083783625,0.7505884768573033
507,2.4606920805137866,0.4667159162320776,1.7672320425782893
508,-2.3075478944100998,-0.8905972977783498,-1.6737896911242487
509,0.05792328145435266,1.010064728424349,1.1019223903945812
510,-0.9882347238031006,-1.9875143030458038,-0.1534861672079112
511,0.9469214573871576,-0.4789156022830944,0.9841146486233061
512,1.0689754467466528,0.84024771966934,0.831372416324454
513,0.44631182077244047,-0.6167421139579047,-0.7383046446058189
514,-1.0934359316777151,-0.8770083242666088,0.05284360972371073
515,-1.9115514417259363,-0.9987740993665017,-0.03941425054766223
516,1.6062823437045752,2.0386545869840074,5.0709787259288674
517,1.091066347662684,0.345029276115007,1.2792986937887307
518,0.2897912542232134,0.5853631928552548,1.865314523702411
519,2.2947455922683773,0.0929994251460246,1.7533900030430838
520,-0.22279453772203095,-1.3337265476668705,0.8817782806824098
521,2.5389025352542482,2.3649296219300306,3.2040003949509717
522,-0.9437733504542999,-1.1091457078088358,0.13166966707598288
523,0.30032595741285756,-0.4314354871536203,1.4116382674508163
524,0.7392641489895242,0.563135239454671,2.23527650512344
525,-0.9955644549978975,0.2323993219102873,1.5786980153652168
526,-0.8350115510643202,-1.285674429700919,0.8174820813671877
527,1.771044153915115,-0.43277712847834954,0.9063878867669634
528,0.6742041230992868,2.120476798795562,3.198448918654312
529,1.1006018045300139,0.9503396388184437,0.22405479055878197
530,-0.653610174041237,-0.5247274582880598,-0.5334218508088351
531,0.24862065156890845,0.3574391955410561,-0.1287786266561451
532,0.9564221892590598,-0.41942370507207066,2.345800585263953
533,-1.3643515579884973,-1.4306779427476328,0.8261724078617693
534,2.6539804955109885,1.0931777787978492,4.61160087269227
535,1.784101610780779,0.4737230486739079,3.2691926752907423
536,0.2943528403759296,0.5253857274870697,1.2051487441240252
537,-0.7445892775830143,-0.3473080177178432,1.6218066271547418
538,1.0386520424267778,-0.31286953539512663,2.0616256733577014
539,0.7601659105875151,0.5148608318816,0.6491009203155003
540,-1.13148789523408,-0.6906358336905453,0.17869050307393103
541,1.7857094849268362,0.006031553898635923,1.2463348877178593
542,0.567130616201292,-1.319930076239239,1.2166565275209624
543,1.3855227252702327,-0.2779887358564683,1.5830021907176894
544,-0.5342941871921061,-0.5153942451007498,-0.03436455234178243
545,3.3751426248078307,1.5682799681137465,3.684026485665756
546,0.11904334147566986,-1.992531513166878,1.1798165440223487
547,-0.5732971735328825,-0.0652836781318059,1.9012678335705755
548,-1.3652677206876613,-1.5534886285336023,-0.7795928127318844
549,0.5800620478892297,1.306176155836817,1.1626544700746984
550,-1.4278630392875242,-0.09947865921702101,3.2699058253967017
551,0.44807805368411113,1.5494590162576112,1.4002266488547928
552,1.631227036164833,-0.22988945838849253,0.43282350221819155
553,1.0644194034096555,-1.0086954324743613,1.5672852036308615
554,0.1582574781582835,0.7147733168899479,2.145204565257016
555,0.37706729760645796,1.0674916207529235,0.853780996170115
556,1.9396872684871895,0.6534033274338401,4.334338881125134
557,1.147241013299922,1.2662996050701185,1.7179592139790716
558,2.0760576912833386,0.859395076181724,1.4739872993352159
559,-0.8688450752533996,-0.3114170591099206,1.8796729695270777
560,1.6527313322205617,1.640114960842743,2.6025766966147
561,-0.09930559043054005,-0.4572016211995926,1.1744903977054975
562,1.863421624365217,-0.5631038086616051,2.261638402516044
563,2.355732421476118,1.1017107214670385,4.146086895710184
564,0.16183710844344346,-1.1844955437741695,0.6745254076096368
565,0.72200229784328,-1.0964315329306378,-0.40295952037175253
566,0.23386969101800076,-1.2159900566249342,0.1400236804219605
567,1.234455813154486,-0.35473760535954113,-1.0099198470179114
568,-0.6304068848568221,-0.29901868657893876,0.07295626091045221
569,0.5231413196531017,0.7097238451458838,1.4725800076283928
570,-0.010714805751419199,-0.38955725960057425,1.5154470980735253
571,0.2749595566323443,-0.05209468889583539,1.267717121438499
572,-1.3180835419841195,0.16367764478646307,0.726537168476502
573,2.1336926860186605,-0.35931507364025644,3.1057619476915
574,1.219684877864171,0.88921205105989,6.628639473502658
575,2.04809297717403,1.43071946779089,1.6037054581698593
576,-0.4613689390617383,-0.7024841216843202,0.7361110327002145
577,-0.51822340272597,0.5178267729485261,2.681655717919355
578,0.9107553117405074,-0.07867212740338544,2.524479109521958
579,-0.17953539485002912,0.27412186684340467,-1.1202406480477687
580,-0.9415865274218521,-1.0782155493747012,1.303982180042477
581,-0.12295845890413867,-0.982424697098608,1.867787003856607
582,1.2431611259851887,1.2613943629849669,2.791304606201492
583,0.40113133249150046,0.16116751378513036,0.7691731919894276
584,-1.2630030969384922,-1.0009015280029014,0.5551683869501629
585,-1.3192931248311948,-1.3452089776590452,-1.2752059314873332
586,0.921908390242971,0.6031475714545507,2.9014155799165797
587,1.9119440267971144,-0.13160640000409093,2.187024053884944
588,-1.1795673563711366,-1.0330306797217053,0.7482170820797827
589,2.413474570977047,0.7520644365812946,1.6200063024259421
590,1.09660402586593,0.7373773711260488,1.1045422683888932
591,0.18418927864961382,0.13022968410293287,2.3119714617228615
592,0.22498317660124398,-0.4593407528525216,1.4616127331542739
593,0.6754920405985831,1.9533486819856265,1.3834124945452264
594,0.973455457389376,-0.8504406398538944,1.9136477984155915
595,1.7773880125469665,0.877571531573339,4.088275086040097
596,-0.41540227902053795,-0.011737476391259254,1.7628556954444004
597,2.0214166609857034,-1.2478840430657854,1.7100212206711247
598,1.1001071900980464,-0.9170672461455628,1.502674098716199
599,1.9873343224116229,1.4436458945037174,1.9809483081766543
600,0.3730977540514361,-0.6943946638310597,2.6596120108439982
601,0.3288262310916299,-0.3046876819702795,4.020754697668214
602,-0.12137953510480082,1.7334952090224895,1.7066059586528708
603,-0.5574244363352516,-0.513839032440119,-0.3560258987628031
604,-0.0462921617186402,-0.24684588286096104,1.198008962960722
605,-0.297986053009593,-1.421960370263173,0.05525599198373658
606,1.8332349089496107,-0.2851105171574598,1.107842371873903
607,0.010641246468498733,-0.31535977201622417,1.0033755459189222
608,1.1363046636981116,-0.3063468151210521,3.4056722100751453
609,-0.3386716829334947,0.01704852635747989,1.7701394474789192
610,-0.33062377704721596,-0.6864796328233433,0.3247505131017294
611,-0.1944053514248858,0.4729534373571493,0.4264372916586976
612,0.5139258436116706,-1.1845092364352432,2.4935023183650133
613,2.0091897326332173,0.9862836936104189,1.9596020057241548
614,1.9757715502335653,-0.9739980612020142,3.0711235324728143
615,2.869236887437924,0.3041190791859837,2.4163726175360036
616,0.9958468146847766,-0.3669445266280773,0.5969031528923644
617,-0.1985201006977727,0.2741094365153401,1.0775770549489228
618,1.7768470638239504,-0.455624853972092,0.44001916434005395
619,-0.5683584484017208,0.06034510043519608,1.630091926152368
620,-0.8329817438333802,0.3270342802732729,-1.1474027596391203
621,-0.6739976937277379,-0.9620750756668541,-0.20057538613854736
622,1.639427175785277,1.4925848844463254,2.105639490351229
623,2.546864943520809,1.100519451784372,2.764961788565115
624,1.2616484461262862,-0.006896534158333717,2.115270436957024
625,-0.3533455909161379,-0.3402960604062574,0.6611113092111558
626,1.5238174258381902,0.47358820842657,1.2268153621377949
627,0.9506075949749964,1.184355532096906,1.3533836948918396
628,0.7993453897551474,-0.7498151068130618,0.7060788082366558
629,1.9840679297857324,0.6245894475784903,2.1846899593908784
630,0.7532770450537014,-0.9146882682590011,1.088064186290105
631,-0.4443230762990884,-1.269600410652685,-0.09259756672182906
632,0.8694811639006849,-0.4941810019482969,0.9416045786045785
633,0.9074652735254002,-1.933508962863893,-0.8925404264415944
634,-0.09160138761015435,0.5374202346099263,2.7058509873616914
635,1.2669658151701313,-2.244637237817322,1.4195827031419936
636,0.20852174561603648,-0.041242743432706785,1.806760683131539
637,0.23453520217143842,0.9594652151678027,1.848820834320812
638,0.0038152690909281084,0.03292807860368573,1.8851144281244463
639,0.7207429657588472,-0.17697048751777758,0.8821021423634061
640,0.24061975992359091,0.1217411553436343,2.702794793267245
641,0.05562939703638023,-0.570708521015595,-0.0902917542276914
642,0.586382203299175,0.2779311320703075,2.2062814173342424
643,-0.18774549142877717,-0.8464888384338322,-0.6496291041293616
644,0.6467898064193484,1.2801055183279118,3.2192972744666566
645,-0.4024277687183038,-0.6740186354713037,-0.9428381785026898
646,1.0927438885566967,1.6927226975758793,2.561934495740024
647,1.1751844514277197,0.9843667283822163,2.0205414674128117
648,1.2479767053423072,0.8230843179308749,1.992804320025444
649,0.8826137344891922,0.627529349566203,1.6808305202779703
650,0.5183597287040304,0.902769215584012,2.7901107803051812
651,0.3877853386855477,-0.7497616704284038,1.1930554145562708
652,0.7953969352384962,0.49589103165280923,1.6862439634676358
653,2.3811626653308515,1.1221026934814748,-0.19371873118783703
654,-0.3659741809037187,0.2321912249996863,2.669917751384883
655,1.7079112949744775,0.42589976624687864,2.309164895614791
656,-0.6459863206414564,-0.433410031927571,0.970576041482366
657,-1.0172713707045364,-1.6725185931900062,-2.0798161855883643
658,-0.6105820271895275,-0.6063672361335779,1.2117214703825012
659,-0.6377286884271332,-0.45389129817323887,-0.3074513369193417
660,2.232892450059038,0.6595159279787246,2.596438336564277
661,0.8004099265809462,0.3911871700646287,3.5416560010324325
662,1.6266946185946511,0.8841345780267851,1.9853443248819969
663,-1.8826301746975753,-2.4194822651870167,0.618606603988422
664,1.0503574475375126,-0.30739109334783243,2.6541990857410243
665,1.9556477960025453,3.118788991136316,4.270551561251243
666,1.298198169748098,-0.9848725371071139,2.5994308774211197
667,0.008298123291167858,1.0684890312596205,3.356842443187318
668,0.8988152901041437,-0.44666419448929073,1.2401570473709158
669,1.7674550720349766,0.4028135310617777,2.7049503180392107
670,0.19268516854097453,-0.6261018721788866,2.1784561584195212
671,1.3197760939509227,0.3792053964122113,3.677920827520015
672,1.3533960577677004,-0.23403902928258666,2.318130708655403
673,-0.6749116304116869,-1.2006445402284993,-1.2155519740137692
674,0.47665178931464447,-1.3600533508520325,1.488981254507503
675,0.10194355601256355,-0.2226593920087228,-0.19539565025999261
676,-0.3126636589749827,1.2226911377153173,3.080090237404462
677,1.5502250759656717,-0.28243884698269034,3.287664310041536
678,0.22279983039507611,0.9703357842774019,2.299663122586236
679,0.9287903315931367,-0.9095113154904149,1.548143080254965
680,1.0673107026292517,-0.14881439750966569,-0.22189124479697486
681,1.1605216832473897,0.8295709997889735,3.4821296368109045
682,1.4040741769361667,-0.044936858102604865,2.9219751056993317
683,1.4805229006835128,1.915064826618546,3.7676802329256933
684,-0.48128010641181207,-0.8370580170596751,0.5229544299630323
685,1.6842949279308597,0.4916524756337619,1.0755331402466253
686,1.5705384913491371,1.3514343158350555,0.5995843435648149
687,0.9131603365553806,0.6835008922206208,3.158275052674082
688,1.4364834314834218,-0.6001067147895981,2.9851142116850733
689,1.006550786110561,-0.9288050603829918,0.40435386787292327
690,-1.627994170585708,-1.1855408416249362,-0.16989849428011553
691,0.10143900041695653,1.9530652515119813,3.231628649656504
692,-0.321208638417462,-1.0416480662317407,2.191040197389774
693,-1.063183961645121,-1.965750653668815,0.7353262848434188
694,1.6984787348341532,0.2976969463881087,0.41318893374956767
695,0.6984791422154613,-0.009617643066040562,2.412118463895123
696,-0.7590633721516392,-2.039572055659653,1.027541418760692
697,0.8405678737344894,0.7724629114125404,0.026723797964354534
698,1.3353578193890288,-1.0271056641047691,2.216585828998961
699,0.7132945702471879,0.9414266027352601,1.9214539682353606
700,0.3322776972702198,-0.4569093078652705,-0.7222424630207858
701,0.048881149948731537,-0.7319301716684502,-0.31129454894170766
702,0.31789571129892985,-0.29634066736808656,0.4569110287054312
703,-0.6457300046413285,0.11908815395691909,-1.4213912787208105
704,0.5464895000775615,-1.378878410232926,2.420245535561167
705,1.0596476808089386,0.8159276351082928,0.6017579813019123
706,1.094602091760799,0.19694947929347045,2.60338688086661
707,0.8065679905912903,1.5991976812161477,3.1611210922539907
708,-0.0827278629815007,-0.4036270898240867,0.9250634351937532
709,-0.13788355838430133,0.6177240679672799,1.6456722391790546
710,0.2296356302076012,0.43720103613419437,1.3606601873724609
711,0.7555723785626763,-1.2525873235750797,1.3504594447603568
712,1.1629348619620845,0.9570084453528153,0.6146751519379288
713,1.90598022791402,0.25199645760265715,2.8627726116520016
714,0.08770899234980539,-1.3536778821763922,2.024441869321099
715,-0.1974884147909558,-0.08513379460525733,3.498422182281518
716,0.5749379255049396,-0.2018397713724855,0.47796204232601
717,-0.929103197086909,-0.3420643653375174,1.4065786946330263
718,-1.757470147363646,-0.4798407057497652,0.2019973844083774
719,-0.5899011082420481,-0.7923201709272731,-0.5282358593366585
720,-1.1532071891260107,-0.7765221272489606,0.5245039916934833
721,0.16149834272100178,-0.7587258852036625,-0.1493101729041684
722,0.3135544571573039,0.12614891779404533,-0.34248015810996635
723,-0.14890627200596684,0.7520568840705377,-0.19409508310057905
724,0.019970996579167233,0.13952156520788736,0.5270492865228023
725,2.301738505095539,-0.13467750447284083,2.783182610913627
726,0.9644738159492621,0.6701298642541014,0.7650803545153801
727,-0.4829428576334812,-0.37809970235759693,-0.5743989329931899
728,1.0451527165836256,-1.1894717483374224,0.5568831963050049
729,1.140251774051639,-0.14120346799828473,1.104375691654496
730,1.5953878847133334,0.8301525644674902,4.016222516439999
731,-1.9103374051081488,-1.84854536616202,-0.3875126026766957
732,0.8352198470495074,-0.5725674408879154,2.188148461301756
733,0.946210683303156,0.8216550804740209,0.952973080624747
734,0.8011086600243117,0.2860257402862212,1.6550169294577626
735,-1.1955963010729729,-1.4391781859765425,0.46019697176497976
736,0.45265172787044156,0.7576740717185135,-0.14011583421971952
737,0.2438038265678395,-0.28869253824541863,0.519507081543846
738,0.03955270642534692,1.2673886485623778,2.2350041828966516
739,1.6514439358614934,-0.025847389517331024,2.3764768153665194
740,-0.1445425951684307,0.4322587942338321,1.616312182485523
741,1.909266544002064,0.7855740050838242,3.1459264530629207
742,0.9531130754824395,0.4239271071703921,1.842600567050043
743,-0.6265679087665563,-0.21147703572386373,-0.1270600260972825
744,-0.743732368102459,0.4725721053338203,2.914843807212451
745,-1.6060387454126732,-0.41343024681082113,-0.8972001720257472
746,-0.1392715335284147,0.12152451352776117,-0.4087874563611369
747,-0.7801384011431256,0.46927611224278726,-0.2984895006992977
748,2.3524232299772914,-0.5192083365701152,1.2824622045082164
749,1.6589664094255814,-0.2863401879288741,0.36053934010013855
750,-0.5891035007426857,-0.28038777783291835,-0.37961818258618263
751,-0.9409782428942174,0.2832624677516515,-0.962410096853587
752,0.4271244999885618,0.7617540507166516,0.7433069560670944
753,1.520543254898631,0.08378104337553008,0.6346971595252688
754,1.3013465693798316,-0.836027682306594,0.23851510763596362
755,-0.1313190591541371,1.260697457525985,1.1579990496265522
756,-0.10562453914096881,-0.1608243821857473,1.4372059770455539
757,0.5718235230628796,-1.3866489663394028,1.1113457009350893
758,2.6631315054708677,0.6727070652281091,2.777318752928003
759,0.5527235159666543,-0.05604057261405616,3.0084448626334175
760,-0.16809483525803492,1.8435734202450849,3.8773660336051146
761,1.6634228097577037,0.37611553257630187,0.6928177087852222
762,1.3847109743746913,0.5996472637294699,2.5710433550452625
763,2.1780751987324236,0.6425967458488772,2.721404385587533
764,1.9575776684545523,0.8918120727053,3.8013338981128797
765,-0.2853402361274757,1.2591890043678566,3.7190511202486087
766,0.22762224407307985,0.12435434194249002,2.7230333796332817
767,1.5144311027626194,-0.6065765813230694,0.983393274538483
768,-1.2968398962600811,-0.5324173148760111,-1.3480819875927028
769,-0.5917371424390208,-0.18224977644855236,-0.4195558497247146
770,-0.40218295368266843,0.4434669050381349,3.338269713768229
771,1.430746225199515,1.1602169115233447,2.747568231487285
772,-0.34908791096315983,0.16011177522351908,-0.40749832974320366
773,-0.84675109648749,-0.8700465866329671,-0.2368647583663061
774,0.47105753103487635,-2.127244616811661,-1.7309589053090442
775,0.45868015605873835,-1.2346178172203233,1.7161067387132392
776,0.2284425153478783,0.10828348298936294,1.0045758174804402
777,0.47275937620728525,0.20711374906547667,0.002755944824795596
778,1.6981971607746797,1.36991420270176,2.324627576543443
779,1.0317565444989891,0.1092142251683292,2.075694797360299
780,-0.14359824659370846,0.7856004600814611,2.153152425616421
781,2.291700877238319,0.35753885827702725,1.1212125746885095
782,-2.8338608958917044,-2.8565357125174367,-3.168948895417717
783,1.0892395430351163,-0.3349380197822677,0.09154683303982328
784,-0.8684130957446341,-0.219369907502839,0.7417822752860779
785,0.17729700751236782,0.02309982898279484,-0.3423908058241239
786,1.2248268901320716,0.18779301446509508,0.5561509902267151
787,-0.9389082692780887,0.10013827097426488,2.9508783200611335
788,1.0628901496006353,1.0107246493208222,1.9256017601648643
789,-1.1132918671709402,-1.8253694650600532,0.30395785406689246
790,-0.5107261787905584,-0.7338776655913507,-1.546039825012946
791,0.20931194855046412,-0.5449887744552045,-0.20305101002028772
792,-0.2719444069548394,-0.007685019694601159,-1.1616115915157916
793,1.0517018650360983,0.38878810691073645,-0.5951138001269326
794,-0.0034911070158031576,-0.5165042244826556,0.3424778184813642
795,-1.1395728126224949,0.049308835093212544,1.1362393850548023
796,0.9369053352518366,1.8414111589633242,2.0673943587943393
797,2.3245273273558635,-0.16980553858888908,1.4342100293242024
798,0.7164248804245519,-1.0175198479358887,1.806348411525829
799,0.22566187603295196,0.14840182163585627,0.8949706839333077
800,-1.511803977905906,-0.6596289563038716,-1.5654317252197611
801,-0.36738679833336235,-1.0246788695265863,0.19652053140345077
802,-0.5091916926038512,-2.1858990499503332,-0.5879784690415255
803,-0.10145862144812182,-1.1518694890366423,1.1196198434530689
804,-0.4438911386874942,0.4401686150137758,0.8592110996131765
805,1.3796296487034123,0.733983378919715,4.415714688301591
806,-0.19468506970289107,-0.1544347250747641,2.2947294228858595
807,0.35497241271116914,0.3906514468450557,0.2108457786081634
808,-1.6221518905089565,-2.1471138439191675,-1.2048268109034401
809,0.9005910458366331,-0.18839427456007377,-0.5347676654775336
810,-1.4609033936792561,0.5350518441785463,-0.6835706361855978
811,0.1424212569761623,-0.08528312931958207,1.4820098651781928
812,-1.2712879779834236,-2.477754712727788,-2.7084464944461466
813,-0.7765903661993826,-0.04555289619006175,0.5680074665352308
814,1.0332772505597763,1.1783980241593819,3.467403374194121
815,2.000020123116534,1.872354668778365,3.6312056112169264
816,0.8716145238068151,-0.08637939066179698,-1.1750674658383802
817,1.0499803444336273,-1.990093994691605,1.4024009284303884
818,0.9617498654770544,-0.04367806049324636,2.1986823370077087
819,-0.5795972130841474,0.9819451341791637,1.7183347933897837
820,-0.8560875379406234,-0.7360227024651026,-0.06938191467290661
821,0.3805260941338726,1.098348250030968,1.7230635845197333
822,0.696006999648103,1.3627360782140792,2.3687579730436394
823,-0.3203762909511025,-0.21272670313056433,-1.2843712121094786
824,1.8804140819863613,1.7433734947428197,3.716752773922425
825,1.3564540271702603,-0.03967176782842407,-0.08461250018135658
826,0.2776416521623991,-0.1054380856855478,-0.011227712791494482
827,0.10013488075047033,0.09145541077121543,3.105129877441247
828,-0.5906933544606213,-0.1503478667547327,0.5919796790163736
829,1.2206432357836021,0.26508044022805494,1.3812984665825134
830,-0.0025149685353608175,-0.16883398255146556,-0.11811153798477093
831,-0.6192445479967439,-0.4424335009534758,-0.6016951215488631
832,0.521224745872619,-1.5058780357153088,1.9823543417801
833,0.024566083697468155,1.4030159662165822,2.888745343401909
834,0.5283732881174334,0.12749050327002137,0.8343745638746531
835,1.1118382543240886,0.7660533751641488,1.7023291721845764
836,-0.166112981005767,-0.4947497144131915,1.060341817356821
837,0.7560400059926535,-0.27109611025881936,-0.8950591576507014
838,0.9484498773442595,1.2762088567594279,0.08519796714386785
839,0.916793505695009,-0.24592087488263617,0.8765481160765283
840,1.4561581377420914,0.7292786147289254,3.464810211835908
841,2.0982260268456328,1.2461803460174539,1.8715196495757838
842,-1.7078370242592276,-2.6750127265365737,-0.7770106616552048
843,0.3164883757355419,-1.4547122847212353,-0.3534138349137568
844,1.0760996003201493,-0.306513783778271,3.2969547393897076
845,1.8446785889357367,0.7737644386182241,2.197150497531803
846,-0.3621628401187634,-0.4240572390130687,0.34506051585057385
847,1.698221454293905,0.5618870398637333,1.5755526451027948
848,0.3669377223535617,-0.002968301090088904,-0.4325531984626513
849,-0.5703308620894461,0.2897194177885639,2.2683875853401547
850,1.2342685056732032,0.5574069244106813,0.8117865317030881
851,1.0721408285895855,1.392610844173615,1.4818848191331275
852,1.8831155171955245,-0.22781423917126895,1.6988078644114648
853,-1.2003903119284434,-0.4585215783463227,0.26797900649635753
854,1.7962036177232426,-0.6754920417664484,2.704339598638404
855,0.6965648232612213,-0.4779824576358316,-2.1337974978752547
856,3.423490381058305,0.12510931243894322,4.703178490746565
857,1.1629893014331762,0.8766517275493276,2.876154175037354
858,0.5943148609536026,-0.4055260901887597,2.9818777531576313
859,-0.4465853584789019,0.7285178261456081,0.9828665312248075
860,0.9023298611604685,-1.1853959205513407,1.38635583660154
861,0.8585924690020847,1.0908797295786559,2.8596905918582465
862,0.645067268568598,-1.335169921034407,1.4486735947714664
863,0.10391707062888333,0.01771954837787103,-0.6313989190206213
864,0.46505192086593883,0.0901080582650832,1.106573025334347
865,1.5129617058705485,0.17097186443905404,-1.712754094898002
866,-1.850930952017082,-1.5018527198845397,-0.7686654478767683
867,-0.6109404117643993,-2.421698931069768,-1.3905386993056448
868,0.950325842692973,-0.2531215344917036,2.956856746143646
869,0.5506992049497583,-2.2495481506575397,2.4494530233308884
870,0.23468319016136385,-0.6901048761288722,1.7326991500345228
871,0.5973027849551021,0.2334054393653893,1.183155201913777
872,-0.33595470019599305,-0.44335062854668283,0.5463987234217491
873,1.1616100801809273,0.5995852697056897,1.7069506564602919
874,1.461638007417922,-0.3067836595939979,1.69949926957074
875,1.6744294301336533,0.4483754432690858,0.9430679300229604
876,-0.7843335440921355,1.317476713057495,0.9847289914485964
877,-1.2073404022410812,-0.35512774938074265,1.0226654016339551
878,-1.4989117514994832,-0.18396603384668547,-0.598576947345459
879,1.940358001634273,-0.04293064773847979,2.8087219546235938
880,0.6399206172741234,-0.13375770881037385,0.728159110410163
881,2.6685697787674734,0.5594266421443255,1.9498501046683292
882,0.4367683235158324,-0.12377329335673186,2.6821708175383656
883,-0.026049114390280348,1.0995229811095222,1.6691330042171475
884,0.638213122237019,0.053826546997696345,0.6977033985138938
885,3.5811342565434563,2.338968452272018,4.028645630789935
886,1.8100150197743043,-0.07577744862010839,2.6798876751879264
887,1.522344163079934,-0.524701781011561,1.997581464236334
888,-0.10042035165178564,0.8101570270709959,-1.2719715918815395
889,-0.5673645736628006,1.034951874390968,3.0630364582489253
890,-0.04133384070463886,0.00985377466760886,1.1781845111853402
891,0.5000918123033791,-0.8220134743374076,0.2391805865235989
892,0.7434790698059703,1.4354232065018495,0.9836274810004071
893,-1.1982562285373315,-0.3677019534129804,-0.36243577381561554
894,0.3330335793859535,0.13906254964157785,0.026631087927890817
895,1.6966492294434214,1.002531668761976,1.5825525362641908
896,1.2309783984517675,2.155981964230841,2.3285695426229602
897,-1.0902279393132992,-1.126282009452572,1.4338224872457883
898,0.40413626305714057,2.3521627826890716,3.751912050824602
899,1.0046577482009567,-1.00871758681406,-1.7393208593949356
900,-1.153577637881794,-0.9110427341579193,1.0205239707734015
901,0.6801179954347902,0.8201001550441362,1.111563985206248
902,-1.1185793865971643,0.8394112930402683,-0.9661707052372966
903,-0.4362838501213826,-0.6582740929165938,1.0190115274315592
904,1.3580472701124564,1.6005985698151097,2.5228555962347827
905,-0.8486430089309056,0.8858142312090328,1.8941638814061064
906,-0.2594459704533646,-0.9857470973937953,0.3280983084941958
907,0.5473105341318086,0.2360959500170532,1.3318261699146239
908,1.0117431546719042,-1.692922238029807,1.1255140576776346
909,1.4223347464865381,0.1514781239471562,3.42230099785818
910,0.31233353823170484,-0.6023904158686686,0.5778716486564682
911,1.6343382730691862,1.5125750114531886,1.2603368187811153
912,-0.031852754289288895,-1.1676490753733035,0.6316077545618304
913,1.6358174156109755,1.539996057335038,2.866715167351175
914,-0.6530613172909225,0.9706182836394932,1.8469799657532382
915,-0.7635569510961433,-0.8662983339376158,0.535639526379331
916,-2.1202081910738246,-1.3010281109325974,1.78963184229067
917,2.219673772953107,1.4452931277286711,1.7348366796926622
918,1.235681020770606,1.6472539023644657,0.9480238826124393
919,0.5195685911994641,-0.38393455964742124,2.0344642816506266
920,0.671700700054611,-1.9101703698882437,-0.10264918628475453
921,0.9843706879786185,-1.323950728951354,1.4177161384870525
922,1.9783040270447478,0.17000416206844152,3.8215520941720986
923,0.5325610627133692,0.8189022876332835,0.8110757054279103
924,0.08896475452510769,-0.9263139053965072,1.572836944582271
925,0.5505156836432107,-0.7593409618431023,-0.053644239217645995
926,0.34924930861714165,-1.1567447038345609,0.3030877562183771
927,1.459230018842646,-0.41718367894926256,1.4316591529954588
928,0.3186484241347078,0.32972162573068503,1.810600961626678
929,-1.4795043162828536,-0.5482232009057004,0.6893297674633473
930,2.458915765902938,0.24552335398443553,2.7228949202434474
931,1.7220941282957456,0.6870567085289475,3.5350089866562104
932,1.3607413154995907,-1.1988327587240466,0.15416659777452374
933,1.4863093526368558,1.0021456281005692,-0.47978733023906994
934,0.7525375687357465,-1.2994712812847145,0.09424274823190165
935,-0.29783623041182417,0.3626695508816766,0.6933704028074942
936,1.301397011292242,-0.01605898253409555,1.2385071928782023
937,-0.32571859711706747,-0.03774670471824301,2.263752675838055
938,-0.25207127595563117,-0.17782434941954134,0.17964855782172973
939,-0.5611168399233919,0.19622768312632646,0.8698101230431825
940,0.6418528174564592,1.1656181279131337,2.5323011131304534
941,2.606629739109203,1.6753413422206789,3.0698543885113816
942,0.18069606448946285,0.6683803526550337,2.4495942647126037
943,0.14498200152870777,-0.35713723235511646,2.975468350566984
944,0.649564791828718,-0.0310374892554399,1.2162348430626522
945,1.8427926825658045,1.01464939489222,3.7837648893455844
946,-0.5353569541665752,-0.10501106908019604,0.2567074692402573
947,2.3295142937497233,0.9745187956814105,3.876907230595131
948,0.5547752362019284,0.45758012106664187,3.2742697704943424
949,1.1115235383540245,1.3959535012974402,2.6238362012328666
950,-0.29626167800642167,0.24390231298782863,0.08899192575829562
951,0.7398552512703034,-0.23958215555807075,0.4670654321370534
952,-0.43212387206976355,1.0978986029735003,1.3524302647274125
953,2.3990268310681433,0.16936325769117155,0.970845942934687
954,-1.467500673442448,-0.31276938557492345,0.16025677691187673
955,-0.595310751977121,1.1831487098957925,-1.5697628161467052
956,0.5943434902130126,-0.19862997768545895,1.1089813923399614
957,-1.3187333986175225,-1.3191920318690997,-1.585380789825298
958,0.5052605544357295,1.2643004975091465,-1.5614890564572705
959,-0.814400969927302,-0.06748366694634354,-0.4148965894593085
960,1.2927650292432193,0.44883846893314583,2.4444724260070907
961,0.8097839568991628,0.8256055006306012,1.7145583512162281
962,1.3890673384520578,1.5936757973032287,0.7780041950937354
963,-0.6473032486558186,-0.4851825011235992,-0.5719155222283603
964,1.9592011871178208,0.8941296974625547,3.1099989701748436
965,1.412942084901526,0.055981312902715095,2.702230518556851
966,1.9981903406183046,-0.3591105731371748,2.6747857675083244
967,1.1679679863724142,0.31628741886995854,1.1287829487246273
968,-1.601262481653257,-1.2399994950251536,0.6033864728352148
969,0.7998256965993442,0.1754279462165801,2.896164211603531
970,2.4074040702428916,1.01776482801392,3.5917976092777897
971,-0.900042075832318,0.13220766113950733,0.17432784434406695
972,-0.4008023216420847,-0.6595313755327349,-0.40941353827282334
973,1.1916028691354943,0.7896434213652836,2.524093431892746
974,1.5207608407156041,0.3028251000587771,2.1791400188472068
975,0.4197638726853151,0.5936820951423075,2.065574384493433
976,1.3379094712807205,-0.40563506822890105,1.8527282373018108
977,0.604752134882057,1.0467161085773973,3.4311508407122875
978,1.1735866389099265,0.17232083699056688,2.634639869878736
979,-0.17935361931624344,-1.003705924699363,0.3360649724789574
980,1.434509039020992,1.4484638723120262,3.4015873097727662
981,-0.6772304030293474,0.2075685869470952,1.3587228364892214
982,0.6968239819134876,0.5118607700296282,0.4625008380269864
983,0.5571391538386716,-0.5022611855972708,0.6914832159404953
984,0.2767755940849943,1.8537040600396482,0.3796678494330702
985,0.014571401016819363,-0.26257665743891867,0.020151943695279728
986,0.031080953765514563,0.07474120022214271,1.2531588333149384
987,1.599325160720333,-0.08088121442629156,1.0920447365341794
988,0.027087427173000445,-0.4886839466559965,-1.1449677413236348
989,0.2504316932134012,0.8261620036683577,1.1404413051817182
990,0.8854050451886663,0.08821351538121854,1.6478718517985176
991,-1.6501124492665311,-0.43585663432585764,-0.4491743988351903
992,0.3283882246255612,0.09343755111394801,0.8735225781354435
993,1.7118044664095193,-0.5393743085214764,0.7142391945407265
994,-1.7516417527859895,0.792461244821014,1.4352183715407418
995,1.5540325993026984,1.490391610874515,4.214161969688992
996,0.6397902383148524,0.20278020594485133,0.6654458668039764
997,1.2804767956794634,1.4454106331437593,0.9263771234351643
998,0.5012238286071429,0.4419052447965962,3.0405734604693526
999,-0.06008271116172019,-1.0603080537058365,0.627395603075682
